<?xml version="1.0"?>
<opencv_storage>
<opencv_ml_svm>
  <format>3</format>
  <svmType>C_SVC</svmType>
  <kernel>
    <type>LINEAR</type></kernel>
  <C>1.</C>
  <term_criteria><iterations>100</iterations></term_criteria>
  <var_count>1296</var_count>
  <class_count>2</class_count>
  <class_labels type_id="opencv-matrix">
    <rows>2</rows>
    <cols>1</cols>
    <dt>i</dt>
    <data>
      0 1</data></class_labels>
  <sv_total>1</sv_total>
  <support_vectors>
    <_>
      -6.76396415e-02 -5.11118919e-02 9.98272821e-02 -4.99071665e-02
      -8.64143521e-02 4.54541259e-02 9.91497189e-03 -3.49902883e-02
      -2.60755662e-02 1.73578523e-02 -5.49667105e-02 4.44371440e-02
      -9.12142396e-02 -1.64033875e-01 5.59309556e-04 5.88419288e-02
      5.52519709e-02 -3.49324420e-02 -7.81107321e-02 -2.20414907e-01
      -6.23453408e-03 -2.18209694e-03 -1.75078772e-03 -1.33303016e-01
      -3.09784468e-02 3.82837243e-02 7.89038986e-02 6.74290536e-03
      -2.75283515e-01 4.35174024e-03 -9.44444910e-02 -7.23016774e-03
      -8.70766491e-02 1.24078747e-02 8.52957144e-02 4.93798517e-02
      -1.30783439e-01 -1.26702543e-02 7.17564151e-02 1.23295365e-02
      -8.05905536e-02 1.32495686e-02 -2.91315448e-02 -8.37276429e-02
      -1.02366708e-01 -1.47111624e-01 3.43966112e-02 6.05195798e-02
      -1.28973750e-02 -8.38874653e-02 -1.09162070e-02 -6.58510253e-02
      -7.56287649e-02 -4.93508689e-02 -3.32209021e-02 -1.13662198e-01
      1.29014850e-02 3.60624194e-02 3.89374942e-02 1.44748716e-03
      8.55026674e-03 -1.92652401e-02 3.42825055e-02 -1.20436519e-01
      -2.70423591e-02 -1.83402970e-02 1.61114726e-02 9.29008052e-02
      -3.95171158e-02 -6.32415637e-02 -4.22115736e-02 5.51488139e-02
      -3.32364254e-02 -8.43104161e-03 3.11287995e-02 8.68381560e-02
      2.77694277e-02 5.55410460e-02 -4.13174108e-02 4.55114506e-02
      -4.00971854e-03 -6.02206141e-02 -1.17417201e-01 2.67367885e-02
      -6.28315657e-02 -4.44670813e-03 1.09116055e-01 -1.26699144e-02
      -8.25425833e-02 9.21885576e-03 -7.61828497e-02 -2.70832982e-02
      1.08678184e-01 3.85304429e-02 1.60344206e-02 9.03271958e-02
      -3.40186991e-02 -7.16569200e-02 -3.43682170e-02 -2.83574332e-02
      -7.22855031e-02 1.01237774e-01 7.92981088e-02 2.20766617e-03
      2.21942924e-02 -5.83046041e-02 -1.10975526e-01 -7.81818405e-02
      6.65662577e-03 2.88089775e-02 1.00626517e-02 8.64263438e-03
      -1.35431234e-02 -2.95762010e-02 -7.38289431e-02 2.80573685e-02
      3.95140238e-02 1.04255505e-01 3.12891393e-03 -6.32371427e-03
      8.21834505e-02 3.86288762e-02 5.44194244e-02 2.45899092e-02
      9.10195559e-02 1.47552758e-01 -1.76137611e-01 3.69580947e-02
      2.27200296e-02 1.18488424e-01 1.11075804e-01 -3.01769674e-02
      -1.37406647e-01 -1.80383563e-01 -7.94499591e-02 -9.94794294e-02
      1.23227797e-01 2.53603165e-03 1.46955892e-01 3.11855432e-02
      -8.63965601e-03 -7.53997266e-02 -1.66346267e-01 2.31667422e-02
      -3.84024456e-02 -1.00031853e-01 -7.27232248e-02 5.18716909e-02
      2.85965316e-02 5.78832105e-02 1.28713191e-01 -1.28838830e-02
      4.33445312e-02 3.50033082e-02 1.87277757e-02 -2.22873918e-04
      5.67513630e-02 -8.68258923e-02 -1.01797156e-01 -9.45291296e-02
      -3.61390561e-02 3.95663381e-02 5.72820380e-03 3.67374755e-02
      3.52268629e-02 4.07803692e-02 -9.47028548e-02 -4.97346409e-02
      9.16760340e-02 -7.80356443e-03 -1.45750102e-02 -9.83530656e-03
      3.41473818e-02 -4.93290015e-02 -9.03221220e-03 -1.93798527e-01
      -1.68068916e-01 -1.41111091e-02 -1.13100469e-01 -1.42968073e-02
      7.82850012e-02 8.87957029e-03 -2.73268875e-02 -4.76903878e-02
      -1.24553122e-01 -3.94745246e-02 -7.90289938e-02 -1.37611434e-01
      3.93773094e-02 -3.11089884e-02 -7.41401017e-02 -1.64289281e-01
      -7.62179792e-02 -6.86532855e-02 -4.22227606e-02 -4.60164435e-02
      9.12005082e-03 -5.90359680e-02 -2.66419258e-04 -2.99848691e-02
      -4.53880839e-02 -9.93031040e-02 -1.35212094e-01 -2.33311802e-02
      1.70341685e-01 2.36788288e-01 4.80890796e-02 -2.81497538e-02
      -1.53847203e-01 -1.00060828e-01 -5.83544858e-02 -1.32590145e-01
      2.19762791e-02 4.15902846e-02 2.02276632e-02 -6.73312172e-02
      -1.13246381e-01 -2.79478312e-01 -1.45129830e-01 -5.17553389e-02
      -2.82738116e-02 -8.08630660e-02 -7.75099499e-03 8.32969844e-02
      -4.08622175e-02 -3.64685729e-02 -3.03925306e-01 -1.48659945e-01
      -8.37199092e-02 9.64080840e-02 -8.47370028e-02 4.57651690e-02
      9.40490365e-02 1.41505164e-03 -2.88442764e-02 -4.87816222e-02
      -1.99087709e-01 -1.17103919e-01 -1.24412915e-02 -5.68076745e-02
      -9.14614871e-02 4.41224389e-02 2.44376268e-02 1.19738340e-01
      -1.47556230e-01 -1.76355273e-01 -2.10692272e-01 1.92756519e-01
      8.33020210e-02 9.51771289e-02 1.27112702e-01 1.46281749e-01
      -3.67281586e-02 -1.21972285e-01 -1.28545940e-01 4.49000411e-02
      4.18256000e-02 -5.43163531e-03 -1.97437592e-03 1.10444222e-02
      5.23241721e-02 -2.43857484e-02 -1.62862018e-01 -1.47930279e-01
      3.52570787e-02 1.42959550e-01 7.79799223e-02 2.77181566e-02
      -9.94602684e-03 -2.92085204e-02 9.36172381e-02 -1.42191559e-01
      -1.70246199e-01 -2.25962345e-02 -7.32559245e-03 2.43601538e-02
      2.41175238e-02 1.14498854e-01 1.53658763e-01 1.16583914e-01
      -1.22032925e-01 -9.27063897e-02 -5.34473509e-02 3.23102111e-03
      9.48537961e-02 8.64601210e-02 5.30225858e-02 1.30238548e-01
      2.93559469e-02 -9.20640305e-02 -1.88969281e-02 -2.30603125e-02
      -9.78308078e-03 -1.71205997e-02 3.30740120e-03 6.78831339e-02
      1.47543281e-01 -3.43746878e-02 -9.62978601e-02 9.91888642e-02
      3.08770774e-04 9.71916318e-02 1.25679327e-03 -7.92445056e-03
      1.37251064e-01 1.55741781e-01 1.08111382e-01 -1.70940116e-01
      -1.06441140e-01 -9.55452099e-02 -7.36261234e-02 -4.31655385e-02
      6.90642148e-02 8.88710395e-02 2.25985616e-01 -2.81213727e-02
      -1.64593577e-01 -1.15482546e-02 -8.84514153e-02 1.03776800e-02
      -1.08213015e-01 5.19223064e-02 1.36242226e-01 1.49066985e-01
      -2.51790881e-02 3.96361714e-03 7.77168646e-02 9.53099057e-02
      -2.09852234e-02 1.08717144e-01 -2.16481555e-02 9.23522487e-02
      -7.04065040e-02 -1.00225776e-01 8.99168104e-03 1.52941853e-01
      6.97384030e-02 6.81649297e-02 1.38589188e-01 5.55379763e-02
      2.18452793e-02 -2.13685408e-01 3.65871266e-02 -1.45952776e-01
      -5.15667982e-02 -3.99932936e-02 -7.92971626e-02 3.36701535e-02
      -7.23714232e-02 -3.54567431e-02 -9.93373059e-03 -6.72337860e-02
      -1.66216210e-01 -6.62259310e-02 -1.27089188e-01 7.79795647e-02
      1.33210495e-01 1.28313959e-01 7.23963901e-02 5.12265824e-02
      -2.54123099e-02 3.37327877e-03 1.23254076e-01 1.99399084e-01
      9.92704555e-02 1.61755811e-02 -1.46550447e-01 -2.22079262e-01
      -1.15844741e-01 3.33405961e-03 -4.01304364e-02 1.64861843e-01
      1.29297361e-01 1.20140277e-01 6.16338402e-02 -1.86166123e-01
      -2.95648009e-01 -1.01613268e-01 -3.35967843e-03 3.42419967e-02
      5.85061759e-02 1.01297617e-01 1.29949033e-01 9.81818289e-02
      -7.46970549e-02 -6.38523772e-02 -6.47729589e-03 -2.09154421e-03
      1.18130334e-02 5.51788993e-02 9.65406746e-02 2.69793093e-01
      2.23604888e-01 -9.88693014e-02 -2.24714831e-01 -4.26921472e-02
      -4.03971598e-02 1.57774523e-01 1.06225774e-01 -3.05382553e-02
      -3.45767033e-03 1.00499548e-01 -5.54873375e-03 -4.38019224e-02
      -7.82987941e-03 -1.32365927e-01 7.50767812e-02 -2.00891029e-02
      1.05994269e-02 1.16060954e-02 6.12340979e-02 1.18175820e-01
      1.02801155e-02 -1.29997551e-01 9.71917361e-02 8.43179151e-02
      8.91096070e-02 -8.20201263e-02 1.85298547e-01 1.32835776e-01
      -7.02068862e-03 -1.55926600e-01 4.13838997e-02 -3.68646421e-02
      2.67885104e-02 4.83508520e-02 -1.47178432e-03 2.11524859e-01
      -1.11335637e-02 1.99731793e-02 -1.80044115e-01 -1.68203011e-01
      -6.81613609e-02 -8.79659429e-02 -1.17491893e-01 -8.73751417e-02
      -1.12601414e-01 -2.75913235e-02 -6.83426186e-02 1.13650195e-01
      2.54676435e-02 -3.37674469e-02 -3.10547315e-02 -1.97742626e-01
      -5.61127625e-02 6.54032305e-02 -5.79926893e-02 3.26136798e-02
      1.10249572e-01 3.40130441e-02 -1.75251719e-02 -1.00010661e-02
      -2.28844024e-02 -9.05735791e-02 -7.48455944e-03 1.44835850e-02
      -8.50532427e-02 6.85189441e-02 -6.25775382e-02 8.84273127e-02
      6.85107633e-02 -1.21695027e-01 -5.64910397e-02 7.82379806e-02
      -7.10771745e-03 -8.31315592e-02 7.03277141e-02 1.38612285e-01
      1.01234376e-01 -4.37476113e-02 -2.71902848e-02 -3.92760528e-04
      7.65986070e-02 -5.55564724e-02 9.14566293e-02 2.16839612e-02
      1.05431102e-01 1.25830963e-01 -3.24253850e-02 1.10859070e-02
      1.43138273e-02 3.01988497e-02 -6.05535880e-02 5.60656004e-03
      1.94437094e-02 3.93821299e-02 -3.76125588e-03 -8.76822844e-02
      -8.36906433e-02 1.14633692e-02 1.40856698e-01 8.57249796e-02
      1.10995278e-01 5.16703576e-02 3.43175307e-02 1.03068173e-01
      9.57627818e-02 1.76044106e-01 1.32197410e-01 4.84038629e-02
      -1.42212793e-01 -5.53439781e-02 -8.41429979e-02 5.56777604e-02
      -2.83071958e-02 -5.77882640e-02 -1.51179627e-01 4.43827994e-02
      9.15460661e-02 4.88158017e-02 -5.79218268e-02 -2.83877123e-02
      9.34759006e-02 1.25427201e-01 -1.00355215e-01 -2.15659559e-01
      -3.99123915e-02 3.71056870e-02 4.05688584e-02 -2.53065787e-02
      5.76498732e-02 1.95216194e-01 8.39963779e-02 9.15208906e-02
      6.92868605e-02 -5.42804748e-02 1.07336156e-01 3.17061357e-02
      -8.46354887e-02 -8.53625983e-02 8.59481022e-02 1.78752750e-01
      2.52984278e-02 7.38369599e-02 -1.09023616e-01 4.63722385e-02
      -4.16772589e-02 -1.29252374e-01 -8.86781663e-02 1.10290833e-01
      8.05726498e-02 -4.96723577e-02 -3.15531008e-02 -4.95951846e-02
      1.97327454e-02 -1.41636282e-01 9.33810510e-03 -8.99714511e-03
      -8.17241594e-02 3.11450008e-02 1.47191212e-02 1.54426098e-02
      -1.75839812e-02 4.22589062e-03 -4.57552895e-02 -1.04371468e-02
      -2.17824392e-02 -2.04960583e-03 3.45768929e-02 -6.60730004e-02
      -9.44113359e-04 9.84672084e-03 -9.17503834e-02 -1.39836058e-01
      -2.23903228e-02 -4.27025445e-02 -1.50912041e-02 1.83146939e-01
      -1.08783506e-02 9.57571622e-03 1.40221223e-01 8.97557586e-02
      -8.25664327e-02 -2.60850675e-02 1.58950873e-02 5.26740402e-02
      3.89137343e-02 -1.06642013e-02 2.83145178e-02 -1.06736623e-01
      -9.30102244e-02 -9.76714119e-02 3.49074043e-02 1.04500568e-02
      6.95320442e-02 9.42262448e-03 1.00173168e-01 1.16359532e-01
      -1.19927421e-01 -5.61990514e-02 -3.25993188e-02 -9.49924719e-03
      -6.39604256e-02 9.23193619e-02 1.16298109e-01 1.76139567e-02
      -4.27648462e-02 -1.10691749e-01 -2.02140994e-02 -1.46826478e-02
      3.16585563e-02 2.76646316e-02 7.28955418e-02 1.72247395e-01
      1.89152863e-02 -7.26613477e-02 -1.24724414e-02 -7.14850351e-02
      5.14812954e-02 -3.55140935e-03 4.26738635e-02 4.51574661e-02
      1.35112301e-01 7.39822835e-02 6.78032488e-02 -5.41392751e-02
      1.29286528e-01 2.28645168e-02 -1.07443184e-01 -9.48072597e-02
      1.49926245e-01 1.19322516e-01 7.63936117e-02 1.09914683e-01
      5.56925945e-02 1.63301066e-01 -2.08502755e-01 -3.29450548e-01
      -7.34699592e-02 1.33478886e-03 1.70231402e-01 1.18098713e-01
      -3.17248851e-02 -1.17934518e-01 1.73780337e-01 7.69768283e-02
      -2.82616206e-02 6.40765131e-02 1.86960220e-01 1.79796785e-01
      1.36292070e-01 4.16331440e-02 -1.12597123e-01 5.56264855e-02
      -1.21186890e-01 -2.27029547e-01 -5.95194139e-02 9.75086614e-02
      -3.70254554e-02 3.19814682e-02 -3.92532162e-02 1.11832945e-02
      2.00179294e-02 -6.53615445e-02 -2.26940457e-02 6.08569607e-02
      8.37101340e-02 1.46460980e-01 7.57502764e-02 -5.00654355e-02
      -1.18274279e-01 1.86924413e-02 -8.74562189e-03 1.05208553e-01
      1.04693331e-01 1.42612353e-01 -2.16188077e-02 1.93320550e-02
      7.02625290e-02 6.34749532e-02 2.39218324e-02 -1.63025275e-01
      -1.23401903e-01 -3.97614390e-02 -2.34263539e-02 6.14208207e-02
      -5.28271589e-03 -7.11543635e-02 -1.10104464e-01 -4.09065979e-03
      -6.57428801e-02 -2.08784782e-04 2.93539092e-02 -8.07261933e-03
      1.09730415e-01 -1.60875656e-02 5.47380149e-02 -2.74737421e-02
      1.97076187e-01 -5.55778146e-02 -1.23834215e-01 3.90273407e-02
      7.64362291e-02 5.95757253e-02 5.78342006e-03 8.46988484e-02
      -7.20991492e-02 9.46581457e-03 -3.83495316e-02 -7.61116203e-03
      2.64811441e-02 1.43931117e-02 1.15722530e-01 -2.24038307e-02
      3.97500657e-02 -5.71777746e-02 4.53793034e-02 -1.62904143e-01
      -1.53342813e-01 3.07094436e-02 7.25009665e-02 1.40806466e-01
      9.06421989e-02 1.13600068e-01 -9.31201950e-02 -4.87806872e-02
      -6.66717589e-02 2.85445154e-02 1.03951804e-01 5.36244065e-02
      2.28129640e-01 3.84685248e-02 -3.21778352e-03 -6.47303760e-02
      -2.53865179e-02 -9.75561589e-02 -5.70618622e-02 -1.09491624e-01
      3.76935191e-02 9.44389626e-02 9.04476270e-02 -9.43278074e-02
      3.17463279e-02 -1.25848902e-02 -1.96822599e-01 -7.66652524e-02
      -9.53213647e-02 -1.92164555e-02 2.13615730e-01 1.06791280e-01
      2.28942372e-02 -8.15857649e-02 -2.90864296e-02 -2.81114709e-02
      1.08006693e-01 9.91710052e-02 1.68882415e-01 1.58225626e-01
      7.32190311e-02 -9.83552262e-02 -6.86819702e-02 -5.60985245e-02
      -1.03132069e-01 9.86299813e-02 9.28775668e-02 1.27723679e-01
      2.85362508e-02 6.37301207e-02 -2.45128525e-04 3.54129099e-03
      -2.55700964e-02 -2.63066422e-02 9.17726457e-02 -6.81784749e-02
      -8.19299370e-02 -1.39698759e-02 -1.80533454e-01 -1.19647356e-02
      3.39271724e-02 1.84604138e-01 -1.39157325e-02 7.91484639e-02
      7.87013490e-03 4.97688204e-02 1.58685356e-01 1.07878119e-01
      -2.96849515e-02 3.77059802e-02 3.64362858e-02 -5.18044978e-02
      4.54357229e-02 -9.26905219e-03 1.56113446e-01 7.17120394e-02
      -2.84245256e-02 5.64242192e-02 9.17584747e-02 1.04822256e-01
      -9.24951211e-02 -8.08613561e-03 -1.26855314e-01 4.15597484e-02
      -2.51166355e-02 -5.75394072e-02 4.43517826e-02 -7.30554312e-02
      -3.71036083e-02 -7.80332610e-02 1.98624171e-02 8.20411369e-03
      -1.03463054e-01 -9.94107574e-02 -2.49438435e-02 1.19924143e-01
      2.19786745e-02 -6.45698532e-02 -1.11194894e-01 8.09792615e-03
      1.02443015e-02 -1.72441304e-02 1.00492254e-01 2.49513946e-02
      -1.40654808e-02 2.69953758e-02 -8.66252091e-03 -1.05488069e-01
      -5.29277883e-02 1.90359764e-02 7.79822888e-03 -3.42042111e-02
      -1.95948616e-01 5.95888728e-03 5.85490651e-03 1.11103460e-01
      -8.22569877e-02 -3.54324058e-02 -6.58380240e-02 -2.68934816e-02
      1.18308306e-01 6.88729659e-02 -6.17640652e-02 -9.02520344e-02
      1.07850119e-01 -5.54594472e-02 2.50046514e-02 5.92428856e-02
      2.32247695e-01 2.15657264e-01 3.22457217e-02 -2.01930329e-02
      -4.11830330e-03 6.45497963e-02 -1.24336064e-01 -5.03799841e-02
      7.89969042e-02 1.41174123e-01 1.46178514e-01 -1.29110180e-02
      -9.38607752e-02 -7.37838671e-02 2.06213191e-01 3.13303620e-02
      -4.05767336e-02 -3.48771513e-02 1.05981357e-01 8.07996690e-02
      -1.66141257e-01 -8.93961638e-02 1.09428847e-02 1.72901765e-01
      -3.50565426e-02 -5.17568253e-02 5.46967834e-02 -3.14107388e-02
      6.60156608e-02 -2.30547003e-02 4.50633690e-02 5.31077497e-02
      7.18305409e-02 -1.09211110e-01 -2.59270575e-02 -1.18561037e-01
      1.18813723e-01 5.94315007e-02 -1.30624045e-02 1.50088249e-02
      5.28033823e-02 8.76599550e-02 -4.47544530e-02 -3.79592068e-02
      -7.67444968e-02 3.44349467e-03 1.22238792e-01 -3.56826722e-03
      -1.18111335e-02 -1.40291220e-02 -2.01150812e-02 -1.21122137e-01
      -8.80395025e-02 -2.32762516e-01 -1.10875033e-01 1.64815448e-02
      -6.53513670e-02 -2.21122839e-02 2.47566625e-02 1.12456337e-01
      -5.41601516e-02 1.10803738e-01 -8.59464034e-02 -6.25708103e-02
      1.51069388e-02 -5.59670031e-02 -6.66528642e-02 -6.87305555e-02
      -5.74723957e-03 -5.42246290e-02 -3.26564983e-02 -2.49032341e-02
      -1.74859669e-02 1.80317350e-02 6.04377910e-02 1.19234458e-01
      1.12382807e-01 6.57496005e-02 2.66246013e-02 -8.56916755e-02
      5.09631494e-03 -8.79823640e-02 -1.77052170e-02 4.04765792e-02
      1.85441710e-02 7.92665780e-02 5.88741526e-02 -3.01341191e-02
      3.35307159e-02 -4.97312248e-02 -2.39932425e-02 -7.79763535e-02
      -5.52801415e-02 4.20055874e-02 1.53552458e-01 1.44068941e-01
      -5.21882661e-02 -5.88531159e-02 -1.42480791e-01 -1.03140064e-01
      1.35001689e-01 6.78909244e-03 2.38223877e-02 -6.26149541e-03
      7.58550912e-02 -6.48097172e-02 4.30452637e-02 -1.84961319e-01
      5.89914583e-02 2.19300285e-01 6.45352006e-02 7.25392327e-02
      1.42308872e-03 -7.66718574e-03 -7.51884356e-02 3.85676883e-02
      -1.56588465e-01 -6.86865076e-02 9.45021287e-02 -1.76110372e-01
      -4.27412800e-02 -1.41229257e-02 7.29783997e-02 -1.20443374e-01
      -6.61459714e-02 -2.05130726e-01 -3.19347121e-02 1.09074496e-01
      -7.60303661e-02 1.03437610e-01 7.83455074e-02 6.45040274e-02
      -5.62520139e-02 1.25970738e-02 -6.14868365e-02 -4.83841337e-02
      1.65804438e-02 -1.29160006e-02 1.06460027e-01 2.96224859e-02
      5.71520766e-03 -1.36209866e-02 -4.67533059e-02 -1.01959020e-01
      1.16953909e-01 -5.89267798e-02 -1.77153815e-02 1.16113529e-01
      8.70589633e-03 -6.99915513e-02 4.92506959e-02 1.60090607e-02
      -8.39850679e-02 -8.90527107e-03 -7.76871517e-02 -1.22364396e-02
      -3.68300490e-02 -2.27826331e-02 1.24388434e-01 6.54528588e-02
      6.11857884e-02 6.17482811e-02 -2.40699667e-02 -9.48908105e-02
      4.84418012e-02 6.73515350e-02 3.78265046e-02 -1.64901875e-02
      5.68900779e-02 1.37556210e-01 1.73115596e-01 -2.13967357e-02
      -1.00543961e-01 -1.29249349e-01 6.21619895e-02 9.47800800e-02
      -1.98212992e-02 -1.78153608e-02 -1.93210598e-02 9.14196298e-02
      2.29412038e-02 -1.11003563e-01 -6.71317950e-02 1.07314989e-01
      9.44611952e-02 9.48228315e-02 -3.65986116e-02 -1.83445483e-01
      -1.57422218e-02 -4.42392156e-02 -5.31781837e-02 -1.75891474e-01
      7.58338673e-03 6.65889382e-02 7.96264485e-02 9.98798758e-02
      7.08223805e-02 -3.36063392e-02 -7.43709803e-02 -1.31171033e-01
      -1.48370266e-01 1.19850881e-01 2.11692378e-01 1.67525470e-01
      1.15249544e-01 3.65373977e-02 9.04367585e-03 -1.18605301e-01
      -9.02341306e-02 -1.42570928e-01 1.11222550e-01 8.70029107e-02
      5.78954220e-02 7.21698478e-02 1.35989830e-01 6.82624429e-02
      3.86619270e-02 -1.13150984e-01 -2.58559525e-01 -1.66137546e-01
      3.53401974e-02 1.16152450e-01 1.30088419e-01 1.35053679e-01
      5.64578660e-02 -1.62290856e-02 -1.41901299e-01 -7.47269467e-02
      8.91734883e-02 1.45624667e-01 1.39646605e-02 1.67933658e-01
      1.05457388e-01 -4.37254012e-02 -9.52086151e-02 -3.19814011e-02
      -8.57254937e-02 9.71234068e-02 3.15574184e-02 -1.62365045e-02
      7.45938122e-02 -5.18732145e-02 -9.23668444e-02 -2.04126596e-01
      -7.30402172e-02 -2.75139920e-02 3.13205868e-02 2.88317204e-02
      -2.20596120e-02 7.46164322e-02 -1.69790998e-01 -1.54254049e-01
      -4.89021204e-02 -1.01029478e-01 1.67899597e-02 8.15548599e-02
      -1.67414378e-02 5.04444093e-02 -1.58549786e-01 4.23845872e-02
      -3.18722725e-02 -8.46683308e-02 -1.91306259e-04 -9.63669792e-02
      8.23389813e-02 4.12672162e-02 6.31040484e-02 2.29800828e-02
      2.82687768e-02 4.08000685e-02 3.72265540e-02 1.05807884e-02
      2.77223755e-02 -6.11107424e-03 9.24061537e-02 1.23811789e-01
      -1.22780822e-01 -7.47891515e-02 -4.34636697e-02 -1.28083363e-01
      -9.59171951e-02 -2.36944016e-02 8.68363976e-02 4.17824276e-02
      -1.52114378e-02 -9.80294421e-02 2.79710703e-02 -4.64740321e-02
      -6.79852813e-02 -1.49042517e-01 2.05967743e-02 2.95280591e-02
      1.03392087e-01 1.38850976e-03 1.28413923e-02 2.15864390e-01
      2.37509087e-02 -5.77886440e-02 1.34731317e-02 -3.15553211e-02
      6.22660816e-02 7.07982257e-02 -5.91826104e-02 -1.08865954e-01
      -2.80689262e-02 -6.74317703e-02 -1.19830102e-01 -1.38720974e-01
      -7.84749072e-03 2.99899802e-02 1.30501434e-01 -8.24681595e-02
      -1.18482467e-02 1.35997042e-01 4.14797850e-02 -1.24000534e-01
      -1.36032984e-01 5.12997480e-03 2.00106832e-03 -4.87791095e-03
      -2.23171785e-02 6.61696941e-02 -4.31608148e-02 -2.17911676e-01
      -1.32910982e-01 -1.39771193e-01 -4.51497398e-02 -1.43320570e-02
      1.00081868e-01 1.06015973e-01 3.98699120e-02 6.71568289e-02
      -9.87306014e-02 -1.23100914e-01 1.30759664e-02 1.34428474e-03
      -2.03995574e-02 6.79332167e-02 -7.20843598e-02 7.40001118e-03
      2.65608039e-02 -1.00718543e-01 -2.08492801e-02 7.08585531e-02
      -4.45671380e-03 -7.50752762e-02 7.19916895e-02 4.45542894e-02
      -3.46456245e-02 -2.97088083e-02 -2.12235734e-01 1.27024814e-01
      -4.35763448e-02 -6.01093061e-02 -1.61977299e-02 5.38106821e-02
      6.97691441e-02 -3.31077836e-02 1.85725689e-02 -1.27415195e-01
      -4.86437678e-02 -2.83463784e-02 -4.26155478e-02 6.80216700e-02
      3.87788713e-02 5.55362843e-04 -3.59656252e-02 6.55259266e-02
      -5.46028949e-02 -5.73289581e-03 6.86703250e-02 5.46242185e-02
      -6.73867539e-02 -4.14402485e-02 -3.48513238e-02 -3.11616268e-02
      7.83663988e-02 -9.54114497e-02 4.29768302e-03 -1.82972495e-02
      -1.73109069e-01 -5.26346937e-02 -1.55021325e-01 -1.16968773e-01
      -1.92963630e-02 1.36087984e-01 4.32485044e-02 -9.30096731e-02
      8.29629675e-02 3.00905779e-02 1.56703576e-01 -8.27502534e-02
      -4.38543875e-03 -2.69177221e-02 9.50536653e-02 1.47831356e-02
      3.63974199e-02 7.64050195e-03 -1.07957959e-01 6.53787106e-02
      -2.22766921e-02 -1.30665243e-01 9.24502537e-02 1.42507091e-01
      -5.01768896e-03 -9.96199697e-02 -1.30525261e-01 -9.22443420e-02
      5.47140315e-02 -7.78269619e-02 6.72687367e-02 -2.35596690e-02
      1.19175903e-01 7.52846226e-02 -7.21793920e-02 -1.35798573e-01
      -1.67583942e-01 -6.26751333e-02 -2.87247710e-02 -1.30332917e-01
      -8.83595124e-02 -4.15335074e-02 9.72080417e-03 -1.73658073e-01
      1.75951666e-03 1.12557299e-01 1.92522317e-01 -5.86688481e-02
      -4.29144613e-02 3.38811539e-02 -2.85049956e-02 -4.51153144e-02
      -4.83229756e-02 -3.41454335e-02 9.94054228e-02 8.60649049e-02
      7.70889595e-03 -2.22472608e-01 -2.47520171e-02 -1.01503216e-01
      -5.09403460e-02 2.52044518e-02 -1.34982571e-01 -7.72659108e-02
      -7.25369453e-02 -8.25441331e-02 -5.08106127e-02 7.00841844e-03
      -1.21678393e-02 -1.03406362e-01 -1.80808008e-02 1.08200304e-01
      1.31353453e-01 6.77584857e-02 -1.31150624e-02 -3.49134346e-03
      -2.28530467e-02 -9.68596414e-02 -1.04215086e-01 5.25851361e-02</_></support_vectors>
  <uncompressed_sv_total>120</uncompressed_sv_total>
  <uncompressed_support_vectors>
    <_>
      2.48341471e-01 3.71902436e-02 0. 0. 1.26525084e-03 3.07747931e-03
      2.90045212e-03 2.21113525e-02 2.45730966e-01 2.69546539e-01
      5.40235564e-02 2.59953598e-03 0. 1.42737641e-03 9.38837009e-04
      6.26770034e-03 3.01212389e-02 2.94892073e-01 4.20148194e-01
      1.44503172e-02 1.74899746e-04 3.41293431e-04 2.32050149e-03 0.
      6.23814529e-04 2.49485560e-02 4.20148194e-01 4.20148194e-01
      3.11008394e-02 4.54230746e-03 0. 1.54700095e-03 6.44017973e-06
      9.86779295e-03 1.84375420e-02 4.20148194e-01 2.05408931e-01
      2.86836717e-02 5.02309017e-03 0. 3.22190160e-03 2.34267936e-04
      2.24389439e-03 2.13417932e-02 2.64739066e-01 2.56459922e-01
      2.13632043e-02 3.91641457e-04 0. 3.80284037e-03 1.67182100e-03
      5.19622955e-03 1.28154047e-02 2.70236135e-01 4.28670973e-01
      2.19853856e-02 9.21331905e-03 1.51067937e-03 1.22541052e-04
      1.39235715e-06 2.09968491e-03 7.11629242e-02 4.28670973e-01
      4.28670973e-01 3.04145869e-02 5.87462215e-04 0. 0. 2.50773132e-03
      6.86225761e-03 3.16530615e-02 4.28670973e-01 2.51863629e-01
      3.35089788e-02 1.48377353e-02 7.22669181e-04 3.72117735e-03
      3.06397164e-03 2.18378063e-02 1.51873119e-02 1.83836162e-01
      2.65304327e-01 3.56332101e-02 1.40043367e-02 1.88954291e-03
      3.56195704e-03 1.79233716e-03 5.45173837e-03 3.54159549e-02
      2.85702884e-01 4.28224951e-01 2.12087426e-02 1.15329018e-02
      1.08400371e-03 0. 5.67312259e-03 3.74293476e-02 3.25185470e-02
      4.28224951e-01 4.28224951e-01 4.35460396e-02 7.07666436e-03
      2.83431448e-03 7.98733308e-05 8.34973622e-03 3.65970582e-02
      4.11169939e-02 4.28224951e-01 2.21292451e-01 5.88206649e-02
      4.31380123e-02 2.24252441e-03 5.54356072e-03 6.71717396e-04
      2.31843442e-02 5.51150367e-02 1.78141281e-01 2.50363767e-01
      5.39961755e-02 3.42874788e-02 1.23510584e-02 2.12555602e-02
      2.68686865e-03 2.62687691e-02 1.00340657e-01 2.47952625e-01
      4.32927221e-01 2.98620071e-02 3.12127825e-02 1.14518357e-02
      1.56294573e-02 2.16304027e-02 2.49523576e-02 4.03768159e-02
      4.32927221e-01 4.32927221e-01 3.83994766e-02 5.22514023e-02
      2.82207578e-02 1.29704755e-02 2.64720083e-03 1.08196689e-02
      8.03461373e-02 4.32927221e-01 2.95141786e-01 5.12754507e-02
      1.18907597e-02 1.48075828e-02 1.40050184e-02 0. 1.52877718e-02
      1.59869064e-02 1.24170721e-01 3.60810161e-01 4.56213057e-02
      1.44564435e-02 2.67810915e-02 1.66888013e-02 5.17294630e-02
      1.01116542e-02 1.02355210e-02 2.15977564e-01 3.99796456e-01
      4.84222993e-02 2.05550212e-02 1.02027338e-02 1.16366455e-02
      9.88657214e-03 5.90135297e-03 2.32340284e-02 2.93349922e-01
      3.99796456e-01 1.89327478e-01 1.51250646e-01 1.68484002e-01
      1.86094195e-01 2.10136622e-01 4.67847986e-03 8.05887952e-03
      3.62509102e-01 1.39200864e-02 1.65773705e-01 2.98689216e-01
      1.59145325e-01 1.24772348e-01 1.44691676e-01 2.96718236e-02
      7.99914151e-02 4.39139530e-02 8.61014873e-02 1.40725151e-01
      2.98689216e-01 1.32016301e-01 1.56131029e-01 2.84242362e-01
      3.73314247e-02 7.18825907e-02 6.67239055e-02 6.45211861e-02
      1.09131247e-01 2.20778778e-01 1.46589875e-01 2.64403790e-01
      1.74102068e-01 3.00850291e-02 9.04063135e-02 2.51209348e-01
      8.87878761e-02 2.49196172e-01 2.98689216e-01 9.47134867e-02
      1.90532625e-01 2.98689216e-01 5.27183674e-02 4.32987325e-02
      4.46441621e-02 2.31930420e-01 3.33062597e-02 6.61524013e-02
      7.69229680e-02 1.85563776e-03 0. 5.25147747e-03 1.43027725e-02
      1.45244688e-01 2.97934741e-01 2.22289518e-01 2.98295259e-01
      1.24151282e-01 8.64816830e-03 5.15002557e-06 2.26923954e-02
      2.51822900e-02 1.31490946e-01 2.55297124e-01 2.83568412e-01
      2.65429705e-01 2.83543736e-01 3.30946185e-02 5.92015609e-02
      3.85896750e-02 5.94502874e-02 1.66459650e-01 1.61549583e-01
      2.98295259e-01 2.98295259e-01 2.89732635e-01 2.92535070e-02
      5.15969694e-02 6.12099431e-02 9.16818529e-02 1.09382868e-01
      2.95373708e-01 3.07565659e-01 2.95022577e-01 3.92770544e-02
      3.38374893e-03 9.90599347e-07 1.72005985e-02 1.03541510e-02
      2.13214472e-01 3.07565659e-01 3.07565659e-01 1.53902262e-01
      7.01436028e-02 5.25909476e-03 3.82777094e-03 1.60218719e-02
      3.51012275e-02 2.28142306e-01 7.82237053e-02 2.43959680e-01
      2.00256482e-01 1.53026745e-01 4.83827330e-02 5.95433041e-02
      2.95029953e-02 1.65206511e-02 1.29548445e-01 6.04927018e-02
      3.07565659e-01 1.82683721e-01 3.07565659e-01 1.39136478e-01
      1.01860970e-01 8.39288463e-04 2.60843401e-04 1.78961679e-02
      2.55221516e-01 1.22587711e-01 3.11098322e-02 1.25020370e-01
      2.08563074e-01 9.50547755e-02 3.72909084e-02 3.62255126e-02
      2.73627043e-01 1.71948031e-01 7.85728544e-02 8.09897780e-02
      2.15673164e-01 2.77453005e-01 2.77453005e-01 2.77453005e-01
      1.63073659e-01 2.77453005e-01 1.05803214e-01 9.51454639e-02
      1.89159811e-02 5.19816130e-02 1.31637499e-01 3.42016406e-02
      7.83761740e-02 8.26995671e-02 1.31610036e-01 3.99612896e-02
      5.60875013e-02 3.31049487e-02 1.47339270e-01 2.11465999e-01
      1.70361102e-01 2.77453005e-01 2.13149980e-01 2.26313099e-01
      2.71358848e-01 1.28844738e-01 6.05111523e-03 7.91614279e-02
      8.58286843e-02 5.04358783e-02 1.29390940e-01 9.63818282e-02
      2.71358848e-01 1.30506158e-01 3.73577140e-02 1.01004072e-04
      5.08985110e-02 4.46888842e-02 6.12232722e-02 1.58236757e-01
      1.40461281e-01 2.71358848e-01 2.71358848e-01 2.50641793e-01
      2.71358848e-01 2.21454054e-01 1.83135584e-01 8.21335986e-02
      1.63622096e-01 6.82182983e-02 1.62099734e-01 2.08224148e-01
      1.75604090e-01 2.71358848e-01 1.19736649e-01 8.94736648e-02
      7.76525512e-02 1.25973791e-01 1.52234435e-01 2.71358848e-01
      1.60361081e-01 3.92007492e-02 8.21352527e-02 1.67650729e-02
      1.39575098e-02 7.55434632e-02 6.44687489e-02 6.43156096e-02
      2.56585091e-01 2.27845564e-01 2.01734841e-01 1.60906985e-01
      1.28024846e-01 5.82633801e-02 5.43478876e-02 2.06720486e-01
      5.32628745e-02 1.48115292e-01 2.21214697e-01 1.85364142e-01
      1.56982198e-01 4.05946076e-02 1.68714598e-01 2.21280441e-01
      1.30106062e-01 1.33720711e-01 2.34021768e-01 2.56585091e-01
      2.31247917e-01 2.00349018e-01 8.75678137e-02 2.23754689e-01
      1.14449024e-01 2.56585091e-01 2.56585091e-01 1.89286843e-01
      4.81623411e-02 4.60209176e-02 9.15429294e-02 1.06496722e-01
      9.20609012e-02 1.63343787e-01 1.53747812e-01 8.32420364e-02
      1.09165691e-01 1.43179208e-01 7.88900778e-02 1.61403090e-01
      8.04683790e-02 2.28325948e-01 1.35785148e-01 1.40012085e-01
      1.28800839e-01 1.85926214e-01 1.64049521e-01 1.88627899e-01
      1.18874252e-01 2.21426651e-01 4.60715070e-02 2.63399273e-01
      2.18677059e-01 8.77640918e-02 1.07766226e-01 2.73806781e-01
      2.06778541e-01 1.53811619e-01 1.45200014e-01 2.56808072e-01
      2.31364533e-01 2.53626019e-01 9.66717750e-02 2.73806781e-01
      1.00149371e-01 3.11945170e-01 3.30875069e-01 1.63316563e-01
      1.04015261e-01 1.19932964e-01 2.40896195e-02 6.70916438e-02
      1.19966783e-01 8.65527168e-02 1.05461530e-01 1.32923484e-01
      1.22803539e-01 2.40347639e-01 2.54189759e-01 2.18854502e-01
      9.14345607e-02 9.67538357e-02 7.75633454e-02 2.06460863e-01
      2.58043349e-01 1.37669325e-01 1.12036355e-01 1.46965384e-01
      1.67177305e-01 9.39699113e-02 9.38519761e-02 9.16181877e-02
      8.33064616e-02 1.09507158e-01 6.63584545e-02 1.56352922e-01
      1.98408440e-01 3.06287646e-01 2.00853527e-01 1.59770623e-01
      2.03047488e-02 1.20459765e-01 6.91866800e-02 1.13276064e-01
      2.34665066e-01 2.60726333e-01 7.43339583e-02 1.88129712e-02
      2.11017355e-02 3.88088357e-03 1.19928671e-02 4.11594380e-03
      1.62828535e-01 3.44080389e-01 2.95686871e-01 6.60172999e-02
      5.95331378e-03 1.76152643e-02 5.76148964e-02 1.13053009e-01
      1.33088350e-01 1.22161455e-01 3.44080389e-01 2.28655145e-01
      8.93682614e-02 1.66163668e-02 2.88884491e-02 7.62391603e-03
      9.70380101e-03 2.32626162e-02 7.96189532e-02 3.44080389e-01
      3.44080389e-01 3.44080389e-01 7.32068419e-02 3.68963629e-02
      6.47851303e-02 9.74193439e-02 1.34133268e-02 1.63213119e-01
      1.19145498e-01 4.30605002e-02 7.48958066e-02 2.49657985e-02
      2.04823203e-02 2.02335760e-01 2.83394933e-01 3.92353907e-02
      1.83460414e-01 2.71106809e-01 1.04943275e-01 8.35940316e-02
      1.10879861e-01 9.59878489e-02 6.94177300e-02 1.60388544e-01
      1.12934411e-01 2.81265825e-01 3.55387241e-01 1.47383943e-01
      9.50255021e-02 2.92110704e-02 2.34698988e-02 1.11168459e-01
      2.46056691e-01 4.05666903e-02 3.55387241e-01 3.55387241e-01
      2.08580449e-01 1.00626096e-01 4.36124094e-02 1.54318288e-02
      1.21933959e-01 1.55611351e-01 3.37863415e-02 3.21207978e-02
      7.57741407e-02 2.01571181e-01 3.01336467e-01 1.35251448e-01
      1.52096599e-01 2.25248680e-01 7.01670274e-02 9.79426410e-03
      7.61401951e-02 1.00618497e-01 2.55956680e-01 2.84443349e-01
      2.15989843e-01 1.37636885e-01 1.23122416e-01 8.30064714e-02
      1.81301892e-01 5.22021502e-02 1.57316372e-01 2.97888726e-01
      3.01336467e-01 1.43144861e-01 4.84693199e-02 1.48358166e-01
      9.40947086e-02 1.69872284e-01 1.13163970e-01 1.14077449e-01
      2.67289340e-01 1.94578126e-01 8.47834721e-02 8.14140588e-02
      8.83556083e-02 2.39921093e-01 1.74865320e-01 1.29727572e-01
      2.87353009e-01 1.07923925e-01 1.37815475e-02 1.18505359e-01
      9.65746865e-02 1.07890613e-01 1.94856480e-01 1.64372146e-01
      1.93167493e-01 9.75367576e-02 4.86615114e-02 3.96286286e-02
      1.53038070e-01 1.02491491e-01 1.23691164e-01 1.77792907e-01
      9.20854434e-02 1.93532500e-02 2.46111438e-01 1.57524809e-01
      6.71959221e-02 1.22062631e-01 2.10472196e-01 2.15928137e-01
      1.57715097e-01 2.63518631e-01 1.74693421e-01 3.17658991e-01
      2.39568561e-01 6.09860942e-02 1.23125017e-01 2.26830184e-01
      8.99126977e-02 9.63661447e-03 3.22130881e-02 1.89987361e-01
      5.82023486e-02 1.64008126e-01 2.15065867e-01 1.90577582e-01
      1.11325353e-01 1.25598192e-01 6.58138562e-03 3.28321159e-02
      2.91984528e-01 2.04356909e-01 2.48846829e-01 3.25505555e-01
      3.25505555e-01 2.08907843e-01 7.07591251e-02 1.36298329e-01
      1.27158985e-01 1.47645205e-01 3.49263251e-02 3.73026691e-02
      6.16250113e-02 7.12834820e-02 5.30567802e-02 1.87569529e-01
      1.14708282e-01 1.15182698e-01 2.64807522e-01 8.75527933e-02
      9.73527730e-02 2.01181412e-01 1.97091103e-01 2.46468663e-01
      7.19002485e-02 7.61574656e-02 1.03084579e-01 2.18382441e-02
      1.38131186e-01 1.29165009e-01 1.03797108e-01 1.00770615e-01
      9.48714316e-02 1.15384094e-01 2.26977259e-01 2.68478632e-01
      1.45325795e-01 1.54620156e-01 2.98957229e-01 1.69267669e-01
      9.87500176e-02 1.88623101e-01 7.25780427e-02 1.74692273e-02
      6.26460612e-02 7.33852684e-02 1.39731646e-01 2.30423018e-01
      3.47158402e-01 1.33734047e-01 8.25522244e-02 2.34945327e-01
      3.25020775e-02 8.87739882e-02 1.91219643e-01 1.21020220e-01
      2.03400955e-01 2.84008980e-01 1.16676234e-01 2.82406986e-01
      1.80103227e-01 2.33480744e-02 6.59985542e-02 8.42766166e-02
      7.67805427e-02 1.99178621e-01 1.28455713e-01 1.27152368e-01
      2.60410428e-01 1.33323431e-01 1.06319021e-02 3.10396701e-02
      3.00228447e-02 6.89578131e-02 1.55998766e-01 1.73223883e-01
      3.45724612e-01 3.45724612e-01 1.26397863e-01 4.38177697e-02
      8.25759917e-02 4.39690165e-02 4.30138111e-02 9.26020890e-02
      9.84000564e-02 3.45724612e-01 2.50474364e-01 1.09640151e-01
      4.15943861e-02 1.18493475e-01 6.84878752e-02 1.12943061e-01
      9.79833528e-02 4.40346561e-02 3.45724612e-01 2.87803948e-01
      6.41007200e-02 2.02375963e-01 5.78658059e-02 1.20177958e-02
      9.16122422e-02 7.66252652e-02 2.76052088e-01 3.37406069e-01
      1.26476288e-01 6.29303902e-02 8.67573842e-02 3.60268578e-02
      5.81146739e-02 1.08251326e-01 9.04213861e-02 3.56298774e-01
      3.56298774e-01 1.43171191e-01 4.39056940e-02 8.18370655e-02
      4.01605144e-02 1.22137684e-02 9.02917609e-02 8.71352181e-02
      1.43981174e-01 2.25955769e-01 8.83615613e-02 5.87216020e-02
      3.32653821e-02 1.88903268e-02 1.05782198e-02 5.67999594e-02
      8.30546916e-02 3.56298774e-01 3.56298774e-01 2.05791250e-01
      2.71397978e-01 3.02484691e-01 1.83004022e-01 4.75719497e-02
      4.36134338e-02 2.43209675e-02 1.08240452e-02 5.16783595e-02
      2.44784236e-01 3.03344250e-01 2.52309114e-01 5.76935075e-02
      1.89515874e-02 6.53812848e-03 7.89576676e-03 5.18847909e-03
      5.41352257e-02 2.33800590e-01 3.03344250e-01 2.69723833e-01
      5.33276387e-02 1.55065395e-03 1.02803111e-03 4.16460484e-02
      4.41056862e-02 9.39052552e-02 3.03344250e-01 3.03344250e-01
      1.52597785e-01 5.25645213e-04 7.31652183e-03 4.49384302e-02
      1.04102321e-01 5.62173501e-02 1.35077342e-01 3.03344250e-01
      2.20265105e-01 2.09293470e-01 3.15053761e-02 8.68729968e-03
      2.43797377e-02 3.68616916e-02 2.74665114e-02 6.41664639e-02
      2.94911504e-01 3.19004893e-01 1.21656992e-01 2.12536395e-01
      4.03245129e-02 2.14151200e-02 3.69057842e-02 2.71207001e-02
      2.13570848e-01 3.19004893e-01 1.36609659e-01 1.98538557e-01
      7.04185292e-02 6.67609945e-02 1.01133607e-01 5.69874868e-02
      6.51588887e-02 8.22080374e-02 1.85380280e-01 1.09182417e-01
      1.13388874e-01 3.19004893e-01 3.19004893e-01 1.59385577e-01
      6.06147237e-02 1.57747731e-01 1.82453692e-01 2.33307779e-01
      1.40942141e-01 2.69822210e-01 3.60363573e-01 2.22254142e-01
      9.20459703e-02 2.89326850e-02 1.21623045e-02 3.20543759e-02
      4.35576700e-02 3.79710384e-02 7.81938434e-02 3.47092301e-01
      2.23728865e-01 4.59341444e-02 4.44453657e-02 1.14218052e-02
      4.85191420e-02 3.21864448e-02 6.52560070e-02 1.75198674e-01
      3.60363573e-01 1.97626829e-01 9.03375000e-02 4.97511737e-02
      5.52051589e-02 5.68867922e-02 2.70035043e-02 6.08825944e-02
      2.79604644e-01 3.60363573e-01 2.99872726e-01 2.96641812e-02
      2.60794517e-02 7.24337250e-03 1.79820992e-02 3.56807522e-02
      5.68464510e-02 4.91426885e-03 7.05192506e-04 1.14918994e-02
      1.99581292e-02 5.78917712e-02 3.50922316e-01 3.29259008e-01
      7.94037059e-02 1.90121695e-01 3.53536848e-03 6.01869822e-03
      2.31363308e-02 4.26715463e-02 1.83599386e-02 3.50922316e-01
      3.50922316e-01 3.50922316e-01 1.10668860e-01 4.46351469e-02
      2.78832261e-02 4.26880171e-04 2.95898016e-03 2.13264450e-02
      4.56547737e-02 1.06842726e-01 1.57619238e-01 2.82990009e-01
      3.01895421e-02 4.14923020e-02 5.11156511e-04 1.21646756e-02
      9.96422395e-03 1.96221143e-01 2.11488932e-01 3.50922316e-01
      2.18314424e-01 3.77025977e-02 1.35742370e-02 1.81941558e-02
      9.77993105e-03 2.29065660e-02 1.34023115e-01 2.53027111e-01
      2.73256719e-01 2.52121031e-01 5.24358079e-02 5.90748899e-02
      1.92020889e-02 4.27736714e-03 8.28494430e-02 1.22305922e-01
      1.56891212e-01 3.16808462e-01 3.14667344e-01 5.86247854e-02
      1.75776891e-02 1.18113274e-03 5.34129678e-04 1.18268863e-03
      1.09927669e-01 3.05563778e-01 3.22257787e-01 3.22257787e-01
      1.17833249e-01 4.67525981e-02 3.89464274e-02 9.66566801e-03
      3.81829403e-02 5.96201271e-02 1.74498171e-01 3.22257787e-01
      9.58932638e-02 1.86142325e-02 7.50772581e-02 1.40645206e-01
      1.12265088e-01 5.84094785e-02 4.41454761e-02 1.21774636e-01
      2.65872508e-01 2.99600065e-01 1.12560362e-01 5.76938763e-02
      6.16334528e-02 4.57380824e-02 5.12164719e-02 3.96146625e-02
      1.69558018e-01 2.99600065e-01 2.61145651e-01 6.70171678e-02
      1.13816641e-01 2.38050416e-01 1.60278216e-01 1.47106692e-01
      1.51956514e-01 1.27594486e-01 2.90868998e-01 2.99600065e-01
      2.03936026e-01 1.15350336e-01 1.87660620e-01 5.71958125e-02
      6.46237582e-02 9.91404653e-02 1.53911442e-01 2.99600065e-01
      2.88612217e-01 1.82907254e-01 3.32880057e-02 3.27257104e-02
      2.95885168e-02 8.37593153e-02 5.35589121e-02 4.14283909e-02
      2.53924310e-01 2.88612217e-01 1.14710413e-01 2.48760700e-01
      7.10546821e-02 1.46204093e-02 2.67493650e-02 1.18293300e-01
      1.93531558e-01 2.88612217e-01 2.88612217e-01 1.71979368e-01
      9.99048278e-02 1.25781059e-01 1.37818873e-01 1.67003095e-01
      4.88436893e-02 1.18852869e-01 2.07781643e-01 2.17803881e-01
      9.67183411e-02 2.80764461e-01 1.18196972e-01 6.19507320e-02
      5.08923084e-02 1.37592524e-01 1.61904216e-01 2.36138970e-01
      2.77028441e-01 3.53476107e-02 2.05264371e-02 1.72076020e-02
      5.28198890e-02 7.18752816e-02 1.46155223e-01 2.43810415e-01
      2.83786029e-01 1.41378015e-01 2.40123138e-01 1.47970751e-01
      9.47038233e-02 6.27017692e-02 1.19050130e-01 1.24197774e-01
      1.93653598e-01 1.11643605e-01 2.83786029e-01 4.44262922e-02
      2.68018581e-02 1.70581397e-02 5.91502599e-02 1.23934716e-01
      2.41900668e-01 2.20988214e-01 2.83786029e-01 2.83786029e-01
      2.00798258e-01 1.04938686e-01 1.03084289e-01 7.48508275e-02
      1.35886848e-01 1.04011044e-01 9.47345272e-02 2.83786029e-01
      2.88465738e-01 2.92665035e-01 2.27890745e-01 1.47609681e-01
      4.66972664e-02 2.97348835e-02 6.99283257e-02 8.36454257e-02
      3.70833687e-02 2.92665035e-01 2.92665035e-01 2.92665035e-01
      5.19010909e-02 1.22582456e-02 9.45623685e-03 1.33413188e-02
      8.86278525e-02 9.92297456e-02 2.92665035e-01 2.92665035e-01
      1.53947979e-01 1.25827000e-01 3.84224467e-02 1.63153838e-02
      3.46051231e-02 3.10159177e-02 9.54606086e-02 2.75147080e-01
      2.92665035e-01 2.42318586e-01 9.92845744e-02 2.05903370e-02
      6.51040673e-03 4.04673349e-03 2.60945149e-02 7.37473369e-02
      1.39752001e-01 1.23868145e-01 6.53811246e-02 9.02188495e-02
      7.35945925e-02 2.04797462e-01 2.84425139e-01 1.78063735e-01
      1.34537444e-01 1.66296378e-01 1.19078778e-01 1.05862729e-01
      2.27167130e-01 1.30347162e-01 1.33539781e-01 1.55354932e-01
      2.21606433e-01 2.51951456e-01 1.64092407e-01 1.57371506e-01
      4.77476679e-02 4.15257812e-02 1.28433421e-01 1.66735947e-01
      3.15762877e-01 1.93633869e-01 7.19028711e-02 1.65516213e-01
      1.69154316e-01 6.49772137e-02 1.70645654e-01 2.30642781e-01
      1.13081604e-01 2.27865905e-01 1.56268492e-01 1.27393693e-01
      1.17833368e-01 4.20808457e-02 1.79189935e-01 1.52666047e-01
      1.57519311e-01 4.45053540e-02 8.05568993e-02 1.74775258e-01
      1.41999617e-01 1.67992711e-01 8.42935219e-02 2.45746091e-01
      2.38238052e-01 1.43035755e-01 8.31254274e-02 8.94839838e-02
      1.73570693e-01 1.01835296e-01 2.13135794e-01 1.29034832e-01
      1.29605711e-01 2.17778370e-01 1.91814348e-01 3.66766602e-02
      1.76089808e-01 1.12801887e-01 9.78433564e-02 2.22783461e-01
      7.03950152e-02 2.78025329e-01 3.12425196e-01 2.09607780e-01
      2.32932448e-01 2.17847899e-01 1.07061557e-01 6.46942854e-02
      3.46993327e-01 8.26748908e-02 6.06383905e-02 3.14301252e-02
      4.40230742e-02 1.29893839e-01 1.49305075e-01 9.03736651e-02
      4.30510759e-01 4.06589061e-01 7.49103278e-02 1.22233912e-01
      4.27989587e-02 4.67777066e-02 8.75371695e-02 1.39140025e-01
      5.60223497e-02 4.31374073e-01 8.72157514e-02 2.59705968e-02
      4.58990857e-02 9.48659107e-02 8.54098871e-02 1.82502523e-01
      1.55153885e-01 9.70549062e-02 8.60635415e-02 6.76236302e-02
      9.53243226e-02 4.61084656e-02 1.59693360e-01 8.65669325e-02
      1.34377584e-01 1.49771824e-01 7.70455003e-02 1.59548923e-01
      2.51292080e-01 7.28156045e-02 1.27219513e-01 9.66935828e-02
      1.35081694e-01 1.23346165e-01 1.27410144e-01 4.94976416e-02
      1.34925932e-01 1.09031744e-01 1.32897988e-01 2.15694159e-01
      1.19251475e-01 2.54832685e-01 1.40844718e-01 3.30908112e-02
      1.47631727e-02 1.08814485e-01 1.59764320e-01 1.44171715e-01
      1.44037679e-01 1.32468954e-01 2.48016953e-01 1.12783141e-01
      4.42093536e-02 5.11365198e-02 8.32758397e-02 1.03144884e-01
      3.37530136e-01 2.55322665e-01 9.10401717e-02 4.16982323e-01
      2.14642182e-01 6.04002923e-03 1.78659167e-02 2.27520213e-01
      3.89379635e-03 2.03505047e-02 1.74002796e-02 7.54198991e-03
      5.26692867e-02 3.08825392e-02 3.21453184e-01 2.91958809e-01
      4.08808962e-02 1.71934930e-03 2.07414180e-02 2.07630713e-02
      1.06669635e-01 3.27765405e-01 2.20491350e-01 3.54685694e-01
      3.54685694e-01 5.79525717e-02 7.61184888e-03 1.31294560e-02
      2.44404376e-02 1.26043474e-02 7.11182877e-02 1.90249775e-02
      5.09396195e-02 4.74825986e-02 2.86914688e-02 2.68641883e-03
      1.74996001e-03 3.97310853e-02 4.50566225e-02 3.54685694e-01
      2.48660222e-01 3.54685694e-01 2.20649421e-01 2.49929838e-02
      3.77590246e-02 5.62352352e-02 2.27610067e-01 6.72401190e-02
      1.49109676e-01 4.47846800e-02 8.63598064e-02 1.38879895e-01
      5.85248210e-02 9.41339433e-02 2.22377971e-01 3.25879782e-01
      8.31243768e-02 1.32325053e-01 9.97207016e-02 6.21406026e-02
      8.26197043e-02 1.02049693e-01 4.91028950e-02 1.38335958e-01
      3.25879782e-01 1.72015056e-01 3.25879782e-01 1.16854005e-01
      9.78632644e-02 1.63261563e-01 9.25550833e-02 1.08044036e-01
      3.25879782e-01 3.25879782e-01 2.10546747e-01 2.22222492e-01
      3.64758223e-02 1.61144696e-02 7.36893564e-02 1.21056706e-01</_>
    <_>
      9.92274582e-02 3.20716505e-03 7.50406981e-02 1.36832431e-01
      8.09394047e-02 6.53506741e-02 1.30181551e-01 1.26650244e-01
      1.76279962e-01 5.84163517e-02 6.36442676e-02 1.14202946e-01
      1.41802952e-01 1.83188722e-01 1.46694884e-01 8.95565972e-02
      1.80879697e-01 1.04324587e-01 2.14718059e-01 4.34832163e-02
      6.38746768e-02 1.05057597e-01 9.06039625e-02 3.36117268e-01
      2.57642657e-01 3.78054172e-01 3.07569087e-01 5.65306842e-02
      1.11852726e-02 4.99103405e-02 6.36727437e-02 2.26653337e-01
      2.56427288e-01 1.20287776e-01 2.71616280e-01 1.90734491e-01
      3.58209275e-02 7.89979398e-02 9.14561227e-02 1.09270342e-01
      1.30618185e-01 5.80938645e-02 3.27446982e-02 9.02878717e-02
      7.96515420e-02 1.30954340e-01 1.25516668e-01 4.62019667e-02
      2.83837974e-01 3.31163824e-01 1.89795390e-01 1.71392009e-01
      3.31203230e-02 7.08698183e-02 1.69296563e-01 8.86542872e-02
      6.70231283e-02 7.55833760e-02 1.98915854e-01 5.27679287e-02
      4.27983180e-02 4.43768613e-02 1.48877621e-01 3.48117411e-01
      1.81942970e-01 1.14482149e-01 1.82242587e-01 3.68720978e-01
      3.36877912e-01 1.63644239e-01 1.40195079e-02 2.08869383e-01
      1.69845149e-01 1.20392367e-01 2.77114753e-02 2.73121744e-02
      4.60711345e-02 5.38111515e-02 1.55338421e-01 1.72862455e-01
      2.44920850e-01 1.97278619e-01 8.41715112e-02 8.33978206e-02
      6.91313669e-02 1.05572246e-01 3.40378582e-02 2.73220479e-01
      2.04338700e-01 2.34658986e-01 1.50425658e-01 1.38337195e-01
      9.53320339e-02 3.27781923e-02 1.00368723e-01 1.36859402e-01
      2.88312137e-01 2.88312137e-01 1.51814535e-01 2.59486049e-01
      2.04593971e-01 1.49285808e-01 9.13560539e-02 1.71681643e-01
      1.36244476e-01 2.01270506e-01 2.88312137e-01 1.01067342e-01
      2.62574330e-02 1.08177401e-02 7.66392390e-04 1.79957692e-02
      1.14741690e-01 1.79401472e-01 8.39796960e-02 8.87447894e-02
      1.18366897e-01 7.83295929e-02 1.33888815e-02 1.04067577e-02
      6.90636411e-02 2.34161571e-01 3.06725055e-01 1.19065814e-01
      7.94630200e-02 2.99858749e-01 3.06725055e-01 6.18166849e-02
      5.41390069e-02 3.06828860e-02 4.96451147e-02 8.23670477e-02
      2.25624159e-01 2.66618729e-01 3.06725055e-01 1.55465007e-01
      2.66951807e-02 2.64080502e-02 2.29116753e-02 4.23822030e-02
      1.17333800e-01 3.06725055e-01 3.06725055e-01 3.06725055e-01
      1.00304075e-01 7.56803155e-02 1.33807078e-01 4.64245304e-02
      9.18108448e-02 7.77210519e-02 2.47253045e-01 2.33341098e-01
      2.19973505e-01 4.68789935e-02 4.44557481e-02 1.29025668e-01
      5.30227460e-02 1.46356463e-01 7.60637820e-02 2.25532413e-01
      2.80510545e-01 6.90057278e-02 8.56864527e-02 2.72071566e-02
      1.09438173e-01 8.43978673e-02 1.97292939e-01 1.18697919e-01
      2.26920784e-01 1.54669046e-01 2.08235264e-01 6.75835088e-02
      1.27318026e-02 2.47723401e-01 1.99994236e-01 2.80510545e-01
      2.21251428e-01 2.80510545e-01 2.64593899e-01 1.27887115e-01
      3.53341736e-02 5.10280281e-02 1.12462692e-01 9.62805301e-02
      7.56603628e-02 1.41357377e-01 1.43812343e-01 2.42451012e-01
      1.21628769e-01 1.66163042e-01 5.71121350e-02 6.41235113e-02
      3.50054875e-02 7.79026747e-02 2.15772972e-01 2.90355921e-01
      3.25221628e-01 2.40266308e-01 2.23590806e-01 8.97586197e-02
      1.57074586e-01 1.60210118e-01 8.80683959e-02 6.69239238e-02
      9.35046673e-02 9.32524204e-02 2.73757726e-01 1.53603673e-01
      1.63599402e-01 2.22117484e-01 2.02897459e-01 1.27431795e-01
      1.31327018e-01 1.35647506e-01 1.77749395e-01 2.77537107e-01
      8.06986690e-02 5.68829738e-02 8.13428089e-02 8.84998143e-02
      1.40093654e-01 1.74824148e-01 2.09080160e-01 2.35596970e-01
      9.05798748e-02 1.16094165e-01 4.84168530e-02 1.34371176e-01
      1.66687220e-01 1.35323182e-01 6.64490387e-02 8.05728137e-02
      1.40068218e-01 9.41442028e-02 1.53914899e-01 1.72371790e-01
      1.37132630e-01 1.73398152e-01 2.37207264e-01 1.30122110e-01
      2.50407457e-01 2.44389653e-01 1.95895612e-01 2.86451250e-01
      2.59239674e-01 2.68661082e-01 2.25930855e-01 1.44100532e-01
      8.88337940e-02 3.76600027e-02 1.60328418e-01 1.77257136e-01
      9.41025987e-02 1.32173806e-01 4.55001295e-02 4.45351191e-02
      5.63586615e-02 2.56664809e-02 1.90990511e-03 1.76155567e-02
      1.03401229e-01 1.70617595e-01 2.10133761e-01 7.60744885e-02
      2.80140862e-02 9.73570943e-02 5.47624230e-02 3.91147435e-02
      1.56050146e-01 2.80514300e-01 1.04168884e-01 2.12200925e-01
      8.32691044e-02 2.66778469e-01 1.24826491e-01 1.44832134e-01
      4.95284386e-02 5.20953536e-02 8.93300027e-02 1.60720930e-01
      2.91505843e-01 2.63323933e-01 2.71927595e-01 2.91505843e-01
      2.90523082e-01 1.40762910e-01 2.07441017e-01 2.91505843e-01
      7.71599710e-02 8.74394849e-02 6.25609830e-02 1.00271069e-01
      2.66307712e-01 9.68153849e-02 1.56222835e-01 1.27127811e-01
      6.90495819e-02 9.25613344e-02 5.67194447e-02 4.61036190e-02
      7.73431361e-02 3.00550938e-01 1.52365729e-01 3.08834314e-01
      3.08834314e-01 1.81654021e-01 2.27168664e-01 1.68928146e-01
      1.01517610e-01 1.65137410e-01 1.26901969e-01 6.36008605e-02
      4.51363623e-02 9.10031796e-02 1.29135534e-01 3.08834314e-01
      1.57142654e-01 1.75524633e-02 3.32542546e-02 5.29235341e-02
      3.23405266e-02 1.55576676e-01 3.08834314e-01 2.77031124e-01
      1.23646878e-01 1.25484943e-01 3.55906002e-02 6.12033978e-02
      1.75979450e-01 1.41433373e-01 2.70278007e-01 1.86890587e-01
      2.70278007e-01 7.32687116e-02 1.53347328e-01 2.15521738e-01
      8.11836198e-02 2.22625569e-01 2.08414331e-01 2.70278007e-01
      2.70278007e-01 1.30403385e-01 7.15640560e-02 1.19964182e-01
      5.51458932e-02 8.52604657e-02 5.15913479e-02 1.46693900e-01
      2.70278007e-01 2.39877746e-01 2.09735096e-01 4.47574928e-02
      1.76568419e-01 1.85805455e-01 1.35457501e-01 6.60829842e-02
      1.66807011e-01 1.45915091e-01 1.31484032e-01 7.62596205e-02
      8.63830671e-02 5.87868094e-02 1.54375667e-02 1.15097336e-01
      5.43270446e-02 9.29003581e-02 1.26439855e-01 1.98596492e-01
      1.82386398e-01 7.42402375e-02 9.51128900e-02 1.28329601e-02
      2.15596661e-01 1.09773628e-01 8.64668861e-02 9.40665677e-02
      3.64961028e-01 1.26365319e-01 4.68731709e-02 3.62137705e-02
      4.59343493e-02 4.19558026e-02 1.64634120e-02 6.10125214e-02
      3.23152304e-01 3.41386169e-01 2.84191787e-01 7.96663761e-02
      6.45616427e-02 6.89015388e-02 4.53207418e-02 1.35904290e-02
      2.19390988e-02 1.88272119e-01 3.64961028e-01 3.64961028e-01
      1.74839512e-01 5.76997437e-02 1.02391765e-02 5.07209376e-02
      1.43139765e-01 1.07803911e-01 2.60321707e-01 3.17638099e-01
      1.02315560e-01 1.43442661e-01 4.60592061e-02 3.57358567e-02
      8.15569088e-02 2.11051971e-01 1.03094779e-01 2.41051227e-01
      1.98536202e-01 1.23229049e-01 1.77691668e-01 4.93213348e-02
      4.04199958e-02 4.13514003e-02 7.54155070e-02 9.01472494e-02
      1.65862918e-01 3.17638099e-01 1.67843148e-01 3.17638099e-01
      2.75437921e-01 1.84206411e-01 7.08645284e-02 8.98034051e-02
      5.15059344e-02 8.77091885e-02 1.72590867e-01 2.80807674e-01
      1.21540546e-01 1.45418525e-01 2.77839929e-01 1.78379387e-01
      1.56230062e-01 7.21670464e-02 1.71181187e-02 4.23345268e-02
      9.19203982e-02 7.30718076e-02 1.21395268e-01 1.28449082e-01
      1.46274522e-01 2.84757882e-01 2.31366143e-01 7.90655091e-02
      1.42826512e-01 1.92039505e-01 1.59295648e-01 1.53180182e-01
      9.34154913e-02 1.45670116e-01 1.39043644e-01 1.12115011e-01
      2.21293733e-01 2.84757882e-01 8.85208473e-02 3.11739463e-02
      5.68622388e-02 1.01755396e-01 2.27688298e-01 2.84757882e-01
      2.84757882e-01 1.62674695e-01 1.77354813e-01 1.44487888e-01
      1.23381563e-01 1.09452948e-01 2.80986857e-02 2.98360307e-02
      7.52828941e-02 7.25375712e-02 2.08553657e-01 1.82500064e-01
      1.42365262e-01 2.41541609e-01 2.92791069e-01 2.92791069e-01
      6.23923540e-02 5.61034307e-02 3.62013094e-02 7.34672174e-02
      6.60692677e-02 1.14915356e-01 2.32680112e-01 2.16025546e-01
      7.93188736e-02 3.81694995e-02 1.04754239e-01 8.14813077e-02
      1.40101269e-01 1.91315040e-01 2.92791069e-01 2.92791069e-01
      2.92791069e-01 1.83453515e-01 2.81626787e-02 1.83477793e-02
      1.47674121e-02 8.51450711e-02 1.77543834e-01 2.92791069e-01
      1.39127195e-01 3.54003996e-01 3.54003996e-01 1.95404187e-01
      2.90260967e-02 3.17715183e-02 2.05502883e-02 3.91081870e-02
      1.24310456e-01 2.30273008e-01 1.01635978e-01 1.10976182e-01
      7.55880475e-02 7.58395530e-03 6.09601624e-02 1.18520036e-01
      2.71924198e-01 2.88819313e-01 1.32097617e-01 1.12285919e-01
      1.79413274e-01 9.15494412e-02 6.55241832e-02 8.69951397e-02
      2.69089133e-01 1.14927806e-01 1.81533784e-01 2.27790877e-01
      3.27605382e-02 7.89298341e-02 8.88671428e-02 1.99889302e-01
      1.04362853e-01 8.49097148e-02 1.47787422e-01 2.53802180e-01
      6.45461306e-02 1.42084183e-02 5.83420396e-02 4.84113507e-02
      2.64466424e-02 5.12046292e-02 2.79232115e-01 3.16410840e-01
      1.73741192e-01 5.89117222e-02 3.54572199e-02 6.31811172e-02
      9.17916149e-02 7.67398477e-02 1.21547878e-01 1.35209873e-01
      2.46580839e-01 1.72423735e-01 6.34822696e-02 3.50953080e-02
      1.10064885e-02 8.91400687e-03 8.94793123e-03 5.65794036e-02
      2.81621903e-01 3.35746855e-01 2.17878446e-01 3.74012552e-02
      1.55759873e-02 1.69420820e-02 2.23329905e-02 1.10813841e-01
      3.35746855e-01 3.35746855e-01 3.35746855e-01 1.64856911e-01
      9.10219401e-02 9.84367877e-02 6.44703656e-02 2.14542761e-01
      1.28469080e-01 6.74772486e-02 1.28609955e-01 4.80424799e-02
      7.35215023e-02 1.51579708e-01 1.92394495e-01 6.36548400e-02
      2.43093327e-01 1.77562743e-01 6.81292489e-02 1.74876824e-01
      1.41442508e-01 1.60143554e-01 1.81053296e-01 2.61417300e-01
      1.52251214e-01 2.38160655e-01 2.51662940e-01 1.38933778e-01
      6.78944066e-02 1.15013763e-01 4.16473150e-02 2.41585404e-01
      2.94662625e-01 1.45406976e-01 3.09900522e-01 2.00109228e-01
      7.49766603e-02 7.05903396e-02 1.51397437e-01 1.69254497e-01
      4.39436920e-02 5.19060753e-02 2.72475798e-02 9.28358361e-03
      3.46471407e-02 5.19407503e-02 1.98828861e-01 2.21764237e-01
      1.57711416e-01 7.27704018e-02 2.34619573e-01 1.74554691e-01
      4.18885648e-02 2.07421958e-01 1.51633352e-01 1.42165855e-01
      1.05161637e-01 1.58575609e-01 1.15177400e-01 3.30300890e-02
      1.86739508e-02 3.19591947e-02 2.26738434e-02 8.43748674e-02
      2.92767614e-01 2.92767614e-01 1.94069773e-01 1.51651561e-01
      1.33840263e-01 1.51258409e-01 9.05875787e-02 2.85589218e-01
      2.92767614e-01 2.92767614e-01 2.92767614e-01 1.26463234e-01
      1.12947039e-01 4.20626141e-02 4.20691408e-02 6.16310835e-02
      1.08138509e-01 1.31540686e-01 2.35132873e-01 1.47359669e-01
      1.26180008e-01 9.02173817e-02 1.23561591e-01 2.91004747e-01
      2.91004747e-01 1.97734356e-01 9.54527259e-02 9.54211652e-02
      6.23225458e-02 3.52616906e-02 8.56586173e-02 4.03526984e-02
      4.73700538e-02 2.30498746e-01 2.91004747e-01 2.26450264e-01
      1.20618261e-01 9.59007815e-02 1.46713540e-01 3.88647504e-02
      4.95664589e-02 2.82464117e-01 2.91004747e-01 2.91004747e-01
      2.91004747e-01 1.08872801e-01 5.01285903e-02 4.59984727e-02
      8.77564922e-02 1.50255844e-01 2.31181666e-01 1.72665700e-01
      2.36038774e-01 1.58100933e-01 7.41586015e-02 1.21844701e-01
      1.07305728e-01 9.02754515e-02 2.24744435e-02 9.70861614e-02
      1.79262057e-01 1.27967209e-01 1.05423622e-01 2.12091133e-01
      3.32330883e-01 1.77279383e-01 1.17011093e-01 1.64798632e-01
      1.88582003e-01 1.26679868e-01 5.75671904e-02 8.25998485e-02
      4.87093441e-02 4.71168980e-02 1.46399945e-01 1.65838063e-01
      5.93085550e-02 1.32137895e-01 3.24421376e-01 3.00249666e-01
      3.30520034e-01 1.03424735e-01 6.69887513e-02 9.39869583e-02
      4.78956513e-02 1.52463391e-01 1.95466533e-01 1.85582936e-01
      1.54629514e-01 1.90429613e-02 3.92983109e-02 5.38328923e-02
      5.05278967e-02 8.60390887e-02 6.93092197e-02 2.00279593e-01
      1.58448204e-01 2.57655799e-01 1.89486653e-01 7.57882968e-02
      3.20071168e-02 6.82869479e-02 2.39530578e-02 1.80232987e-01
      1.76396191e-01 2.10282445e-01 1.65783167e-01 2.44136408e-01
      1.46259576e-01 2.57655799e-01 7.24969432e-02 9.95362476e-02
      2.57655799e-01 2.57655799e-01 2.57655799e-01 2.57655799e-01
      2.57655799e-01 1.35752231e-01 1.66766956e-01 1.51481349e-02
      1.12980399e-02 1.08018117e-02 3.03443242e-02 6.62848055e-02
      1.75348654e-01 1.01912238e-01 8.69846344e-02 4.81691174e-02
      4.06801924e-02 3.57384607e-02 7.85864145e-02 3.35237049e-02
      1.96659207e-01 3.01532894e-01 3.01532894e-01 1.38897747e-01
      3.51885855e-02 1.00341365e-02 3.12208757e-02 1.29384875e-01
      1.95883855e-01 2.63248771e-01 2.72472799e-01 7.65863210e-02
      3.78117524e-02 3.46893780e-02 5.17055839e-02 6.86986297e-02
      3.01532894e-01 2.24570617e-01 2.91706920e-01 2.77213246e-01
      2.04027966e-01 2.80709326e-01 2.05787748e-01 8.62533599e-02
      7.40868673e-02 5.74756637e-02 4.53635231e-02 3.91349718e-02
      1.77784622e-01 1.64482504e-01 2.00391307e-01 1.04572147e-01
      1.50790974e-01 4.74715717e-02 4.91288714e-02 5.37493974e-02
      4.02028337e-02 1.49689436e-01 2.57821172e-01 2.57821172e-01
      1.89897403e-01 1.11406304e-01 1.09205514e-01 1.10905416e-01
      6.66428506e-02 2.73060147e-02 2.57642984e-01 1.94244444e-01
      2.54156947e-01 1.79074928e-01 1.62091956e-01 1.71986908e-01
      2.57821172e-01 2.47677326e-01 2.70374846e-02 2.57821172e-01
      2.32453749e-01 1.62426710e-01 2.57821172e-01 1.07734703e-01
      1.62724897e-01 1.90924853e-01 2.32938945e-01 1.84032351e-01
      2.76927173e-01 1.57444358e-01 1.34642437e-01 9.24511626e-02
      1.80733010e-01 7.09212646e-02 6.31278157e-02 1.70232013e-01
      2.57403493e-01 2.76927173e-01 1.88842550e-01 2.76927173e-01
      1.18685231e-01 6.57777265e-02 1.59240663e-01 2.61969030e-01
      2.28511870e-01 6.15018345e-02 1.67341933e-01 8.99247080e-02
      4.97584492e-02 6.23701699e-02 1.93427131e-01 5.29086925e-02
      5.27628772e-02 8.52151215e-02 6.02361783e-02 1.08122870e-01
      1.28817603e-01 2.45726943e-01 1.76549733e-01 8.65333676e-02
      9.83982012e-02 7.70372450e-02 6.11380972e-02 5.42738587e-02
      1.53039634e-01 2.16370195e-01 2.57886142e-01 1.47973210e-01
      1.25296921e-01 1.13196269e-01 2.14131437e-02 4.68436852e-02
      5.95121048e-02 1.65681675e-01 2.99183846e-01 2.99183846e-01
      1.95738718e-01 1.14278018e-01 8.58598799e-02 1.25355404e-02
      2.75660381e-02 4.31018136e-02 1.31772146e-01 1.80172279e-01
      1.80388615e-01 1.73126057e-01 1.15219526e-01 2.99183846e-01
      3.72557342e-02 6.04149885e-02 1.85012534e-01 1.64669335e-01
      2.36247301e-01 2.99183846e-01 2.48106077e-01 1.58059806e-01
      1.09729595e-01 1.99989751e-02 3.69006000e-03 9.03673843e-03
      1.06547438e-02 2.20187977e-02 4.40154262e-02 1.57924429e-01
      2.16748014e-01 1.37663871e-01 5.23857139e-02 1.73204672e-02
      1.01886690e-02 3.37635018e-02 1.08546102e-02 1.80429053e-02
      8.49281326e-02 1.84910908e-01 3.78569633e-01 1.53087676e-02
      4.74186754e-03 4.75849286e-02 2.62036510e-02 1.23276152e-02
      1.26984656e-01 3.78569633e-01 3.78569633e-01 3.78569633e-01
      1.50330022e-01 5.25851510e-02 1.05539607e-02 1.97215844e-03
      1.28294853e-03 4.75758910e-02 2.83433497e-01 3.78569633e-01
      2.86630780e-01 1.49651095e-01 1.12032674e-01 7.77087733e-02
      4.01924774e-02 5.34262694e-02 9.52495933e-02 1.25897780e-01
      1.99308544e-01 2.68085241e-01 1.32796496e-01 5.48375472e-02
      3.66235301e-02 4.80007418e-02 4.57382277e-02 1.21417530e-01
      2.73440659e-01 2.86630780e-01 2.86630780e-01 1.31425798e-01
      1.99573442e-01 1.60211936e-01 4.99520861e-02 5.31464890e-02
      7.20187202e-02 1.20992281e-01 2.00675815e-01 1.94409177e-01
      5.77227958e-02 4.55854423e-02 4.79349345e-02 3.58997621e-02
      1.06543519e-01 2.86630780e-01 2.86630780e-01 2.86630780e-01
      1.10461943e-01 1.81039516e-02 4.84313965e-02 4.03034575e-02
      1.02032363e-01 4.37217765e-02 6.82689175e-02 7.36705363e-02
      1.04324117e-01 1.22970872e-01 3.35288346e-02 8.59089494e-02
      5.55616841e-02 3.16257656e-01 3.16257656e-01 3.16257656e-01
      1.36058480e-01 6.80079013e-02 3.16257656e-01 5.43011501e-02
      1.88111253e-02 2.93269102e-02 2.16522776e-02 1.90901309e-02
      7.20032752e-02 9.18720216e-02 3.16257656e-01 3.16257656e-01
      7.08890036e-02 2.29516312e-01 1.10887967e-01 1.20265670e-01
      2.62159258e-01 1.36538357e-01 8.13022405e-02 3.16257656e-01
      3.03471208e-01 2.68162042e-01 4.37781774e-02 5.45021966e-02
      3.96007150e-02 9.12956372e-02 1.96919203e-01 2.25016132e-01
      1.30581096e-01 1.15926988e-01 1.62587225e-01 8.83156620e-03
      9.31540318e-03 9.08583328e-02 3.23134661e-01 3.23134661e-01
      3.23134661e-01 8.47304538e-02 8.15354660e-02 3.82683687e-02
      4.10896800e-02 1.33402064e-01 8.50201696e-02 8.71378332e-02
      9.69437808e-02 5.46355769e-02 3.73559669e-02 7.62583986e-02
      1.97713543e-02 8.51024000e-04 3.23150679e-02 9.06737223e-02
      2.91914254e-01 3.23134661e-01 2.81842262e-01 4.53732722e-02
      7.79799372e-02 4.48903404e-02 8.09603930e-02 5.50235137e-02
      8.30069780e-02 1.65324211e-01 1.43976644e-01 1.13709740e-01
      8.62393156e-03 1.68813854e-01 7.60233551e-02 1.38684049e-01
      7.42360353e-02 3.31396349e-02 1.63286775e-01 1.13236867e-01
      7.48808980e-02 5.21511286e-02 2.01448008e-01 9.08609852e-02
      3.04470155e-02 8.21616733e-04 4.77966070e-02 2.11999655e-01
      3.89683604e-01 3.89683604e-01 1.72233284e-01 3.67917299e-01
      2.23669767e-01 1.00459293e-01 1.31298713e-02 8.27711299e-02
      1.36091873e-01 2.08522066e-01 2.94450253e-01 1.44798145e-01
      2.09206164e-01 9.20764580e-02 2.40081884e-02 6.66098250e-03
      1.36338621e-01 1.42701373e-01 4.43765372e-02 7.81720057e-02
      1.34325713e-01 3.67282808e-01 1.20084584e-01 2.09693387e-02
      1.08794764e-01 3.67282808e-01 2.05119938e-01 1.96515664e-01
      1.33622512e-01 3.67282808e-01 2.27938205e-01 9.12266001e-02
      3.87716182e-02 7.37667736e-03 5.37961274e-02 2.88283601e-02
      9.75931063e-03 3.60081606e-02 8.83842856e-02 2.66923428e-01
      5.70417121e-02 3.22958343e-02 3.70926224e-02 2.12386057e-01
      8.08451474e-02 2.13651538e-01 1.31119922e-01 2.86856592e-01
      2.82140106e-01 2.18142018e-01 1.15279913e-01 8.17779005e-02
      3.03290933e-02 7.60661662e-02 1.80358022e-01 1.47398666e-01
      1.86632335e-01 2.82140106e-01 2.40156144e-01 1.48723722e-01
      8.81713405e-02 7.82011077e-02 1.35444775e-01 1.55011192e-01
      1.19324125e-01 2.82140106e-01 8.51505771e-02 1.15729310e-01
      9.85138714e-02 5.20517975e-02 1.59356818e-01 8.23532268e-02
      1.58221632e-01 2.24192992e-01 2.11664736e-01 2.50111371e-01
      1.82340756e-01 1.18017063e-01 1.38633013e-01 1.59617633e-01
      8.60215649e-02 1.65263578e-01 1.86420292e-01 1.88397914e-01
      1.68078676e-01 1.87123880e-01 6.68206960e-02 9.20371488e-02
      1.83139384e-01 5.59108704e-02 3.74567509e-02 1.61103550e-02
      6.80497065e-02 2.55931288e-01 2.08144277e-01 2.77864426e-01
      1.17007986e-01 2.20234722e-01 9.30479541e-02 4.83548716e-02
      2.39427155e-03 1.80113524e-01 2.64022499e-01 2.14146122e-01
      6.66150898e-02 6.76801205e-02 2.03832880e-01 8.75808448e-02
      7.33736530e-02 2.89340056e-02 1.75687313e-01 2.77864426e-01
      2.30950952e-01 2.77864426e-01 1.42721653e-01 2.77864426e-01
      9.55947489e-02 1.89678133e-01 2.22434178e-02 1.56708151e-01
      2.41938472e-01 2.57589787e-01 1.69460073e-01 2.23417103e-01
      1.49722338e-01 7.73698017e-02 7.31158033e-02 4.23632748e-02
      1.74064130e-01 1.88693717e-01 2.67986417e-01 2.08146557e-01
      2.04647273e-01 1.46655947e-01 2.99350828e-01 9.08363760e-02
      3.10650561e-02 1.39613360e-01 1.88822046e-01 1.32718399e-01
      1.03019200e-01 1.53833464e-01 1.79192960e-01 6.11446463e-02
      5.01444452e-02 6.31704479e-02 1.99258551e-01 1.39233753e-01
      6.63308427e-02 8.78457204e-02 9.65312943e-02 2.08584860e-01
      2.98334718e-01 1.24568239e-01 1.12981334e-01 1.54842541e-01
      7.37098381e-02 3.84209715e-02 3.44896428e-02 4.73894179e-02
      1.08933501e-01 1.59434125e-01 1.32993460e-01 2.37613991e-01
      5.11608571e-02 1.20575726e-01 3.39001939e-02 1.49546117e-02
      1.66712552e-02 6.70937970e-02 1.52508885e-01 2.03477070e-01
      3.55146855e-01 2.23584771e-01 2.44974777e-01 1.27150184e-02
      4.98146564e-02 1.68550327e-01 3.03990662e-01 2.01337442e-01
      9.35626626e-02 1.30468294e-01 8.03717971e-02 1.58588573e-01
      2.56587654e-01 2.34399572e-01 2.62948237e-02 2.52134770e-01
      1.95029691e-01 1.39787465e-01 2.49159113e-01 1.56476140e-01
      1.49376959e-01 5.81412427e-02 6.49918616e-03 5.60954735e-02
      8.00856203e-02 6.12599999e-02 2.81191230e-01 3.44817877e-01
      1.80814937e-01 3.44817877e-01 2.89905779e-02 1.44973844e-02
      1.28907673e-02 6.11061305e-02 4.67836857e-02 2.71630734e-01
      3.44817877e-01 3.44817877e-01 7.98413232e-02 1.80456638e-01
      6.12441599e-02 8.62269327e-02 2.13605747e-01 5.50582409e-02
      1.03947796e-01 7.27365986e-02 4.16790172e-02 1.24432512e-01
      6.18422516e-02 4.28668857e-02 3.20591442e-02 1.56817377e-01
      1.02953359e-01 1.37931153e-01 2.44739950e-01 1.90574676e-01</_>
    <_>
      8.94115046e-02 3.35066840e-02 3.42799835e-02 0. 1.42132238e-01 0.
      0. 0. 8.94115046e-02 4.10757288e-02 4.28938493e-02 3.23730916e-01
      1.36806875e-01 3.10509056e-01 0. 1.25304699e-01 4.07413132e-02
      4.10757288e-02 3.23730916e-01 3.77741084e-02 1.05053455e-01
      6.96649849e-02 1.99857950e-01 3.68042253e-02 9.78663117e-02
      1.18976049e-01 2.90279716e-01 2.55596489e-01 1.18770348e-02
      1.28348500e-01 2.05987692e-01 3.23730916e-01 2.45361477e-02
      3.23730916e-01 2.29145288e-01 2.39308983e-01 7.91386813e-02
      3.12636435e-01 2.86803693e-01 7.11350143e-02 4.07632478e-02
      5.52083272e-03 1.10384762e-01 1.27209738e-01 8.38472024e-02
      8.53964686e-02 2.15990260e-01 1.90912560e-01 1.17646292e-01
      3.35445143e-02 1.73961408e-02 5.33074103e-02 1.94564238e-01
      1.87752292e-01 7.55203813e-02 1.94949538e-01 1.38247192e-01
      1.21244259e-01 9.55201387e-02 1.27764553e-01 3.12636435e-01
      1.76601961e-01 3.47245894e-02 7.18393847e-02 1.95247546e-01
      3.12636435e-01 2.01018646e-01 5.80037385e-02 1.25544608e-01
      2.80591667e-01 2.66519040e-01 5.85678928e-02 1.78460538e-01
      6.16581552e-02 3.67818139e-02 7.75911938e-03 2.47710533e-02
      7.20175281e-02 1.05278499e-01 2.78225958e-01 2.67029315e-01
      1.52906343e-01 5.13217747e-02 2.06931029e-02 3.41622042e-03
      9.41935256e-02 6.77555725e-02 2.30859339e-01 2.83547163e-01
      2.83547163e-01 5.50697967e-02 3.29425782e-02 4.83856685e-02
      1.07962802e-01 5.06382845e-02 1.65007517e-01 2.30696335e-01
      2.83547163e-01 1.38949513e-01 1.30093828e-01 2.27049980e-02
      1.49934636e-02 2.61372775e-02 2.01915622e-01 2.83547163e-01
      2.82067269e-01 2.65993983e-01 2.23224238e-01 4.49980386e-02
      1.48761626e-02 3.15341428e-02 1.85924042e-02 7.45628178e-02
      1.01281591e-01 2.89030135e-01 2.75394261e-01 2.09003985e-01
      1.41688362e-01 7.29584172e-02 4.95054573e-02 1.74413640e-02
      7.71428570e-02 1.96674734e-01 3.12263072e-01 3.12263072e-01
      3.12263072e-01 5.71510531e-02 2.22127941e-02 1.38938567e-02
      9.18587390e-03 6.42360840e-03 9.13039893e-02 1.69521004e-01
      1.81261986e-01 2.46144608e-01 9.81033072e-02 1.02461122e-01
      2.76449174e-02 2.72153169e-02 6.64583668e-02 2.00385898e-01
      2.90380925e-01 2.95570731e-01 1.91378877e-01 1.08995177e-01
      2.05377303e-02 1.25701651e-02 1.69646293e-02 9.45639089e-02
      2.83188336e-02 2.90553421e-01 2.90553421e-01 1.36744842e-01
      9.98772606e-02 3.88191417e-02 4.47001979e-02 4.34228927e-02
      1.63856104e-01 6.89361989e-02 2.67195791e-01 2.90553421e-01
      1.45849258e-01 1.40052840e-01 1.41943321e-02 1.38640953e-02
      3.41906510e-02 3.79931480e-02 2.68931352e-02 2.90553421e-01
      2.90553421e-01 1.40144661e-01 2.06503600e-01 2.88731158e-02
      4.91668768e-02 3.25905345e-02 9.07842666e-02 2.33328208e-01
      2.90553421e-01 2.90553421e-01 2.69626319e-01 1.00575261e-01
      8.17090720e-02 9.71597359e-02 7.29328170e-02 1.51508540e-01
      1.05827518e-01 1.28869623e-01 1.63523480e-01 6.08975701e-02
      9.69325304e-02 7.93354437e-02 1.83029786e-01 8.03272054e-02
      1.10288337e-01 7.28544518e-02 1.91804856e-01 1.85314000e-01
      1.61753371e-01 8.70666355e-02 2.00028151e-01 4.57316153e-02
      8.82838592e-02 1.88406006e-01 2.50446290e-01 2.62007117e-01
      2.62007117e-01 1.78814977e-01 1.70210406e-01 2.45391577e-01
      8.99122357e-02 1.58799499e-01 2.62007117e-01 2.26800665e-01
      2.62007117e-01 2.62007117e-01 9.68130901e-02 2.70902961e-01
      2.77902395e-01 1.16203904e-01 2.26780653e-01 2.61514872e-01
      1.12843998e-01 6.89311326e-02 4.19857949e-02 3.94312106e-02
      1.21050991e-01 1.02821745e-01 6.83937520e-02 1.12712562e-01
      2.77902395e-01 7.97005221e-02 2.39600278e-02 2.03778613e-02
      7.72517771e-02 1.78933904e-01 2.30131388e-01 2.09009841e-01
      2.00954825e-01 2.27945119e-01 1.31595552e-01 6.27197474e-02
      1.24377325e-01 7.75491148e-02 1.23713046e-01 1.56314299e-01
      2.46400297e-01 1.78644031e-01 2.65137643e-01 5.85131980e-02
      1.14226490e-02 1.10204779e-01 2.77902395e-01 1.51580751e-01
      9.33588892e-02 6.61490932e-02 2.35875752e-02 4.79497574e-02
      2.23596692e-01 2.13260219e-01 4.76125441e-02 1.91716313e-01
      2.22275093e-01 1.51133940e-01 7.53058195e-02 3.84191684e-02
      1.26598980e-02 1.46517128e-01 1.39166906e-01 7.43772835e-02
      3.02118003e-01 3.02118003e-01 3.02118003e-01 2.47815251e-01
      2.03835946e-02 1.22455070e-02 3.75851169e-02 5.96525483e-02
      3.18326391e-02 2.00007945e-01 3.02118003e-01 3.02118003e-01
      1.18365519e-01 2.39935797e-02 7.57615687e-03 5.26436418e-02
      6.02626316e-02 1.44826412e-01 3.02118003e-01 8.50111768e-02
      1.92853197e-01 1.09439410e-01 1.36279553e-01 6.98579699e-02
      4.07977216e-02 3.04401759e-02 7.76926652e-02 1.23253509e-01
      1.47610545e-01 1.64788321e-01 8.13929290e-02 1.14416540e-01
      1.35647252e-01 2.32691333e-01 1.49833158e-01 1.65721729e-01
      3.18769962e-01 1.01535782e-01 2.88779229e-01 1.59650877e-01
      2.38173544e-01 1.13797396e-01 4.41779047e-02 4.01762053e-02
      6.03352636e-02 1.06043488e-01 1.72508642e-01 2.87465930e-01
      8.30878317e-02 2.30817959e-01 1.38913870e-01 2.04736635e-01
      1.97612554e-01 1.36527315e-01 3.18769962e-01 9.50074792e-02
      1.12270907e-01 9.38600525e-02 1.33966319e-02 3.16087417e-02
      7.91581869e-02 4.84306142e-02 8.89173374e-02 1.12365849e-01
      1.51629344e-01 1.45511299e-01 4.50459383e-02 2.26265520e-01
      2.06255957e-01 1.55422986e-01 1.38156787e-01 1.91146448e-01
      1.61971018e-01 3.12375650e-02 9.30889174e-02 9.45303440e-02
      1.41683547e-02 1.38664708e-01 2.17900604e-01 7.09333718e-02
      1.88909501e-01 1.37609422e-01 2.03834310e-01 2.56552726e-01
      2.38085747e-01 3.01785111e-01 3.01785111e-01 2.35632613e-01
      7.11932704e-02 2.91667581e-01 2.30804309e-01 1.76227793e-01
      2.38048211e-02 3.80757935e-02 4.02299501e-02 1.48190081e-01
      1.25579953e-01 2.86409706e-01 1.32960454e-01 1.35295153e-01
      1.54487371e-01 2.66979877e-02 1.09220840e-01 6.25712574e-02
      1.95616513e-01 1.43381849e-01 2.86409706e-01 2.10630327e-01
      1.41728774e-01 2.86409706e-01 1.41000107e-01 7.93670937e-02
      1.26942873e-01 2.10646525e-01 1.49301112e-01 7.51305372e-02
      1.19793870e-01 1.09424748e-01 2.86409706e-01 1.60957634e-01
      2.53219396e-01 1.77470386e-01 2.86409706e-01 9.53729376e-02
      1.15449704e-01 1.33832499e-01 1.09978646e-01 9.44903046e-02
      2.68856697e-02 3.69969048e-02 2.30617579e-02 6.91701323e-02
      4.85259444e-02 3.50755036e-01 2.64926523e-01 2.50396997e-01
      1.39612406e-01 4.38605510e-02 4.05577943e-02 3.13766375e-02
      1.24916948e-01 2.17056200e-01 3.50755036e-01 3.50755036e-01
      3.50755036e-01 5.20057119e-02 4.09435481e-02 7.21761063e-02
      8.52586329e-02 9.52297598e-02 5.52618057e-02 8.91689509e-02
      5.97083792e-02 1.33532390e-01 7.77833313e-02 8.64481628e-02
      9.31736752e-02 3.83616351e-02 4.88926619e-02 4.71644364e-02
      2.48443216e-01 2.36390278e-01 2.48628318e-01 2.38024712e-01
      1.63551301e-01 2.03210831e-01 5.62120490e-02 7.06975013e-02
      9.17298719e-02 1.32965460e-01 1.03653111e-01 2.23307833e-01
      2.68737078e-01 1.83766529e-01 1.40505686e-01 9.02422369e-02
      3.20338681e-02 3.43639925e-02 1.48112953e-01 7.65516162e-02
      2.68737078e-01 1.41551197e-01 2.25422323e-01 2.68737078e-01
      2.24665135e-01 9.12261456e-02 7.94041976e-02 3.24968919e-02
      1.35622527e-02 1.98563695e-01 2.63307273e-01 1.02263004e-01
      1.65935591e-01 1.77217036e-01 1.08795255e-01 3.81809920e-02
      2.44223908e-01 9.44677293e-02 2.68737078e-01 1.19640544e-01
      1.08751945e-01 6.71427920e-02 4.03793789e-02 1.14736415e-01
      7.96062797e-02 1.10002406e-01 1.05134740e-01 5.98699078e-02
      1.23135805e-01 6.92634135e-02 5.20207360e-02 4.47547212e-02
      1.27616540e-01 9.47663784e-02 2.73690224e-01 3.19206238e-01
      1.72225088e-01 1.68899208e-01 1.16841093e-01 1.42822385e-01
      6.48529604e-02 8.62983465e-02 1.28282264e-01 1.86879605e-01
      1.30650640e-01 9.75772366e-02 2.64870912e-01 1.62349105e-01
      1.00312389e-01 5.79816774e-02 2.63390392e-01 3.19206238e-01
      3.19206238e-01 3.19206238e-01 1.57171726e-01 1.15181483e-01
      1.56405829e-02 7.69219827e-03 6.06989814e-03 3.96801019e-03
      3.94345075e-03 7.01379776e-02 2.45150179e-01 3.17373157e-01
      1.21526599e-01 6.60043731e-02 4.52124104e-02 2.53021065e-02
      3.09236515e-02 1.94924083e-02 6.00563623e-02 1.81775093e-01
      1.99153781e-01 1.47345304e-01 1.67656820e-02 7.07326038e-03 0.
      2.32551694e-02 1.57456785e-01 3.17373157e-01 3.17373157e-01
      3.17373157e-01 2.25729793e-01 8.70915130e-02 3.20701413e-02
      2.34571882e-02 5.56990877e-02 5.51339313e-02 3.17373157e-01
      3.17373157e-01 3.17373157e-01 8.17831531e-02 6.58971071e-02
      1.00656554e-01 3.52257187e-03 2.66445354e-02 1.35309890e-01
      1.00617304e-01 1.18664347e-01 2.88719118e-01 1.30364805e-01
      6.17741570e-02 7.33190998e-02 1.10443681e-02 9.10937041e-02
      2.04608917e-01 1.90992072e-01 2.23114580e-01 2.32068360e-01
      2.26030529e-01 1.21232525e-01 1.45014614e-01 5.69271808e-03
      5.80274798e-02 1.10290132e-01 8.31862092e-02 2.00344175e-01
      3.15659225e-01 2.84865141e-01 1.11017272e-01 1.38942614e-01
      5.64594055e-03 2.69300323e-02 1.31130725e-01 2.31112033e-01
      3.15659225e-01 3.15659225e-01 4.96668331e-02 2.84890328e-02
      1.57299992e-02 3.36153433e-02 1.37567908e-01 1.73485830e-01
      1.26881793e-01 1.63150489e-01 7.77016729e-02 1.99724063e-01
      7.40690380e-02 7.46430159e-02 9.39453468e-02 1.87361374e-01
      1.58336133e-01 5.14259227e-02 9.12031159e-02 4.35208790e-02
      4.28468473e-02 5.06072976e-02 2.44575851e-02 6.71171695e-02
      8.90189558e-02 3.03900838e-01 2.85559535e-01 3.03900838e-01
      2.43722245e-01 1.92184970e-01 1.37388095e-01 1.52973041e-01
      7.96951130e-02 1.38221607e-01 2.93553919e-01 3.03900838e-01
      3.03900838e-01 2.07587123e-01 1.24158300e-01 7.57876635e-02
      2.41373535e-02 1.11999616e-01 2.32967399e-02 7.58453086e-02
      1.50431007e-01 1.02679834e-01 1.65225610e-01 7.36451149e-02
      2.37512793e-02 3.17870006e-02 1.05079100e-01 9.44074020e-02
      1.03856042e-01 2.13765040e-01 1.74116299e-01 1.24459334e-01
      2.63385028e-01 1.62741348e-01 2.37209573e-01 7.92272091e-02
      1.30542696e-01 2.10871249e-01 1.45253614e-01 8.65017772e-02
      2.96442360e-01 1.61158234e-01 1.30833089e-01 4.55291383e-02
      8.63942355e-02 1.75428212e-01 2.88686067e-01 2.96442360e-01
      2.96442360e-01 2.96442360e-01 1.40919581e-01 2.82342672e-01
      2.82342672e-01 1.25219718e-01 3.86195965e-02 9.06105936e-02
      1.36049390e-02 1.62605885e-02 2.92445738e-02 1.65818170e-01
      2.17596486e-01 1.62488952e-01 6.97750598e-02 1.22983098e-01
      4.63108569e-02 7.90138021e-02 1.94351330e-01 1.45211801e-01
      1.17788322e-01 2.82342672e-01 2.82342672e-01 2.82342672e-01
      1.81486487e-01 1.00524634e-01 6.25884682e-02 5.97285591e-02
      7.06967488e-02 1.57250613e-01 1.75423086e-01 2.66817719e-01
      1.23397678e-01 1.62175134e-01 1.85540512e-01 1.86001867e-01
      1.48726121e-01 1.86544657e-01 1.93430241e-02 5.75863174e-04
      4.94217612e-02 3.79478820e-02 1.66967154e-01 2.42659420e-01
      2.61131227e-01 1.29649952e-01 3.03094480e-02 7.00259283e-02
      1.20857269e-01 1.59174442e-01 1.32315293e-01 2.61131227e-01
      2.50592411e-01 1.21281877e-01 1.47668317e-01 6.00089617e-02
      1.18303299e-01 6.93991184e-02 4.74214889e-02 5.04679494e-02
      2.16984883e-01 2.61131227e-01 2.61131227e-01 1.85902372e-01
      5.62365241e-02 1.11847252e-01 1.30536020e-01 2.16948628e-01
      1.50749981e-01 2.61131227e-01 2.61131227e-01 1.97165772e-01
      2.58015752e-01 3.22413780e-02 1.90366451e-02 1.35682642e-01
      1.02149665e-01 8.58499855e-02 2.59326816e-01 2.15802193e-01
      1.45423785e-01 1.45206094e-01 9.21624899e-02 6.10462464e-02
      1.04100242e-01 6.71157762e-02 6.69557750e-02 1.01239473e-01
      6.07350878e-02 1.60448864e-01 2.80520588e-01 2.15061307e-01
      2.01840237e-01 2.80520588e-01 1.61423147e-01 1.39924169e-01
      2.60727376e-01 1.26069263e-01 7.68635273e-02 4.75407653e-02
      5.44012859e-02 2.74875849e-01 2.80520588e-01 2.80520588e-01
      2.50091136e-01 1.48734719e-01 8.51394385e-02 9.15841460e-02
      8.10541138e-02 8.95227343e-02 8.68158862e-02 1.18571319e-01
      4.58510555e-02 4.69507053e-02 1.20263606e-01 1.02877587e-01
      7.68932421e-03 4.31269333e-02 1.86003074e-01 1.36490911e-01
      2.59703457e-01 2.59703457e-01 1.96552843e-01 1.87559202e-01
      1.20947927e-01 4.73805778e-02 2.47719232e-02 1.16072379e-01
      1.17267512e-01 9.65348035e-02 2.16006190e-01 7.57602975e-02
      2.16086537e-01 1.88311353e-01 1.08625926e-01 2.59703457e-01
      2.59703457e-01 1.10386282e-01 2.15469524e-01 2.59703457e-01
      2.17696473e-01 2.59703457e-01 2.57537961e-01 8.65639523e-02
      1.12589031e-01 1.41207755e-01 1.12130702e-01 1.54562950e-01
      8.81338269e-02 1.40448898e-01 1.39105752e-01 5.36012240e-02
      1.63803890e-01 7.99202025e-02 9.70306918e-02 2.63893813e-01
      6.08080588e-02 1.52567243e-02 5.12080789e-02 5.01733869e-02
      1.39417991e-01 2.53077030e-01 1.91348344e-01 1.99934512e-01
      3.16319615e-02 2.96699423e-02 1.16250195e-01 2.63893813e-01
      2.36700699e-01 1.83816150e-01 2.51221180e-01 1.50530115e-01
      1.29734650e-01 1.47820607e-01 1.59353837e-02 3.90823744e-03
      1.55255735e-01 2.63893813e-01 2.63893813e-01 2.63893813e-01
      2.15859890e-01 2.24883944e-01 8.11018720e-02 8.99623856e-02
      2.10940093e-01 1.47009283e-01 5.31040058e-02 7.98486993e-02
      8.28743577e-02 1.22235343e-01 1.46897942e-01 1.54928103e-01
      1.09946042e-01 1.40638709e-01 1.73252568e-01 1.88397452e-01
      2.26919353e-01 1.16317108e-01 4.78221215e-02 1.94421515e-01
      5.72278239e-02 4.92564775e-02 1.24717876e-01 2.42885843e-01
      2.39080653e-01 2.50317007e-01 9.51832309e-02 2.28745669e-01
      1.34112880e-01 1.86715916e-01 1.65286064e-01 2.50317007e-01
      2.05501974e-01 2.50317007e-01 2.50317007e-01 1.04994819e-01
      8.97416398e-02 2.16198832e-01 5.45241982e-02 2.26540044e-02
      9.57882479e-02 1.59770444e-01 1.58890858e-01 2.54328042e-01
      2.26273745e-01 1.02527440e-01 5.03016897e-02 2.75649745e-02
      3.39718089e-02 3.08289621e-02 1.55836716e-01 1.44782692e-01
      2.06823662e-01 2.57527828e-01 5.47852814e-02 4.64303456e-02
      4.37990688e-02 4.83391359e-02 2.57527828e-01 2.57527828e-01
      2.57527828e-01 2.57527828e-01 2.57527828e-01 2.13194117e-01
      8.27281773e-02 8.51639956e-02 6.33815899e-02 1.56291649e-01
      2.19018564e-01 1.45673081e-01 2.47704193e-01 2.35172749e-01
      1.45442173e-01 1.08831935e-01 5.02714142e-02 7.66924769e-02
      2.11686585e-02 1.77379493e-02 4.87011112e-02 1.42376408e-01
      2.59957254e-01 2.58894533e-01 4.48432676e-02 2.59957254e-01
      1.93051502e-01 9.11416188e-02 4.06846730e-03 3.03282458e-02
      6.80818409e-02 1.72726735e-01 2.59957254e-01 2.59957254e-01
      6.93768561e-02 6.57772943e-02 4.00030874e-02 9.73982066e-02
      2.45526195e-01 1.34031758e-01 1.46791697e-01 1.07088313e-01
      4.42294478e-02 2.59957254e-01 1.80383742e-01 1.86525032e-01
      2.03912109e-01 2.59957254e-01 1.64032370e-01 1.85562938e-01
      2.59957254e-01 1.97048530e-01 6.85462430e-02 5.55686541e-02
      1.87581647e-02 5.21346740e-02 1.76056530e-02 9.31456387e-02
      1.23243101e-01 1.73306212e-01 2.84351468e-01 9.32332501e-02
      9.55890119e-02 4.88429181e-02 1.25100389e-01 1.67439044e-01
      2.32647702e-01 1.63958713e-01 2.81351864e-01 2.28212774e-01
      1.21505231e-01 0. 1.71487518e-02 1.03884107e-02 4.85038720e-02
      2.05436856e-01 2.34271169e-01 2.96818793e-01 2.96818793e-01
      1.61320359e-01 1.42442696e-02 3.68313678e-03 2.02032495e-02
      5.17196916e-02 7.49704242e-02 2.70199895e-01 2.96818793e-01
      2.96818793e-01 1.14602737e-01 1.54926136e-01 1.65463746e-01
      1.51558012e-01 7.47762844e-02 1.21225625e-01 1.22066595e-01
      1.35879532e-01 9.29637477e-02 1.13842621e-01 2.45088890e-01
      2.45088890e-01 2.45088890e-01 4.39934321e-02 1.89966366e-01
      9.49200392e-02 4.19840962e-02 1.11337252e-01 2.45088890e-01
      2.45088890e-01 1.64315909e-01 7.51714110e-02 3.32968719e-02
      9.97209176e-02 1.44644007e-01 1.76296517e-01 2.36383379e-01
      2.45088890e-01 2.02730253e-01 1.67102709e-01 2.04967663e-01
      5.38311228e-02 2.45088890e-01 1.62782401e-01 3.25665995e-02
      2.45088890e-01 4.81145568e-02 2.28496924e-01 2.23099038e-01
      1.72512069e-01 2.61209249e-01 1.54639602e-01 2.54398227e-01
      1.06655613e-01 3.99782769e-02 8.85654688e-02 2.61209249e-01
      2.61209249e-01 2.61209249e-01 2.61209249e-01 1.05937943e-01
      1.60050228e-01 1.63664714e-01 2.53616925e-02 1.14384018e-01
      2.01937422e-01 1.43961698e-01 1.12022705e-01 5.01986295e-02
      1.08610794e-01 2.01994151e-01 1.11310281e-01 3.15565728e-02
      1.85864821e-01 2.61209249e-01 2.18582541e-01 1.44089296e-01
      3.10936496e-02 4.18375283e-02 8.12447369e-02 9.90555212e-02
      4.87346537e-02 2.57057786e-01 3.20070356e-01 1.14661261e-01
      1.12354830e-01 2.36856148e-01 1.94858462e-01 4.73060682e-02
      1.25097215e-01 3.25975008e-02 2.58701295e-01 3.20070356e-01
      1.68675959e-01 7.24547431e-02 3.20070356e-01 1.79383665e-01
      4.65842113e-02 3.26392390e-02 1.24311233e-02 1.79235265e-01
      2.42315188e-01 2.82947440e-02 1.05477147e-01 3.20070356e-01
      7.72430450e-02 2.05818415e-02 1.57277845e-02 9.36330035e-02
      4.30245064e-02 6.80601820e-02 8.96433275e-03 1.10278703e-01
      3.20070356e-01 7.81187788e-02 7.86841195e-03 1.98964542e-03
      2.10929681e-02 3.50848347e-01 5.48531339e-02 5.06723672e-02
      9.29268822e-02 1.08762830e-01 1.01442941e-01 2.57499099e-01
      2.15815023e-01 2.21929386e-01 4.36788172e-01 4.73803990e-02
      9.36805904e-02 1.05185196e-01 6.44438937e-02 3.82186733e-02
      1.66626543e-01 4.36788172e-01 4.36788172e-01 8.82670358e-02
      5.02805114e-02 2.25865487e-02 4.11241278e-02 3.16479951e-02
      2.32584551e-02 3.85716856e-02 3.62558104e-02 3.91049422e-02
      1.16226107e-01 5.23690619e-02 5.26181571e-02 5.76334707e-02
      6.56165332e-02 1.34878680e-02 1.66462772e-02 1.96544845e-02
      1.93494484e-02 3.39198023e-01 8.19469094e-02 2.99543235e-02
      1.52763143e-01 1.44694760e-01 5.15211336e-02 1.07894493e-02
      1.62395939e-01 3.67899179e-01 3.67899179e-01 1.32683277e-01
      1.26399919e-01 3.00048143e-01 2.70685434e-01 1.50787041e-01
      1.80162579e-01 2.84303993e-01 3.67899179e-01 2.51670629e-02
      6.15264522e-03 3.14812697e-02 4.97263595e-02 6.22070134e-02
      3.94177362e-02 9.54400562e-03 8.03294498e-03 4.81685735e-02
      1.13832720e-01 2.91981157e-02 1.14326753e-01 9.54352543e-02
      6.17588982e-02 1.79241337e-02 6.81762956e-03 0. 9.52895060e-02
      3.58559757e-01 6.09394610e-02 6.23821765e-02 4.33476688e-03
      1.00342475e-01 1.64936498e-01 8.26600716e-02 2.21473470e-01
      1.98349372e-01 3.95132422e-01 2.88940594e-02 2.62866896e-02
      2.42664036e-03 1.71580181e-01 2.46021912e-01 1.12941377e-01
      6.16620071e-02 3.95132422e-01 7.04689994e-02 8.27710927e-02
      6.14993796e-02 2.98862020e-03 8.66844133e-02 1.38899744e-01
      1.41580760e-01 3.21155787e-02 3.69574651e-02 9.17439386e-02
      2.48952415e-02 1.67597029e-02 3.88572598e-03 1.75360665e-01
      3.02705348e-01 2.93002635e-01 8.39178711e-02 1.32607669e-01
      1.25711963e-01 4.89091389e-02 5.54254428e-02 1.03912607e-01
      1.99528262e-01 2.38365501e-01 8.99112523e-02 5.80930188e-02
      3.07940781e-01 2.01112591e-02 2.15717833e-02 1.01007558e-01
      1.55088902e-01 3.00090402e-01 3.34535837e-01 6.48789182e-02
      5.63239753e-02 1.80591762e-01 5.81605583e-02 9.30341259e-02
      1.63679346e-01 2.79840648e-01 1.70036152e-01 1.27721801e-01
      7.45205805e-02 7.32140765e-02 1.55359089e-01 4.80627939e-02
      5.75617775e-02 3.10415357e-01 3.34535837e-01 2.22650796e-01
      1.46198377e-01 1.77421756e-02 1.04653398e-02 4.36551124e-02
      1.48865476e-01 1.23012364e-01 1.58376604e-01 1.74048081e-01
      2.22290352e-01 1.90740064e-01 5.87410852e-02 1.59644499e-01
      1.03258863e-01 8.80446061e-02 1.63708165e-01 1.60740808e-01
      2.95434058e-01 3.55689436e-01 1.02720596e-01 1.13974279e-02
      7.07299784e-02 8.05460066e-02 3.50571394e-01 1.53030694e-01
      1.04788408e-01 4.39492613e-02 1.20267188e-02 4.37349081e-02
      1.75252631e-02 1.16018094e-01 3.23813349e-01 2.37707615e-01
      2.76218951e-01 1.23614579e-01 1.50812715e-01 1.01634189e-01
      4.15726267e-02 2.11532805e-02 3.63790132e-02 1.26275569e-01 0. 0.
      3.47439619e-03 1.26126826e-01 3.95453095e-01 2.48347837e-02
      1.36801377e-02 2.76905228e-03 0. 7.60707632e-03 1.34694390e-03
      5.29125100e-03 1.64666221e-01 3.95453095e-01 2.15261802e-02 0. 0.
      5.85039984e-03 2.80717126e-04 2.39965666e-04 3.48925963e-02
      3.95453095e-01 3.95453095e-01 1.01841139e-02 2.57434361e-02
      1.08370120e-02 1.67504121e-02 1.35686398e-02 3.72459902e-03
      9.89447236e-02 3.95453095e-01 3.95453095e-01 1.84826658e-03 0.
      6.74561784e-03 2.99929194e-02</_>
    <_>
      1.48586825e-01 2.88230717e-01 2.88230717e-01 5.72056808e-02
      4.68985029e-02 1.23419017e-02 0. 2.01870706e-02 1.06505111e-01
      2.88230717e-01 2.88230717e-01 2.36887366e-01 5.35401404e-02
      8.20419714e-02 2.51117554e-02 1.14987250e-02 1.26479333e-02
      2.22447261e-01 1.41527548e-01 2.16131657e-01 2.88230717e-01
      1.03516676e-01 1.00123331e-01 3.42247933e-02 2.16088921e-01
      5.71993403e-02 1.65311530e-01 2.26838082e-01 2.70637721e-01
      2.01984376e-01 1.47135779e-01 1.85509130e-01 8.96814167e-02
      1.20067462e-01 5.40226288e-02 1.15224697e-01 4.10602719e-01
      3.99466485e-01 2.05196571e-02 9.62487306e-04 9.26286876e-02
      1.29844621e-02 2.67091375e-02 8.34562257e-03 4.10602719e-01
      4.10602719e-01 4.10602719e-01 1.33821089e-02 3.84994806e-03
      6.76405951e-02 0. 9.33414511e-03 1.47051318e-02 3.35946172e-01
      7.38059729e-02 3.71735990e-02 2.14777868e-02 3.84994806e-03
      7.94958472e-02 3.53437103e-02 2.69208997e-02 1.45102236e-02
      8.74389037e-02 7.74521008e-02 2.10642908e-02 8.92257784e-03
      1.53997885e-02 2.78176814e-02 0. 1.08294394e-02 4.03843680e-03
      5.42101562e-02 3.66389215e-01 6.45739511e-02 0. 0. 1.94811672e-02
      0. 8.83347448e-03 1.21709757e-01 4.11175460e-01 4.11175460e-01
      2.25338414e-01 5.86405979e-04 1.14627322e-02 4.84462120e-02 0.
      2.20836815e-03 7.96029568e-02 2.96959132e-01 2.52998054e-01
      8.09045509e-02 1.70250162e-02 0. 2.14786240e-04 0. 6.96220249e-03
      8.31475854e-03 1.41056284e-01 4.11175460e-01 6.89029917e-02
      1.28331948e-02 7.64181931e-03 6.70539541e-03 0. 0. 1.96090546e-02
      3.01619977e-01 4.38674614e-02 3.36981453e-02 1.38053456e-02
      3.66847664e-02 6.19668998e-02 7.06340149e-02 1.91419750e-01
      1.25553682e-01 1.21611059e-01 1.82086155e-01 1.18462928e-01
      1.65006667e-01 8.70371610e-02 1.42292142e-01 6.63520545e-02
      3.08453679e-01 1.95088968e-01 1.25921562e-01 1.61490098e-01
      2.09761225e-02 9.47190449e-03 1.60463974e-02 6.65261447e-02
      4.28071804e-02 5.71951233e-02 7.95956925e-02 3.08453679e-01
      2.02337891e-01 1.52470112e-01 2.35174149e-01 1.99746504e-01
      3.08453679e-01 1.72355905e-01 2.29585007e-01 3.08453679e-01
      3.01041484e-01 4.84090522e-02 1.00316808e-01 2.61349171e-01
      1.77072018e-01 1.77788630e-01 2.41341621e-01 1.54444382e-01
      1.11414209e-01 9.10494253e-02 5.01946919e-02 9.32875648e-02
      1.29377291e-01 1.06465101e-01 2.61349171e-01 2.61349171e-01
      2.61349171e-01 1.20618880e-01 1.10896774e-01 6.11946434e-02
      1.10685736e-01 1.76382512e-01 1.01192184e-01 8.13768357e-02
      9.66936201e-02 2.04771936e-01 1.97812155e-01 1.50744572e-01
      7.26545006e-02 9.03335065e-02 1.14676036e-01 7.92292282e-02
      2.49404997e-01 2.61349171e-01 2.61349171e-01 1.65420145e-01
      2.09084690e-01 1.41553173e-03 9.22747608e-03 5.86619321e-03
      3.76896486e-02 2.01298267e-01 2.96362132e-01 2.96362132e-01
      6.18288182e-02 1.48016959e-04 5.68687357e-03 3.65443751e-02
      7.14857429e-02 1.28255635e-01 4.56535183e-02 1.77674711e-01
      2.96362132e-01 1.00588836e-01 3.48578580e-02 1.74337566e-01
      2.74843741e-02 6.06739484e-02 1.45228282e-01 2.19710156e-01
      2.20722497e-01 2.96362132e-01 1.26388520e-01 1.11854777e-01
      7.36510828e-02 4.17055562e-02 1.71261877e-01 2.96362132e-01
      2.96362132e-01 1.33658439e-01 2.96362132e-01 1.73287898e-01
      5.13801835e-02 1.42655954e-01 3.29805538e-02 4.45387512e-02
      1.60295829e-01 1.27854720e-01 3.76201011e-02 1.70180216e-01
      2.12239176e-01 2.65906394e-01 8.72438028e-02 6.83417693e-02
      1.81542456e-01 2.65906394e-01 1.73097163e-01 9.08233225e-02
      1.75310895e-01 2.65906394e-01 1.80974409e-01 2.00866953e-01
      7.45555833e-02 9.46243927e-02 8.60856399e-02 1.22790709e-01
      4.83530611e-02 9.11056101e-02 2.40040764e-01 2.65906394e-01
      8.28685835e-02 1.01097509e-01 1.39236659e-01 1.79572091e-01
      1.83554620e-01 1.53293923e-01 1.66359484e-01 2.65906394e-01
      2.38317728e-01 2.66693998e-02 9.62745622e-02 9.30807590e-02
      6.77206293e-02 3.13156575e-01 6.00660071e-02 1.84781440e-02
      6.79125488e-02 1.41046233e-02 2.07005776e-02 3.41036052e-01
      3.56203556e-01 5.86439017e-03 2.63469107e-03 0. 7.20738433e-04
      2.14554602e-04 4.10611136e-03 5.16567193e-02 2.65155643e-01
      3.56203556e-01 1.30262062e-01 3.26171666e-01 1.74923196e-01
      5.88198714e-02 5.54730222e-02 1.08968131e-02 4.07763943e-02
      3.56203556e-01 3.56203556e-01 8.25702474e-02 0. 0. 4.80492192e-04
      1.43036377e-04 1.53069646e-04 3.54345858e-01 3.54345858e-01
      8.80189538e-02 0. 0. 5.23512345e-03 9.35421418e-03 4.64116223e-03
      5.87701052e-02 3.54345858e-01 1.48644418e-01 1.06552795e-01
      1.24735743e-01 2.11639568e-01 2.60008406e-02 6.29432797e-02
      1.93865765e-02 1.63353786e-01 2.48464614e-01 2.01282799e-01
      5.12432754e-02 7.04910140e-04 4.36421707e-02 5.02403416e-02
      2.17674803e-02 2.37953980e-02 9.13930386e-02 1.94401383e-01
      9.26227123e-02 7.13611171e-02 3.54345858e-01 3.54345858e-01
      2.01474547e-01 9.05422717e-02 2.67149713e-02 1.10253781e-01
      1.24623679e-01 1.66974887e-01 2.30986491e-01 7.22812787e-02
      1.38525004e-02 7.46497959e-02 7.73457959e-02 1.03864111e-01
      2.64692754e-01 1.14266716e-01 5.50112948e-02 4.76305336e-02
      1.32302905e-03 2.44729500e-02 1.38846844e-01 1.00800090e-01
      2.94391632e-01 2.94391632e-01 1.25476509e-01 2.36054853e-01
      2.94391632e-01 5.91230914e-02 2.06770569e-01 2.34786853e-01
      2.44131893e-01 1.77752063e-01 1.64603502e-01 5.62278889e-02
      6.80632219e-02 1.07838891e-01 6.18096069e-02 2.10140467e-01
      2.74621427e-01 1.89299852e-01 1.04165703e-01 1.15946509e-01
      4.16224115e-02 2.01700609e-02 1.01807714e-02 7.78950565e-03
      6.85807914e-02 1.81337759e-01 3.55427206e-01 2.83921599e-01
      1.58436313e-01 2.50187647e-02 2.54561808e-02 4.27807905e-02
      6.08536638e-02 8.85145366e-02 2.17774600e-01 3.55427206e-01
      3.11063379e-01 1.90552935e-01 8.77207797e-03 6.36127964e-03
      1.18451556e-02 1.23459073e-02 5.96403591e-02 6.99617714e-02
      2.38955647e-01 1.69165254e-01 1.10659719e-01 0. 4.43501724e-03
      2.58991364e-02 2.71980949e-02 1.25531763e-01 2.41094440e-01
      3.55427206e-01 3.06399554e-01 2.64803972e-02 8.15703869e-02
      6.45505488e-02 6.25275075e-02 6.21098541e-02 2.13246882e-01
      2.53246397e-01 1.39257818e-01 1.15774058e-01 5.32675758e-02
      4.44962531e-02 2.68501509e-02 9.66985822e-02 1.55318558e-01
      2.95472711e-01 2.95472711e-01 1.02869220e-01 1.72714032e-02
      2.64686812e-02 6.36137500e-02 7.87258819e-02 1.01714134e-01
      6.28331974e-02 2.90963650e-01 2.95472711e-01 2.95472711e-01
      1.42393917e-01 9.18361731e-03 3.44519727e-02 3.60297002e-02
      5.14236689e-02 1.98813140e-01 2.95472711e-01 2.95472711e-01
      2.95472711e-01 9.74838436e-03 4.79178736e-03 4.34362218e-02
      8.02649334e-02 1.24815039e-01 2.16429144e-01 2.35808924e-01
      1.32703573e-01 1.19531080e-01 5.78700192e-02 7.68264830e-02
      7.84188062e-02 1.36696830e-01 1.99693620e-01 1.54300764e-01
      1.21945448e-01 1.60898089e-01 7.29993433e-02 1.04620747e-01
      1.06571563e-01 2.61523724e-01 1.52667657e-01 1.27151206e-01
      1.66689247e-01 1.09809734e-01 1.20262049e-01 2.59680241e-01
      1.59409329e-01 2.45520145e-01 1.18557505e-01 2.52673358e-01
      2.61523724e-01 1.05967864e-01 1.99354947e-01 2.61523724e-01
      2.61523724e-01 1.21388301e-01 9.42221135e-02 2.97712814e-02
      1.16178513e-01 3.37184191e-01 3.37184191e-01 1.76755756e-01
      9.96392593e-02 1.60567462e-02 1.67454276e-02 1.33018689e-02
      2.86030937e-02 1.35629654e-01 3.37184191e-01 2.09804416e-01
      2.33965013e-02 7.66178267e-03 3.01173597e-04 5.83791698e-04
      1.27683149e-03 2.70944685e-01 3.37184191e-01 3.37184191e-01
      2.94174045e-01 6.56968579e-02 6.45930097e-02 8.49205926e-02
      6.95990995e-02 3.46487947e-02 1.35931417e-01 1.99147105e-01
      1.78293437e-01 1.33064732e-01 2.84108017e-02 5.05677201e-02
      3.24269272e-02 9.61310863e-02 7.12281317e-02 6.02584332e-02
      1.14365906e-01 1.90353412e-02 2.10528937e-03 1.69866607e-01
      4.85107861e-02 5.20029962e-02 1.28313359e-02 3.95850241e-02
      3.71986441e-02 8.29815939e-02 1.59899518e-02 1.19891837e-01
      4.06611741e-01 2.25648537e-01 3.29643160e-01 4.06611741e-01
      7.28689581e-02 1.05692923e-01 6.39014840e-02 2.98919175e-02
      6.54123025e-03 3.19763198e-02 5.28195500e-02 5.03019467e-02
      3.72742824e-02 9.12506655e-02 1.09146141e-01 3.65430228e-02
      2.41438150e-02 2.83703115e-03 1.08363010e-01 1.55821517e-01
      4.06611741e-01 4.06611741e-01 1.09460331e-01 2.42632866e-01
      6.68981969e-02 7.59366974e-02 1.45804092e-01 1.50831640e-01
      1.19254090e-01 1.07466213e-01 2.19474077e-01 1.63570657e-01
      4.23096530e-02 1.52673358e-02 4.83546518e-02 2.31829867e-01
      2.59803861e-01 1.28131926e-01 4.86701019e-02 9.84665379e-02
      8.08306336e-02 1.31730184e-01 4.78728376e-02 3.08141448e-02
      2.03234050e-02 6.41270280e-02 5.40643968e-02 1.80078104e-01
      3.43710095e-01 3.65336418e-01 1.70765489e-01 1.21763840e-01
      3.24248783e-02 9.14248452e-02 1.20061398e-01 7.82465339e-02
      8.59789476e-02 3.08282644e-01 3.65336418e-01 4.64741606e-03
      1.10640861e-02 9.50399972e-03 3.75360660e-02 8.20803270e-02
      1.14439756e-01 2.22316593e-01 1.11100942e-01 3.65338251e-02
      5.15491143e-03 3.11750527e-02 1.97251998e-02 4.75209253e-03
      7.63679892e-02 1.53819799e-01 4.06502306e-01 2.61799604e-01
      1.35917906e-02 7.98137337e-02 7.82452002e-02 1.20594809e-02
      4.52508368e-02 9.99387354e-02 5.23009226e-02 2.53813714e-01
      3.99032593e-01 2.94506550e-01 1.70687407e-01 3.66100907e-01
      2.21416771e-01 6.75124153e-02 1.32131547e-01 4.15892974e-02
      1.38310701e-01 1.28065333e-01 1.92953900e-01 1.41211838e-01
      1.37092650e-01 8.00380111e-02 6.73580244e-02 6.81562647e-02
      2.11728841e-01 1.23329826e-01 2.23143458e-01 6.06290847e-02
      1.82980657e-01 2.10994065e-01 3.82290706e-02 1.85980424e-01
      3.34310144e-01 3.27170700e-01 1.04790442e-01 7.43329972e-02
      1.09016418e-01 5.67416064e-02 2.56526656e-02 1.19677177e-02
      3.04383449e-02 6.55515268e-02 3.14864069e-01 2.20006078e-01
      8.12770128e-02 4.08593938e-02 1.03385627e-01 9.28920284e-02
      7.52244666e-02 8.62153247e-02 1.48279041e-01 3.36161226e-01
      3.36161226e-01 8.24152306e-02 1.23712897e-01 8.46678242e-02
      6.19649813e-02 9.81502756e-02 2.03711182e-01 2.17512265e-01
      2.40193695e-01 1.29923522e-01 3.89932049e-03 8.81483965e-03
      4.69734333e-02 2.79538482e-01 2.79538482e-01 2.79538482e-01
      2.79538482e-01 1.69290617e-01 1.06897786e-01 2.72241067e-02
      2.08109338e-02 1.28945723e-01 1.06504731e-01 1.15907006e-01
      2.37035096e-01 1.05857387e-01 1.02910459e-01 1.09196968e-01
      2.04383470e-02 4.14893143e-02 1.42549172e-01 2.61708736e-01
      2.12177113e-01 2.79538482e-01 2.79538482e-01 1.14294097e-01
      8.17231834e-02 5.43137044e-02 1.03917338e-01 9.91974324e-02
      1.06280938e-01 9.81332287e-02 1.94975868e-01 1.10571846e-01
      1.38125613e-01 3.00082654e-01 9.81494859e-02 1.50615852e-02
      5.34974709e-02 3.38932090e-02 1.95869384e-03 7.09589794e-02
      1.36875793e-01 2.41381973e-01 3.00082654e-01 1.27125695e-01
      1.16270989e-01 1.38286963e-01 9.01024267e-02 6.60945401e-02
      1.82155445e-01 2.23232955e-01 1.00463055e-01 2.30250597e-01
      4.05093133e-02 4.55010720e-02 1.50703415e-01 2.29994178e-01
      6.89086542e-02 2.34742954e-01 2.97767997e-01 2.86602348e-01
      3.00082654e-01 3.13240774e-02 1.11730218e-01 8.00917596e-02
      1.73482671e-01 2.49692589e-01 2.13170022e-01 7.84795284e-02
      4.60750721e-02 3.41589078e-02 4.24632095e-02 7.56862834e-02
      1.52807266e-01 1.46232471e-01 1.03271775e-01 5.25089614e-02
      5.98643869e-02 9.67432186e-02 2.03675926e-01 8.64446238e-02
      1.68253019e-01 1.62456870e-01 9.49350819e-02 2.57460475e-01
      2.68122792e-01 2.17543200e-01 2.68122792e-01 1.32422477e-01
      4.27736789e-02 1.54057547e-01 1.99719563e-01 2.49894276e-01
      1.45762935e-01 1.67497903e-01 2.01931119e-01 2.68122792e-01
      2.68122792e-01 2.37799678e-02 1.22569986e-01 3.70249152e-02
      5.41764079e-03 1.31699152e-03 2.54050381e-02 1.82047009e-01
      3.32629502e-01 1.52640626e-01 1.38862774e-01 8.65570158e-02
      2.28354707e-01 6.21776693e-02 2.06375010e-02 2.68629529e-02
      2.35620216e-01 1.75445169e-01 1.82646632e-01 3.32629502e-01
      3.32629502e-01 3.88127603e-02 4.26909737e-02 5.36107905e-02
      1.04489982e-01 2.40310207e-01 1.95046559e-01 8.30486417e-02
      4.36873026e-02 1.31202850e-03 1.89836442e-01 1.03121750e-01
      2.86444072e-02 4.28876989e-02 1.43751368e-01 1.20612323e-01
      2.61365414e-01 3.32629502e-01 1.32101998e-01 7.53707141e-02
      3.65880132e-02 4.03902680e-02 3.22095826e-02 1.35328084e-01
      1.03223138e-01 3.21534008e-01 1.53344288e-01 4.96206954e-02
      7.01869428e-02 1.09311290e-01 1.60023689e-01 1.29792631e-01
      1.27774879e-01 1.43642873e-01 3.21534008e-01 4.52156179e-02
      1.16308786e-01 3.59314457e-02 2.62258500e-02 9.61614624e-02
      7.49297217e-02 1.57922834e-01 1.58349797e-01 3.07576060e-01
      7.73633793e-02 2.19922718e-02 1.77634358e-01 3.21534008e-01
      3.21534008e-01 2.51479179e-01 1.70588031e-01 1.02456614e-01
      3.21534008e-01 1.94209591e-02 2.59850100e-02 5.57029843e-02
      1.30256206e-01 3.02388579e-01 1.52790532e-01 1.51738459e-02
