<?xml version="1.0"?>
<opencv_storage>
<hogSVMFaces type_id="opencv-object-detector-hog">
  <winSize>
    256 256</winSize>
  <blockSize>
    16 16</blockSize>
  <blockStride>
    8 8</blockStride>
  <cellSize>
    8 8</cellSize>
  <nbins>9</nbins>
  <derivAperture>1</derivAperture>
  <winSigma>4.</winSigma>
  <histogramNormType>0</histogramNormType>
  <L2HysThreshold>2.0000000000000001e-01</L2HysThreshold>
  <gammaCorrection>1</gammaCorrection>
  <nlevels>64</nlevels>
  <signedGradient>0</signedGradient>
  <SVMDetector>
    1.15247937e-02 -6.60404738e-04 -7.43632112e-03 -7.98795652e-03
    -2.13746040e-04 -1.87797248e-02 -1.55921159e-02 -1.44541897e-02
    -3.08547355e-03 7.09238462e-03 -4.21886984e-03 -7.37633463e-03
    -7.59952748e-03 2.46281791e-02 -1.39464196e-02 -1.00843012e-02
    -9.84750874e-03 -3.42740607e-03 1.29501335e-02 8.81983433e-03
    4.32997197e-03 1.14419207e-04 9.07829963e-04 -9.15725157e-03
    -1.12294238e-02 -2.07225699e-02 4.08216426e-03 3.20995040e-03
    -7.20359478e-03 -5.78720076e-03 -7.06027448e-03 1.41488099e-02
    -1.47794010e-02 -8.22533108e-03 -1.49378795e-02 -5.09442016e-03
    9.50896833e-03 5.77077735e-03 3.32761236e-04 -8.39350466e-03
    1.53122395e-02 -6.32196944e-03 -1.03775505e-02 -8.71016271e-03
    -5.46967052e-03 -1.45567150e-03 9.42561310e-04 2.69914768e-03
    -6.65067369e-03 1.86236594e-02 -1.19479690e-02 -1.20968018e-02
    -1.16569232e-02 -1.62196159e-02 6.26661256e-03 -2.57358770e-03
    -1.22370408e-03 -7.61982007e-03 1.58796292e-02 -2.62337481e-03
    1.58083171e-03 -1.13783963e-02 -1.30356383e-03 -4.02313285e-03
    -1.00900829e-02 4.67164442e-03 -1.07387488e-04 1.33909304e-02
    -5.28467027e-03 -1.40951555e-02 -1.98078007e-02 -7.99098611e-03
    -6.78614806e-03 -3.29553825e-03 7.27919803e-04 -1.40307210e-02
    1.03013748e-02 -2.88347364e-03 -5.19734388e-03 -3.19069833e-03
    -8.67657829e-03 -9.41802096e-03 -1.25722438e-02 -1.21360812e-02
    -8.20030179e-03 1.52545460e-02 3.85207217e-03 3.81921208e-03
    3.53256729e-03 -7.86260888e-03 -1.07910938e-03 -6.79430459e-03
    4.79670096e-04 -8.06125067e-03 4.18534066e-04 -5.89889055e-03
    -1.13665219e-02 -1.19060399e-02 -4.42170305e-03 1.26822118e-03
    -1.54690593e-02 -1.24727990e-02 -4.72328858e-03 -8.39221699e-04
    -1.63869665e-03 5.08674886e-03 4.65016952e-03 2.08484777e-03
    -7.58475903e-03 -9.86891799e-03 -9.28459130e-03 6.00754842e-03
    1.97164565e-02 9.91311017e-03 4.55912668e-03 3.97535553e-03
    -5.98134147e-03 -2.63712951e-03 -1.25628151e-02 -8.31171218e-03
    3.42531293e-03 3.62756429e-03 1.07509783e-02 -1.11488334e-03
    2.55282479e-03 2.87048682e-03 -1.84512057e-03 -9.52955429e-03
    -1.12745436e-02 7.75310269e-04 8.93613417e-03 3.52156279e-03
    9.94622428e-03 8.58780742e-03 2.37602580e-04 4.24446352e-03
    -3.57895973e-03 -1.04492148e-02 -4.30121040e-03 -6.16176100e-03
    -2.86745635e-04 8.32166697e-04 8.96658842e-03 2.10137013e-03
    4.67409007e-03 -2.65333895e-03 -1.04441559e-02 -4.04804858e-04
    -3.90647352e-03 -6.25618268e-05 -4.27469704e-03 1.96750881e-03
    6.22657081e-03 9.01499577e-03 1.00494921e-02 -8.34083837e-03
    -2.14552460e-03 3.27996211e-03 -2.99541187e-03 5.16557461e-03
    3.91601439e-04 7.12190662e-03 7.78261339e-03 7.35240150e-03
    -6.75277878e-03 -1.53934886e-03 -6.04521111e-03 -3.04063782e-03
    1.72326714e-03 1.23132709e-02 6.86670979e-03 6.69743726e-03
    7.40893977e-03 -8.83545354e-03 5.26484987e-03 3.72596178e-03
    -9.06270742e-03 2.46993802e-03 1.00560002e-02 7.42364815e-03
    2.49230233e-03 7.28832325e-03 8.94041965e-04 5.05066570e-03
    1.02974484e-02 4.78603272e-03 6.80818781e-03 3.44806118e-03
    4.22304077e-03 7.98125193e-03 -7.18458265e-04 3.88014014e-03
    -1.86244259e-03 2.28939578e-03 6.28715614e-03 4.99154115e-03
    7.64242001e-03 6.90032402e-03 6.85783196e-03 6.31472841e-03
    9.25198477e-03 1.22758811e-02 2.47619487e-02 -5.95545571e-04
    2.66004121e-03 8.45308416e-03 1.22083733e-02 4.84181521e-03
    -4.09378344e-03 -3.81547725e-03 -4.39431192e-03 7.30906380e-03
    6.68410817e-03 5.06017217e-03 4.74262889e-03 9.40669607e-03
    4.75080078e-03 3.35853384e-03 4.41294955e-03 -2.17274810e-05
    -5.99789433e-03 -5.23688388e-04 1.66112045e-03 8.45138542e-03
    5.96973905e-03 3.55230086e-03 1.17182732e-02 5.57342498e-03
    1.30094076e-03 -5.61600877e-03 -1.30349712e-03 -9.24414117e-03
    -2.41234270e-03 -8.44736211e-03 1.39038507e-02 4.84114498e-05
    -1.14295795e-03 5.16688277e-04 1.17845775e-03 3.79656348e-03
    4.33527771e-03 6.49081869e-03 1.03846677e-02 6.05210103e-03
    2.27844203e-03 -3.65858758e-03 -2.90114107e-03 5.74391149e-03
    6.11854019e-03 -1.64145452e-03 7.04351231e-04 4.61184932e-03
    2.14119814e-03 1.52073698e-02 3.73555021e-03 6.87117223e-03
    6.64545922e-03 -2.43175164e-04 -1.88657679e-02 -1.21206632e-02
    -9.59410518e-03 1.00853164e-02 1.73752345e-02 8.17657355e-03
    2.91645224e-03 2.46927433e-04 -5.42321894e-03 -1.75299011e-02
    -1.26124443e-02 -1.29251333e-03 8.73254891e-03 9.72344913e-03
    4.12555411e-04 -2.56422511e-03 6.91349199e-03 1.20985983e-02
    -1.20167602e-02 -6.33417675e-03 9.20813996e-03 2.01212354e-02
    1.05838748e-02 -1.71679992e-03 -9.46675544e-04 2.29806453e-03
    4.06491291e-03 -8.23185686e-03 -5.13984868e-03 1.95246786e-02
    1.42153129e-02 1.53949317e-02 4.52307938e-03 -7.17373972e-04
    -4.92221955e-03 1.52770779e-03 -7.53129087e-03 -4.61875973e-03
    6.28819410e-03 5.74552128e-03 8.64531007e-03 -4.12335433e-03
    2.20741774e-03 -8.48367345e-03 5.90982335e-03 -2.04319996e-03
    -4.69352398e-03 3.16330785e-04 1.93986073e-02 3.60800931e-03
    9.45044449e-04 -2.63208756e-04 1.14263166e-02 8.03678669e-03
    -2.19393824e-03 -3.27180931e-03 1.73880439e-02 8.92943610e-03
    9.71378293e-04 -3.81006580e-03 7.13854737e-04 -6.18538260e-03
    8.77288039e-05 -1.21605722e-02 -1.03043644e-02 2.52035563e-03
    -2.06040009e-03 -2.08928180e-03 3.90935363e-03 6.76224055e-03
    -2.63743917e-04 6.03686087e-03 -1.30168360e-03 -9.61276237e-04
    -6.89404644e-03 1.39094482e-04 -4.04789299e-03 7.25729065e-03
    1.11963283e-02 7.37802871e-03 1.07326210e-02 4.21283767e-03
    3.65115167e-03 2.14228686e-03 -6.37460849e-04 -1.19384681e-03
    -1.30807480e-03 2.69026938e-03 -1.51447719e-03 1.56433403e-03
    -6.62845187e-03 -1.97440702e-02 -1.40639748e-02 -7.02093868e-03
    -3.75857460e-04 8.67014565e-03 1.14074862e-03 5.14388317e-03
    6.22787513e-03 1.14156855e-02 -1.03155868e-02 -6.96970290e-03
    5.29017299e-03 5.41254226e-03 1.54100754e-03 -7.97252695e-04
    -8.74101091e-03 2.95125972e-03 -5.49535675e-04 7.25381484e-04
    7.40322331e-03 3.03452299e-03 1.28358798e-02 6.67781522e-03
    1.93085615e-03 -6.69272244e-03 4.81288554e-03 5.03489655e-03
    3.02282115e-03 1.03350577e-03 -6.07196661e-03 -1.11643423e-03
    5.41465310e-03 -4.20726882e-03 -5.14356513e-03 9.67481232e-04
    -4.28694912e-04 -1.14718918e-02 -8.38038803e-04 3.64687713e-03
    5.12683811e-03 6.06061798e-03 3.91421048e-03 -7.56601663e-03
    1.62341900e-03 -9.28273585e-05 -8.00287444e-03 3.42541025e-03
    4.68717935e-03 8.82878248e-03 7.07637658e-03 9.72804497e-04
    -3.23319994e-03 2.53372174e-03 1.39743974e-03 -2.91862455e-03
    -1.98528334e-03 1.37405954e-02 7.24592200e-03 3.60884098e-03
    -2.82451534e-03 1.73594318e-02 1.25492858e-02 5.45955915e-03
    -1.79262552e-03 1.14776725e-02 4.07594349e-03 3.98519449e-03
    2.92308861e-03 2.50018737e-03 -3.68864695e-03 3.83366627e-04
    -7.44195830e-04 -6.42650109e-03 8.47571157e-03 -3.06491251e-03
    -3.71902785e-03 6.51777955e-03 -1.20046269e-03 1.29911909e-02
    1.11405374e-02 1.99893047e-03 -2.96309427e-03 -7.22411880e-03
    1.65810660e-02 8.32056161e-03 3.41896852e-03 -1.18637166e-03
    5.92771824e-03 3.40428133e-03 3.96859273e-03 9.20870900e-03
    2.27327682e-02 8.66064522e-03 6.44626329e-04 3.98568623e-03
    3.57092218e-03 3.28305783e-03 2.92460062e-03 -7.21912924e-03
    1.34012448e-02 1.38754426e-02 2.27538659e-03 -6.37680246e-03
    5.49213821e-03 -1.51175621e-03 -1.32615131e-03 5.19643212e-03
    2.35610898e-03 5.28900605e-03 7.38977036e-03 -5.36427740e-03
    -2.16329284e-02 -8.29056557e-03 7.19436212e-03 -4.12222790e-03
    4.08585276e-03 -3.08168889e-03 5.33482479e-03 -1.94073073e-03
    3.78703815e-03 1.95757556e-03 -9.26379464e-04 3.00684455e-03
    8.96635931e-03 1.12952583e-03 -2.47181719e-03 7.01581920e-03
    6.50093704e-03 8.04976281e-03 7.63098476e-03 -3.45956162e-03
    6.15556538e-03 1.28013156e-02 6.92295888e-03 3.35346512e-03
    -3.78897483e-03 4.45291074e-03 -3.16875614e-03 -9.89509374e-03
    -2.54969229e-03 7.06686918e-03 1.03249308e-02 1.08247353e-02
    -1.90646842e-03 -1.61301391e-03 -2.52446462e-03 -1.53529772e-03
    2.39051739e-03 -2.67448532e-03 6.26130775e-03 1.30058657e-02
    1.27511797e-02 -8.53690435e-05 -9.60614905e-03 -5.60389459e-03
    3.05973901e-03 9.67920478e-03 1.36415742e-03 2.66051106e-03
    1.45668685e-02 -1.06756238e-03 -1.64365198e-03 -3.74495634e-04
    1.02442747e-04 1.44662615e-03 1.33327022e-02 8.49513803e-03
    8.98849498e-03 2.16973969e-03 6.97192445e-04 -7.19340099e-03
    4.95017692e-03 2.97951535e-03 7.29413470e-03 1.14067709e-02
    1.17112562e-04 1.02070114e-03 5.05309552e-03 -1.35093112e-03
    -3.63318017e-03 -3.73414042e-03 3.64150456e-03 -4.15473292e-03
    6.67248806e-03 8.54868721e-03 1.03941821e-02 2.84259906e-03
    4.78580623e-04 -1.10442787e-02 -1.89055246e-03 -1.74503622e-03
    -6.09512860e-03 7.85986613e-03 1.93321018e-03 1.15950620e-02
    7.65977008e-03 -1.98362497e-04 -1.07252868e-02 -3.98393394e-03
    -4.24181111e-03 -1.11463270e-03 1.16401678e-02 3.41403866e-05
    7.15767406e-03 1.62890386e-02 1.39587777e-04 -7.93537984e-05
    -5.16145490e-04 4.45286249e-04 -1.01348888e-02 2.67583015e-03
    2.83301319e-03 1.27424207e-02 1.95380952e-02 -3.19175376e-03
    -1.62138063e-02 -1.01203294e-02 -1.11457901e-02 3.10451048e-03
    8.22843984e-03 4.41817893e-03 7.31268711e-03 2.11199075e-02
    -2.98147229e-03 -1.03501957e-02 -5.32643916e-03 -4.82797157e-03
    1.66652829e-03 8.85671470e-03 6.10946165e-03 9.67491511e-03
    7.83017371e-03 -2.65268981e-03 2.66255648e-03 1.92879327e-03
    -2.48345872e-03 -3.28953116e-04 -6.18017395e-04 -8.06166849e-04
    3.89733491e-03 1.41931120e-02 1.04762125e-03 -3.10750492e-03
    2.51143146e-03 -1.12501737e-02 -7.52824417e-04 8.43044277e-03
    1.10828988e-02 7.54012400e-03 6.55823387e-03 -1.06044570e-02
    -4.66286112e-03 -7.18918256e-03 -5.32075251e-03 -1.97383072e-02
    -5.54595701e-03 -6.38241041e-03 -6.52893446e-03 7.08443578e-03
    3.81921604e-03 -7.40358548e-04 1.32504967e-03 -1.34037426e-02
    -5.72042365e-04 1.25689281e-03 2.58555030e-03 1.31985499e-03
    6.84459507e-03 -3.93097755e-03 -7.43074762e-03 9.20565519e-03
    -8.52147758e-04 -2.99167284e-03 -5.25181461e-03 -3.40566970e-03
    3.46083543e-03 1.11329518e-02 -1.89352420e-03 5.89648378e-04
    1.21014677e-02 6.52580243e-03 -1.33983586e-02 -7.98629504e-03
    -6.10721065e-03 -9.00116749e-03 -1.07182581e-02 -3.85546824e-03
    3.61331156e-03 7.72885606e-03 5.16710430e-03 4.74368222e-03
    -1.52470870e-02 -8.09937995e-03 1.36395614e-03 4.95568570e-03
    -9.52851027e-03 3.48708569e-03 1.47375520e-02 1.99276265e-02
    3.35786911e-03 1.44996366e-03 -1.85385498e-03 -4.95781773e-04
    5.28409425e-03 -2.80448049e-03 -1.86785951e-03 5.57979755e-03
    7.16762850e-03 6.19021943e-03 -1.39270129e-03 -5.48431790e-03
    1.51100766e-03 -2.13713571e-03 -7.63831194e-03 -8.30325356e-04
    1.03736045e-02 5.82676614e-03 5.95519273e-03 -2.27499753e-03
    -1.04182574e-03 -1.10096415e-03 -4.72418685e-03 -1.09683471e-02
    -3.40538099e-03 -5.95819962e-04 1.11510865e-02 1.58308458e-03
    1.70450122e-03 -3.35588423e-03 -1.41430395e-02 -1.39901740e-02
    -1.01047521e-02 2.83208746e-03 -4.64732511e-05 -2.51110177e-03
    3.60104698e-03 -5.30171255e-03 -6.98119169e-03 1.32049754e-04
    -7.44297914e-03 -7.81736895e-03 2.80722021e-03 1.15212509e-02
    3.89569765e-03 6.86014490e-03 -8.54951981e-03 -3.30462470e-03
    4.35654866e-03 7.85476994e-03 7.72593915e-03 1.24793323e-02
    6.16494054e-03 3.26350238e-03 -3.10159451e-03 -4.99494188e-03
    -7.37205800e-03 -1.04192831e-02 -6.36322843e-03 -6.98879082e-03
    5.30106435e-03 -3.86809325e-03 -8.89825076e-03 -1.32792862e-03
    -1.65416542e-02 -9.04395804e-03 -4.37464984e-03 1.57715306e-02
    2.69570993e-03 9.23873764e-03 -4.44650557e-03 -5.67656104e-03
    9.23123793e-04 -2.36176583e-03 1.19579420e-03 -1.32619415e-03
    8.23835656e-03 9.33006778e-03 5.44605171e-03 1.61125814e-03
    2.59643607e-03 -7.93553516e-03 6.82018045e-03 1.09998295e-02
    1.22328929e-03 1.30956275e-02 7.10913166e-03 2.11845222e-03
    -4.41257562e-03 -5.67245437e-03 -1.22208167e-02 -1.57431867e-02
    -9.01244301e-03 -8.54317844e-03 1.24862595e-02 3.69150168e-03
    -1.24539551e-03 -7.44692283e-03 -1.61029957e-02 -7.13609951e-03
    -1.76017988e-03 2.26553110e-03 -8.31464212e-03 8.14055000e-03
    -2.84350594e-03 -5.49226208e-03 -3.77765018e-03 -7.74372928e-03
    1.89876091e-03 1.67661533e-02 2.03966014e-02 5.28780650e-03
    5.31932863e-04 -3.19947489e-03 -1.69950246e-03 1.59808376e-03
    2.32972775e-06 1.04866698e-02 1.28441900e-02 1.51741067e-02
    5.36055677e-03 -3.08277365e-03 -1.57511104e-02 -5.36262523e-03
    -4.43809479e-03 4.85626608e-03 -2.47014011e-03 7.67306518e-03
    1.18504046e-02 -3.86136980e-03 -6.76141260e-03 -1.22534940e-02
    -3.63862375e-03 -7.21648009e-03 -7.32867140e-03 -2.42012058e-04
    -5.25969034e-03 -7.08217558e-04 -1.11008370e-02 -5.15540177e-03
    -2.32793037e-02 -1.13691855e-02 -1.33188823e-02 -1.05432961e-02
    1.38736600e-02 1.20239211e-02 1.55096361e-02 2.58776709e-03
    -1.47803617e-03 -7.79257016e-03 9.31696384e-04 -4.46982170e-03
    1.05941407e-02 4.35916381e-03 9.27164569e-04 1.10291038e-02
    -1.39870774e-03 -3.18083563e-03 -2.22910335e-03 1.89104525e-03
    -4.31487709e-03 7.13295164e-03 6.16782997e-03 -1.07568549e-02
    -3.76871927e-03 -5.61932428e-03 -8.63162614e-03 -1.88587978e-02
    -2.20360560e-03 -6.72552444e-04 3.44317337e-03 1.31899239e-02
    -1.10054174e-02 -4.13341448e-03 -1.29432632e-02 -1.92280132e-02
    -1.25317546e-02 9.04833607e-04 3.09684942e-03 1.32427663e-02
    -3.01120477e-03 -5.73817361e-03 1.14758769e-02 7.81230209e-03
    -3.22282873e-03 -1.28824858e-03 -3.90562066e-03 -6.28710026e-03
    -1.19100546e-03 -1.14997420e-02 -6.76183542e-03 1.43606234e-02
    1.56869255e-02 2.10144501e-02 3.75330128e-04 7.30480126e-04
    -9.03257821e-03 -7.05568865e-03 2.24258355e-03 -8.97080824e-03
    -4.68304439e-04 -7.40610715e-03 -1.86535958e-02 -5.26955863e-03
    2.51206988e-03 1.05187891e-03 5.57044009e-03 2.72123446e-03
    -3.45680537e-03 1.24848876e-02 3.31194000e-03 2.94824503e-03
    -5.74041987e-05 1.03386510e-02 -3.86763387e-03 -2.16446468e-03
    -7.95548782e-03 7.27253128e-03 9.68970172e-03 1.59014557e-02
    7.47152651e-03 1.28959259e-03 -5.23139862e-03 -6.41460996e-03
    -1.47509377e-03 -5.46688959e-03 6.16794685e-03 3.55772325e-03
    4.79381485e-03 8.66811071e-03 3.33322189e-03 -6.93814829e-03
    -7.94603198e-04 4.87867603e-03 1.08300550e-02 4.03378671e-03
    7.79587543e-03 5.57315955e-03 7.61424832e-04 9.84858256e-03
    -9.91575769e-04 -1.00223674e-02 7.98266102e-03 2.57690717e-03
    2.95624975e-03 5.91469789e-03 6.84674189e-04 1.55466481e-03
    -2.26294855e-03 -1.47437574e-02 -1.13692246e-02 2.37497292e-03
    -4.79625212e-03 8.04398302e-03 4.98070335e-03 -3.38957668e-03
    3.51292221e-03 -3.30101210e-03 -2.31174589e-03 -9.86876898e-04
    -4.24812984e-04 -9.08875314e-04 9.36742220e-03 1.47573017e-02
    7.94507377e-03 8.78670532e-03 5.45187714e-03 -2.26593111e-03
    -6.32427633e-04 -9.22136009e-03 -8.93899123e-04 8.76990985e-03
    8.90976808e-04 -1.91837619e-03 3.07477242e-03 -6.73780357e-03
    -7.63328886e-03 -3.96046601e-03 7.50537962e-04 5.00531355e-03
    1.23080034e-02 6.97211130e-03 -1.62846432e-03 7.02912034e-03
    -7.69897422e-04 -2.68206536e-03 -5.44215133e-03 4.44045407e-04
    1.08127795e-04 3.82516679e-04 1.06556825e-02 3.46733513e-03
    1.70334745e-02 1.18361600e-02 4.11842391e-03 3.42927451e-05
    -1.63996519e-04 -1.92799210e-03 -9.08911694e-04 4.86676162e-03
    2.64151650e-03 7.98172504e-03 1.12927426e-02 6.03877613e-03
    3.59873055e-03 -6.59251772e-03 5.74885961e-03 6.09873794e-03
    2.31488980e-03 -5.00506302e-03 -1.81543594e-03 5.05480682e-03
    -2.84747686e-03 -2.96906196e-03 4.42541903e-03 -2.69046915e-03
    -1.40007930e-02 -1.10846162e-02 -6.48581609e-03 -3.98538029e-03
    -4.50651394e-03 -2.79822107e-03 4.54915036e-03 -3.84457177e-03
    -3.35030840e-03 2.64490070e-03 3.26961954e-03 2.53230426e-03
    -1.62574544e-03 4.48897714e-03 8.76294170e-03 6.95817685e-03
    -9.26363096e-03 6.42067054e-03 6.15009712e-03 9.81457345e-03
    8.83317960e-04 4.55742236e-03 6.96135126e-03 6.92275632e-03
    8.28570407e-03 1.55046734e-03 -2.12654425e-03 -3.79861309e-03
    3.11253709e-03 4.69717151e-03 -6.80459617e-03 -3.14048002e-03
    1.48542074e-03 7.72522576e-03 -6.07485563e-05 1.66044396e-03
    5.94815332e-03 1.55898556e-02 1.58117060e-02 -1.07000200e-02
    -3.58048687e-03 -1.44294079e-03 3.46993026e-03 -6.41254301e-05
    2.36624503e-03 1.41103026e-02 1.51539966e-02 1.47182145e-03
    9.71362554e-03 8.39440804e-03 1.38337398e-02 6.19530026e-03
    -9.63062281e-04 -5.65035874e-03 8.62117857e-03 1.44844800e-02
    -7.70125818e-03 5.53089194e-03 8.41067918e-03 8.65708850e-03
    1.36225084e-02 -2.67157657e-03 2.23408002e-04 1.69263482e-02
    1.06585296e-02 8.59242585e-03 -4.85977856e-03 -1.56461424e-03
    1.31569325e-03 -7.14934838e-04 -5.48884133e-03 -9.23614576e-03
    6.44117733e-03 3.90954548e-03 -7.39467051e-03 -2.18308438e-03
    -1.38080248e-03 -9.47555341e-03 -4.25725663e-03 -1.11662373e-02
    -1.02001736e-02 -1.90877379e-03 1.61079003e-03 -8.79934174e-04
    -1.78592477e-03 2.50238995e-03 4.22476605e-03 1.48485182e-02
    -6.40207320e-04 -6.96202274e-03 4.18741629e-03 7.93353841e-03
    6.65431982e-03 1.36285070e-02 8.73700157e-03 1.10483803e-02
    7.32120033e-03 -2.84067122e-03 -1.09243318e-02 -3.94431688e-03
    -1.66932459e-03 -8.41191132e-03 -1.26325972e-02 -6.43044151e-03
    -5.59744844e-03 -5.56622911e-03 -1.25698587e-02 -3.21533252e-03
    8.22870433e-03 1.02350349e-02 4.73305816e-03 5.51074138e-03
    2.37996504e-03 -1.39127369e-03 -1.34699640e-03 -1.21092824e-02
    -3.90504883e-03 1.04026869e-02 9.72292852e-03 9.79776774e-03
    1.45521546e-02 -1.88625895e-03 -1.46110915e-03 2.37798179e-03
    -6.03785878e-03 6.14522584e-03 1.23182638e-02 8.03546607e-03
    6.46287389e-03 7.43116369e-04 -1.78122800e-02 -1.09292706e-02
    -9.63745057e-04 -1.17118610e-03 -7.98407709e-04 1.18266204e-02
    5.92426676e-03 5.83550311e-04 1.33432895e-02 2.13703350e-03
    -1.17197698e-02 -6.64336374e-03 -2.53758742e-03 1.16367266e-02
    1.43956114e-02 4.47979517e-04 -2.20503029e-03 -4.77229059e-03
    -1.07744420e-02 -1.40495216e-02 -4.84647928e-03 1.18517810e-02
    2.36241929e-02 8.23757891e-03 2.43988330e-03 -8.97005480e-03
    5.84980473e-03 -4.29101521e-03 -5.14864782e-03 -1.58271771e-02
    1.16901752e-02 8.52715410e-03 -2.95935478e-03 -5.02911769e-03
    -1.46153448e-02 1.47440182e-02 -1.01562440e-02 3.22428939e-04
    -1.47890635e-02 2.82719103e-03 -5.44936070e-03 -3.78132449e-03
    -1.03997458e-02 -2.06159614e-02 -9.58895311e-03 1.00668648e-03
    7.06045609e-03 -9.15726006e-04 1.14683621e-03 -1.60842668e-02
    -5.98621042e-03 -3.48433224e-03 -1.75268818e-02 1.10774627e-02
    -2.92763393e-03 1.30026881e-02 -5.44086844e-03 -6.43896731e-03
    4.93331486e-03 -6.24111213e-04 1.34824705e-03 -1.02190264e-02
    8.31311662e-03 -7.06886873e-03 2.85590161e-03 -8.54247157e-03
    -3.02384887e-03 -8.08241498e-03 -3.28552723e-03 6.41877810e-03
    -1.19011814e-03 9.66712926e-03 -5.35151595e-03 -7.21628033e-03
    -1.85507666e-02 -7.16369972e-03 -1.63214132e-02 -1.06009096e-03
    -1.07735686e-03 -1.29471719e-02 -1.56689354e-03 -4.01820894e-03
    1.05644874e-02 3.22911714e-04 -5.71248168e-03 -1.73238236e-02
    -8.50849599e-03 -1.33916009e-02 -7.24929525e-03 -6.62351667e-04
    -4.70329425e-04 2.85482057e-03 -4.86432947e-03 -8.49273894e-03
    3.82399582e-03 6.14725926e-04 3.69625166e-03 -2.68162694e-03
    -3.66126117e-03 -4.74850181e-03 -8.63839965e-03 -1.51016098e-02
    -4.09384910e-03 9.49011650e-03 -1.10379094e-03 5.31233149e-03
    6.33872172e-04 3.64695583e-03 4.83076059e-04 6.51659677e-03
    -9.02179442e-03 4.02814196e-03 -3.66367050e-03 -3.75221856e-03
    -5.58693102e-03 -2.06440175e-03 1.33831648e-03 -1.17700896e-03
    -3.89633421e-03 -1.10261738e-02 -8.79222527e-03 -2.54533906e-03
    -3.62681854e-03 4.13893443e-03 1.32912677e-03 6.61164243e-03
    1.21186068e-03 -8.19271803e-03 -1.44357923e-02 -1.51451267e-02
    3.02880444e-03 -4.63728141e-03 -2.52471981e-03 -2.92298966e-03
    9.11076926e-03 8.06657504e-03 1.15441205e-02 2.11092364e-03
    1.09279796e-03 9.76194069e-03 1.47016277e-03 -6.37127087e-03
    -9.09277331e-03 1.67248154e-03 6.00121124e-03 7.48272659e-03
    1.39409192e-02 3.30957840e-03 -2.85873748e-03 -5.72992442e-03
    -1.87878485e-03 4.20038262e-03 4.77431854e-03 8.63520242e-03
    -7.72590656e-03 -6.89860526e-03 -1.15043176e-02 -2.39086896e-03
    1.32269762e-03 -6.12676982e-03 -1.98483374e-03 -8.15770682e-03
    1.21843079e-02 -4.38908953e-03 -2.84178532e-03 -1.17671415e-02
    5.98640041e-03 5.97810466e-03 -6.84168306e-04 -8.41000234e-04
    2.38154852e-03 -1.78703899e-03 7.24013429e-03 1.21836867e-02
    -1.49951049e-03 1.11906473e-02 1.44515634e-02 8.21319595e-03
    9.14912019e-03 3.19928653e-03 -9.13587958e-03 2.21554656e-03
    7.83507526e-03 5.07010333e-03 1.45179511e-03 7.97772501e-03
    -9.80269862e-04 5.11129899e-03 8.68999958e-03 1.32751409e-02
    2.55340291e-03 -3.79340199e-04 -9.16752499e-03 -3.15663498e-03
    2.12658779e-03 -5.83025580e-03 5.68356318e-03 3.58355930e-04
    4.34610108e-03 -8.70240328e-04 -2.87181069e-03 -3.11593944e-03
    9.09183081e-03 1.55859282e-02 1.89753361e-02 1.61568169e-02
    8.63820722e-04 -1.24342006e-03 -1.65378302e-03 9.25277546e-03
    1.02618784e-02 1.16282916e-02 1.35528259e-02 6.18680241e-03
    5.15830144e-03 5.93339140e-03 5.25571639e-03 8.10063165e-03
    9.30988323e-03 1.04347356e-02 3.07551178e-04 6.02724915e-03
    1.10140806e-02 1.60872173e-02 1.08504351e-02 7.25106662e-03
    -1.17123278e-03 -4.02040360e-03 -7.65083387e-05 2.82917498e-03
    4.88593103e-03 -3.93005233e-04 4.36925283e-03 7.10226176e-03
    3.33400257e-03 -1.75975321e-04 -5.82425715e-03 5.52986143e-03
    1.23453010e-02 5.11533301e-03 -4.67785029e-03 2.85391230e-03
    3.40917450e-03 2.81790039e-03 2.85364501e-03 2.88087945e-03
    4.02650796e-03 4.33540205e-03 -5.63108362e-04 1.23354926e-04
    -4.22743149e-03 3.59815382e-03 9.13100224e-03 3.47835041e-04
    -1.40682585e-03 2.59445678e-03 5.06238686e-03 5.43518085e-03
    -1.35771383e-03 6.32416864e-04 7.08690891e-03 1.00051588e-03
    -9.64330602e-03 -6.49670605e-03 5.67894056e-03 1.93708669e-03
    -2.92709679e-03 3.25681479e-03 -7.37906573e-03 7.68960826e-03
    7.24750338e-03 1.54921028e-03 -2.46556872e-03 -4.07644967e-03
    6.17646938e-03 -5.59127540e-04 2.52460130e-03 -5.34881279e-03
    1.18295860e-03 1.11608803e-02 -5.39005548e-03 -4.04088385e-03
    6.77121338e-03 1.21331038e-02 3.79005680e-03 -5.29936457e-04
    -4.81590489e-03 6.67726621e-03 6.98662782e-03 -9.08823626e-04
    -6.44730963e-03 7.78988190e-03 6.33934326e-03 -6.30683557e-04
    -3.31933424e-03 -1.22913467e-02 2.07651989e-03 1.08410278e-02
    1.13846986e-02 -1.30235776e-03 1.38086197e-03 1.72629848e-03
    -2.14609620e-03 -1.26921069e-02 -1.87751763e-02 5.30535774e-03
    1.50278779e-02 1.79348979e-02 1.17311848e-03 4.42396058e-03
    9.26321186e-03 3.39916558e-03 4.12786379e-03 -3.95937590e-04
    1.12773702e-02 1.18917292e-02 -2.72808410e-03 -2.89405463e-03
    7.20376661e-03 2.18966487e-03 3.78698111e-03 2.19312846e-04
    1.17568136e-03 -5.96065121e-03 -1.22790481e-03 -7.91954156e-03
    -8.23211297e-03 1.21407397e-03 2.78114760e-03 -6.19807281e-03
    -2.03434727e-03 -8.90169386e-03 1.19411778e-02 1.54300705e-02
    1.02329738e-02 -1.28725590e-03 8.65131803e-03 -2.43104948e-03
    -1.14984885e-02 -2.76702759e-03 -5.71988476e-03 -1.81253366e-02
    7.33015407e-03 -5.83144028e-05 5.79142303e-04 -3.81694618e-03
    3.74384399e-04 8.74655414e-03 4.05932590e-03 4.29541152e-03
    -2.12379801e-03 2.01380416e-03 -2.34374846e-03 -8.82914942e-03
    -6.00713165e-03 -2.98371445e-03 1.02081429e-02 1.20004825e-02
    4.00054501e-03 1.44117894e-02 -1.36100384e-03 6.60403399e-03
    -6.59140293e-03 -3.74269253e-03 5.03974850e-04 -4.05834429e-03
    -4.66702692e-03 -4.80413903e-03 -1.21486094e-02 6.38269354e-03
    -3.87046998e-03 4.85430966e-04 -1.51029904e-03 9.72265471e-03
    3.35376128e-03 3.35845537e-03 5.51908184e-03 4.94356325e-04
    -2.57561891e-03 -2.21961876e-03 9.25630040e-04 4.53635410e-04
    -2.74302810e-03 2.81407963e-03 8.67839623e-03 1.38756353e-03
    9.58767533e-03 1.07367733e-03 2.31120083e-03 -5.15351258e-03
    5.09973709e-03 -1.75602594e-03 1.11468509e-03 6.82556443e-03
    1.19249034e-03 4.64173325e-04 3.77849024e-03 -7.24037469e-04
    -5.13116922e-03 3.50268418e-03 3.27421888e-03 4.60701813e-05
    5.98518585e-04 -5.74754304e-05 -2.44584773e-03 -4.88387560e-03
    9.16206860e-04 -3.50749120e-03 1.11405691e-03 -5.20613568e-04
    -3.38599039e-03 3.32922186e-03 -7.35553820e-03 -1.10281594e-02
    7.95536253e-05 6.30599540e-03 -9.15277808e-04 1.37766323e-03
    5.21992240e-03 1.67535304e-03 9.01989359e-03 6.13395590e-03
    -8.88940354e-04 4.74753464e-03 -1.53135811e-03 -1.19155843e-03
    7.31757656e-03 -7.42394885e-04 7.26589875e-04 1.74171180e-02
    9.78823472e-03 9.56389029e-03 9.57903266e-03 2.18738313e-03
    1.60713878e-03 -3.25297820e-03 6.46519591e-04 1.35705376e-03
    4.53961175e-03 2.83874426e-04 -2.33786483e-03 5.55103691e-03
    4.57328372e-03 4.53751476e-04 -1.15019022e-04 -6.53715199e-03
    -4.68843803e-03 8.26665387e-03 1.91528059e-03 9.57666524e-03
    5.27093327e-03 1.98389217e-03 6.93275733e-03 -5.73902717e-03
    2.17886805e-03 -9.54373507e-04 1.58965886e-02 5.13567543e-03
    -1.92396960e-03 4.71654069e-03 -4.17752279e-04 4.39748121e-03
    7.89560657e-03 2.61669769e-03 -1.06278686e-02 1.01922406e-03
    1.05661359e-02 -7.07907695e-03 -3.29992239e-04 -1.08793192e-02
    1.67620892e-04 6.37409557e-03 2.99514068e-04 -3.71417427e-03
    6.80574169e-03 6.28496229e-04 -3.80046200e-03 -3.84614966e-03
    8.74223304e-04 7.36695435e-03 7.03254994e-03 1.58949830e-02
    -8.36596242e-04 -9.32835788e-03 2.21133186e-03 -1.64816082e-02
    -8.21287464e-03 -1.15434034e-02 5.39356144e-03 2.40107235e-02
    -4.07915330e-04 -7.29392702e-03 2.99165584e-03 1.17605878e-02
    1.24474033e-03 1.73027685e-03 -1.03272395e-02 -9.11594089e-03
    -5.72163798e-03 -1.12249400e-03 1.09253051e-02 1.04090562e-02
    1.06281741e-02 9.95773077e-03 6.55948231e-03 4.62811120e-04
    -6.54638337e-04 5.39291278e-03 1.27069401e-02 -2.25902162e-03
    -2.34681461e-03 4.75779874e-03 -1.13762021e-02 -1.57126086e-03
    -8.72870348e-03 -9.82354628e-04 1.48281511e-02 3.60793876e-03
    1.12569891e-02 1.15069961e-02 1.01540759e-02 7.20203947e-03
    3.65146645e-03 -1.17293932e-02 -1.56299081e-02 1.61744910e-03
    -3.72176088e-04 1.17934048e-02 2.40774523e-03 2.21947950e-04
    8.97115935e-03 2.34899437e-03 -7.75214517e-04 3.99214216e-03
    4.30974457e-03 -7.82083347e-03 1.20302150e-02 3.02130263e-03
    7.21108355e-03 -5.66649687e-05 -2.22882256e-03 -7.24954391e-03
    7.94575899e-04 -5.61566907e-04 3.93133983e-03 1.29752010e-02
    4.64273570e-03 -1.86296867e-03 -1.25114410e-03 -6.93931384e-03
    -6.02742424e-03 -6.57680398e-03 -1.07508898e-03 7.19262054e-03
    9.67852492e-03 7.29525974e-03 -3.08465376e-03 -3.93110747e-03
    -8.42090603e-03 -4.35032276e-03 -6.01204392e-03 1.62721926e-03
    -4.86850739e-03 3.63403512e-03 -6.03411754e-04 8.33011419e-03
    6.66441396e-03 -3.53237661e-03 -1.37832584e-02 -8.27826280e-03
    -5.66931907e-03 4.29816218e-03 1.01645077e-02 1.17174108e-02
    7.14477012e-03 9.78572853e-03 -1.49001100e-03 -1.05121443e-02
    -1.81824213e-03 -9.18292999e-03 2.98832916e-03 -1.51689514e-03
    -1.25897105e-03 -6.19049883e-03 -4.41739289e-03 -1.11828130e-02
    -1.43932672e-02 -1.19689051e-02 -2.95062695e-04 1.41431885e-02
    3.44885048e-03 1.10617978e-02 1.05372164e-02 9.15855449e-03
    -3.43515974e-04 -4.63051256e-03 4.13836306e-03 6.92473818e-03
    6.24205172e-03 1.78472437e-02 1.64536964e-02 7.93449208e-03
    1.06338318e-03 -6.51577534e-03 -6.21880637e-03 -4.47034399e-05
    -8.80205818e-03 -6.96747005e-03 7.18531711e-03 -8.77652084e-04
    -7.16556376e-03 -1.54046121e-03 1.68526755e-03 1.62524951e-03
    2.12277472e-03 -5.11894980e-03 2.19437443e-02 1.88469402e-02
    1.42851165e-02 1.04629323e-02 4.98911133e-03 -1.13783795e-02
    -4.55016037e-03 1.07729156e-02 1.22827254e-02 5.25543233e-03
    5.64149721e-03 2.37831846e-03 -3.93955456e-03 -4.52048937e-03
    -1.09018749e-02 -1.05705531e-02 -1.93409307e-03 2.28583859e-03
    -7.55653251e-03 -5.02120610e-03 -4.53464454e-03 -4.60836245e-03
    -6.00321684e-03 -3.34236352e-03 1.08137252e-02 3.41432751e-03
    5.26764384e-03 -4.45594499e-03 -8.80174618e-03 -3.10086703e-04
    -1.04091840e-03 5.96102327e-03 -2.57587153e-03 8.69190041e-03
    5.90097811e-03 7.63866305e-03 -5.22179296e-04 -6.96399063e-03
    -1.84770359e-03 -3.18956608e-03 4.16327175e-03 -8.91406182e-03
    -3.30716604e-03 -1.14990491e-03 7.36935809e-03 3.67432996e-03
    -5.04919561e-03 -2.15547299e-03 -2.50364863e-03 1.00629600e-02
    -1.14885438e-03 4.34199022e-03 8.25569208e-04 4.24445095e-03
    2.83746375e-03 -8.20986403e-04 -3.47220642e-03 -6.75974507e-03
    -4.38002171e-03 -5.48360450e-03 5.09231677e-03 4.08089440e-03
    9.92038473e-03 6.26779022e-03 8.44122749e-03 -2.77319783e-03
    -1.59369092e-02 -1.27732139e-02 -1.02505684e-02 4.44229780e-04
    4.88045567e-04 1.25796273e-02 1.93515432e-03 3.93775571e-03
    -1.43886195e-03 -4.29657707e-03 -2.28124578e-03 -7.45772012e-03
    -3.26084136e-03 -4.80176555e-03 -1.94643741e-03 -2.72631110e-03
    -3.82204482e-04 2.07545608e-03 -4.69579175e-03 1.05155213e-03
    -2.28922665e-02 -1.03263725e-02 -2.83516897e-03 -3.25885456e-04
    6.69526588e-03 3.57314642e-03 -1.90967252e-03 -8.01311061e-03
    -5.69194090e-03 -1.08395889e-02 6.31883461e-03 -2.75269616e-03
    6.76294463e-03 -1.00641127e-03 -3.88415228e-03 -5.42110251e-03
    -5.63848205e-03 1.45538514e-02 2.42236769e-03 1.42134866e-02
    4.91738552e-04 -1.27539504e-03 1.17514166e-03 2.46180734e-03
    3.62156378e-03 -4.03955113e-03 -4.96365409e-03 -1.82461366e-02
    -2.00897362e-03 3.60926986e-03 3.90569010e-04 -9.24813002e-03
    -5.24147600e-03 -3.35628027e-03 -5.07882470e-03 4.55887802e-03
    4.65095369e-03 1.60521436e-02 3.62107926e-03 -3.32464976e-03
    -6.78812910e-04 -3.79410945e-03 -2.17294111e-03 -3.17117549e-03
    1.37138152e-02 5.88601641e-03 1.15182670e-02 2.25354219e-03
    -4.07602824e-03 -6.52495073e-04 -5.42836310e-03 1.13798492e-03
    5.97742526e-03 1.34993503e-02 3.13272141e-03 8.80281441e-03
    8.11219215e-03 -4.27945843e-03 -9.51982662e-03 -1.14306957e-02
    -4.80802543e-03 -6.54190127e-03 4.41800617e-03 1.00501105e-02
    7.20599247e-03 2.56841583e-03 -6.97858119e-03 -1.07308775e-02
    -1.28321964e-02 -3.20886192e-03 -3.59176169e-03 1.06823794e-03
    4.67045559e-03 6.93022599e-03 1.48252468e-03 -4.00326634e-03
    4.60033119e-03 2.65032751e-03 1.07846577e-02 7.88837671e-03
    -3.84843472e-04 -3.35205509e-03 8.11264664e-03 -9.23257030e-04
    -3.99538456e-03 -3.26131958e-05 -7.66012399e-03 2.92536058e-03
    1.04066846e-03 1.12144817e-02 -9.26491898e-03 -3.26479389e-03
    -1.02031520e-02 -5.20166010e-03 -6.94131386e-03 -6.01198850e-03
    1.82116073e-05 -3.70929413e-03 -5.15671866e-03 -2.80686188e-03
    9.24529508e-03 8.07885919e-03 -2.63569504e-03 -3.43945716e-03
    -3.55857750e-03 -1.83970411e-03 3.10922717e-03 2.62399600e-03
    -1.16071878e-02 -1.26395829e-03 -1.00386073e-03 -5.28650533e-04
    1.22170872e-03 -5.86886331e-03 -1.22967234e-03 3.81816993e-03
    6.39241003e-03 -3.90805770e-03 4.27527633e-03 -7.91674946e-04
    2.18464131e-03 1.34951314e-02 7.01258006e-03 -3.28505412e-03
    -8.62462074e-03 -1.37519455e-02 -6.24946970e-03 8.66903551e-03
    8.93722940e-03 1.22852381e-02 -9.99990501e-04 6.16843672e-03
    8.97507591e-04 9.21450742e-03 5.99572435e-03 -6.11495972e-03
    2.40211701e-03 -7.36658648e-03 2.83969520e-03 -5.99582726e-03
    1.44824199e-02 5.82279824e-03 6.41208049e-03 -3.75688449e-03
    -1.38346488e-02 -1.73077837e-03 -9.85794328e-03 -6.83089951e-03
    7.58770900e-03 6.02551876e-03 -2.00960482e-03 -6.83287065e-03
    -9.87090357e-03 -2.58430396e-03 1.39967026e-02 1.55486185e-02
    1.34155145e-02 1.05596392e-03 -1.13781623e-03 9.29783285e-03
    -2.41985684e-03 7.76210846e-03 5.75619610e-03 1.90746076e-02
    1.24357343e-02 4.87186341e-03 -9.04928148e-03 5.97065547e-04
    -1.70299609e-03 -2.64891703e-03 -4.31116018e-03 -8.73189606e-03
    5.20748366e-03 -3.86815262e-03 -6.17254805e-03 -3.20148002e-03
    4.45399946e-03 1.71956234e-03 -2.36663013e-03 5.99538954e-03
    4.74331062e-03 1.59560684e-02 3.87859996e-03 -2.46145204e-03
    3.37329088e-03 1.06775784e-03 6.92246575e-03 6.16036961e-03
    1.11271366e-02 8.16049334e-03 2.11299001e-03 4.80834278e-04
    5.30647254e-03 4.39356401e-04 4.46922565e-03 7.13570975e-03
    5.92916622e-04 1.69305108e-03 -1.10900415e-04 -5.83479460e-03
    2.14734604e-03 1.82873488e-03 -1.04987025e-02 2.84824846e-03
    9.11455043e-03 4.26812936e-03 6.35438412e-03 7.73859583e-03
    1.22204470e-02 8.96641170e-04 -1.06090577e-02 -1.51201338e-02
    7.12392246e-03 1.00765591e-02 -9.84005723e-03 -1.06984442e-02
    3.83259682e-03 3.44740204e-03 -6.08846825e-03 -6.91132946e-03
    -4.16667433e-03 1.27537176e-02 4.14433517e-03 2.54965480e-03
    5.65190846e-03 2.80521740e-03 1.14487729e-03 6.00130204e-03
    7.61700154e-04 -1.47567026e-03 1.39047625e-02 7.64901889e-03
    3.66985798e-03 1.14891315e-02 1.23687889e-02 3.72756203e-03
    2.82261870e-03 2.15681782e-03 -1.49006033e-02 6.89474354e-03
    7.19443848e-03 -3.40759824e-03 -7.94834737e-03 -7.17149669e-05
    6.41515129e-04 -3.37846694e-03 -6.25126297e-03 -1.37629649e-02
    8.53131991e-04 7.93875009e-03 6.76519889e-03 1.00429996e-03
    4.63930331e-03 4.58672829e-03 4.77375649e-03 -1.04741119e-02
    1.68969535e-04 4.15636599e-03 4.95513622e-03 4.14241385e-03
    6.09250646e-03 6.44272845e-03 -4.38241288e-03 -1.37501920e-03
    1.51662342e-03 -3.41400248e-03 -9.00425669e-03 1.71163969e-03
    6.91268779e-03 9.27718915e-03 -9.84189473e-03 -9.37109161e-03
    -6.73284463e-04 -2.91817775e-03 -9.40589234e-03 3.66843701e-03
    8.68311338e-03 1.22045754e-02 2.20895163e-03 4.38149134e-03
    -2.70980597e-03 -9.17197380e-04 -1.03377262e-02 -5.76534495e-03
    -2.98130530e-04 8.79122317e-03 1.94449835e-02 1.38757052e-02
    -7.19810883e-03 -9.27716959e-03 -6.12870185e-03 -4.88496572e-03
    -6.97043817e-03 1.84397941e-04 4.78330487e-03 1.21974535e-02
    1.04794800e-02 -7.47488113e-03 -4.30964306e-03 4.84071579e-03
    -4.30588378e-03 5.54547273e-03 7.10962946e-03 8.02414212e-03
    1.59898754e-02 1.22639816e-03 -4.70686704e-03 -3.82074650e-04
    5.60269970e-03 1.66763598e-03 -8.73269979e-03 5.48734795e-03
    5.07758418e-03 1.74123421e-02 1.94112081e-02 -7.06278440e-03
    -8.07544682e-03 -5.14511345e-03 -9.01925936e-03 -1.41328934e-03
    6.97345939e-03 2.60815187e-03 1.16245914e-02 1.12681696e-02
    -7.74556259e-03 -7.36250542e-03 -2.59790523e-03 -4.52540815e-03
    3.97790805e-04 1.05821090e-02 3.82950483e-03 6.15818379e-03
    6.13090931e-04 1.21101458e-03 2.48983712e-03 5.16975066e-03
    -1.11541525e-03 -5.20241214e-03 5.64217055e-03 9.76129610e-04
    1.71441433e-03 -2.55286635e-04 1.82206405e-03 1.45214132e-03
    3.15420330e-05 -5.93577605e-03 5.34032378e-03 -5.45058341e-04
    -5.01324364e-04 1.35975145e-03 2.49255938e-03 -2.40606652e-03
    -5.42289985e-04 3.68907989e-04 2.85627251e-03 1.03528320e-03
    -3.64550645e-03 -3.32555524e-03 5.18341130e-03 9.09660663e-03
    5.34956169e-04 -8.07718467e-03 1.25053478e-03 1.02188271e-02
    -3.09826364e-03 3.24589410e-03 3.55512672e-03 -1.61091483e-03
    -6.22779271e-03 -4.02064342e-03 -5.60154812e-03 -8.94919969e-03
    -7.32513377e-03 3.40404431e-03 1.11018186e-02 6.06854027e-03
    4.63687722e-03 1.61698349e-02 1.26087815e-02 5.02554583e-04
    4.60497802e-04 -5.45543712e-03 1.14727148e-03 -4.42229956e-03
    -4.27671568e-03 -3.35686695e-04 -9.94551554e-03 -9.94897727e-03
    -1.77061893e-02 -9.98304226e-03 5.85782388e-03 7.20759621e-03
    3.09680239e-03 -5.64396475e-03 -4.49619169e-04 4.80075320e-03
    7.58514740e-03 -6.07301341e-03 2.24897856e-04 1.25788292e-02
    -9.16469959e-04 6.08914532e-03 -3.76669434e-03 -6.27423264e-03
    1.25604952e-02 1.03924582e-02 -1.40508090e-03 -1.65385264e-03
    -6.51173480e-03 -1.29962142e-03 7.26143736e-03 -1.51902810e-03
    -2.83272495e-03 -9.14939307e-03 4.72141616e-03 1.58267887e-03
    -1.59959163e-04 4.19691671e-03 3.13908124e-04 4.16135322e-03
    -9.07578878e-03 -6.96371775e-03 3.10039800e-03 3.24713858e-03
    -3.04823811e-03 4.46992274e-03 -1.93590263e-03 8.93213041e-03
    1.41289067e-02 1.17709059e-02 -4.14651644e-04 -9.84812621e-03
    2.37735943e-03 3.23352125e-03 8.76389444e-03 1.17886104e-02
    -1.34041160e-02 2.16713944e-03 -4.38826252e-03 -1.65303592e-02
    -4.92674438e-03 4.33249772e-03 1.38347922e-02 1.90940584e-04
    -7.54396152e-03 -1.99907757e-02 -4.64351149e-03 -1.00071984e-03
    -4.77444613e-03 1.54430801e-02 6.29115338e-03 9.56867542e-03
    -5.68334432e-03 -1.15069998e-02 -1.32834930e-02 -1.66311802e-03
    2.34149792e-03 -1.75505094e-02 4.45175590e-03 7.01883808e-03
    7.65716704e-03 -9.22159664e-03 -1.47655196e-02 -1.82182044e-02
    -1.05081871e-02 -1.63437345e-03 -7.51224300e-03 8.69828835e-03
    -1.70746853e-03 3.44124972e-03 -3.25255981e-03 -2.06468403e-02
    -2.19292399e-02 -7.96921737e-03 -1.87503872e-03 -5.92607772e-03
    1.87977555e-03 8.57657753e-03 1.03358664e-02 3.72287049e-03
    -1.21929608e-02 -2.02631932e-02 -6.02361280e-03 -1.47649162e-02
    -9.29010659e-03 -8.31936486e-03 5.46683092e-03 8.47170409e-03
    7.53319310e-03 -8.68560188e-03 -1.90483481e-02 -6.53073052e-03
    -1.83152873e-03 1.13869319e-03 3.79877631e-03 -6.20873505e-03
    -2.48981465e-04 -2.27965275e-03 -2.30892096e-02 -1.14269936e-02
    -2.81549967e-03 -3.43847531e-03 -2.59221671e-03 -1.52958371e-03
    -1.49124861e-03 -6.18048420e-04 9.57639143e-03 -1.22982934e-02
    -8.40024650e-03 -4.52538021e-03 -1.30522614e-02 -3.91060067e-03
    -2.10174150e-03 -1.33963185e-03 -2.63258495e-04 1.02282176e-03
    -1.02581503e-03 -6.40018890e-03 -1.54207423e-02 -7.06890645e-03
    1.69772236e-03 7.07913144e-03 -4.05663718e-03 -8.84054229e-03
    9.30013717e-04 2.03920249e-03 -3.42648174e-03 -1.01390416e-02
    -9.82764270e-03 -9.90378018e-03 2.45384686e-03 3.26574151e-03
    9.99445375e-03 1.61839891e-02 7.44306855e-03 -1.12459976e-02
    -1.06844073e-02 -1.75418872e-02 -1.06365019e-02 1.83217239e-03
    3.27936932e-03 -2.16890546e-03 9.52571630e-03 6.98791817e-04
    -3.50482354e-04 -1.51461633e-02 -2.75169616e-03 9.16702859e-03
    1.32984603e-02 5.52722346e-03 -9.85861104e-03 -9.76085197e-03
    -7.37510389e-03 -7.02692289e-03 -5.53935347e-03 -2.97344639e-03
    4.16610949e-03 8.86010006e-03 1.29890656e-02 -8.46605841e-03
    -1.92620866e-02 -1.82825550e-02 -2.55518081e-03 -6.58521987e-03
    -1.57229081e-02 6.73872186e-04 2.29437612e-02 4.10814857e-04
    -1.94450635e-02 -5.13192406e-03 -6.57355506e-03 -5.58544882e-03
    3.49616306e-03 -7.77639588e-03 -3.44233005e-03 1.00523513e-02
    9.62290447e-04 -1.46838669e-02 -1.63851809e-02 -1.12758456e-02
    -1.00343896e-03 1.01071826e-04 -8.07395496e-04 5.66212321e-03
    5.01560885e-03 1.66399386e-02 -1.87315547e-03 -1.56071624e-02
    -1.63318273e-02 -4.56292601e-03 -1.28758568e-02 -3.24245496e-03
    5.58008160e-03 7.72692682e-03 1.23401014e-02 5.71198575e-03
    -5.90294227e-03 -2.48648529e-03 -1.93747203e-03 1.86514319e-03
    -2.82040611e-03 2.35539861e-03 7.99815357e-03 6.26116339e-03
    -3.91838187e-03 -8.98428448e-03 -6.35020714e-03 -3.55425058e-03
    -7.78128998e-03 -1.36735290e-02 -2.55944603e-03 -5.52886352e-03
    2.66906433e-03 7.00053526e-03 3.55787692e-04 7.06353830e-03
    -3.01545998e-03 -5.31994412e-03 -1.28047040e-03 8.77643190e-03
    1.70261767e-02 1.10413209e-02 1.05251174e-03 -6.96804421e-03
    2.29151757e-03 3.77308019e-03 -4.07008978e-04 -7.13108759e-03
    3.17535829e-03 1.72400232e-02 7.41119822e-03 -2.62054778e-03
    -1.12607619e-02 6.33680727e-03 3.47912684e-03 -1.81998199e-04
    -6.16409397e-03 4.35789023e-03 1.12305665e-02 1.16720591e-02
    6.27739588e-03 -1.27264147e-03 1.23501904e-02 1.24665098e-02
    -4.42935666e-03 -1.15357637e-02 -1.82657689e-03 1.28031326e-02
    6.11959305e-03 -3.30537651e-03 -2.31415429e-03 7.02243438e-03
    6.06003357e-03 3.51111242e-03 -2.39768345e-03 -3.20300984e-04
    -7.46052945e-04 -6.26190566e-04 -8.17269273e-03 -8.47285427e-03
    5.14646294e-03 3.27025540e-03 -1.17814750e-03 2.29789270e-03
    -1.26819615e-03 -5.82475914e-03 3.39329056e-03 -1.98093778e-03
    -1.90775632e-03 -4.47704550e-03 1.56662725e-02 2.26419489e-03
    -6.36143517e-03 -3.14589473e-04 1.18585315e-03 -3.83318262e-03
    -7.88045675e-03 -5.80092147e-03 2.87879305e-03 9.86018497e-03
    4.58275108e-03 4.70840139e-03 5.03896829e-03 -4.94423613e-04
    2.01227586e-03 -6.40376878e-04 -5.10207517e-03 -5.99637302e-03
    1.39363222e-02 3.24691599e-03 -4.79393825e-03 -8.94455332e-03
    -3.46825947e-03 1.02488352e-02 1.10495770e-02 -4.40103933e-03
    3.69395153e-03 1.60846487e-02 -1.99829857e-03 -1.87261179e-02
    -1.71894114e-02 -1.43371196e-03 1.38747068e-02 1.34993810e-02
    -4.00936883e-03 1.33158853e-02 5.87988272e-03 7.39100389e-03
    -3.84566165e-03 -2.36884062e-03 2.57444917e-03 6.81909267e-03
    4.51356871e-03 -4.65509808e-03 -7.47871632e-03 3.83579987e-03
    1.23254058e-03 -1.88936293e-02 -7.09676929e-03 -7.05196662e-03
    9.80519596e-03 1.38177315e-03 5.83962712e-04 2.86195450e-03
    1.16808107e-02 -9.14682448e-03 -1.55326650e-02 -1.11145750e-02
    5.31887077e-03 1.11173205e-02 3.40477633e-03 -3.80384433e-03
    1.49131035e-02 9.22285253e-04 -1.43749854e-02 -1.48222288e-02
    -1.34000005e-02 -4.19322075e-03 1.11766756e-02 3.70730716e-03
    1.19234703e-03 1.12684015e-02 2.97032623e-03 3.26273288e-03
    -8.69239401e-03 -2.18021427e-03 7.75309687e-04 8.73381831e-03
    2.35193758e-04 -3.20262229e-03 3.87075357e-03 -3.10383970e-03
    -4.49812651e-04 -1.15937097e-02 -4.19841800e-03 -1.94200594e-03
    8.96837655e-03 -1.37489638e-03 -6.66498207e-03 -5.66063542e-03
    4.22079396e-03 -1.13801630e-02 -1.07345143e-02 -9.41160880e-03
    -1.42005151e-02 4.56901547e-03 -3.13958805e-03 4.64441517e-04
    1.31433625e-02 2.44043209e-03 -3.12611996e-03 -3.24978260e-03
    1.71148952e-03 -2.84514204e-03 -3.25106853e-03 -4.59083356e-03
    -6.30641822e-04 5.54923946e-03 4.97560482e-03 3.98808531e-03
    -4.40322375e-03 -2.16802093e-03 8.68961215e-04 3.77345178e-03
    -1.65583543e-03 -4.47462359e-03 1.16796070e-03 -1.06601799e-02
    -1.10274199e-02 -5.59789361e-03 2.10033450e-03 1.84089900e-03
    4.84532124e-04 -6.21710671e-03 -4.16077347e-03 -4.24055645e-04
    -1.09596858e-02 -8.01092386e-03 -8.50980449e-03 1.96009016e-04
    1.29660615e-03 1.66457670e-03 -1.49052037e-04 -1.46870990e-03
    7.71871954e-03 -8.34532175e-03 -1.02348467e-02 -3.02027725e-03
    -1.55610277e-03 5.59171371e-04 9.40669421e-03 4.31285286e-03
    2.44190823e-03 -1.76357618e-03 -2.21543740e-02 -1.97284184e-02
    -6.91978866e-03 1.93993235e-03 5.00670029e-03 3.45502258e-03
    -3.02995625e-03 2.98870029e-03 2.32179021e-03 -1.88028160e-02
    -2.04816163e-02 -4.08299174e-03 -3.69813037e-03 6.11800654e-03
    1.37697114e-02 6.15307596e-03 9.01609007e-03 -6.37340872e-03
    -1.75546005e-03 -4.84717311e-03 -3.52727855e-03 -1.92929932e-03
    -4.50456282e-04 1.08955307e-02 -2.12558472e-04 -1.32435656e-04
    -9.09678917e-03 4.93807020e-04 -1.65951550e-02 -1.09477434e-02
    -9.94414371e-03 6.95164362e-03 1.07439421e-02 4.70388448e-03
    2.75787921e-03 -1.95561280e-03 -9.22139082e-03 -1.18068801e-02
    -3.02580942e-04 4.98491223e-04 -2.40153400e-04 8.04481469e-03
    5.37482835e-03 5.50858909e-03 -5.98098198e-03 2.71240459e-03
    -1.46232247e-02 -6.73378212e-03 -5.48446598e-03 5.57385152e-03
    6.65568328e-03 1.37013476e-03 4.32720501e-03 3.75328283e-03
    -4.58578812e-03 -1.91718116e-02 -1.73354540e-02 -1.29988613e-02
    -7.00095901e-03 -3.56609380e-04 -6.26533933e-04 5.75873675e-03
    7.29242398e-04 -2.36101169e-03 -8.25919397e-03 -1.35667576e-02
    -5.87150082e-03 -1.17911911e-03 5.57244429e-03 -8.55916925e-03
    3.83894448e-03 4.51258011e-03 6.13249559e-03 -7.75151420e-03
    -8.90698936e-03 -1.44891534e-02 -8.15565418e-03 -7.80202216e-03
    -8.96561984e-03 -2.63057742e-03 1.42889684e-02 -3.89392534e-03
    -5.69861941e-03 5.78535441e-03 -4.00312478e-03 1.92611129e-03
    -4.75251654e-05 -4.59490996e-03 -2.68596178e-03 7.25668622e-03
    3.39110964e-03 -9.01266374e-03 -1.11820884e-02 -4.61728359e-03
    -1.85652380e-03 2.99854414e-03 -9.12346411e-03 -1.57637071e-04
    1.31997950e-02 -5.12022385e-03 -8.03105719e-03 -2.25548935e-03
    -4.95665940e-03 -2.15115826e-04 -5.53175947e-03 -1.31951477e-02
    -1.22684119e-02 -4.97602578e-03 3.21898726e-03 -7.78726488e-03
    -5.18394494e-03 -9.20045772e-04 7.32183643e-03 4.42923512e-03
    1.92548044e-03 8.94424692e-03 1.26902107e-02 -1.26811853e-02
    -1.48261851e-02 -4.69297217e-03 -1.66395982e-03 -3.76624055e-03
    -1.63041172e-03 -3.37170856e-03 1.54366056e-02 -5.12691040e-04
    6.23086840e-03 9.57196206e-03 5.22022648e-03 -2.93170917e-03
    -6.32404489e-03 -5.69582824e-03 -7.74424337e-03 -6.25861110e-03
    -5.56023326e-04 2.51113460e-03 9.12981853e-03 8.55803583e-03
    3.10376892e-03 5.02356153e-04 -4.59328108e-03 -7.35734263e-03
    -1.16328560e-02 6.94067858e-05 5.52550424e-03 -1.01264985e-03
    2.14413786e-03 -2.88009155e-03 -1.19627779e-02 2.00869329e-03
    2.73299497e-03 1.76332463e-02 6.13540784e-03 3.61461379e-03
    -3.55523801e-03 -6.37575705e-03 -1.13040814e-03 -7.73593225e-03
    1.58550436e-04 -5.64676058e-03 -4.58589150e-03 4.57603112e-03
    -6.12139527e-04 5.94405923e-04 5.76776359e-03 6.48560934e-03
    5.79461502e-03 -1.86531537e-03 -8.99537373e-03 -1.21030305e-03
    5.68546634e-03 3.66921839e-03 -1.00482861e-03 5.69809973e-03
    6.10212656e-03 1.48649421e-02 -3.43572069e-03 -6.10561762e-03
    8.09847750e-03 9.40134190e-03 9.77089163e-03 -5.82467951e-03
    -4.26781969e-03 3.63927451e-03 -2.27198540e-03 -4.38933261e-03
    -7.25094369e-03 2.89102807e-03 6.45337952e-03 7.05895200e-03
    -5.90772973e-03 4.16117068e-03 6.70537679e-03 2.59302044e-03
    -1.16924671e-02 -1.41920825e-03 1.10834548e-02 7.49363843e-03
    6.58372510e-03 -1.94989028e-04 -3.71541420e-04 -3.77221761e-04
    1.16566382e-02 -9.56310052e-03 -9.63583682e-03 8.02016817e-03
    9.64047294e-03 4.67051100e-03 -3.49111669e-03 -3.58692184e-03
    -1.73536956e-03 4.27876599e-03 -1.05751809e-02 -1.00184130e-02
    -3.19590117e-03 9.85166896e-03 -6.00481266e-03 -6.81527704e-03
    -3.67940613e-03 -2.35237356e-04 4.32540849e-03 -1.20564317e-02
    -8.55347142e-03 8.60098191e-03 4.04017163e-04 8.80913809e-03
    -6.19308464e-03 6.93222741e-04 1.68203795e-03 -7.65367760e-04
    -1.02577005e-02 -1.58052379e-03 1.23261439e-03 4.91524208e-03
    4.06779302e-03 -2.80394824e-03 4.87637095e-04 9.45980020e-04
    7.93123851e-04 -8.13935231e-03 -6.67904317e-03 -9.06616263e-03
    5.25948219e-03 6.03143871e-03 2.80783186e-03 1.24902886e-04
    -1.34043046e-03 5.08407317e-03 5.40901907e-04 1.12238294e-03
    -9.56951827e-03 -5.01532399e-04 5.47776837e-03 3.58553859e-03
    6.05808944e-03 7.24372163e-04 -4.35251568e-04 -2.97394162e-03
    6.86496278e-05 -8.26588366e-03 6.02324435e-04 7.00366218e-03
    4.14344901e-03 3.13525856e-03 -3.03253671e-03 2.06821202e-03
    5.54117782e-04 4.07070247e-03 -9.03728325e-03 2.05962802e-03
    -1.00442339e-04 5.90236718e-03 4.19097487e-03 6.50515640e-03
    2.32706871e-03 -3.52485268e-03 -3.08398419e-04 -6.64840080e-03
    -2.26896629e-03 -1.08326727e-04 2.14625103e-03 8.26506410e-03
    1.10795600e-02 1.03137027e-02 -1.12612071e-02 -4.04589344e-03
    -4.33861231e-03 -6.49785250e-03 1.08899258e-03 -1.12916448e-03
    -2.48523033e-03 -6.91395893e-04 -7.12763658e-03 -3.62283248e-03
    3.64368502e-03 -4.16789157e-03 -1.57468475e-03 -5.82023989e-03
    -6.61744131e-03 -1.29961474e-02 1.09670241e-03 8.32484011e-03
    1.52503769e-03 5.07721538e-03 -1.13020902e-02 -4.29852959e-03
    7.97359680e-04 1.02703208e-02 7.95830879e-03 5.58801508e-03
    1.30953267e-02 -1.86170312e-03 1.05555858e-02 7.60412891e-04
    -1.01087578e-02 -2.19515432e-03 5.50126715e-04 6.32975111e-03
    -7.74511660e-04 7.41371932e-03 1.17392577e-02 1.21753504e-02
    1.81434234e-03 -7.18758209e-03 -9.33072250e-03 -9.86192748e-03
    -1.07772881e-02 -8.64806585e-04 1.26100155e-02 8.53232574e-03
    9.73062031e-03 -1.01739904e-02 -1.00358836e-02 -1.63091049e-02
    -7.81229464e-03 -2.45231483e-03 -3.94242164e-03 7.10958336e-03
    3.36942123e-03 1.46695282e-02 -7.77458912e-03 -9.32103116e-03
    -8.96644033e-03 -1.36103425e-02 1.12126733e-03 -3.95478634e-03
    5.84954489e-03 6.96582999e-03 7.03572994e-03 3.50886560e-03
    -9.13153123e-03 -5.84357698e-03 -7.55477464e-03 4.95509121e-05
    -1.86875253e-03 5.67518687e-03 1.34728628e-03 7.10458634e-03
    4.10471996e-03 -2.51274137e-03 -1.92558561e-02 -7.37835607e-03
    1.39406649e-04 -2.21713097e-03 1.11738071e-02 -3.52525408e-03
    5.49575919e-03 -5.43508260e-03 -1.10983821e-02 -9.36444290e-03
    -4.52456670e-03 4.83397208e-03 -2.35386146e-03 1.06857009e-02
    -3.40913684e-04 7.51568563e-03 -1.42689247e-03 -1.15400637e-02
    -6.22329826e-04 -3.99716012e-03 -5.78203006e-03 -1.14825414e-02
    -7.19918357e-03 -4.70879022e-03 -5.24297066e-04 -3.54423677e-03
    -3.08848903e-05 4.67117131e-03 -5.72367525e-03 -4.88872826e-03
    -4.73646726e-03 -9.49210115e-03 -8.57796427e-03 -4.96004522e-03
    1.60159761e-05 1.37917942e-03 -8.47437885e-03 -5.76778827e-03
    -1.92789151e-03 -1.14879617e-02 -8.36016331e-03 -1.20039750e-03
    3.41226533e-03 -7.01664295e-03 -9.79336724e-03 -1.44948217e-03
    1.89348368e-03 8.22271872e-03 -2.14447686e-03 -1.40827736e-02
    1.42687606e-03 -9.17675963e-04 -5.41111687e-03 -5.53169195e-03
    1.15382262e-02 8.53218418e-03 1.80514692e-03 8.28208111e-04
    -5.82741667e-03 -7.49013154e-03 3.73221468e-03 -7.18680257e-03
    3.56686814e-03 5.59181860e-03 1.22580035e-02 2.40078871e-03
    1.16970739e-03 -6.87757554e-03 -1.76447779e-02 -9.99585818e-03
    -1.63112115e-02 2.18950358e-04 7.92150572e-03 1.23496568e-02
    1.08490884e-02 3.58478073e-03 -9.44564585e-03 -2.48633721e-03
    1.57860180e-04 -4.65819286e-03 5.25471941e-03 1.53577402e-02
    1.01666143e-02 -3.12086078e-03 -1.41048717e-04 -8.27770215e-03
    -1.37332669e-02 -1.14104114e-02 -1.55948550e-02 4.44841571e-03
    1.83626148e-03 1.20734039e-03 1.63792353e-03 3.11656552e-03
    4.23075724e-03 -1.07294917e-02 -3.91961308e-03 -7.98218790e-03
    5.83690964e-03 4.95561166e-03 3.84139200e-03 6.88862568e-03
    6.31482294e-03 9.75243095e-03 4.55665728e-03 6.20862469e-03
    5.94767602e-03 8.56903382e-03 1.61238499e-02 3.71093815e-03
    4.76535130e-03 1.53781252e-03 -3.33393482e-03 -1.24564422e-02
    -1.36094317e-02 -1.12162819e-02 8.60366505e-03 4.71118977e-03
    -5.95105300e-03 -3.26791219e-03 2.43839365e-03 -1.39251361e-02
    -5.75652625e-03 -1.55893983e-02 -1.00827739e-02 -4.40639630e-03
    -5.95205603e-03 1.00969719e-02 9.32578091e-03 1.09615847e-02
    9.74565744e-03 8.25077668e-03 7.85392523e-03 2.45632231e-03
    -6.63039088e-03 -4.89760423e-04 8.67447630e-03 8.31673667e-03
    -3.70917958e-03 -9.59177501e-04 5.61146624e-03 4.29136027e-03
    -4.89336997e-03 1.14078971e-03 -3.32049560e-04 -6.08671317e-03
    -1.55219650e-02 1.43628172e-03 -1.21556884e-02 -4.23808210e-03
    -1.16240894e-02 -1.03851501e-02 -5.44349058e-03 5.22357924e-03
    -2.19940813e-03 -1.05152540e-02 -3.43441311e-03 -1.28519454e-03
    -3.15187243e-03 5.09892416e-04 -1.14849666e-02 5.96339174e-04
    -4.12639184e-03 -3.30793392e-03 1.45150244e-03 -6.80549257e-03
    -8.00249074e-03 -1.78852724e-03 -1.74047274e-03 -7.14409724e-03
    2.04287376e-03 8.44924769e-04 -6.06176024e-03 1.15316315e-03
    5.15828026e-04 6.67342870e-03 9.60086763e-04 9.00908932e-03
    4.26119333e-03 4.65297699e-03 5.87015785e-03 -1.97132002e-03
    -5.10844309e-03 -6.47278968e-03 -1.15122320e-03 -6.68282341e-03
    -3.10262083e-03 -1.22910300e-02 -4.57906350e-03 1.67398304e-02
    -6.09493535e-03 -6.11625379e-04 1.03103416e-02 1.27019770e-02
    -3.36967845e-04 2.04271777e-03 -2.67996406e-03 1.04899602e-02
    -1.71439827e-03 -1.11180852e-04 3.41225672e-03 1.08494544e-02
    3.70098930e-03 -7.72323037e-05 -1.19264924e-03 -5.45470836e-03
    -8.72041099e-03 -6.28136843e-03 -1.14942051e-03 7.13124918e-03
    1.77064110e-02 4.26256238e-03 -8.54639802e-03 -7.02330563e-03
    -7.99302291e-03 -1.22353053e-02 2.85522477e-03 -3.49560333e-03
    -2.71583303e-05 1.87667813e-02 2.16293009e-03 -2.25096312e-03
    -7.68368039e-03 -1.47607597e-02 4.38160170e-03 5.52248349e-03
    -5.15759131e-03 -6.50090806e-04 1.40197529e-02 1.25369327e-02
    -1.40705528e-02 -1.04634417e-02 -2.59236060e-03 4.56645712e-03
    -1.02037210e-02 7.43266719e-04 9.00428835e-03 1.54121546e-02
    8.47145822e-03 -3.31248087e-03 -2.12602993e-03 -3.15224542e-03
    -1.14333648e-02 -3.98265477e-03 -4.74160118e-03 -1.10148557e-03
    6.34533539e-03 -3.12692276e-03 -1.07804837e-03 -9.42338351e-03
    -4.78550280e-03 -1.08252289e-02 -1.20859814e-03 -5.63325500e-03
    7.95410946e-03 1.48543864e-02 1.07523715e-02 -2.39022396e-04
    2.67525116e-04 1.29292277e-03 2.17894395e-03 4.71731322e-03
    6.32037176e-03 1.05337733e-02 1.06940232e-02 -6.76675793e-03
    8.49078782e-03 -5.83339483e-03 -6.60429569e-03 3.72310787e-05
    -4.87962971e-03 -9.22972709e-03 -6.08597090e-03 -6.49171416e-04
    2.28278036e-03 -3.25700501e-03 -7.78279547e-03 -6.44470705e-03
    -6.46562316e-03 2.27105594e-03 -8.32499191e-03 -3.27996048e-03
    4.03290614e-03 1.20531404e-02 -5.22944611e-03 -1.52449943e-02
    -6.38307165e-03 5.69899101e-03 9.32123233e-03 4.62106150e-03
    4.07998962e-03 5.24396962e-03 -9.28224716e-03 -1.85539143e-03
    -9.07926913e-03 -1.02370670e-02 -2.38418463e-04 1.86559912e-02
    7.31291436e-03 8.18651542e-03 9.09440499e-03 2.05282145e-03
    -1.54837046e-03 -4.19449527e-03 -8.85061920e-03 1.04930382e-02
    2.82736518e-03 -7.90796429e-03 -3.46517237e-03 -1.20758684e-03
    -8.49618949e-03 -9.94572509e-03 -1.66430976e-02 -6.06568623e-03
    8.09266604e-03 1.06237466e-02 1.09575028e-02 -3.42105771e-03
    -2.63809296e-03 -1.00064427e-02 2.21008231e-04 -1.15491021e-02
    -3.47309513e-03 8.05426389e-03 6.60196831e-03 1.11147494e-03
    4.89994651e-03 4.93635843e-03 -1.97261423e-02 1.75676099e-03
    -3.45058041e-03 -8.05345364e-03 6.15282729e-03 1.06383860e-02
    1.22304466e-02 7.30093429e-03 1.49396597e-03 -5.14962897e-03
    1.17066959e-02 8.69551022e-03 7.16999080e-03 6.19132025e-03
    4.95484658e-03 9.05770715e-03 -4.68727108e-03 -8.00099317e-03
    -5.04128542e-03 -4.43011289e-03 -4.41646203e-03 -1.96667109e-03
    1.20731990e-03 2.84770387e-03 9.55324061e-03 9.35217552e-03
    -3.24329943e-03 -9.71506443e-03 3.69495596e-03 6.90180203e-03
    8.65970086e-03 -5.99921332e-04 6.75935484e-03 1.08715966e-02
    -9.76900221e-04 1.13542681e-03 -1.17715904e-02 1.23391161e-03
    9.14648699e-04 3.94041045e-03 3.57231544e-03 7.36998627e-03
    6.42358651e-03 4.03001392e-03 1.82530377e-03 -5.40422276e-03
    3.05764866e-03 6.61187433e-03 6.78729126e-03 7.96238333e-03
    -5.88489417e-03 6.47366000e-03 1.28791493e-03 -1.37276584e-02
    -5.24877710e-03 1.92892470e-03 -2.47289252e-04 -7.21884333e-03
    -1.26493862e-02 -4.82764840e-03 6.94893347e-03 5.53870946e-03
    -2.55236356e-03 4.93969861e-03 -7.78289977e-03 -2.53086444e-03
    -2.58968584e-03 -1.13706226e-02 1.49805900e-02 1.56529620e-02
    -1.06023625e-03 -1.59113687e-02 -3.43051506e-03 -1.60711061e-03
    2.58762320e-03 3.99916805e-03 1.29751423e-02 1.01467501e-02
    8.50662030e-03 5.21334494e-03 -8.77447659e-04 2.96023744e-03
    -8.60606879e-03 1.58174767e-03 1.00864621e-03 3.20486142e-03
    -7.52097834e-03 8.41753464e-03 5.06634591e-03 1.54075923e-03
    -4.78794705e-03 -7.69982114e-03 -8.05813819e-03 -1.98831363e-03
    -1.48445414e-02 -8.38205975e-04 6.02290593e-03 4.52849403e-04
    -7.64110684e-03 2.86048371e-03 3.65037727e-03 -8.74782633e-03
    2.01105699e-03 -2.67340662e-03 7.07358494e-03 3.41346627e-03
    7.21444236e-03 -2.79906532e-03 8.74823076e-04 -1.29700378e-02
    -2.92306626e-03 -4.35241219e-03 -3.45064746e-03 -8.20861373e-04
    2.53405282e-03 -7.87826284e-05 -1.20447492e-02 2.95559876e-03
    4.36761091e-03 -4.26639104e-03 -1.41993666e-03 -5.42232883e-04
    -4.23369044e-03 -4.78789769e-03 -9.66075528e-03 -1.66119915e-02
    1.78185510e-05 3.10011138e-03 -1.73574337e-03 3.04340106e-03
    -2.02799193e-03 -1.06817288e-02 5.16698556e-03 -8.28684680e-03
    -8.15424230e-03 -1.01291924e-03 -1.16049137e-03 -9.89060476e-03
    -3.10781621e-03 -9.89038311e-03 1.15981558e-03 4.00270754e-03
    -8.57609510e-03 -1.76108330e-02 8.94509081e-04 1.96755049e-03
    -4.37022094e-03 -8.25831201e-03 -2.56220042e-03 7.83054903e-03
    1.34644145e-02 8.97134712e-04 4.23881831e-03 -1.23825278e-02
    -7.76578393e-03 -6.39083050e-03 -1.03169447e-03 7.53015454e-04
    -1.08647039e-02 5.90774277e-03 -9.18273628e-03 -4.05888259e-03
    2.46260664e-03 -4.28019417e-03 -1.81847401e-02 -7.01233186e-03
    -1.56127252e-02 5.37168293e-04 1.36716319e-02 -5.27021894e-03
    -7.79286912e-03 3.37574980e-03 -6.79436559e-03 -1.17715830e-02
    -8.46219528e-03 -8.37633386e-03 7.31878588e-03 1.77639537e-02
    6.74787350e-03 4.92288126e-03 6.43628370e-03 -1.16652169e-03
    4.18542877e-05 1.79454638e-03 4.34825476e-03 1.05000818e-02
    1.46160685e-02 -3.67080094e-03 -9.98692308e-03 -7.51287304e-03
    -3.58358980e-03 -1.09400984e-03 5.72517165e-04 4.98436438e-03
    3.63048306e-03 9.08566825e-03 -5.63809555e-03 -3.89772374e-03
    7.94815458e-03 4.37846221e-03 -1.74500060e-03 -9.98657104e-03
    -1.84249890e-03 -7.37138418e-03 -1.47506362e-03 -9.44808871e-03
    -9.38792061e-03 -6.18916471e-03 6.20363839e-03 -8.02229042e-04
    -8.80815368e-03 1.78811001e-03 1.39802182e-02 1.21679790e-02
    -3.54347285e-03 -5.09469910e-03 6.51665207e-04 1.12021882e-02
    6.93118141e-04 -5.70375379e-03 1.39422494e-03 6.44942932e-03
    5.52817341e-03 1.61159231e-04 -2.62573332e-04 3.29419645e-03
    1.32632451e-02 6.45081047e-03 -8.26370716e-03 -9.25199187e-04
    -1.70813105e-03 2.81817251e-04 -1.64469727e-03 -3.73113994e-03
    -2.53891130e-03 8.89219251e-03 -2.08339910e-03 -1.07434411e-02
    8.23505502e-03 6.39118347e-03 2.71892780e-03 -7.67138507e-03
    -8.22029635e-03 2.85403943e-03 5.66326547e-03 -5.38701611e-03
    -7.42977904e-03 5.91207342e-03 1.01493457e-02 6.98459940e-03
    1.30768598e-03 5.84930694e-03 9.60648712e-03 1.36020472e-02
    3.08710593e-03 -6.57084165e-03 4.77847224e-03 8.63410346e-03
    1.02578858e-02 3.48651805e-03 3.35852755e-03 -1.00546582e-02
    1.74225762e-03 -6.57032663e-03 -7.47444015e-03 9.87043954e-04
    5.80407307e-03 2.21977034e-03 -5.41168591e-03 -1.54882588e-03
    1.15042888e-02 -6.55788055e-04 -5.84945502e-03 -6.99040014e-03
    2.60570063e-03 2.97617703e-03 -1.10694661e-03 -5.65724494e-03
    -8.61667970e-04 9.94585548e-03 3.15340678e-03 -7.74346525e-03
    -7.15742679e-03 4.17108531e-04 1.43095562e-02 9.24614258e-03
    2.54514092e-03 -3.75809427e-03 -2.01097340e-03 -1.10031164e-03
    -3.34181101e-03 1.75036758e-03 1.36133051e-02 1.10426247e-02
    3.99996061e-04 -9.24931746e-03 -1.08145820e-02 -1.34397196e-02
    1.65046635e-03 -2.57812469e-04 2.68383021e-03 3.84135544e-03
    7.79193593e-03 8.86671618e-03 -1.43900327e-03 -8.75392943e-05
    7.06877699e-03 5.55526791e-03 -6.61527691e-03 -4.35100263e-03
    2.80257111e-04 9.93217109e-04 4.95883171e-03 -5.73325995e-03
    -3.81953432e-03 -2.14789063e-03 4.30922676e-03 -4.28545522e-03
    -2.63059890e-04 2.55912985e-03 1.67429708e-02 6.24918612e-03
    4.62211529e-03 1.84560497e-03 -5.18757990e-03 7.95817189e-03
    -3.72651871e-03 1.35436654e-03 4.73800721e-03 1.26358075e-02
    -4.76057990e-04 -3.47008370e-03 3.99076939e-03 -8.18192679e-03
    8.93208105e-03 -4.32864111e-03 5.66626107e-03 -3.41742835e-03
    -1.05136838e-04 7.39563489e-03 -1.41299213e-04 2.19892408e-03
    -2.81709549e-03 5.21452166e-03 -6.83224178e-04 5.09763416e-03
    2.02455278e-03 3.96613823e-03 7.03939004e-03 -1.73443486e-03
    -2.70613912e-03 9.69129498e-04 3.85570410e-03 -3.60457366e-03
    -8.43985658e-03 -2.27327249e-03 3.52822873e-03 5.68049308e-03
    -8.96593148e-04 -3.26967158e-04 -3.94163001e-03 8.42417032e-03
    -9.74250906e-06 5.74142113e-03 -4.11532063e-04 -9.91720357e-04
    -4.77247639e-03 -1.39678773e-02 -3.75376374e-04 1.80219096e-04
    5.62696205e-03 7.38165167e-04 -7.65384175e-04 5.44682285e-03
    9.91992652e-03 7.79324630e-03 -5.00033051e-03 -1.22847175e-03
    6.26719696e-03 2.98779062e-03 -3.27251200e-03 -7.07187783e-03
    7.85969943e-03 -6.30371412e-03 -5.36091253e-03 -7.52842426e-03
    7.39859883e-03 6.87956717e-03 3.18606850e-03 -6.15393789e-03
    -1.20155746e-03 -2.60178116e-03 1.00374930e-02 4.05493286e-03
    -2.56836065e-03 3.27747432e-03 2.70153442e-03 1.00494260e-02
    -3.15533206e-03 -1.94658735e-03 8.20930861e-03 -7.53210671e-03
    -4.71228268e-03 -7.21354596e-03 4.71950881e-03 3.82585893e-03
    4.51208698e-03 -5.24024572e-03 -7.06301944e-04 -1.00172376e-02
    -1.09156705e-02 -7.38300197e-03 -8.95887613e-04 9.07464419e-03
    2.58946465e-03 4.91927052e-03 -3.56212026e-03 2.20530154e-03
    2.17120256e-03 -1.16559304e-02 -6.09419122e-03 4.24911175e-03
    1.98881980e-03 7.28083123e-03 1.80771835e-02 1.81618985e-02
    1.20559465e-02 -3.72457544e-05 -9.72761307e-03 -1.98585470e-03
    5.30646590e-04 8.82135518e-03 -4.15767962e-03 -6.23348588e-03
    -9.47231147e-03 7.97780114e-04 -7.50234956e-03 -1.51402522e-02
    2.31673894e-03 -2.92360317e-04 -3.46042420e-04 9.30458133e-04
    1.11776143e-02 4.30792058e-03 1.44715479e-03 -6.74195960e-03
    -3.77194840e-03 -1.05726216e-02 3.54382646e-04 2.03556800e-03
    2.46388488e-03 1.99218374e-02 1.90371461e-02 1.30646154e-02
    9.15237889e-03 1.42799411e-02 -3.96385649e-03 3.95579671e-04
    2.44382559e-03 -1.52661861e-03 8.12406093e-03 2.60903151e-03
    7.61288498e-03 2.09392253e-02 -8.19663517e-03 -3.61818657e-03
    -8.55812058e-03 -4.96028410e-03 3.13514203e-04 1.53939929e-02
    1.34073151e-02 4.83535603e-03 -1.68490876e-03 -5.98276500e-04
    9.65658168e-04 -5.26098022e-03 -4.50933265e-04 -4.12091007e-03
    3.92552372e-03 3.55966343e-03 3.69386259e-03 5.65337669e-03
    1.51162362e-02 4.37838957e-03 2.25279341e-03 -2.67313630e-03
    -6.94826525e-03 -6.54515205e-03 -4.90278145e-03 -1.38818577e-03
    2.26755720e-02 5.30908164e-03 3.58822918e-03 7.10824179e-03
    4.76432079e-03 1.02571603e-02 -3.42907547e-03 -6.63122104e-04
    1.33502076e-03 9.51033738e-03 -6.25150558e-03 3.38210724e-03
    -5.83911641e-03 -6.14369428e-03 -1.06102517e-02 -9.98087507e-03
    -6.34489115e-04 1.85792946e-04 5.46222739e-03 -1.87556334e-02
    -3.04426649e-03 -1.15149170e-02 -1.13054365e-02 4.20817465e-04
    -5.33579523e-03 -7.04900268e-03 -4.08815080e-03 -1.33477105e-02
    5.27094770e-03 -4.31338046e-03 -5.79554588e-04 6.21580938e-03
    6.88422611e-03 -4.71756328e-03 -5.84940601e-04 9.99398623e-03
    1.21681793e-02 -1.82750588e-03 -8.86705425e-03 -5.24354260e-03
    8.55112169e-03 5.70872473e-03 -1.97072723e-03 -6.84835529e-03
    7.13051204e-03 7.00746709e-03 -8.08502454e-03 -3.66560911e-04
    -7.24098925e-03 -1.13184908e-02 -6.15957100e-03 -7.42154662e-03
    -2.59883469e-03 -1.77862856e-03 -7.97409564e-03 -1.26171242e-02
    -6.58794120e-03 -1.88749973e-02 -1.22265220e-02 -3.20507633e-03
    -3.98325780e-03 -3.97122093e-03 -7.43078825e-04 -2.82789208e-03
    5.63827483e-03 -1.00820940e-02 -7.29379756e-03 8.71002849e-04
    3.54841410e-04 3.02489195e-03 -3.36913299e-03 9.42964479e-03
    1.20277936e-02 1.44341113e-02 -3.07068066e-03 -1.41973598e-02
    -9.37805325e-03 -5.07156411e-03 5.21719549e-03 -8.00237805e-03
    -8.00092937e-04 1.67861022e-02 -1.41460588e-03 -7.02788029e-03
    -2.41562463e-02 -1.22319916e-02 7.61569478e-03 9.79383197e-03
    1.83055294e-03 9.75565705e-03 8.79612193e-03 3.24593915e-04
    -3.69719137e-03 -2.38599591e-02 -1.05069354e-02 2.96122045e-03
    6.47627795e-03 -1.19180121e-02 5.55382762e-03 -2.63083121e-03
    1.46770114e-02 -5.19537227e-03 -7.91707635e-03 -5.93962939e-03
    -8.18943698e-03 4.47379898e-05 -5.36239287e-03 3.27879260e-03
    1.49043174e-02 9.14884079e-03 -1.79409515e-03 -2.46046903e-03
    -1.63512444e-03 -4.03047120e-03 3.74919130e-03 2.08748179e-03
    4.89590457e-03 5.31965448e-03 -2.33674509e-04 4.27576154e-03
    -9.51765757e-03 -7.38647208e-03 -2.74062110e-03 -2.79373908e-03
    -4.19481890e-03 7.14354869e-03 -7.11622648e-03 -7.99715333e-03
    5.86058293e-03 -4.32012836e-03 -8.89546983e-03 6.59709144e-03
    7.74217828e-04 -9.53891547e-04 2.55886512e-03 -1.50050279e-02
    -8.01115390e-03 -2.03581620e-03 -1.95170997e-03 -4.30342881e-03
    1.01888843e-03 2.30322522e-03 7.11316429e-03 9.53161623e-03
    4.54086997e-03 2.44633900e-03 1.29482127e-03 5.05930837e-03
    -6.43872051e-03 -4.43798490e-03 -1.64148444e-03 1.10291792e-02
    2.61896453e-03 5.70871867e-03 -1.50599852e-02 6.53922185e-03
    -4.23554936e-03 -1.48055926e-02 7.95142085e-04 3.06046288e-03
    -4.20222088e-04 8.86827300e-04 -9.36314743e-03 -6.49529370e-03
    8.67552683e-03 4.31733392e-03 -1.67799890e-02 -1.14890123e-02
    -7.95928482e-03 -6.28461828e-03 1.61402242e-03 -7.62082729e-03
    1.19449422e-02 1.05664423e-02 8.14037491e-03 -4.70592128e-03
    -7.99690094e-03 -6.52024383e-03 2.87495041e-03 -3.73242702e-03
    3.25821596e-03 1.63030736e-02 1.25307105e-02 7.33606983e-03
    -6.97152736e-03 6.39042555e-05 -5.86332753e-03 1.70307478e-03
    -7.54223089e-04 3.98867670e-03 6.36899006e-03 1.73706971e-02
    3.71478056e-03 -1.34842861e-02 -1.37834679e-02 -1.89144909e-02
    -9.43777710e-03 7.44700991e-03 -1.00204553e-02 -6.25901483e-03
    1.18216658e-02 2.23690900e-03 3.12292075e-04 7.50188809e-03
    -6.13166951e-03 -2.56069587e-03 5.94994100e-03 -1.65204238e-02
    1.32898502e-02 1.30126644e-02 -7.58517359e-04 -6.34234818e-03
    -1.48150395e-03 3.86768224e-05 2.84948386e-03 4.13564779e-03
    9.12969746e-03 2.28048000e-03 -4.76993294e-03 -1.42871682e-02
    -6.12383662e-03 -2.36883550e-03 2.97446526e-03 4.66391630e-03
    2.94192869e-04 7.95080885e-03 -9.00188088e-03 9.04329773e-03
    -6.51652599e-03 -4.36008861e-03 8.08146037e-03 -3.25620221e-03
    -3.40453931e-03 2.90210184e-04 -1.25073455e-02 -2.10484979e-03
    -3.34217004e-03 -9.08519048e-03 -7.21130986e-03 -2.36279145e-03
    -6.68842404e-04 3.69794737e-03 -1.60347822e-03 1.26791617e-03
    3.14046419e-03 -6.60531688e-03 -1.17660286e-02 -2.82171112e-03
    6.17435726e-05 7.77900976e-04 8.85399524e-03 5.60253905e-03
    5.51214907e-03 2.51423870e-03 4.46959957e-03 -3.13817128e-03
    1.20033557e-03 8.67258583e-04 -5.90354810e-03 6.01009885e-03
    4.63644881e-03 -2.15010266e-04 -5.91543457e-03 5.19705797e-03
    -3.90398153e-03 -2.47502397e-03 -1.04981996e-02 -2.92755105e-03
    4.70157014e-03 -5.52862708e-04 -1.80576602e-03 9.70985088e-03
    2.81415395e-02 4.43907641e-03 3.04571842e-03 -4.71905619e-03
    -9.41530894e-03 2.57819542e-03 6.84397109e-03 9.80720762e-03
    -3.71366274e-03 3.49914702e-03 2.22285651e-03 1.79444358e-03
    3.66822118e-03 -9.96424817e-03 1.62199431e-03 2.76403874e-03
    -1.21986568e-02 4.38896799e-03 6.98543712e-03 1.02833537e-02
    -8.21483415e-03 8.45841505e-03 5.84005285e-03 7.68047059e-03
    3.39464447e-03 -8.47667642e-03 1.11282999e-02 2.51979101e-02
    6.60413690e-03 -1.23280147e-03 1.26627987e-04 -1.25052398e-02
    -9.29019507e-03 1.15363707e-03 -2.21134839e-03 1.05429552e-02
    1.56238684e-02 1.53553206e-02 -3.29932576e-04 8.00934527e-03
    2.96847639e-03 -2.39428206e-04 1.20265037e-03 -3.35658260e-04
    -6.83673052e-03 -5.16292593e-03 -2.16143701e-04 -1.32983290e-02
    -4.46321163e-03 1.09437890e-02 9.11314040e-03 -1.13482529e-03
    -6.95053861e-03 -3.49557027e-03 -3.37332138e-03 4.13449743e-04
    -5.74169401e-03 -3.85900890e-03 1.50535787e-02 6.12897519e-03
    8.48988257e-03 7.90244620e-03 1.60284922e-03 -5.83389215e-03
    -7.43625686e-04 -1.13593752e-03 -3.86517408e-04 7.56352115e-03
    1.88195764e-03 -6.94130734e-03 -7.22281961e-03 -8.42782389e-03
    -8.69728345e-03 -1.19654629e-02 -5.33920527e-03 1.23124253e-02
    9.47101880e-03 1.13353999e-02 1.86601107e-03 -4.89311107e-03
    5.43788821e-03 -4.59280505e-04 2.36587221e-04 -2.85543036e-03
    -3.43557494e-03 4.66685370e-03 7.20167824e-04 9.06407554e-03
    1.85238235e-02 1.14768650e-02 -1.05000439e-03 -4.67145536e-03
    -1.93192798e-03 -9.48981196e-03 -2.64250394e-03 -1.39400316e-03
    -4.81409160e-03 1.37226833e-02 -2.63442192e-03 -7.25053158e-03
    -1.28793325e-02 -1.23523241e-02 -3.53935570e-03 4.51773731e-03
    5.84419072e-03 7.65721127e-03 9.51082353e-03 -1.71616196e-03
    -9.27611534e-03 -5.34789544e-03 -9.52790212e-03 -1.62445325e-02
    -1.84570742e-03 5.91494376e-04 -1.16176531e-02 -6.42233016e-03
    1.44385034e-02 4.88515804e-03 8.43649078e-03 1.25227319e-02
    -1.10897981e-02 -3.52923456e-03 -2.07691174e-03 -6.60698256e-03
    1.61874332e-02 8.10104143e-03 -3.68329161e-03 -3.76960333e-03
    3.15940916e-03 -2.20522955e-02 -5.99385984e-03 -1.05288951e-02
    -8.67826026e-03 5.83011890e-03 -2.66206451e-03 -2.98871892e-03
    8.09324160e-03 7.60989683e-03 -7.61064049e-03 3.52835329e-03
    3.09162308e-03 -1.33652464e-02 -9.19058640e-03 -8.93621612e-03
    -4.32113465e-03 1.95472478e-03 1.79608527e-03 -1.22025339e-02
    9.68094741e-04 -4.93645994e-03 -1.17183113e-02 -1.78127680e-02
    5.36320452e-03 1.69573771e-03 -8.90415069e-03 2.65433430e-03
    -1.29025029e-02 5.14575187e-03 -2.70831073e-03 -8.02928116e-03
    3.58993793e-03 8.11766554e-03 6.22681901e-03 -3.63609847e-03
    2.05964386e-03 -8.97076970e-04 4.77830693e-03 2.74925726e-03
    -1.35088870e-02 1.93613849e-03 -1.06562860e-02 1.80361012e-03
    -1.90056686e-04 3.36418394e-03 -9.36545897e-03 -1.87666784e-03
    -7.40500819e-03 -1.77364461e-02 -1.48517853e-02 2.43515824e-03
    1.04124937e-02 8.95819440e-03 7.68391974e-03 5.47465589e-03
    1.68548652e-03 -2.29719747e-03 -9.06253047e-03 3.00456979e-03
    7.02113798e-03 3.28808115e-03 -1.87033531e-03 -4.43889713e-03
    -2.95020128e-03 -7.06438115e-03 -4.38159565e-03 -1.26589425e-02
    -4.82398411e-03 6.18569274e-03 4.87757206e-04 1.07851555e-03
    1.63061749e-02 1.28888637e-02 -1.62476068e-03 1.64248596e-03
    -4.33440367e-03 -2.83273077e-03 5.00660250e-03 4.74332552e-03
    5.69368433e-03 5.92465280e-04 -1.70388725e-02 -1.36477975e-02
    -1.32156257e-02 -6.79628365e-03 -3.56636755e-03 4.37794719e-03
    6.24598702e-04 7.82259367e-03 1.26709724e-02 8.39870423e-03
    -9.53318551e-03 5.13105188e-03 -9.38335201e-04 -2.82265851e-03
    3.25299334e-03 4.96422779e-03 -1.54455134e-03 1.23419249e-02
    3.90769076e-03 -4.87037876e-04 -4.31455858e-03 -2.14907434e-03
    -2.12439056e-03 6.35823514e-03 -2.29597586e-04 -1.71781529e-03
    6.39887061e-03 9.43597686e-03 -1.11870673e-02 -4.91943117e-03
    3.85202817e-03 4.45302902e-03 -5.50490804e-03 -5.32687735e-03
    -8.79030302e-03 7.74837052e-03 5.98106720e-03 1.22514181e-03
    1.92123349e-03 3.92765412e-03 -6.03158167e-03 7.31250620e-04
    -3.81277758e-03 -3.69550474e-03 1.81406445e-03 9.90626868e-03
    -7.16947392e-03 4.66647325e-03 8.37837253e-03 1.29270330e-02
    -9.99478973e-04 -2.93750432e-03 8.18649866e-03 1.26227560e-02
    6.99437363e-03 -6.75269915e-03 3.73809744e-04 3.21124052e-03
    1.05056004e-03 2.62783654e-03 5.71221579e-03 1.16063580e-02
    1.58799011e-02 -7.72409001e-03 2.67057656e-03 -4.65928204e-03
    -5.25382580e-03 -6.17887825e-03 -2.96417763e-03 -5.63266827e-03
    -1.70976084e-04 4.43069171e-03 -1.19526242e-03 -6.89100660e-03
    1.32526213e-03 4.14452096e-03 3.58480401e-03 9.88289248e-04
    2.46310723e-03 2.87371397e-04 8.98607634e-03 -6.24761684e-03
    -4.67319012e-04 -5.76488161e-03 3.35441669e-03 -2.12713378e-03
    -4.32152534e-03 6.72354549e-03 8.76060966e-03 1.58167761e-02
    -1.15820486e-03 -2.76479870e-03 -2.39092857e-03 9.06923378e-05
    -3.90408724e-03 -7.36202206e-03 -3.30954720e-03 7.89366476e-03
    1.48247834e-02 -1.86042162e-03 1.11687917e-03 3.03014764e-03
    2.02575908e-03 -2.37700366e-03 -2.53155222e-03 1.44211546e-04
    -2.90670525e-03 1.61219183e-02 -1.67525571e-03 -4.67874901e-03
    -7.86019117e-03 8.75226036e-03 -6.77649630e-03 -6.58406876e-03
    4.15282371e-03 1.27062073e-03 4.05134074e-03 9.55188740e-03
    -5.89306559e-03 3.10062594e-03 9.25814174e-03 -7.90111814e-03
    -9.11593344e-03 -5.66703314e-03 6.56849006e-03 6.50500832e-03
    -2.65777996e-03 8.30191560e-03 9.58726648e-03 2.98687536e-03
    -3.81563441e-04 -3.62045807e-03 -6.62910333e-03 7.88194779e-03
    -1.68220096e-04 2.76904815e-04 1.23221520e-02 1.19352499e-02
    1.37536610e-02 -9.12609277e-04 -6.49461383e-03 5.24903042e-03
    -5.81532200e-09 -4.44207713e-03 -6.19921368e-03 -7.43142562e-03
    -9.03873661e-05 5.61908633e-03 -7.60246953e-03 3.53949773e-03
    -2.03740806e-03 2.69826758e-03 -4.99207701e-04 -6.33138185e-03
    1.17335115e-02 7.67815765e-03 1.39136529e-02 -3.26232426e-03
    3.67306732e-03 2.22228188e-03 3.19363829e-03 5.00984117e-03
    -8.08477460e-04 3.23862350e-03 7.69208325e-03 6.55328576e-03
    -2.24744016e-03 1.30997114e-02 1.10915555e-02 -1.23970932e-03
    3.51923425e-03 -6.23439578e-03 2.08423287e-03 6.59805443e-03
    7.42737111e-03 7.03305611e-03 6.63894403e-04 2.06197635e-03
    4.63665323e-03 2.30421685e-03 -9.44243744e-03 1.29484460e-02
    8.26356094e-03 8.18356685e-03 -1.28919715e-02 1.15053365e-02
    1.59380343e-02 3.88690317e-03 2.80999742e-03 -1.90587903e-04
    1.57804340e-02 1.03860546e-03 4.74046590e-03 -2.89492682e-03
    3.04924417e-03 3.88101372e-03 3.39143269e-04 -1.71581525e-02
    -6.18660939e-04 -4.63482365e-03 -7.46820122e-04 -9.90955392e-04
    4.57005296e-03 2.66467570e-03 -3.64957401e-03 -2.90691177e-03
    -1.19449934e-02 6.26399275e-03 -1.08087203e-02 1.27216495e-04
    -4.26899968e-03 -4.18712036e-04 2.16453060e-04 8.09386838e-03
    1.60283735e-03 -1.89389195e-02 -5.16556995e-03 -5.02173696e-03
    6.09257072e-03 7.95982254e-04 1.79139824e-04 1.75941957e-03
    1.07060838e-02 -2.01340904e-03 -1.73526052e-02 -1.63053162e-02
    8.22123082e-04 1.55665365e-03 3.46607063e-03 -3.53441550e-03
    -7.72403146e-04 -5.84112015e-03 -7.87389744e-03 -1.27418125e-02
    6.74546696e-03 -4.72959550e-03 -1.39716244e-03 -4.06085374e-03
    -7.90220313e-03 -2.63834465e-03 -3.48916533e-03 -6.48198230e-03
    -1.43410964e-02 2.03626987e-04 4.84960759e-03 -1.20202691e-04
    -9.13445896e-04 -5.66348061e-03 4.27268300e-04 7.51611404e-03
    -5.73707139e-03 -1.51293520e-02 -4.72313398e-03 9.38749406e-03
    4.62458236e-03 2.89627234e-03 -7.37138093e-03 -5.92510402e-03
    9.05670132e-03 -1.27602369e-02 -1.48975395e-03 -7.12556066e-03
    1.11533133e-02 6.88294508e-03 -1.05126633e-03 -9.00951307e-03
    -7.33128807e-04 -5.55020617e-03 -7.42368260e-03 -1.73817351e-02
    -3.07076285e-03 1.40223815e-03 1.19226368e-03 1.01957575e-03
    -4.69525252e-03 4.54477780e-03 1.25846341e-02 8.09903606e-04
    2.22543906e-03 -8.82474706e-03 -2.19391752e-03 -2.36740176e-04
    2.91263056e-03 -3.91424075e-03 -5.67642367e-03 5.52652963e-03
    -2.73691234e-03 1.79379329e-03 -9.35780443e-03 -1.63120311e-03
    3.61081475e-04 -2.54565827e-03 -5.96614741e-03 -2.62160925e-03
    9.84246656e-03 -7.74767064e-03 -3.84376314e-03 -1.77401993e-02
    -3.94445704e-03 -4.01871698e-03 3.42762563e-04 -4.63680411e-03
    9.70030669e-03 1.42738111e-02 3.92296398e-03 3.16518568e-03
    1.11602824e-02 5.36582852e-03 1.67488318e-03 4.35016304e-03
    1.03672966e-02 -3.62376426e-03 1.68285817e-02 2.59303185e-03
    -4.76394827e-03 -2.84786336e-03 4.84817056e-03 -4.17098217e-03
    -2.97486968e-03 2.02753907e-03 -2.20093387e-03 6.71570934e-03
    -2.16364278e-03 -4.65100119e-03 7.59582454e-03 1.26021188e-02
    -8.71163560e-04 -1.65881903e-03 2.10424070e-03 -1.04985163e-02
    3.18996306e-03 -4.29281127e-03 -8.74318462e-03 -3.93305905e-03
    3.51926498e-03 -4.51556221e-03 -7.83713069e-03 -1.32344011e-02
    -5.72476129e-04 1.88100338e-02 6.85758702e-03 3.15164379e-03
    5.73691493e-03 1.18355313e-02 -5.15662041e-03 -9.14043654e-03
    -2.83056259e-04 4.01615119e-03 1.50692966e-02 7.67849525e-03
    1.04090990e-02 1.18016852e-02 5.29177906e-03 9.83639620e-04
    -1.00461561e-02 -4.29830095e-03 -9.65956971e-03 2.70254258e-03
    1.42840261e-03 -2.22763466e-03 3.35084461e-03 5.22961235e-03
    -5.07482188e-03 -1.59973800e-02 -9.64211114e-03 -3.69231962e-03
    8.77047703e-03 4.19816235e-03 6.93124672e-03 6.29443866e-06
    -2.97837378e-03 -1.15364715e-02 -1.41861374e-02 -2.01156386e-03
    8.56226217e-03 1.33230770e-02 1.00306747e-02 9.68865585e-03
    2.30195615e-02 6.59322925e-03 -1.33973930e-03 -1.29852369e-02
    -6.73297793e-03 5.17364219e-03 6.68835221e-03 8.86405259e-03
    9.20831226e-03 5.74578345e-03 -4.22382541e-03 -6.39959890e-03
    -1.18661812e-02 -4.86491714e-03 8.21425021e-03 1.28137721e-02
    5.01429196e-03 7.02846749e-03 1.33859636e-02 -2.91736308e-03
    -1.24643724e-02 -2.14515030e-02 -7.80090038e-03 1.29536388e-03
    3.14998347e-03 1.41404380e-04 -1.32779032e-03 -8.43120646e-03
    -1.38304345e-02 -1.17407450e-02 -2.42378525e-02 -1.59037113e-02
    1.37708345e-02 4.76239109e-03 1.08889665e-03 -5.78137767e-03
    -8.77517741e-03 -5.88357775e-03 -3.61206057e-03 -4.46819962e-04
    9.65111423e-03 1.14690810e-02 4.08574182e-04 -7.77086196e-03
    -1.50429765e-02 -6.75350474e-03 2.23070150e-03 6.11339509e-03
    5.81096020e-03 1.18161337e-02 7.07587507e-03 -1.29908061e-04
    1.11483294e-03 -5.54764131e-03 -5.32976538e-03 -1.34713929e-02
    -9.70295910e-03 -1.10947136e-02 -5.34304185e-03 1.57015910e-03
    1.06358412e-03 2.47387821e-03 -4.19348525e-03 -6.02484960e-03
    -5.74322278e-03 -4.06616228e-03 1.87741674e-03 1.33729947e-03
    1.32605936e-02 -2.65642069e-03 3.25953937e-03 -4.08911705e-03
    -1.32260472e-03 8.13126471e-03 2.93838349e-03 4.50448645e-03
    6.75786100e-03 1.20795052e-02 4.69707372e-03 1.68931542e-03
    3.17958579e-03 -7.01249577e-03 5.91267645e-03 3.84575105e-03
    2.13243044e-03 1.59494532e-03 -3.26072355e-03 -8.54821526e-04
    3.08490568e-03 4.33518272e-03 -2.81580118e-03 -1.72469427e-03
    2.78314832e-03 7.00722821e-03 2.28759032e-04 -1.40494956e-02
    -2.60360679e-03 -1.03741772e-02 1.33522330e-02 -7.23306183e-03
    -1.03267934e-03 3.31595889e-03 -6.88110106e-03 -4.99535725e-03
    1.18948659e-02 1.48729858e-04 -2.80401832e-03 1.85920869e-03
    1.34512130e-03 6.75761700e-03 5.92896389e-03 -2.39528157e-03
    1.03745759e-02 5.01528243e-03 -1.23652872e-02 -1.60982944e-02
    -3.56554007e-03 1.28755793e-02 8.06103740e-03 4.85820277e-03
    2.00447463e-03 1.87601205e-02 -4.58566798e-03 -6.99655851e-03
    -4.03962797e-03 1.30124241e-02 -5.83332789e-04 4.11320291e-03
    5.71153173e-03 -9.32114758e-03 5.77963935e-03 -4.35344735e-03
    -1.22945206e-02 -7.36856228e-03 -3.18564870e-03 2.40412029e-03
    2.35780538e-03 -1.35630055e-03 4.50642454e-03 1.73629094e-02
    9.18344315e-03 2.89039715e-04 -1.14679411e-02 -3.54614062e-03
    1.06304465e-02 5.68438787e-03 -5.59305958e-03 2.63766479e-03
    1.32815437e-02 1.60569139e-03 1.79485907e-03 -4.40415507e-03
    -1.67839485e-03 8.05515982e-03 1.30884175e-03 -5.02785901e-03
    -5.23138512e-03 5.23955270e-04 9.42359120e-03 1.89358820e-04
    -7.64718093e-03 -2.20000721e-03 5.22545679e-03 -7.02487351e-03
    -4.43544006e-03 5.99092804e-03 2.25400105e-02 9.03545530e-04
    -1.93890068e-03 -6.88999007e-03 -4.52039205e-03 -4.40453039e-03
    -8.96034483e-03 -3.39346495e-03 -4.22332808e-03 5.58020081e-03
    4.49542794e-03 8.84456618e-04 -8.71834229e-04 1.11580500e-03
    -1.12912734e-03 -4.17708093e-03 -5.91482548e-03 -4.05669212e-03
    2.80374312e-03 1.02208378e-02 7.42828753e-03 4.37798630e-03
    2.38534203e-03 6.11043116e-03 6.17873156e-04 -4.50599287e-03
    2.79299216e-03 7.69300247e-03 7.30368774e-03 6.39416743e-03
    -4.96783480e-03 8.42205482e-04 -3.29379458e-03 -3.92930256e-03
    -8.61234590e-03 -1.20161725e-02 -2.34735105e-03 2.08406686e-03
    6.22911938e-03 5.03780600e-03 1.07125286e-02 3.29156546e-03
    -5.27634704e-03 -8.06814618e-03 -1.57038514e-02 -5.12541691e-03
    1.61455534e-02 3.85614089e-03 -5.07657230e-03 -2.32123048e-03
    3.17115942e-03 1.20396039e-03 1.63257285e-03 -2.13024882e-03
    1.03095677e-02 9.92109906e-03 8.07419047e-03 -1.66210392e-03
    1.12286187e-03 1.24636665e-03 -1.91577896e-03 1.10223354e-03
    -9.77060292e-03 5.84479189e-03 7.44457403e-03 -7.80847250e-03
    -1.53406593e-03 5.14906133e-03 -1.82054541e-03 -7.49320956e-03
    -2.52715009e-03 -1.25854192e-02 4.35456587e-03 7.73112290e-03
    -1.10740522e-02 -1.84696950e-02 -4.48368490e-03 9.87469219e-03
    -4.22596931e-03 -3.56264855e-03 -1.58496872e-02 -1.21531775e-03
    1.57339759e-02 9.81150288e-03 -6.70630904e-03 -2.93768547e-03
    -1.60003983e-04 -3.56675219e-03 6.24473250e-05 2.14632833e-03
    4.48669679e-03 -2.78209569e-04 3.57108911e-05 -1.01651559e-02
    -8.55798367e-03 9.01307072e-03 2.74271308e-03 -1.22112688e-03
    1.13132084e-03 -2.87668337e-03 1.50560224e-02 -9.17197485e-03
    -1.77112408e-02 -9.79586039e-03 1.13994963e-02 -4.64187283e-03
    1.62337872e-03 -6.94424473e-03 3.57252499e-03 -2.66638887e-03
    -1.45483604e-02 -1.28300814e-02 -8.17807764e-03 1.10765547e-02
    -3.66197550e-03 -3.36258416e-03 -9.45274625e-03 -1.50795178e-02
    7.81053118e-03 6.34119892e-03 -8.93665478e-03 -8.85354355e-03
    7.06864148e-03 -8.76673206e-04 -8.67136871e-04 7.83261319e-04
    4.39525489e-03 7.06701493e-03 9.92199755e-04 -4.94977413e-03
    -9.58778895e-03 1.46396346e-02 1.13280758e-03 1.38505851e-03
    2.73875077e-03 1.27293458e-02 -5.30661875e-03 3.85893887e-04
    -8.63630604e-03 -6.70923246e-03 9.61821061e-03 -2.56013079e-03
    -2.03687884e-03 -6.15795562e-03 -1.76197570e-02 -3.79155204e-03
    6.94362633e-03 1.76422717e-03 -3.89014982e-04 1.04172491e-02
    1.73075788e-03 -2.39659636e-03 6.24437991e-04 -5.95786609e-03
    6.20772224e-03 -7.32175633e-03 -2.23478712e-02 -1.82232559e-02
    1.10258739e-02 3.67558538e-03 2.60265335e-03 3.55894398e-03
    1.74447391e-02 1.26950219e-02 4.20825277e-03 -1.87009610e-02
    -1.35502201e-02 7.72588048e-03 -3.02984100e-03 -8.75790138e-03
    -6.12711592e-05 1.78902522e-02 -5.30150626e-03 -1.56592997e-03
    -4.44750022e-03 -9.84528381e-03 1.36126517e-04 -1.56070350e-03
    -6.78671175e-04 -6.45912159e-03 -6.49163686e-03 4.59576584e-03
    2.12973356e-03 -1.02679823e-02 -1.64215881e-02 -4.61627543e-03
    -6.37857104e-03 -2.42533651e-03 -1.21541927e-02 -1.06333639e-03
    1.16353258e-02 1.21940598e-02 -7.26049161e-03 -9.16820485e-03
    -3.09621124e-03 -6.36873348e-03 -4.41333838e-03 6.01016160e-04
    1.22333132e-02 4.51898668e-03 8.11062008e-03 8.32415884e-04
    -5.21041080e-03 1.20388400e-02 2.01714365e-03 -3.83338868e-03
    -1.36847969e-03 4.93357517e-03 6.39368268e-03 1.89919933e-03
    -8.94714892e-03 -1.18526891e-02 -6.98708091e-03 -8.22612084e-03
    -6.16489584e-03 -7.99352489e-03 4.65603406e-03 -1.06291212e-02
    -1.43117290e-02 -9.34792124e-03 -1.19893821e-02 9.05033667e-03
    -3.58882337e-03 -5.78637281e-03 -6.80496218e-03 -1.43801642e-03
    1.06633194e-02 1.06073450e-02 4.89364495e-04 -9.04658157e-03
    7.61487149e-03 4.57733124e-03 -4.15563956e-03 -6.83376449e-04
    1.20799728e-02 1.39525719e-02 5.74910175e-03 -3.54542187e-03
    -1.25612700e-02 -2.83645280e-03 -2.66150758e-03 -6.15293346e-03
    4.38027177e-03 1.34486491e-02 -1.30211785e-02 -2.11161301e-02
    -1.11579280e-02 -9.73691326e-03 7.84154236e-03 -4.33175871e-03
    -8.35543871e-03 -5.18699316e-03 -3.57471383e-03 -2.17373893e-02
    -3.27490345e-02 -1.23692425e-02 -8.78671743e-03 2.01407471e-03
    -1.50448624e-02 -1.36677297e-02 -5.26246289e-03 -1.59684345e-02
    1.07339947e-02 1.06585743e-02 -4.76760557e-03 -6.25691004e-03
    -1.33105277e-04 -5.35000674e-03 -3.29433265e-03 8.72451160e-03
    1.05361948e-02 9.70369577e-03 1.00156367e-02 -1.72297249e-03
    7.10702688e-03 9.17503238e-03 2.18599127e-03 5.30382968e-04
    8.27306509e-03 4.92733065e-03 -2.18809210e-02 -2.29198299e-02
    -1.38634881e-02 -9.57404263e-03 -3.58732766e-03 -6.18245685e-03
    -7.13322684e-03 -1.01248827e-02 -1.82417482e-02 -2.42913105e-02
    -2.18099337e-02 -8.03805236e-03 4.97978879e-03 9.64413583e-03
    3.77793144e-03 -7.68774655e-03 -9.47065558e-03 -1.42348940e-02
    -7.17896968e-04 6.63525797e-03 -5.38933696e-03 -1.65020826e-03
    1.01734046e-02 -1.87861660e-04 -5.04068471e-03 3.16376076e-03
    6.16647163e-03 6.72964333e-03 4.74789238e-04 -9.44670476e-03
    -1.12197921e-02 -7.27213826e-03 1.78108283e-03 -2.71235709e-04
    5.98640554e-03 6.77993800e-03 -1.35925608e-02 -8.98575503e-03
    2.53743900e-04 -8.09732796e-07 -1.31579663e-03 1.26596703e-03
    -1.41127510e-02 -4.34498396e-03 -2.70313350e-03 -6.76759891e-03
    1.16445767e-02 7.95562565e-03 3.93775292e-03 -4.67505027e-03
    -1.56106125e-03 -1.93160828e-02 -1.12890443e-02 -3.75840184e-03
    5.51582500e-03 2.61605904e-03 -4.99589043e-03 -6.26763795e-03
    -7.37941358e-03 2.31911428e-03 2.91694980e-03 5.82724251e-03
    1.18484758e-02 1.07910195e-02 1.40581438e-02 2.76511069e-03
    1.17203733e-03 2.69986712e-03 -3.94408451e-03 2.96602584e-03
    -4.25871316e-04 1.38827963e-02 -5.13567729e-03 1.38866119e-02
    7.77529972e-03 1.97474821e-03 -4.33892105e-03 -6.19536871e-03
    -1.76426917e-02 -1.54536068e-02 -3.06107826e-03 3.51451919e-03
    6.41717482e-03 7.31781265e-03 1.18486944e-03 3.54680326e-03
    -5.32857608e-03 -8.75390228e-03 -9.92371887e-03 -1.61632069e-03
    1.25096925e-02 1.46641368e-02 7.50476867e-03 -5.69892069e-03
    4.70703671e-04 -9.09361523e-03 -9.45857074e-03 -7.42079969e-03
    4.80469689e-03 9.56112798e-03 1.20787993e-02 1.39133427e-02
    6.56833034e-03 6.30966807e-03 -5.92513359e-04 -2.97406525e-03
    1.23924937e-03 1.27125084e-02 -9.62634291e-03 -1.97538361e-03
    4.74452460e-03 -2.89728702e-03 -3.30698537e-03 -9.99800395e-03
    -1.10546751e-02 -6.40538707e-03 -1.06448894e-02 -6.40914356e-03
    -3.25578707e-03 6.53667469e-03 1.92700524e-03 -2.62629171e-03
    -2.58024177e-03 1.48822682e-03 -1.29958976e-03 5.58679551e-03
    -3.97258718e-03 -9.81304236e-03 1.86638173e-03 1.46082323e-02
    6.71128370e-03 -1.11428823e-03 2.83349259e-03 4.39531250e-05
    3.83785530e-03 -2.04242114e-03 -1.15432544e-02 -5.61783463e-03
    6.49354793e-03 1.93142369e-02 9.26057342e-03 1.71794035e-02
    6.26915181e-03 4.94777597e-03 -2.14828420e-02 -1.30473599e-02
    3.47854075e-04 7.89219700e-03 5.95663674e-04 -1.20861111e-02
    -1.99943595e-03 -7.38447811e-03 -6.72276411e-03 -2.02321168e-02
    -1.24221584e-02 2.19206000e-03 6.97757909e-03 1.53848203e-02
    8.82635918e-03 1.00326343e-02 1.29406471e-02 -6.07748562e-03
    2.92176707e-03 -6.19784510e-03 -5.33778453e-03 -4.94732521e-03
    7.44725903e-03 1.04808873e-02 9.16045345e-03 4.05251188e-03
    1.30090732e-02 8.00668634e-03 -1.79815479e-03 -5.56819187e-03
    -6.21252786e-03 -2.04259995e-03 2.23511248e-03 7.05519691e-04
    -3.51114292e-03 7.89374672e-03 -8.99331272e-03 -6.69263909e-03
    1.19816116e-03 2.86963745e-03 8.06137547e-03 9.17026401e-03
    1.16134416e-02 6.97092107e-03 -7.49359722e-04 3.42023442e-03
    -6.65176334e-03 -3.13996128e-03 -1.69798522e-03 4.76915808e-03
    1.91263505e-03 -1.36442657e-03 -6.20025769e-03 4.03558183e-03
    6.62090315e-04 -4.95795906e-03 -4.96170344e-03 -1.10090431e-03
    -2.95719341e-03 1.17178392e-02 2.41815136e-03 -6.31778827e-03
    3.70400539e-03 -6.47726003e-03 -3.50277289e-03 -2.82130344e-03
    3.80382547e-03 5.60361939e-03 7.31950812e-03 -2.24908954e-03
    1.28061732e-03 -6.19460037e-03 6.09900383e-03 -3.27366893e-03
    -1.50173542e-03 -1.15968089e-03 -4.16657422e-03 4.79343673e-03
    -1.94910227e-03 -5.12192084e-04 6.11155527e-03 -5.35562588e-03
    4.34660120e-03 1.14952109e-03 1.24913994e-02 8.44521157e-04
    -3.44177824e-04 -2.60721827e-05 1.01281982e-02 -8.51935532e-04
    -6.25251699e-03 7.08215521e-04 1.39871007e-03 4.95873066e-03
    -1.25077623e-03 -9.64862644e-04 -1.10920519e-03 2.25067837e-03
    -3.10534611e-03 1.53449160e-04 3.95009201e-03 7.93053769e-03
    -2.00968888e-03 -6.26520207e-03 4.78687417e-03 5.79939829e-03
    1.61584024e-03 1.31256524e-02 -3.88626382e-03 4.29132441e-03
    1.92338703e-05 4.74751415e-03 -5.76488301e-03 2.39510540e-04
    4.05915169e-04 1.24395676e-02 -3.72334267e-03 1.02587673e-03
    -2.22130865e-03 4.07953560e-03 -1.25940051e-03 -7.11717270e-03
    1.27465567e-02 -6.92124711e-04 6.80503901e-03 1.93546303e-02
    -3.00724525e-03 5.60333114e-03 1.27963070e-02 5.33177517e-03
    -1.09508773e-02 -6.58882596e-03 -8.51975475e-03 -8.57426412e-03
    2.30586343e-03 5.42712538e-03 1.84363266e-03 1.32051231e-02
    1.85291637e-02 7.73347495e-03 -4.12049424e-03 3.64190806e-03
    2.73994636e-04 5.44553995e-03 -1.42655233e-02 -5.21301152e-03
    -1.98403814e-05 4.86815872e-04 -1.91070735e-02 -8.86002788e-04
    -1.83618814e-02 -9.36162472e-03 5.23039140e-03 6.44267537e-03
    -1.02874554e-04 7.61889666e-03 1.22346450e-02 1.28573887e-02
    1.01937195e-02 1.31381804e-03 4.38750722e-03 1.36211645e-02
    5.31774713e-03 -1.04394881e-02 -4.21669474e-03 1.40378959e-02
    1.75445154e-02 3.52646457e-03 7.68381916e-03 9.54606012e-03
    3.13543412e-03 2.55498267e-03 -1.24466149e-02 -6.00631768e-03
    1.18960058e-02 1.32219438e-02 1.12740335e-03 8.11994728e-03
    1.08530996e-02 1.19690513e-02 6.42319908e-03 -9.84315109e-03
    -8.96612089e-03 1.21769030e-02 1.11249024e-02 5.80645353e-03
    -3.16383131e-03 2.17606151e-03 8.26338399e-03 -2.81485659e-03
    -1.44762034e-02 -9.73033998e-03 1.05179176e-02 9.47688613e-03
    -7.57715607e-04 -3.20340041e-05 1.62718631e-03 -3.87108652e-03
    -1.06367026e-03 -9.05611459e-03 -9.15364549e-03 6.51377672e-03
    4.73159458e-03 -1.35350390e-03 2.51527387e-03 8.66664387e-03
    5.43902488e-03 -5.75098069e-03 -9.53877345e-03 -1.00933732e-02
    5.77053428e-03 -5.74299041e-03 2.31435150e-03 -1.44905457e-03
    6.67387340e-03 -1.86820704e-04 1.86002013e-04 -1.12593351e-02
    -1.38311712e-02 1.40679535e-02 7.80207617e-03 3.96479620e-03
    1.89268833e-03 1.07287976e-03 8.37742293e-04 7.26977456e-03
    -8.74436647e-03 -6.06189854e-03 9.97158606e-03 8.46453768e-04
    -1.36035483e-03 4.05422738e-03 5.46795875e-03 1.55136669e-02
    -2.77887710e-04 -5.68232918e-03 -5.17228013e-03 9.39474162e-03
    4.15804889e-03 -1.31420186e-03 -3.21356766e-03 4.01675375e-03
    2.16590497e-03 6.25803182e-03 6.96997438e-03 -7.95305241e-03
    -5.55652077e-04 1.08709922e-02 -9.16682649e-03 -8.78999755e-03
    3.72170750e-03 3.48751107e-03 9.69184376e-03 -7.23710109e-04
    7.96874054e-03 1.25193018e-02 -1.01068802e-02 -5.16181625e-03
    -2.61547189e-04 6.77844603e-03 1.54518941e-02 1.78629775e-02
    6.13764487e-03 5.05043240e-03 9.68525559e-03 -1.50983874e-03
    -6.68983208e-03 -3.79273505e-03 4.82312264e-03 1.75105222e-02
    8.84602964e-03 8.14511906e-03 -3.98517307e-03 7.73721491e-04
    1.47600297e-03 -1.27486400e-02 -8.62241536e-03 8.99083726e-03
    8.19069613e-03 1.36278588e-02 9.83782113e-03 3.38798505e-04
    -9.07156646e-05 -5.64625254e-03 -3.35734128e-03 -6.43916428e-03
    1.80286504e-02 1.69202834e-02 9.30550229e-03 1.10008463e-03
    -7.12994486e-03 7.09147751e-03 -2.24916890e-04 -1.09732449e-02
    -1.26082152e-02 4.21914551e-03 1.11266822e-02 2.15792097e-02
    2.01878399e-02 4.43940889e-03 1.50524057e-03 -7.61066005e-03
    -1.46457655e-02 -1.31297410e-02 5.93861705e-03 2.56551243e-02
    -5.08483872e-03 8.29660986e-03 3.63364257e-03 1.26891799e-04
    -3.87501833e-03 1.11067062e-03 -2.53270869e-03 5.20052062e-03
    -4.20271303e-04 -2.25234427e-04 1.24332048e-02 6.78861653e-03
    -2.81412364e-03 1.03147118e-03 1.18058575e-02 4.46357951e-03
    8.12539086e-03 -6.82733534e-03 9.40374471e-03 1.68336686e-02
    6.17451360e-03 -5.52498782e-03 -1.37583157e-02 -1.56689137e-02
    -2.08238773e-02 -3.13277100e-03 1.06895017e-02 9.04562417e-03
    1.30156018e-02 1.45989861e-02 -1.15662557e-03 -1.25648594e-02
    -6.68916479e-03 -7.92836770e-03 3.88572155e-03 1.64532531e-02
    1.68959016e-03 1.35789867e-02 8.25384166e-03 -1.47603033e-02
    -5.34645515e-03 -5.12463599e-03 1.42125646e-03 2.63761292e-04
    -4.02654195e-03 6.40053442e-03 1.88943595e-02 1.29564246e-02
    -8.81226268e-03 -2.81270011e-03 -5.14296163e-03 -1.62390387e-03
    9.61271056e-04 -3.26694176e-03 5.49852429e-03 1.78564843e-02
    1.34765478e-02 -7.68896285e-03 -1.33976303e-02 -1.52792763e-02
    -9.53402277e-03 -5.51010389e-03 2.16011540e-05 5.03122574e-03
    6.51005236e-03 1.05449939e-02 1.55069609e-03 5.20937517e-03
    -5.71393967e-03 -7.75590632e-03 2.25581764e-03 -3.76586616e-03
    1.26649672e-02 1.69465728e-02 1.11489687e-02 -5.70578454e-03
    -4.34897700e-03 4.75378381e-03 1.81854051e-03 -6.10816642e-04
    5.05321333e-03 3.78942816e-03 1.27161220e-02 8.25870433e-04
    -2.63835350e-03 -1.83109962e-03 5.01663284e-03 4.88505582e-04
    -5.02738589e-03 4.80244897e-04 -3.16673453e-04 6.46363106e-03
    1.43454690e-02 7.45138619e-04 -4.60360385e-03 2.68899975e-03
    -1.07854197e-03 -5.23184426e-03 -6.47088327e-03 -6.87787682e-03
    4.39409772e-03 -1.68450153e-03 3.22729698e-04 4.43681027e-04
    -5.83991874e-03 -6.39936700e-03 -7.66587397e-03 -4.60766442e-03
    4.91337758e-03 1.14776865e-02 1.59456057e-03 -1.39310211e-03
    7.91392929e-04 -1.05913950e-03 -2.20906991e-03 -8.92655458e-04
    5.54373395e-03 1.00074112e-02 1.47642205e-02 -6.37236470e-03
    -1.17324563e-02 -5.63130435e-03 2.85984739e-03 -5.07152232e-04
    1.05129741e-03 1.01691503e-02 -5.22185070e-03 5.79174515e-03
    -5.00640227e-03 -3.34739429e-03 -1.19237229e-03 -3.85532551e-03
    -8.16099253e-03 -1.01531739e-03 -1.67217781e-03 3.49040143e-04
    1.71035789e-02 -1.96929695e-03 -1.62182003e-02 -9.61870234e-03
    -1.62224355e-03 -1.00683710e-02 -4.05476987e-03 3.39593622e-03
    7.12285098e-03 1.21671464e-02 -5.67700760e-03 -7.55595602e-03
    7.80808413e-03 9.69964545e-03 -2.03182991e-03 -2.22793175e-03
    5.92700113e-03 2.36574421e-03 1.21229179e-02 -3.84031422e-03
    -2.99907522e-03 4.59557213e-03 6.33738143e-03 1.57480768e-03
    -9.39313136e-03 -5.72277931e-03 8.55846051e-03 1.10022472e-02
    -1.19849909e-02 -7.50791794e-03 -3.46559053e-03 -1.18367083e-03
    -6.99841557e-03 -1.67479017e-03 1.56751066e-03 1.16266357e-02
    1.63908154e-02 -3.36975954e-03 3.50371446e-03 1.30797140e-04
    8.56109336e-03 1.20825169e-03 -9.24183242e-03 -6.17225131e-04
    6.70559285e-03 7.78922252e-03 3.51719500e-05 2.48299533e-04
    -5.24726056e-04 4.81386902e-03 -2.26752623e-03 -1.25398785e-02
    -4.11511026e-03 8.76988191e-03 7.71652954e-03 8.11293442e-03
    6.52425410e-03 -1.33532956e-02 -8.33009835e-03 -1.36531480e-02
    -9.28475428e-03 9.40964092e-03 1.52897984e-02 1.29211126e-02
    2.34257919e-03 3.40167247e-03 -2.43037401e-04 2.93843192e-03
    2.57219304e-03 -4.81067738e-03 3.72311473e-03 1.29741197e-02
    8.21164995e-03 6.70565525e-03 -2.28163693e-03 -2.04770304e-02
    -1.37282517e-02 -8.97105504e-03 -8.41131061e-03 4.32356633e-03
    1.97365209e-02 9.59547516e-03 7.95773137e-03 7.21105142e-03
    1.59472891e-03 -7.79533014e-03 -1.00878356e-02 -6.30961405e-03
    1.19088329e-02 1.52479317e-02 2.46024225e-03 -1.20688742e-03
    -2.10391427e-03 -4.38533863e-03 -6.38977997e-03 -3.42787756e-03
    -7.09313061e-03 3.46105546e-03 1.75695866e-02 8.25585425e-03
    5.93231525e-03 5.62648103e-03 -2.67038122e-03 -8.57205968e-03
    -4.24878439e-04 3.63408448e-03 1.69212725e-02 -1.73587422e-03
    8.46463349e-03 -2.44323141e-03 2.04929058e-03 -9.69125249e-04
    -4.24959185e-03 7.19006988e-04 9.12339077e-04 -1.59601087e-03
    5.59490174e-03 3.06120515e-03 4.13737772e-03 -8.16659909e-03
    -2.56546936e-03 -8.05424899e-03 -4.71612066e-03 -4.12463583e-03
    -1.77638861e-03 -8.34211751e-05 7.11191632e-03 1.34078041e-02
    6.86025992e-03 3.90388514e-03 -4.32649953e-03 -4.89313528e-03
    7.14857038e-03 2.97696097e-03 -9.11985000e-04 8.64145067e-03
    4.86006541e-03 2.04887451e-03 -3.57178925e-03 -3.43894050e-03
    2.10637809e-03 -4.13696049e-03 -2.78156041e-03 -1.83198065e-03
    -1.06371508e-03 5.09521086e-03 6.44497992e-03 -6.72443071e-03
    3.02208960e-03 -4.05019615e-03 2.39336863e-03 1.10953825e-03
    1.20808533e-03 3.17706051e-03 9.19558946e-03 1.50930472e-02
    8.29117931e-03 -2.95798224e-03 -2.99028168e-03 1.09259496e-02
    6.27675152e-04 -6.38272893e-03 -2.42392998e-03 -3.17841361e-04
    1.06712151e-02 7.05160247e-03 -4.91532637e-03 6.25910761e-04
    -5.63871639e-04 -7.94187933e-03 5.83758764e-03 6.82526547e-03
    9.34130140e-03 1.06692966e-02 1.32047839e-03 4.20598174e-03
    -3.09843267e-03 7.29565555e-03 6.60181139e-03 1.15655409e-02
    4.03209077e-03 9.49791074e-03 7.47404667e-03 -6.48285961e-03
    -4.01886646e-03 -9.96928080e-04 1.00775226e-03 -3.70789133e-03
    -6.73920731e-04 1.51672494e-03 6.81492453e-03 1.33635635e-02
    -5.86364185e-03 7.55461457e-04 -7.16529728e-04 -4.43605520e-03
    -2.93820776e-04 4.22631297e-03 8.93838145e-03 1.35684041e-02
    1.26711549e-02 -2.71345861e-03 8.50554788e-04 -6.66726800e-03
    -1.31890725e-03 6.32490590e-03 1.07997200e-02 1.07474877e-02
    1.48886945e-02 8.28759279e-03 -5.44220535e-03 5.47221396e-03
    -2.75065633e-03 -4.49339533e-03 8.98852013e-04 1.75334324e-04
    1.00468667e-02 6.30520005e-03 5.35638398e-03 -1.18539599e-03
    2.54238886e-03 -5.26214577e-03 -1.20863421e-02 -6.01128954e-03
    9.00524668e-03 9.34431516e-03 1.15439361e-02 5.65772317e-03
    1.38387072e-03 -1.06053436e-02 -1.11527951e-03 -3.77872930e-04
    8.08927510e-03 1.04303239e-02 5.64421341e-03 2.46418407e-03
    7.27305794e-03 7.77053414e-03 -7.30819162e-03 -1.31204852e-03
    -7.36860652e-03 2.77304440e-04 1.15625579e-02 1.22659635e-02
    1.08968467e-02 6.84946869e-03 -6.62139896e-03 -9.98901948e-03
    -3.02939583e-03 -1.03826150e-02 -2.85984552e-03 9.55944695e-03
    -3.21984553e-05 2.65043171e-04 2.07830016e-02 1.35271940e-02
    3.08969431e-03 -3.00548156e-03 -1.28655629e-02 -3.97533039e-03
    1.44917937e-02 1.05734356e-02 -2.52661249e-03 5.63231762e-03
    1.76958414e-03 -5.32044563e-03 -1.21762985e-02 -1.84591524e-02
    -7.63718272e-04 1.57947335e-02 9.12483130e-03 1.15307525e-03
    7.62721198e-03 8.11464433e-03 4.69649414e-04 -5.23049245e-03
    -1.46599244e-02 9.55152418e-03 1.15277590e-02 -1.63319579e-03
    -4.26915009e-03 1.56605393e-02 1.07574994e-02 2.25523906e-03
    -8.47973116e-03 -1.49734924e-02 -3.16977297e-04 1.48588475e-02
    8.09575024e-04 -6.39200723e-03 1.08690830e-02 4.87815961e-03
    -1.25290360e-03 -5.68599487e-03 -1.44836940e-02 8.27800483e-03
    1.69728640e-02 -4.39559761e-03 -5.24116820e-03 1.60710770e-03
    2.89394520e-03 7.12101988e-04 -4.25401377e-03 -1.01018455e-02
    9.37278476e-03 5.19715017e-03 -2.27141473e-03 -1.86416563e-02
    -7.78380968e-03 2.57597025e-03 -3.06315091e-03 -2.10827682e-03
    -6.60337601e-03 -2.50728126e-03 6.17576297e-03 -6.49198284e-03
    -9.37114842e-03 3.95028805e-03 5.93521725e-03 6.84709521e-03
    -1.18595525e-03 -7.54190795e-03 5.98172983e-03 -7.21510127e-03
    -5.23488782e-03 -1.17397839e-02 -1.04304478e-02 -3.28633818e-03
    3.90993111e-04 -9.91626992e-04 3.82254808e-03 -5.44622773e-03
    9.05681774e-03 1.49305747e-03 -1.37950769e-02 -7.04031345e-03
    5.77954296e-03 -3.55076836e-03 -2.96353450e-04 -7.15803355e-03
    -2.63104122e-03 4.28754603e-03 8.20313871e-04 -6.01555640e-03
    -2.38339906e-03 5.10910759e-03 -7.43707735e-03 -3.94606637e-03
