<?xml version="1.0"?>
<opencv_storage>
<opencv_ml_svm>
  <format>3</format>
  <svmType>C_SVC</svmType>
  <kernel>
    <type>LINEAR</type></kernel>
  <C>1.</C>
  <term_criteria><iterations>100</iterations></term_criteria>
  <var_count>1296</var_count>
  <class_count>2</class_count>
  <class_labels type_id="opencv-matrix">
    <rows>2</rows>
    <cols>1</cols>
    <dt>i</dt>
    <data>
      0 1</data></class_labels>
  <sv_total>1</sv_total>
  <support_vectors>
    <_>
      -5.56865111e-02 -5.42571992e-02 6.41015768e-02 -2.45194249e-02
      -4.86096330e-02 8.39219801e-03 8.71505439e-02 -1.83549486e-02
      -3.79588036e-03 1.84946302e-02 9.79616214e-03 -9.50354338e-03
      -6.93041086e-02 -1.47132948e-01 1.60273649e-02 6.09787218e-02
      1.49550866e-02 -4.14833650e-02 -6.46125600e-02 -2.33330756e-01
      3.75585398e-03 1.11015257e-03 -9.57222655e-03 -1.58792794e-01
      -3.30433100e-02 2.86274012e-02 7.36569911e-02 -1.56539325e-02
      -2.32695222e-01 -9.15763006e-02 -3.67668904e-02 -6.17172122e-02
      -1.00415781e-01 -1.52544901e-02 5.93031310e-02 1.47179514e-02
      -1.41281053e-01 -1.33292554e-02 2.33575590e-02 -7.68041471e-04
      -8.00469443e-02 2.45082788e-02 -1.90467369e-02 -4.89533134e-02
      -1.00410894e-01 -1.71955362e-01 6.30731089e-03 1.97178423e-02
      -1.44360876e-02 -7.24008232e-02 -3.69026326e-02 -7.93158263e-02
      -5.19218445e-02 -9.91237387e-02 -2.65831184e-02 -1.07196555e-01
      -2.13614628e-02 3.24705765e-02 2.75450610e-02 6.13315450e-03
      3.01328264e-02 1.99860875e-02 5.30531891e-02 -1.26277655e-01
      -1.72378812e-02 -2.26514600e-02 3.49363685e-02 4.13837582e-02
      -2.94416919e-02 -2.92526074e-02 -1.52759894e-03 4.24796306e-02
      -4.45383973e-02 -5.15117543e-03 3.10298265e-03 5.10234982e-02
      6.58493489e-02 4.44722921e-02 -4.14768048e-02 7.97988754e-03
      -9.36062075e-03 -3.93195003e-02 -1.12368099e-01 2.17396729e-02
      -9.60921049e-02 -2.16119941e-02 6.35773912e-02 -1.58916712e-02
      -9.05368254e-02 1.38186775e-02 -7.28539675e-02 -3.34181152e-02
      8.36390257e-02 -2.12173350e-03 2.84173079e-02 9.10844877e-02
      -3.83216552e-02 -8.20710436e-02 -5.64152338e-02 -2.00312436e-02
      -9.58871916e-02 9.89481732e-02 4.29915637e-02 3.55626247e-03
      1.21314395e-02 -3.65719274e-02 -7.35760257e-02 -5.08177616e-02
      4.07912657e-02 1.05083808e-02 3.65138277e-02 -1.65373012e-02
      -4.65988368e-02 -2.14041620e-02 -1.12654932e-01 -2.36341227e-02
      3.95109095e-02 9.62772891e-02 1.46252159e-02 2.95454971e-02
      9.76878703e-02 -1.72407348e-02 1.05423659e-01 4.72170673e-02
      6.76918551e-02 1.25550240e-01 -1.51242658e-01 3.86349373e-02
      5.45720682e-02 8.94070342e-02 1.00724742e-01 -6.95804274e-03
      -1.69938311e-01 -1.66514233e-01 -6.24026693e-02 -1.07060432e-01
      1.46467179e-01 2.45807581e-02 1.63261071e-01 2.23626941e-03
      2.83628553e-02 -8.60858709e-02 -1.81003541e-01 3.70903425e-02
      -4.15789932e-02 -8.45074132e-02 -5.74068353e-02 7.23387450e-02
      -3.55001613e-02 1.04918271e-01 1.58374101e-01 -4.42762524e-02
      2.74840873e-02 1.01119922e-02 6.58480171e-03 4.53553610e-02
      8.96081254e-02 -1.09951571e-01 -1.01287644e-02 -7.26684555e-03
      -2.19956785e-02 4.24720384e-02 1.71112902e-02 5.15399426e-02
      -6.50904188e-03 5.03693819e-02 -1.33238986e-01 -5.17163314e-02
      8.02989602e-02 -3.64448354e-02 1.30614284e-02 1.66072827e-02
      4.68528531e-02 -3.21672410e-02 -2.59946007e-03 -1.02273129e-01
      -1.56732753e-01 -2.32667029e-02 -7.79141262e-02 -1.88228162e-03
      5.30390069e-02 2.13641580e-03 -5.03220558e-02 -4.41786870e-02
      -9.55893248e-02 -1.35707911e-02 -2.82819681e-02 -1.33626476e-01
      -1.39995283e-02 -1.81473568e-02 -4.44007292e-02 -1.94964573e-01
      -8.61577392e-02 -8.44452307e-02 -2.22635046e-02 4.09328099e-03
      -2.47774385e-02 -6.93800822e-02 -6.84275618e-03 -2.04645060e-02
      -6.57889470e-02 -9.37047005e-02 -1.15747005e-01 1.25633683e-02
      1.80180714e-01 2.06491366e-01 2.72493716e-02 -4.17418666e-02
      -6.14365377e-02 -1.02585785e-01 -8.12346041e-02 -9.49909762e-02
      6.04177602e-02 1.33539671e-02 -9.83477943e-03 -1.12761378e-01
      -8.30987096e-02 -2.70038456e-01 -1.19210556e-01 -8.79332498e-02
      -6.57147840e-02 -7.09924921e-02 6.32640254e-03 4.36024517e-02
      -4.24467511e-02 -2.36781426e-02 -2.99398959e-01 -1.03353851e-01
      -1.24825634e-01 9.69925672e-02 -8.94136801e-02 3.88383046e-02
      8.57678428e-02 -5.91566227e-03 -4.83811125e-02 -9.89018977e-02
      -1.97636530e-01 -8.32920000e-02 -3.07661872e-02 -4.52865846e-02
      -9.91563722e-02 5.09270467e-02 2.73829643e-02 6.54651672e-02
      -1.78570315e-01 -1.82317674e-01 -1.74674407e-01 1.93950012e-01
      9.57409441e-02 1.02110237e-01 1.26785517e-01 1.75827652e-01
      -7.65704289e-02 -1.12857401e-01 -1.65309906e-01 1.26177277e-02
      5.50130196e-02 9.60467663e-03 1.49390928e-03 1.89051125e-02
      9.49011222e-02 -5.25464527e-02 -1.48238197e-01 -1.74057126e-01
      3.38217616e-03 1.30799592e-01 6.23725876e-02 6.39423355e-02
      -7.06921739e-04 -2.46464759e-02 5.22922724e-02 -1.41709000e-01
      -1.76897973e-01 -2.45644953e-02 3.50119248e-02 8.36425647e-02
      4.25918214e-02 8.30262452e-02 2.03823537e-01 1.13564372e-01
      -1.28838792e-01 -7.75634199e-02 -6.47580177e-02 2.83172186e-02
      1.05657414e-01 9.01343524e-02 3.35240923e-02 1.55863076e-01
      3.25567313e-02 -1.03624120e-01 -2.21375152e-02 -3.89887299e-03
      1.47870239e-02 -3.56583968e-02 1.73800625e-02 9.60258394e-02
      1.24479838e-01 -7.85221010e-02 -9.41652879e-02 7.86308423e-02
      -2.51878910e-02 7.42434859e-02 -7.89166894e-03 -3.75209488e-02
      1.18506007e-01 1.75071567e-01 1.67526528e-01 -1.86507225e-01
      -7.90279210e-02 -9.70502049e-02 -6.20805621e-02 -2.34807692e-02
      6.27639666e-02 8.96159187e-02 2.01605394e-01 -2.07469822e-03
      -2.07792372e-01 -1.12010492e-02 -6.92350045e-02 -4.47188467e-02
      -1.52733102e-01 5.08480854e-02 1.38747841e-01 1.59035861e-01
      -3.97152044e-02 3.04187536e-02 7.08808973e-02 6.78273886e-02
      3.13612558e-02 1.12874955e-01 1.83222052e-02 9.57561582e-02
      -6.63045943e-02 -1.37342587e-01 1.03558069e-02 1.24304868e-01
      3.79403345e-02 6.77116960e-02 1.31264597e-01 8.35353881e-02
      3.89437340e-02 -1.76291019e-01 7.86812324e-03 -1.28221154e-01
      -4.36006151e-02 -8.05334970e-02 -7.06507564e-02 -2.49953289e-02
      -8.46024305e-02 -1.32953646e-02 -3.65319215e-02 -8.17998722e-02
      -1.55777931e-01 -1.33630902e-01 -7.79667944e-02 4.24394161e-02
      7.05347732e-02 1.27445340e-01 1.47175848e-01 3.48148346e-02
      -4.54277433e-02 -3.56127322e-02 1.45513326e-01 2.05014139e-01
      7.42185935e-02 -2.33904435e-03 -1.26724944e-01 -2.12199301e-01
      -1.29488483e-01 8.40131752e-03 7.89230224e-03 1.96809947e-01
      1.45465612e-01 1.07298523e-01 7.34226629e-02 -2.18691781e-01
      -3.17888737e-01 -8.41907561e-02 -5.48916310e-03 2.93374192e-02
      1.18777327e-01 9.61190909e-02 1.07750617e-01 7.00890049e-02
      -8.11567530e-02 -5.74886538e-02 -2.75930786e-03 7.43743917e-03
      2.30221134e-02 1.40759498e-01 8.96632299e-02 2.82128036e-01
      1.66157961e-01 -7.61650428e-02 -2.13732272e-01 -7.32758865e-02
      3.82220782e-02 1.09330341e-01 1.29549250e-01 -4.66067381e-02
      -1.23513825e-02 9.03175697e-02 -3.83752654e-03 -6.47634193e-02
      5.31492569e-02 -7.36916140e-02 7.05964863e-03 -5.33568999e-03
      -2.63267960e-02 4.44408059e-02 6.02216572e-02 1.29996091e-01
      -2.74277083e-03 -1.34798527e-01 1.67239681e-01 7.34969601e-02
      8.86999965e-02 -8.14344063e-02 1.77226678e-01 1.22497819e-01
      -2.69010104e-02 -1.78316191e-01 6.92841709e-02 2.68566851e-02
      1.64370276e-02 3.27289253e-02 -2.88528670e-02 1.73987582e-01
      2.78136674e-02 3.57633941e-02 -1.55152217e-01 -1.58225492e-01
      -9.30316150e-02 -8.76274183e-02 -8.13231170e-02 -9.02267843e-02
      -1.15620315e-01 -6.87965676e-02 -5.84786162e-02 1.25282392e-01
      4.98788990e-02 -5.10329753e-02 -7.67315030e-02 -2.05565900e-01
      -5.20499721e-02 7.50121251e-02 -9.69275683e-02 5.55511601e-02
      9.84751508e-02 4.79559302e-02 -5.36072664e-02 1.54218702e-02
      -3.69722326e-03 -1.13875873e-01 -4.34228070e-02 -7.01993378e-03
      -5.02197221e-02 7.23372847e-02 -1.33578181e-02 7.54898190e-02
      5.34662977e-02 -1.24569170e-01 -6.78717345e-02 9.14111212e-02
      -2.84291357e-02 -3.79365385e-02 7.72101283e-02 1.55159771e-01
      7.82366470e-02 -5.03786467e-02 3.33794579e-02 -6.31334609e-04
      9.65510160e-02 -2.66476031e-02 1.07162103e-01 1.57304462e-02
      9.73392129e-02 1.45597592e-01 -6.42323866e-03 3.04089841e-02
      7.69723486e-03 5.76754510e-02 -6.45226762e-02 -2.56750663e-03
      1.68515537e-02 1.52107729e-02 -1.06201703e-02 -8.63243118e-02
      -5.12426049e-02 -2.16029212e-02 1.15325056e-01 1.18752748e-01
      1.05244681e-01 2.46320739e-02 -8.72004312e-03 8.98844972e-02
      1.15102090e-01 1.68786392e-01 6.49805963e-02 6.62541529e-03
      -1.16220579e-01 -7.30815306e-02 -5.69052473e-02 -6.12882944e-03
      -1.00928526e-02 -7.61041120e-02 -1.61889955e-01 7.19112381e-02
      7.95982406e-02 3.73717509e-02 -5.74014746e-02 -3.63417715e-02
      7.04666153e-02 1.23785034e-01 -9.56852287e-02 -2.66787022e-01
      -4.13796678e-02 9.97941121e-02 5.30672856e-02 -5.96694602e-03
      2.16801837e-02 1.73519805e-01 5.74950948e-02 6.93076402e-02
      3.64083573e-02 5.89321647e-03 9.42108780e-02 2.44745556e-02
      -8.37307945e-02 -9.05949473e-02 6.34674504e-02 1.85956404e-01
      6.48988262e-02 1.99221242e-02 -8.55760276e-02 6.95288256e-02
      -5.07148355e-02 -1.05245478e-01 -4.57553416e-02 7.99948350e-02
      6.67471960e-02 -4.69313078e-02 -4.45790030e-02 -8.38630795e-02
      1.06910858e-02 -1.25692710e-01 -8.63392372e-03 -4.89518270e-02
      -3.16662677e-02 3.59804220e-02 -1.08748046e-03 6.36133626e-02
      -7.17221433e-03 -2.24234648e-02 -5.79251461e-02 2.50593908e-02
      -1.10981558e-02 1.25777104e-03 -2.70945579e-03 -4.66616899e-02
      -1.04636811e-02 -2.14244775e-03 -6.89987168e-02 -1.28999785e-01
      -3.64920273e-02 -5.33067482e-03 7.13689392e-03 1.71589598e-01
      -2.18281504e-02 2.88660768e-02 1.54828906e-01 6.76135495e-02
      -5.36720753e-02 -2.35476438e-02 1.23580303e-02 4.67312410e-02
      3.33641022e-02 2.79440172e-02 3.99369448e-02 -1.16484396e-01
      -9.30443257e-02 -1.01037286e-01 2.20865775e-02 1.33587746e-02
      9.37227011e-02 -1.69592397e-03 9.33995917e-02 1.10707492e-01
      -1.06682323e-01 -6.44830167e-02 -7.69083276e-02 -4.81580989e-03
      -6.46853969e-02 8.64828601e-02 1.21717229e-01 5.14397444e-03
      -5.54346070e-02 -1.06452957e-01 -5.98583929e-02 -4.18891571e-02
      3.71588878e-02 6.68159500e-02 6.97467551e-02 1.63674250e-01
      9.14891902e-03 -7.58521929e-02 -6.01316877e-02 -5.86861037e-02
      -1.94368269e-02 1.97007582e-02 5.03573678e-02 2.27435920e-02
      1.36427745e-01 6.74586818e-02 5.42472377e-02 -3.92271243e-02
      1.33469090e-01 6.73989474e-04 -1.32782191e-01 -5.02566695e-02
      1.45546705e-01 1.18771680e-01 5.95000349e-02 7.09195733e-02
      8.30225050e-02 1.91529736e-01 -2.15401039e-01 -3.09369445e-01
      1.23009123e-02 3.72224711e-02 1.53229803e-01 1.06912173e-01
      -2.73881387e-02 -1.07068829e-01 1.66436493e-01 4.23177555e-02
      -2.81777531e-02 6.20162413e-02 1.57750413e-01 1.58378124e-01
      1.14952855e-01 5.38855754e-02 -1.15879744e-01 1.82774421e-02
      -1.06993519e-01 -1.86025217e-01 -1.46524701e-02 1.36922091e-01
      -4.79207002e-02 6.74458628e-04 -5.10339104e-02 -8.15077033e-03
      -5.86069375e-03 -3.90352085e-02 1.36149731e-02 4.41082940e-02
      5.70274740e-02 1.28140733e-01 3.52873318e-02 -3.04753147e-02
      -9.39489678e-02 3.87683278e-03 6.09673839e-03 1.39855430e-01
      6.47294596e-02 1.16576098e-01 1.68994488e-03 5.74997580e-03
      4.08148579e-02 4.15499471e-02 -2.78423876e-02 -1.42110422e-01
      -1.22308910e-01 -9.74360481e-03 -2.02835463e-02 5.84527068e-02
      2.69457996e-02 -5.04709333e-02 -7.12885633e-02 -2.61275638e-02
      -5.24942689e-02 -2.98604835e-02 4.38656323e-02 -2.28531938e-02
      7.85456151e-02 -6.45530131e-03 7.57041499e-02 -1.89309884e-02
      1.40250564e-01 -7.24549145e-02 -7.50707090e-02 1.39601063e-02
      8.18934366e-02 5.71682602e-02 2.78757662e-02 5.74645735e-02
      -4.62822281e-02 1.04889981e-02 -6.04551397e-02 5.14270626e-02
      7.27829635e-02 -1.56225776e-02 8.34713355e-02 -1.93474758e-02
      5.41689955e-02 -5.75829633e-02 5.66494279e-02 -1.63546309e-01
      -1.24717437e-01 4.26913947e-02 9.76158753e-02 1.44666985e-01
      9.43242311e-02 1.15661435e-01 -5.72367050e-02 1.81260682e-03
      -7.69130141e-02 -3.84338736e-03 1.10083051e-01 4.24335524e-02
      2.05950394e-01 6.53936062e-03 1.18611855e-02 -3.25680897e-02
      -1.93738826e-02 -1.16204038e-01 -4.52683009e-02 -1.07030079e-01
      1.92740578e-02 6.57812208e-02 5.94538301e-02 -4.81831245e-02
      2.93207038e-02 8.25465936e-03 -2.30682179e-01 -8.93718898e-02
      -8.14534202e-02 1.41437463e-02 1.83001503e-01 1.16195731e-01
      1.94242150e-02 -4.87427041e-02 -2.80788448e-03 -6.20488413e-02
      8.00419822e-02 8.93726721e-02 1.26969233e-01 1.45002574e-01
      1.72775257e-02 -9.34331492e-02 -1.05020307e-01 -4.79823425e-02
      -1.35058627e-01 9.14282724e-02 9.17273909e-02 1.63110286e-01
      9.36985575e-03 6.10338263e-02 -3.10142525e-02 -2.51698457e-02
      -3.33443098e-02 -3.15616429e-02 1.39456138e-01 -1.49098178e-02
      -8.98463652e-02 -4.05586557e-03 -1.43678904e-01 -2.52318326e-02
      3.12634632e-02 1.60759255e-01 -2.33158581e-02 1.04250260e-01
      1.69039809e-03 -3.53023945e-03 1.58439785e-01 8.88954177e-02
      -5.28718047e-02 3.42785791e-02 2.16773953e-02 -7.83150718e-02
      6.01173565e-02 -3.72112007e-03 1.14849702e-01 3.99037190e-02
      5.14698261e-03 3.37476544e-02 4.11681980e-02 1.40828460e-01
      -1.19355075e-01 2.20627226e-02 -9.29257274e-02 1.06854402e-02
      7.21112592e-03 -1.14979461e-01 1.78344436e-02 -8.94094855e-02
      -5.45513779e-02 -8.48200470e-02 2.54177041e-02 3.85600738e-02
      -1.02488421e-01 -1.02724649e-01 -4.97334450e-02 8.39331821e-02
      3.12306695e-02 -5.71222678e-02 -1.09674565e-01 2.96201892e-02
      6.91015124e-02 -2.70807203e-02 1.29984930e-01 -4.73375395e-02
      -8.25058389e-03 -2.41476633e-02 -3.33402045e-02 -1.37543380e-01
      -3.56038399e-02 1.62341334e-02 4.04142514e-02 -3.12884673e-02
      -1.66272283e-01 4.51468043e-02 -6.69698045e-02 1.04773566e-01
      -5.99253215e-02 -5.14923446e-02 -8.73636268e-03 -1.36627303e-02
      1.00529894e-01 5.44328727e-02 -2.32725758e-02 -1.03505976e-01
      9.15436968e-02 -3.55059654e-02 4.04933393e-02 6.54904991e-02
      1.56535074e-01 1.88873887e-01 2.62041651e-02 -1.46409841e-02
      -1.40903257e-02 5.48397787e-02 -9.00299475e-02 7.22990604e-03
      6.29117340e-02 6.72019124e-02 1.74485207e-01 -1.74713004e-02
      -9.75774154e-02 -5.89325354e-02 1.87407270e-01 3.90239730e-02
      -2.91135926e-02 -1.05164275e-02 7.80828223e-02 8.37914497e-02
      -1.07947126e-01 -8.02473500e-02 4.33803983e-02 1.57409087e-01
      -6.64292602e-03 -3.19118835e-02 6.52966574e-02 -6.97740689e-02
      3.39826941e-02 -7.81406462e-03 9.42591354e-02 1.13030439e-02
      4.94251288e-02 -9.75028276e-02 -8.31071811e-04 -1.18887924e-01
      1.33545518e-01 4.57909964e-02 -3.01280245e-02 8.52456223e-03
      1.50706731e-02 4.23491374e-02 -6.57266825e-02 -6.16122484e-02
      -7.80640393e-02 4.34528179e-02 6.62982538e-02 -9.63815302e-03
      -2.94047333e-02 -1.24516133e-02 2.68801698e-03 -1.00512616e-01
      -7.39626959e-02 -1.88325226e-01 -6.71099350e-02 3.12999040e-02
      -4.22306173e-02 -4.86911424e-02 2.25433446e-02 9.97852236e-02
      -3.23553160e-02 5.14698327e-02 -7.48833120e-02 3.92234921e-02
      3.55570554e-03 -4.38130237e-02 -1.25204697e-01 -8.69477838e-02
      -2.71594543e-02 -4.02865298e-02 -5.67235611e-02 -1.21572083e-02
      -1.66353695e-02 2.69435812e-03 5.31027541e-02 9.14694220e-02
      1.07863121e-01 9.62223783e-02 1.85030773e-02 -9.95686874e-02
      -8.42158496e-03 -8.88535976e-02 -1.88440969e-03 8.35891739e-02
      -1.66805065e-03 6.77940547e-02 2.01050211e-02 3.35543863e-02
      3.85883898e-02 4.30223485e-03 8.98524839e-03 -7.29897693e-02
      -6.22801334e-02 3.86123955e-02 1.36108011e-01 1.44075274e-01
      3.07377391e-02 -7.97878280e-02 -1.32265061e-01 -1.29410803e-01
      1.04904987e-01 1.13952914e-02 2.43197232e-02 1.07954796e-02
      6.78432062e-02 -8.84587616e-02 -5.82464598e-03 -1.81034476e-01
      6.40882924e-02 1.86123535e-01 5.50032929e-02 7.40765333e-02
      -2.08557341e-02 -3.01415212e-02 -9.90321413e-02 -6.09918265e-03
      -1.30671173e-01 -4.99671698e-02 6.16834238e-02 -1.55637026e-01
      -5.59862778e-02 3.61372321e-03 3.90036814e-02 -6.33969083e-02
      -7.31356442e-02 -1.63235441e-01 -1.65394619e-02 8.40247571e-02
      -6.62101731e-02 1.06000513e-01 7.94329569e-02 4.77244891e-02
      -2.89547835e-02 -5.56604601e-02 -5.16847894e-02 -2.20733862e-02
      3.96396220e-02 -5.86545281e-02 1.43841639e-01 -2.62925550e-02
      -2.05372460e-02 -5.30173667e-02 -1.26236081e-02 -8.64317417e-02
      1.10990345e-01 -4.59858626e-02 -3.67196761e-02 1.66355535e-01
      -5.20193093e-02 -5.85129485e-02 4.85322773e-02 4.96391468e-02
      -6.94091171e-02 -5.24260551e-02 -8.48738104e-02 -5.20970225e-02
      3.61196175e-02 -5.82255088e-02 1.41278267e-01 9.54814479e-02
      8.21493044e-02 1.17555708e-01 -2.03219447e-02 -8.61897916e-02
      -1.36724012e-02 1.20329931e-01 7.54696131e-03 -4.57143644e-03
      3.05326954e-02 1.51345655e-01 1.87440604e-01 -5.12691997e-02
      -1.07382655e-01 -1.41585022e-01 1.07548848e-01 7.82585219e-02
      -4.83153239e-02 3.86952516e-03 -3.51819731e-02 5.81749640e-02
      6.80937022e-02 -1.22137740e-01 -3.54845375e-02 1.29047781e-01
      9.45765078e-02 1.02925859e-01 -3.33923027e-02 -1.61443293e-01
      -6.86202571e-02 -1.32264765e-02 -3.95341143e-02 -2.11656719e-01
      3.75402421e-02 8.92108604e-02 7.81310797e-02 1.20169200e-01
      6.35587126e-02 -4.35717851e-02 -6.14797994e-02 -1.20328628e-01
      -1.34612188e-01 1.26100421e-01 2.10684210e-01 2.09465146e-01
      1.09620810e-01 5.56185842e-02 -1.25501622e-02 -1.55476883e-01
      -3.58756706e-02 -1.58215597e-01 8.33105296e-02 1.23515256e-01
      7.92201012e-02 4.17850763e-02 1.25812545e-01 1.09141670e-01
      4.79367711e-02 -9.14584249e-02 -2.28704259e-01 -1.24437913e-01
      4.05181982e-02 4.99585718e-02 1.26203880e-01 1.27591744e-01
      7.26664364e-02 -4.32589184e-03 -1.66912720e-01 -1.02830820e-01
      1.07930183e-01 1.37930691e-01 7.15454072e-02 1.54893413e-01
      9.22630504e-02 1.48204518e-02 -5.51769473e-02 -4.40142266e-02
      -9.48456451e-02 1.18153416e-01 3.40612195e-02 -3.50789689e-02
      7.57140741e-02 -7.77302608e-02 -6.78530708e-02 -1.52168542e-01
      -1.14538066e-01 -2.32988987e-02 1.54700279e-02 9.40751880e-02
      -2.20576469e-02 7.57647976e-02 -1.48766413e-01 -9.99063030e-02
      -1.10490369e-02 -6.36186823e-02 3.07284053e-02 1.00404032e-01
      -4.39128745e-03 3.43384296e-02 -1.61680862e-01 1.90905016e-02
      -5.73401488e-02 -4.10883240e-02 -5.80239221e-02 -7.02394769e-02
      6.97936192e-02 4.08815965e-02 4.72091921e-02 6.29989430e-02
      5.52975014e-02 2.84217782e-02 3.30456756e-02 -4.89939377e-02
      3.31994332e-02 4.18113209e-02 3.38971009e-03 1.48067400e-01
      -1.01860859e-01 -8.94940719e-02 -1.05645955e-01 -1.23020172e-01
      -1.23077221e-01 -2.52497159e-02 1.16010323e-01 3.89788374e-02
      -1.67468749e-02 -1.19647659e-01 4.74745408e-02 -3.39322388e-02
      -1.05212368e-01 -1.71899483e-01 6.74561784e-03 2.00620648e-02
      6.58776686e-02 -3.39334011e-02 2.26736274e-02 2.42435709e-01
      3.18153873e-02 -5.04327714e-02 3.51148681e-03 -4.32318747e-02
      7.93186724e-02 4.78695668e-02 -5.75942248e-02 -1.28838882e-01
      -2.52220128e-02 -5.22228256e-02 -1.55201674e-01 -1.25204012e-01
      -1.66408587e-02 4.52257954e-02 1.18679404e-01 -9.17622596e-02
      2.95562614e-02 1.17297553e-01 3.31715941e-02 -1.37570441e-01
      -1.06527090e-01 -2.15497799e-02 -1.17598120e-02 2.61848588e-02
      -2.12235972e-02 8.62116888e-02 -2.60508470e-02 -1.90529197e-01
      -9.72987637e-02 -6.98440745e-02 -8.40438083e-02 -7.64348684e-03
      7.91878030e-02 4.93512601e-02 6.17712364e-02 1.23157263e-01
      -6.50501326e-02 -1.17167726e-01 2.02326681e-02 -1.71535567e-03
      -1.67128090e-02 7.18694180e-02 -4.03891280e-02 2.82785948e-02
      3.39662880e-02 -7.30277300e-02 2.92323180e-03 6.96500018e-02
      2.31027938e-02 -6.35380149e-02 8.98070782e-02 1.48204640e-02
      -5.10890670e-02 -3.91345769e-02 -2.00355530e-01 1.08985320e-01
      -4.88647558e-02 -3.77477258e-02 -3.36142108e-02 6.81409463e-02
      5.02814353e-02 -3.44728567e-02 5.39872050e-02 -1.43422484e-01
      -9.90161523e-02 -3.44044454e-02 -2.83021200e-02 7.83160776e-02
      3.65421548e-02 -4.84381318e-02 -1.66107062e-02 6.39620274e-02
      -7.90250152e-02 -4.36797887e-02 8.74604136e-02 6.40212223e-02
      -2.25174669e-02 -7.43921846e-03 -8.57040845e-03 -1.45846326e-02
      4.29860689e-02 -9.07939300e-02 2.66607036e-03 9.43616778e-03
      -1.65740043e-01 -7.89266154e-02 -1.54698923e-01 -1.02267429e-01
      3.82975228e-02 1.15865096e-01 4.61776778e-02 -7.83347115e-02
      8.39300379e-02 2.44624801e-02 1.69826105e-01 -1.23256452e-01
      -2.11686138e-02 -5.95663041e-02 1.05101272e-01 4.36126105e-02
      2.31902264e-02 -3.02358624e-02 -5.66153117e-02 4.44336273e-02
      -3.79624777e-02 -1.04547523e-01 5.12720086e-02 1.33378282e-01
      1.23574864e-02 -1.06050283e-01 -1.31152377e-01 -1.27359465e-01
      1.89893190e-02 -9.61721689e-02 9.13800299e-02 -3.08043044e-02
      9.72435474e-02 1.17840730e-01 -6.23883046e-02 -1.29622668e-01
      -1.81078821e-01 -6.62982315e-02 -4.36375700e-02 -2.56259684e-02
      -9.83831137e-02 -4.94238809e-02 -8.59931577e-03 -1.77788034e-01
      -1.99650284e-02 1.48618445e-01 2.21909106e-01 -5.64401634e-02
      -5.52449487e-02 1.53691983e-02 -1.45278173e-02 -7.59416893e-02
      -7.06040189e-02 -4.79937457e-02 1.34078011e-01 1.28859192e-01
      -2.43115742e-02 -2.33412027e-01 -2.07548384e-02 -9.16285440e-02
      -8.33717287e-02 -8.25636182e-03 -1.49359077e-01 -7.00527430e-02
      -3.11397277e-02 -8.21820274e-02 -5.07803187e-02 2.92393807e-02
      2.17252634e-02 -1.07059345e-01 3.14882956e-03 1.02215365e-01
      1.49871022e-01 9.82299298e-02 -8.39190092e-03 -1.00287125e-02
      -1.09534524e-02 -1.15705602e-01 -5.91219068e-02 8.01777840e-02</_></support_vectors>
  <uncompressed_sv_total>122</uncompressed_sv_total>
  <uncompressed_support_vectors>
    <_>
      2.44716108e-01 5.16768880e-02 1.38743535e-01 6.97085038e-02
      4.64247167e-02 1.50945365e-01 3.59596834e-02 5.17688766e-02
      9.48292613e-02 1.68900356e-01 4.71607931e-02 1.27762645e-01
      1.46424964e-01 1.43246248e-01 2.05374286e-01 2.34318972e-02
      8.85492042e-02 9.98811722e-02 2.14041665e-01 6.19804934e-02
      1.02115571e-01 9.74716321e-02 1.30736008e-01 3.70139778e-01
      1.79922581e-01 3.78257602e-01 2.84300864e-01 1.50514573e-01
      4.20947596e-02 6.16945140e-02 1.46740124e-01 2.87525684e-01
      2.24840701e-01 8.35864022e-02 1.22034609e-01 1.92988873e-01
      5.05149588e-02 5.38507365e-02 1.22977927e-01 5.13306297e-02
      9.13790315e-02 4.52235155e-02 5.55090718e-02 7.27676079e-02
      7.82742500e-02 1.52868703e-01 9.25602913e-02 6.62035048e-02
      1.94785342e-01 3.75707358e-01 2.43510723e-01 1.22325607e-01
      4.83868495e-02 3.49196307e-02 2.20036522e-01 8.52901787e-02
      8.18098187e-02 2.85636578e-02 1.85971394e-01 7.89014325e-02
      3.60035077e-02 1.75618511e-02 1.34185717e-01 3.75707358e-01
      1.28151283e-01 1.45650357e-01 1.24202304e-01 3.75707358e-01
      3.75707358e-01 1.64805785e-01 3.08614764e-02 1.63201660e-01
      2.09067211e-01 6.30442053e-02 3.89734209e-02 3.42387781e-02
      4.83857803e-02 5.17789125e-02 1.44546002e-01 1.51500911e-01
      2.72575706e-01 2.13808745e-01 2.13074554e-02 1.15854755e-01
      8.45651701e-02 6.16893582e-02 5.18160984e-02 2.63761640e-01
      1.67951182e-01 2.76296437e-01 1.45023823e-01 8.72785747e-02
      9.44835842e-02 4.73610684e-02 8.54722932e-02 1.55258715e-01
      2.88798034e-01 2.88798034e-01 1.66436359e-01 2.40215212e-01
      1.96520075e-01 1.60522640e-01 1.33263022e-01 1.17537484e-01
      1.66254520e-01 1.82639152e-01 2.85096735e-01 1.20584510e-01
      2.36044526e-02 2.23685727e-02 1.02277054e-02 1.49545176e-02
      1.35962158e-01 1.16108090e-01 1.07764281e-01 8.87434930e-02
      1.04960322e-01 1.40985534e-01 1.42330769e-02 8.45034514e-03
      8.24412704e-02 2.99169272e-01 2.46550366e-01 1.26306757e-01
      7.97036439e-02 2.46163934e-01 2.79626727e-01 9.54593867e-02
      4.15459238e-02 2.63817422e-02 4.77723144e-02 5.34724854e-02
      2.45040536e-01 3.10766637e-01 3.10766637e-01 1.56400025e-01
      3.21983956e-02 1.41601274e-02 2.38472410e-02 7.16619417e-02
      1.13026477e-01 3.10766637e-01 3.10766637e-01 2.95811564e-01
      9.39763784e-02 7.89450556e-02 1.43502235e-01 4.28171195e-02
      8.43840241e-02 7.45702684e-02 2.73936599e-01 2.05584198e-01
      2.46600553e-01 7.54703442e-03 9.47834477e-02 8.66678208e-02
      5.00111170e-02 1.41818166e-01 6.36312813e-02 2.40988985e-01
      2.78180003e-01 1.21301159e-01 7.67899379e-02 4.86898124e-02
      1.05952345e-01 6.19018227e-02 2.22800031e-01 1.24742538e-01
      2.55515277e-01 1.29916385e-01 2.03259170e-01 4.97214198e-02
      7.24480674e-02 2.14242890e-01 1.90291464e-01 2.71301210e-01
      2.19606876e-01 2.78180003e-01 2.32820272e-01 1.42419443e-01
      8.30111727e-02 5.35430796e-02 9.80993360e-02 8.28301087e-02
      6.32751063e-02 1.58844411e-01 1.07365556e-01 2.04949826e-01
      1.60706490e-01 1.40936688e-01 1.96192563e-02 4.77636084e-02
      4.79045510e-02 9.08054039e-02 2.04321787e-01 2.81950355e-01
      3.18200320e-01 3.18200320e-01 3.00621659e-01 7.16463178e-02
      1.60929218e-01 1.33290246e-01 7.36367628e-02 7.25326687e-02
      6.56949505e-02 1.37613580e-01 2.21004903e-01 1.84663400e-01
      1.10753976e-01 1.97968274e-01 1.39256850e-01 2.16175005e-01
      6.53008074e-02 1.57358289e-01 1.77664846e-01 2.66354263e-01
      1.02346390e-01 5.43574132e-02 3.85439619e-02 1.20639227e-01
      1.30643263e-01 1.54392198e-01 1.95483416e-01 2.48324007e-01
      9.77560952e-02 1.00228637e-01 8.24152678e-02 5.95577694e-02
      2.03490287e-01 1.06879331e-01 8.97589773e-02 7.74261579e-02
      1.18140936e-01 1.07202291e-01 1.45255297e-01 1.28815085e-01
      1.15287684e-01 2.11992562e-01 2.07423732e-01 1.08549029e-01
      2.31522217e-01 2.41800427e-01 2.59686083e-01 2.79336184e-01
      2.79336184e-01 2.05591023e-01 2.61265695e-01 1.04690760e-01
      1.29295081e-01 3.57014984e-02 1.59215897e-01 2.31424361e-01
      1.01040654e-01 1.26089677e-01 5.38278855e-02 4.34063226e-02
      5.61677180e-02 2.61209831e-02 6.67667016e-03 1.63634606e-02
      1.05323896e-01 2.39414409e-01 2.06078365e-01 5.82227334e-02
      2.31660940e-02 1.13654986e-01 4.06848378e-02 2.84835640e-02
      1.32774025e-01 2.41767392e-01 1.01220645e-01 2.21302718e-01
      1.13995247e-01 2.26012662e-01 1.70950800e-01 1.50115520e-01
      5.39499633e-02 5.79865538e-02 8.06502029e-02 2.49246165e-01
      2.91236877e-01 2.52593577e-01 2.76418746e-01 2.91236877e-01
      2.91236877e-01 1.08323455e-01 1.75399482e-01 2.62022078e-01
      8.58596116e-02 8.00596103e-02 7.24069253e-02 1.18736312e-01
      2.63264447e-01 5.66661991e-02 1.60557374e-01 1.18334927e-01
      7.64911771e-02 1.02811195e-01 5.74391447e-02 3.36673148e-02
      9.82547328e-02 2.55283594e-01 1.94582835e-01 3.03146869e-01
      3.03146869e-01 2.05646038e-01 2.72344947e-01 1.90346226e-01
      8.72086808e-02 1.89056739e-01 1.17672808e-01 2.26528477e-02
      5.26475310e-02 8.36934298e-02 8.97154436e-02 3.03146869e-01
      1.57474637e-01 7.39280554e-03 4.09797840e-02 3.72979008e-02
      4.30207588e-02 1.24643214e-01 3.03146869e-01 2.77269334e-01
      9.42358598e-02 1.36109933e-01 4.22061868e-02 4.67194542e-02
      1.79795071e-01 1.34250239e-01 2.72499353e-01 1.78345531e-01
      2.72499353e-01 6.39684647e-02 1.53891414e-01 2.16940433e-01
      8.45667943e-02 2.42071465e-01 2.02278495e-01 2.72499353e-01
      2.72499353e-01 1.43269166e-01 5.76566309e-02 1.32622272e-01
      8.50658417e-02 6.31136745e-02 6.41717166e-02 1.18778646e-01
      2.72499353e-01 2.41078272e-01 1.95767254e-01 4.69202399e-02
      1.84520677e-01 2.13079482e-01 1.12977497e-01 1.02995604e-01
      1.12071954e-01 1.34957194e-01 1.50335327e-01 7.23819733e-02
      6.45266324e-02 1.02965146e-01 3.32153067e-02 1.17476925e-01
      6.05962314e-02 9.95924249e-02 1.30242050e-01 2.05300331e-01
      1.47094384e-01 7.34100714e-02 1.14945874e-01 6.25108555e-02
      1.87259167e-01 1.27476469e-01 9.29224417e-02 1.08132243e-01
      3.71522754e-01 1.51075959e-01 7.13698938e-02 4.29431461e-02
      5.89878596e-02 4.12413999e-02 3.88925150e-02 6.11066781e-02
      3.50552768e-01 3.71522754e-01 2.19208032e-01 1.06436424e-01
      4.13284935e-02 8.42402950e-02 4.90600467e-02 3.49492840e-02
      1.35395601e-02 1.77519456e-01 3.71522754e-01 3.12176019e-01
      1.61375210e-01 4.39826623e-02 1.30128032e-02 4.12369482e-02
      1.46660909e-01 1.76855490e-01 1.66355267e-01 3.12815398e-01
      1.62029579e-01 1.16885118e-01 7.03622922e-02 4.08751070e-02
      7.11704195e-02 1.95189983e-01 1.41092673e-01 2.27333128e-01
      1.56738326e-01 1.48568943e-01 1.58513352e-01 2.44923662e-02
      2.54939627e-02 4.99945469e-02 1.15833983e-01 9.94780287e-02
      1.29482239e-01 3.12815398e-01 2.62653321e-01 3.12815398e-01
      2.83415288e-01 1.55579254e-01 1.15787029e-01 9.18035135e-02
      5.70665225e-02 8.66086334e-02 1.10277325e-01 3.12815398e-01
      1.19354248e-01 1.53407902e-01 2.53955007e-01 1.74529463e-01
      1.62513033e-01 7.24012256e-02 3.11923120e-02 6.07069880e-02
      9.30173993e-02 6.92293122e-02 1.26959175e-01 1.36503905e-01
      1.34227738e-01 2.75761664e-01 2.60737121e-01 8.00600275e-02
      1.37724549e-01 1.64966196e-01 1.58605844e-01 1.42753467e-01
      7.72882476e-02 1.41892225e-01 1.45063147e-01 9.82811823e-02
      2.58474946e-01 2.81746864e-01 7.13550225e-02 3.57169919e-02
      6.83797970e-02 6.77136481e-02 2.28873596e-01 2.81746864e-01
      2.81746864e-01 2.05295250e-01 1.98334545e-01 9.22816694e-02
      1.06872067e-01 1.06664903e-01 4.12899517e-02 3.49220969e-02
      6.55194595e-02 5.13549745e-02 2.20291331e-01 1.74858347e-01
      1.38481751e-01 2.49800712e-01 2.87551910e-01 2.87551910e-01
      4.82070260e-02 8.03388730e-02 2.12094635e-02 7.85197318e-02
      5.33564202e-02 1.10533655e-01 2.24811941e-01 2.21864209e-01
      8.49623680e-02 3.23062502e-02 1.16947502e-01 4.37096208e-02
      1.57423958e-01 2.02522308e-01 2.87551910e-01 2.87551910e-01
      2.87551910e-01 2.11815208e-01 2.19742768e-02 1.99476555e-02
      6.26582769e-04 1.12083577e-01 1.71744555e-01 2.87551910e-01
      1.40225276e-01 3.51679534e-01 3.51679534e-01 1.91984266e-01
      3.74768414e-02 4.21860777e-02 3.07844430e-02 3.21611688e-02
      1.18259639e-01 2.27369577e-01 9.02293101e-02 1.13323331e-01
      7.26542845e-02 1.33159673e-02 3.79677266e-02 1.31694987e-01
      2.98845023e-01 2.61726081e-01 7.88923055e-02 1.64156511e-01
      1.53625652e-01 7.15760291e-02 6.69392720e-02 1.21187873e-01
      2.18773976e-01 1.65410176e-01 1.89032495e-01 1.41579092e-01
      6.69481531e-02 7.35388994e-02 8.77975374e-02 1.63145065e-01
      1.27983630e-01 1.11711323e-01 9.95521620e-02 3.51679534e-01
      7.93887302e-02 4.85441126e-02 5.06562218e-02 5.86581556e-03
      3.64486724e-02 7.30834007e-02 3.11957926e-01 2.64221072e-01
      1.64235547e-01 1.05996273e-01 3.16576734e-02 6.24869578e-02
      4.40508723e-02 8.26960132e-02 1.28520340e-01 1.80334657e-01
      2.01557055e-01 9.98566747e-02 6.62781745e-02 3.64178009e-02
      2.84710657e-02 3.91520420e-03 3.21993697e-03 5.75279780e-02
      3.44686836e-01 3.44686836e-01 2.15031445e-01 5.69445640e-02
      4.47351439e-03 1.02857742e-02 5.04544601e-02 6.42439649e-02
      3.22801620e-01 3.44686836e-01 3.44686836e-01 1.19939782e-01
      4.79449891e-02 7.92917237e-02 1.38536751e-01 1.73544452e-01
      1.37019500e-01 6.17192164e-02 1.43451944e-01 5.14582619e-02
      9.44989249e-02 8.70668218e-02 1.81773499e-01 1.66766897e-01
      1.75757185e-01 1.96377248e-01 6.34955391e-02 1.50647134e-01
      1.36911720e-01 2.25323528e-01 1.50905043e-01 2.29700834e-01
      2.51012236e-01 2.56236583e-01 2.24488318e-01 1.41560301e-01
      7.62898996e-02 1.03947110e-01 4.33449559e-02 1.96496874e-01
      2.73095340e-01 2.70205051e-01 2.61475712e-01 1.94059908e-01
      7.43570402e-02 6.58103228e-02 1.56673640e-01 1.74059570e-01
      3.00464761e-02 6.25923574e-02 3.02086454e-02 2.24474305e-03
      3.41375172e-02 7.08678961e-02 2.02943206e-01 2.33384728e-01
      1.35910168e-01 6.21063411e-02 2.40817606e-01 1.67114243e-01
      2.73597147e-02 2.22747371e-01 1.43504888e-01 1.67322412e-01
      7.63755441e-02 1.57731235e-01 1.36927187e-01 3.42399850e-02
      2.63182931e-02 2.67272890e-02 2.47585308e-02 9.14192498e-02
      2.92608410e-01 2.92608410e-01 1.62902698e-01 1.50815129e-01
      1.16519995e-01 1.59652025e-01 7.99445212e-02 2.92608410e-01
      2.92343169e-01 2.92608410e-01 2.92608410e-01 1.13920480e-01
      1.05575278e-01 4.99575622e-02 4.47826721e-02 5.83089292e-02
      1.11525215e-01 1.52137637e-01 2.22348392e-01 1.75625697e-01
      1.07036710e-01 5.60683012e-02 1.86449721e-01 2.89868563e-01
      2.63987780e-01 1.96142972e-01 1.08380936e-01 9.82992351e-02
      7.97705725e-02 3.60872075e-02 8.63185823e-02 3.64113599e-02
      6.19660877e-02 2.25388706e-01 2.89868563e-01 2.61409879e-01
      1.01205103e-01 1.33153036e-01 1.10420324e-01 3.56239416e-02
      5.86212128e-02 2.89868563e-01 2.50785857e-01 2.89868563e-01
      2.89868563e-01 1.01356179e-01 6.76518381e-02 3.32325436e-02
      7.88265020e-02 1.40464529e-01 2.03508824e-01 2.50602394e-01
      2.13460565e-01 1.60963491e-01 4.51252274e-02 1.26329020e-01
      1.22123666e-01 7.38422498e-02 4.00872789e-02 1.04138039e-01
      1.58662304e-01 1.26672804e-01 8.58361796e-02 2.00041950e-01
      3.28479677e-01 2.08201036e-01 2.01664522e-01 1.18616901e-01
      1.41322538e-01 1.87225699e-01 6.80232048e-02 8.53635892e-02
      3.36701237e-02 6.47241101e-02 8.61241221e-02 1.67651534e-01
      4.78681438e-02 1.37611449e-01 2.99179822e-01 2.64509916e-01
      3.57870966e-01 9.81685817e-02 1.18195698e-01 9.60061550e-02
      5.73854744e-02 1.55560270e-01 1.99916765e-01 1.98889390e-01
      1.29447728e-01 2.46599223e-02 4.38221283e-02 5.15525974e-02
      3.61226425e-02 9.97709557e-02 7.06363097e-02 1.96878940e-01
      1.88053861e-01 2.55625159e-01 1.73293978e-01 9.04349759e-02
      2.52325274e-02 4.95823957e-02 4.09780554e-02 1.57208592e-01
      1.99626669e-01 2.16581374e-01 1.41892374e-01 2.45718613e-01
      1.68842986e-01 2.50073373e-01 5.63496463e-02 8.45783427e-02
      2.51426041e-01 2.55625159e-01 2.55625159e-01 2.55625159e-01
      2.51948804e-01 1.74236491e-01 1.52390301e-01 1.09707704e-02
      2.40229014e-02 1.07542416e-02 3.48836817e-02 7.37378970e-02
      1.44326344e-01 1.01302631e-01 8.47965777e-02 3.77921797e-02
      3.45589109e-02 3.74724902e-02 7.34103024e-02 4.52695526e-02
      1.91939905e-01 3.02698463e-01 3.03343743e-01 1.37298599e-01
      5.88875776e-03 7.98850134e-03 3.93632874e-02 1.22177608e-01
      1.98075116e-01 2.34604031e-01 2.84611821e-01 6.95033520e-02
      4.41651419e-02 3.58354449e-02 4.49166782e-02 6.86592236e-02
      3.03343743e-01 2.72662610e-01 2.73623586e-01 3.03343743e-01
      1.70298070e-01 3.03343743e-01 1.90804869e-01 5.66947274e-02
      6.73355833e-02 5.47088496e-02 5.90764433e-02 3.93243358e-02
      1.60796568e-01 1.69045493e-01 2.10859016e-01 1.04007930e-01
      1.45830184e-01 4.63886783e-02 5.07245623e-02 5.71856461e-02
      4.07270901e-02 1.46431029e-01 2.58705974e-01 2.58705974e-01
      1.65851191e-01 1.09588847e-01 1.07810736e-01 1.18168861e-01
      6.71039075e-02 2.77689993e-02 2.52912551e-01 1.82451382e-01
      2.58705974e-01 1.64095461e-01 1.70831218e-01 1.93171576e-01
      2.58705974e-01 2.52604842e-01 2.86423638e-02 2.58705974e-01
      2.33746216e-01 1.96551070e-01 2.33895734e-01 1.20294601e-01
      1.75080374e-01 1.90515548e-01 2.68312782e-01 1.56007230e-01
      2.81511426e-01 1.71349943e-01 1.24515466e-01 9.74819213e-02
      1.55843750e-01 6.73312247e-02 6.71631396e-02 2.17291489e-01
      2.05037087e-01 2.81511426e-01 1.58932045e-01 2.81511426e-01
      1.25916988e-01 8.19952860e-02 1.56961545e-01 2.81511426e-01
      2.44437650e-01 4.83644120e-02 1.61683202e-01 7.13890865e-02
      9.44333300e-02 5.57630584e-02 1.60541788e-01 4.29719388e-02
      5.36882542e-02 9.85474885e-02 3.79280783e-02 1.03431374e-01
      8.66081789e-02 2.81511426e-01 1.28499776e-01 8.07247534e-02
      1.02518432e-01 8.65650102e-02 5.20864911e-02 9.17182937e-02
      1.31053910e-01 2.20398471e-01 2.00217515e-01 1.58506617e-01
      1.02936976e-01 1.05257288e-01 3.01560890e-02 3.68996300e-02
      6.53383806e-02 1.72981128e-01 2.93960303e-01 2.93960303e-01
      2.44515970e-01 9.18145552e-02 9.16856006e-02 3.28841656e-02
      1.71737280e-02 5.51784597e-02 1.90297946e-01 1.36838451e-01
      1.27638906e-01 1.95797518e-01 1.03882641e-01 2.93960303e-01
      6.69062287e-02 5.67362309e-02 1.58473000e-01 2.19607502e-01
      2.18269795e-01 2.93960303e-01 2.93960303e-01 1.29187226e-01
      8.00402611e-02 2.18856931e-02 1.17690824e-02 3.83287924e-03
      1.07327178e-02 1.63638499e-02 5.48084714e-02 1.43770710e-01
      2.44517207e-01 1.35386139e-01 4.78067733e-02 2.13525072e-02
      8.81290063e-03 2.64291707e-02 1.12268748e-02 3.33700292e-02
      7.73231611e-02 1.81710228e-01 3.65820050e-01 1.27768386e-02
      7.16396887e-03 3.10858656e-02 3.40691283e-02 6.61892351e-03
      1.45538062e-01 3.82029921e-01 3.82029921e-01 3.82029921e-01
      1.41711891e-01 6.54716119e-02 3.29966121e-03 2.97412416e-03
      3.86377587e-03 4.98255268e-02 2.74136245e-01 3.82029921e-01
      2.87110627e-01 1.40480936e-01 1.17508993e-01 6.93977624e-02
      3.80026028e-02 5.17302789e-02 8.89616758e-02 1.36857271e-01
      1.98533148e-01 2.85840929e-01 1.10086694e-01 5.31615317e-02
      3.79055031e-02 5.28914966e-02 3.16447653e-02 1.31577134e-01
      2.59901792e-01 2.87110627e-01 2.87110627e-01 1.13928400e-01
      2.17553243e-01 1.43625453e-01 3.10054608e-02 5.42215593e-02
      8.88907984e-02 1.30943239e-01 2.03766063e-01 2.04786956e-01
      4.85657789e-02 4.91577499e-02 5.13091758e-02 2.35860217e-02
      7.70758465e-02 2.87110627e-01 2.87110627e-01 2.87110627e-01
      1.08904585e-01 2.56854575e-02 5.70909642e-02 3.77091654e-02
      9.97296125e-02 4.28999104e-02 7.12451264e-02 6.20305203e-02
      1.07997328e-01 1.17642201e-01 6.25622720e-02 7.76412189e-02
      3.89736369e-02 3.12492132e-01 3.15879673e-01 3.15879673e-01
      1.28675878e-01 7.22653493e-02 3.15879673e-01 7.81009272e-02
      2.39220988e-02 2.10970417e-02 2.01311931e-02 2.42174175e-02
      7.31868520e-02 1.09311000e-01 3.15879673e-01 3.15879673e-01
      1.22196682e-01 1.98402509e-01 9.77804437e-02 1.10788763e-01
      2.75050700e-01 1.37833893e-01 8.75283703e-02 3.15879673e-01
      2.95929581e-01 2.75492042e-01 4.75951321e-02 6.10562786e-02
      3.87897380e-02 9.77681726e-02 1.76696062e-01 2.37271652e-01
      1.23838976e-01 9.14198086e-02 1.72380567e-01 1.71473715e-02
      1.96487568e-02 1.04141809e-01 3.14792573e-01 3.14792573e-01
      3.14792573e-01 1.01171792e-01 6.08462915e-02 4.44631390e-02
      5.81753179e-02 1.12248853e-01 8.50228071e-02 1.08762085e-01
      7.50089362e-02 7.24386573e-02 4.05823179e-02 1.46881072e-02
      1.89832617e-02 1.12368856e-02 4.44786809e-02 8.28541294e-02
      2.96744466e-01 3.14792573e-01 3.14792573e-01 8.55682343e-02
      6.17953986e-02 5.36042824e-02 8.65450129e-02 6.57649562e-02
      6.12466857e-02 1.42078951e-01 1.62573576e-01 1.05329640e-01
      1.21624991e-02 1.69916734e-01 6.45366237e-02 1.49209753e-01
      9.17317644e-02 4.51249070e-02 1.47931919e-01 9.99676138e-02
      9.09225717e-02 2.81062722e-02 2.25282535e-01 6.26893342e-02
      5.37190884e-02 6.80599269e-03 2.21102331e-02 2.15758979e-01
      3.89510602e-01 3.89510602e-01 1.65090501e-01 3.58837306e-01
      2.36656204e-01 1.30380362e-01 3.88126820e-02 8.22477564e-02
      1.24481730e-01 2.16390133e-01 2.88879812e-01 1.34710371e-01
      2.22571567e-01 9.14624557e-02 4.28604521e-02 2.71696653e-02
      1.33369014e-01 1.20298095e-01 7.19325170e-02 7.55727217e-02
      1.33978203e-01 3.70305628e-01 1.37897179e-01 3.59976366e-02
      6.61929175e-02 3.70305628e-01 2.35823080e-01 1.33326024e-01
      1.90334335e-01 3.70305628e-01 1.79405227e-01 1.70200735e-01
      3.87455784e-02 1.66794099e-02 4.21596244e-02 3.04154288e-02
      2.21064650e-02 4.49214019e-02 7.21901059e-02 2.67216355e-01
      6.45073205e-02 1.60431266e-02 4.78604883e-02 2.16566294e-01
      8.55584219e-02 1.37387916e-01 1.54877171e-01 2.83704042e-01
      2.86385626e-01 2.31642976e-01 1.23694621e-01 7.07333386e-02
      3.39431800e-02 7.13034943e-02 2.09941208e-01 1.14867240e-01
      1.57854661e-01 2.86385626e-01 2.32273713e-01 1.23128854e-01
      1.43973663e-01 9.01314691e-02 8.00661966e-02 1.63981378e-01
      1.16502479e-01 2.82089025e-01 1.38283387e-01 1.17762432e-01
      9.00624320e-02 5.67584597e-02 1.65323287e-01 8.91435221e-02
      1.39563337e-01 1.84772521e-01 2.03788266e-01 2.86385626e-01
      1.50464132e-01 1.13062263e-01 1.80091456e-01 1.58194870e-01
      8.26320425e-02 9.99307632e-02 1.79159686e-01 2.18510792e-01
      2.14053929e-01 1.41998321e-01 6.55179545e-02 1.16994068e-01
      1.59321308e-01 7.29709491e-02 4.21927609e-02 2.00095680e-02
      5.98387867e-02 2.91971058e-01 2.24359438e-01 2.51174927e-01
      1.72557876e-01 2.32620403e-01 6.83986545e-02 4.76826876e-02
      1.06645087e-02 1.46509558e-01 2.91971058e-01 1.29999995e-01
      8.15365911e-02 1.09977499e-01 1.72778979e-01 1.19580053e-01
      5.75248636e-02 4.35318165e-02 1.31820500e-01 2.91971058e-01
      2.11182684e-01 2.82414287e-01 1.73705608e-01 2.91971058e-01
      6.56976923e-02 1.71088994e-01 6.41194135e-02 1.23337805e-01
      2.27235913e-01 2.86616981e-01 1.16225012e-01 2.41468310e-01
      1.46290258e-01 5.26552945e-02 1.05513223e-01 7.65049532e-02
      1.35254458e-01 2.04803243e-01 2.38774702e-01 2.02389166e-01
      2.30188698e-01 1.94780573e-01 2.43851051e-01 1.77723810e-01
      2.52031870e-02 1.14715584e-01 2.17562661e-01 1.37245044e-01
      9.02258679e-02 1.53308809e-01 1.76502600e-01 5.97817600e-02
      6.50210977e-02 7.11345673e-02 1.30163848e-01 1.28916070e-01
      7.37434477e-02 5.54361194e-02 1.15169294e-01 2.06705570e-01
      3.01695585e-01 2.03173280e-01 1.19087197e-01 9.93345156e-02
      7.88916647e-02 5.78261130e-02 1.19106658e-02 7.68391564e-02
      1.53957590e-01 9.14479345e-02 2.00098380e-01 1.35821149e-01
      9.62658525e-02 1.49753734e-01 1.04064858e-02 5.98437479e-03
      3.53107676e-02 1.70378983e-02 6.76376522e-02 3.50604713e-01
      2.80193508e-01 2.78382361e-01 1.90468445e-01 2.04662532e-02 0.
      1.64168209e-01 2.62301415e-01 2.25606889e-01 1.55553505e-01
      1.34357676e-01 1.46902919e-01 1.99702024e-01 2.37178236e-01
      1.79123208e-01 8.95444378e-02 1.72474504e-01 1.93806633e-01
      2.20336139e-01 1.90485224e-01 1.94327042e-01 1.65378049e-01
      1.59494001e-02 5.58618642e-03 7.93000832e-02 4.51210700e-02
      7.19625056e-02 2.44435012e-01 3.55281413e-01 1.86216727e-01
      3.31932455e-01 4.56444453e-03 1.35117285e-02 1.97887290e-02
      5.29874861e-02 3.85686830e-02 2.70902425e-01 3.55281413e-01
      3.55281413e-01 1.03978090e-01 1.33227780e-01 7.16898888e-02
      1.11189075e-01 1.74151272e-01 6.43243343e-02 1.16120115e-01
      8.56801122e-02 6.65453523e-02 1.15659356e-01 3.75456847e-02
      5.36944568e-02 6.58439025e-02 1.61111951e-01 4.84012924e-02
      1.63167566e-01 1.92859203e-01 2.71750361e-01</_>
    <_>
      8.31743628e-02 3.38123739e-02 4.40893620e-02 0. 1.15593061e-01 0.
      1.56735238e-02 5.23782987e-03 8.31743628e-02 3.58322114e-02
      6.11642115e-02 3.50880742e-01 2.49844659e-02 3.56975108e-01
      8.72474257e-03 1.33429214e-01 4.13033888e-02 3.58322114e-02
      2.41907045e-01 8.29361975e-02 3.74191552e-02 2.63433922e-02
      2.12502375e-01 4.11301181e-02 2.39910752e-01 2.07196087e-01
      2.66052663e-01 1.94994926e-01 5.40565476e-02 1.29657000e-01
      8.37665424e-03 3.56975108e-01 5.61340936e-02 3.56975108e-01
      2.22439364e-01 1.94621295e-01 1.40813977e-01 2.85893023e-01
      2.97282547e-01 7.21778050e-02 3.48189324e-02 3.23426239e-02
      9.54582095e-02 6.04297705e-02 6.94359168e-02 1.53394207e-01
      1.92461863e-01 2.38873407e-01 5.03491759e-02 7.56362528e-02
      1.80438440e-02 4.23376188e-02 1.69691026e-01 1.89450517e-01
      8.60208422e-02 1.57570034e-01 1.45033300e-01 1.21258453e-01
      7.57405013e-02 2.04336241e-01 2.97282547e-01 2.36151591e-01
      2.36089546e-02 7.64944106e-02 1.91349834e-01 2.82590389e-01
      2.16349438e-01 1.16026148e-01 1.57640919e-01 2.36796275e-01
      2.48727024e-01 6.16805516e-02 1.64479822e-01 6.05449155e-02
      2.39699855e-02 2.77639870e-02 2.84296107e-02 6.45763278e-02
      1.34966537e-01 2.39342093e-01 2.75692880e-01 8.85743499e-02
      1.04896545e-01 1.21092200e-02 1.59139689e-02 8.55042934e-02
      6.44869804e-02 2.87298530e-01 2.87298530e-01 2.87298530e-01
      6.42432421e-02 3.10885943e-02 4.62855808e-02 8.75238255e-02
      4.66079190e-02 1.64125398e-01 2.31891885e-01 2.87298530e-01
      1.61443204e-01 1.22127846e-01 5.35277836e-02 1.02677438e-02
      2.17372980e-02 1.66750237e-01 2.87298530e-01 2.56033808e-01
      2.49732584e-01 2.59289563e-01 5.23504168e-02 4.11174353e-03
      2.42957799e-03 8.04331992e-03 1.08128078e-01 7.86446184e-02
      3.14975828e-01 2.97390342e-01 1.31498560e-01 1.97472379e-01
      1.78608038e-02 1.57986991e-02 3.13364808e-03 1.49405330e-01
      1.36593625e-01 3.14975828e-01 3.14975828e-01 3.14975828e-01
      7.30344430e-02 6.71696849e-03 1.04578314e-02 2.73803389e-03
      3.05963065e-02 5.61077669e-02 2.18411088e-01 1.70663416e-01
      2.16991395e-01 1.24075405e-01 2.57236380e-02 2.62922589e-02
      1.05885155e-02 6.50958270e-02 1.36081532e-01 3.14975828e-01
      2.93704510e-01 1.85580179e-01 1.10259235e-01 2.35392712e-02
      1.36854667e-02 1.72844008e-02 7.46873841e-02 5.58013916e-02
      2.89102793e-01 2.89102793e-01 1.28258243e-01 1.10757858e-01
      3.95697951e-02 5.03984317e-02 3.44651565e-02 1.79243341e-01
      5.72000220e-02 2.68316180e-01 2.89102793e-01 1.27346471e-01
      1.42429128e-01 3.10931019e-02 1.35102030e-02 1.84837449e-02
      3.86362597e-02 4.38179336e-02 2.89102793e-01 2.89102793e-01
      1.03875659e-01 2.27202311e-01 4.53187674e-02 5.39928377e-02
      3.90389077e-02 1.05640501e-01 2.42855266e-01 2.89102793e-01
      2.89102793e-01 2.61351258e-01 9.06090811e-02 1.00921184e-01
      1.00411192e-01 7.31524304e-02 1.49200827e-01 9.77605581e-02
      1.19733974e-01 1.71669826e-01 6.01076372e-02 8.91456902e-02
      8.40968564e-02 1.80630788e-01 7.87865371e-02 1.04820505e-01
      7.75170401e-02 1.69899255e-01 2.05316365e-01 1.50558949e-01
      9.25987437e-02 2.16936424e-01 1.93436425e-02 8.80877823e-02
      1.80231184e-01 2.56550461e-01 2.59566069e-01 2.59566069e-01
      1.68797225e-01 1.77282453e-01 2.48421431e-01 6.90722615e-02
      1.55940235e-01 2.59566069e-01 2.48310745e-01 2.59566069e-01
      2.59566069e-01 9.20639411e-02 2.83555120e-01 2.83555120e-01
      1.28326222e-01 2.75206953e-01 1.64085850e-01 1.90594122e-01
      8.11621845e-02 4.64417972e-02 1.06907554e-01 1.29654646e-01
      1.92533344e-01 3.77405100e-02 1.40528738e-01 2.83555120e-01
      9.11021829e-02 9.94019657e-02 4.79409024e-02 1.07185714e-01
      1.92032680e-01 2.83555120e-01 7.34186620e-02 1.31632701e-01
      1.60528839e-01 2.55780160e-01 1.42016694e-01 8.36628452e-02
      9.85289440e-02 1.68433800e-01 1.83015466e-01 8.75460804e-02
      1.52296886e-01 1.21654585e-01 9.95649993e-02 1.92869142e-01
      1.47227347e-01 1.70084834e-01 8.93885568e-02 7.26093575e-02
      1.02575876e-01 4.73673455e-02 2.56371181e-02 2.20671237e-01
      2.41908804e-01 1.17707193e-01 1.19445078e-01 1.88089892e-01
      1.07244417e-01 7.20627084e-02 4.24478576e-02 2.15057693e-02
      1.12638339e-01 1.72697917e-01 1.67997211e-01 2.50831425e-01
      3.10460746e-01 3.10460746e-01 2.40075961e-01 8.25540274e-02
      2.98336335e-03 2.18360703e-02 3.29925232e-02 7.68800229e-02
      1.67675599e-01 3.10460746e-01 3.10460746e-01 1.40831918e-01
      4.38231044e-02 2.17190124e-02 2.39661355e-02 6.97482750e-02
      1.92979336e-01 3.10460746e-01 1.41139090e-01 1.92311406e-01
      7.64456093e-02 9.94427428e-02 4.83240858e-02 3.81567106e-02
      5.78694120e-02 4.49195616e-02 7.78147653e-02 2.33421594e-01
      1.88269302e-01 7.54461810e-02 1.52066290e-01 1.08082779e-01
      1.87036127e-01 1.06821038e-01 1.65308192e-01 1.75271019e-01
      1.19919367e-01 3.15778047e-01 1.31243929e-01 2.87576735e-01
      3.44912708e-02 4.22843657e-02 5.44116981e-02 2.19074525e-02
      1.17512472e-01 2.47103468e-01 3.15778047e-01 1.15000710e-01
      3.15778047e-01 1.64897710e-01 1.92885965e-01 8.94403532e-02
      1.68628559e-01 2.55594552e-01 1.07271701e-01 1.05433553e-01
      5.03475107e-02 9.73682851e-02 2.68894937e-02 9.19886455e-02
      8.20404291e-02 8.31073448e-02 9.79181081e-02 1.98361069e-01
      1.72372073e-01 7.72142485e-02 2.58091927e-01 1.81302547e-01
      1.42161295e-01 1.69238940e-01 1.77660763e-01 1.26600683e-01
      6.07945397e-02 7.03210309e-02 5.78206368e-02 1.07170910e-01
      1.28179088e-01 2.21248731e-01 9.57374796e-02 2.03690380e-01
      1.09609820e-01 2.13782951e-01 2.54944175e-01 3.09599131e-01
      2.26173535e-01 3.09599131e-01 2.43134886e-01 1.52888939e-01
      1.86355114e-01 1.91350996e-01 1.73714131e-01 1.30630285e-01
      4.05189283e-02 2.60992367e-02 1.70033962e-01 1.14870824e-01
      2.35431865e-01 1.60153970e-01 8.32104087e-02 2.06919417e-01
      4.35395166e-02 6.70376346e-02 5.47844023e-02 2.68019348e-01
      1.21320195e-01 2.80981004e-01 2.01343134e-01 1.08828880e-01
      2.80981004e-01 1.74379021e-01 1.39542937e-01 4.17859107e-02
      2.50995368e-01 1.18656754e-01 5.96505441e-02 1.26132533e-01
      1.38033912e-01 2.80981004e-01 1.03946798e-01 2.44739324e-01
      1.08859167e-01 2.80981004e-01 9.77008641e-02 1.13933071e-01
      9.07968134e-02 1.73285872e-01 1.71312869e-01 8.32645521e-02
      5.08378483e-02 1.71187408e-02 7.05748498e-02 4.66250479e-02
      3.60592514e-01 2.52779454e-01 1.88605353e-01 2.04707757e-01
      9.12502334e-02 2.54306626e-02 9.38283280e-03 1.04320303e-01
      2.05668956e-01 3.60592514e-01 3.60592514e-01 3.60592514e-01
      5.02773933e-02 6.38809800e-02 9.84708294e-02 5.00072204e-02
      1.10576198e-01 7.09114373e-02 7.98918158e-02 7.44549930e-02
      3.57241817e-02 9.56574231e-02 8.54693130e-02 1.00694343e-01
      4.22794670e-02 5.60048558e-02 4.89246845e-02 2.76753098e-01
      2.03542009e-01 1.58618301e-01 2.62149215e-01 1.56066582e-01
      1.70038223e-01 7.35756159e-02 8.25797394e-02 6.92908615e-02
      1.05346419e-01 1.29731551e-01 2.17297688e-01 2.62149215e-01
      2.59848446e-01 2.02751353e-01 4.80681434e-02 3.56127843e-02
      2.76291631e-02 1.22407086e-01 1.21910617e-01 2.62149215e-01
      1.74617648e-01 2.17162684e-01 2.31182650e-01 2.09721178e-01
      1.18240058e-01 5.21986112e-02 3.88499722e-02 6.98769093e-02
      1.40840501e-01 2.49605820e-01 1.28850266e-01 1.79967582e-01
      1.24290742e-01 1.26279771e-01 5.76541014e-02 2.26514995e-01
      1.37438402e-01 2.62149215e-01 8.09975043e-02 1.44283324e-01
      5.74033260e-02 3.97045650e-02 6.94704056e-02 8.61995667e-02
      1.42131835e-01 9.67100188e-02 4.01663706e-02 9.54619125e-02
      8.46434087e-02 2.96386927e-02 6.47853017e-02 7.82927349e-02
      1.56199247e-01 3.16922843e-01 3.16922843e-01 2.10444078e-01
      1.09293841e-01 1.52989656e-01 1.46529272e-01 8.03429559e-02
      8.21928680e-02 1.16170444e-01 1.87653035e-01 1.39455765e-01
      7.01679215e-02 2.10242942e-01 1.81664184e-01 1.00064225e-01
      7.52668306e-02 2.45613545e-01 3.16922843e-01 3.16922843e-01
      2.90041536e-01 2.06848040e-01 9.25304443e-02 2.08870936e-02
      1.06060496e-02 4.69742995e-03 4.46613878e-03 3.51667684e-03
      7.69778341e-02 2.47599795e-01 3.21948558e-01 1.10737845e-01
      6.85257837e-02 5.83729222e-02 3.80796902e-02 3.73675525e-02
      1.77032724e-02 5.51379807e-02 1.98010460e-01 1.88188285e-01
      1.53856784e-01 6.11509057e-03 9.25430935e-03 0. 1.90552920e-02
      1.28181532e-01 3.21948558e-01 3.21948558e-01 3.21948558e-01
      1.89902082e-01 9.82057899e-02 4.93822694e-02 3.53166610e-02
      5.27935661e-02 2.95458194e-02 3.21948558e-01 3.21948558e-01
      3.21948558e-01 9.65778455e-02 5.39634526e-02 1.03878357e-01
      5.28572779e-03 1.64012741e-02 1.29693300e-01 9.83208194e-02
      1.26318708e-01 2.79767424e-01 1.37865111e-01 5.98680638e-02
      6.44369200e-02 1.71249490e-02 6.73769638e-02 2.85871267e-01
      1.65207252e-01 1.84152141e-01 2.67240614e-01 2.09500507e-01
      1.40484497e-01 1.43156990e-01 2.03476734e-02 3.31567228e-02
      8.82505849e-02 9.61842611e-02 1.82295039e-01 3.17776620e-01
      2.24304274e-01 1.14051424e-01 1.42029673e-01 7.11383624e-03
      1.18157640e-02 1.78308487e-01 2.29206234e-01 3.17776620e-01
      3.17776620e-01 1.00667670e-01 3.29666547e-02 3.82004008e-02
      5.80733605e-02 1.74292564e-01 1.23213358e-01 6.28613085e-02
      1.50240853e-01 8.61643851e-02 1.23110592e-01 1.06238738e-01
      7.68421292e-02 7.22992793e-02 2.11850464e-01 1.35816827e-01
      8.67488459e-02 9.26151127e-02 9.94482487e-02 6.53606281e-02
      6.05377071e-02 1.42138023e-02 7.74772838e-02 1.52378842e-01
      2.79996991e-01 2.82517016e-01 2.82517016e-01 2.33277962e-01
      1.63617030e-01 2.12428868e-01 4.28519510e-02 1.23119801e-01
      2.00895190e-01 2.76070267e-01 2.82517016e-01 2.82517016e-01
      2.82517016e-01 1.98062599e-01 3.26212868e-02 6.35826290e-02
      1.18846640e-01 7.01309964e-02 5.71920611e-02 1.06477506e-01
      1.03480615e-01 1.17880203e-01 8.76727551e-02 2.47640349e-02
      6.62375763e-02 1.04554549e-01 1.09317891e-01 6.34698719e-02
      2.07615703e-01 1.75978929e-01 1.00378826e-01 2.85053968e-01
      1.66100502e-01 2.78813183e-01 1.07304186e-01 1.55354977e-01
      2.15212554e-01 1.27659127e-01 2.34448731e-01 2.33516797e-01
      2.85053968e-01 1.03931494e-01 5.27806245e-02 1.18507333e-01
      1.68259501e-01 2.01415673e-01 2.85053968e-01 2.85053968e-01
      1.90249324e-01 1.60466209e-01 2.81827331e-01 2.81827331e-01
      1.11551121e-01 2.21801288e-02 7.87849799e-02 3.95728014e-02
      1.30465236e-02 3.25276293e-02 1.97570518e-01 2.23274201e-01
      1.57093138e-01 9.08461884e-02 1.00614876e-01 4.75216657e-02
      7.21377507e-02 1.73509046e-01 1.44993350e-01 1.37343422e-01
      2.81827331e-01 2.81827331e-01 2.81827331e-01 1.62422910e-01
      9.45477933e-02 7.93195218e-02 5.21860793e-02 7.88249448e-02
      2.25636899e-01 1.63016364e-01 1.97328031e-01 1.66864768e-01
      1.74280554e-01 1.84445038e-01 1.83589801e-01 1.33295313e-01
      1.79684013e-01 2.04737466e-02 3.05697042e-03 5.33430204e-02
      3.25669944e-02 1.63890511e-01 2.27175549e-01 2.61792630e-01
      1.44537568e-01 2.10109893e-02 9.25165415e-02 8.25120583e-02
      1.79140896e-01 1.26678079e-01 2.61792630e-01 2.33637154e-01
      1.37958482e-01 1.49208874e-01 6.21474721e-02 1.17281325e-01
      8.13038051e-02 3.61706838e-02 5.03045544e-02 2.18909994e-01
      2.61792630e-01 2.61792630e-01 2.01668233e-01 3.32049802e-02
      1.08605951e-01 1.38443589e-01 1.84084013e-01 1.50497243e-01
      2.61792630e-01 2.61792630e-01 2.20157325e-01 2.61792630e-01
      1.95852313e-02 3.16517167e-02 1.35535032e-01 9.78244394e-02
      8.11683312e-02 2.76736766e-01 2.05777273e-01 1.58517271e-01
      1.41904697e-01 8.53571668e-02 7.57780224e-02 9.98417065e-02
      8.24596137e-02 6.28343150e-02 1.04662776e-01 6.34952188e-02
      1.61032751e-01 2.85839051e-01 2.02832654e-01 1.86641008e-01
      2.85839051e-01 1.59422204e-01 1.48378864e-01 2.79030889e-01
      9.90985557e-02 8.63252804e-02 4.93988954e-02 4.82392013e-02
      2.61992931e-01 2.85839051e-01 2.85839051e-01 2.28062481e-01
      1.54413313e-01 8.59204084e-02 9.49168503e-02 7.24660829e-02
      8.06197226e-02 8.28798264e-02 1.18072324e-01 5.65628409e-02
      4.78337407e-02 1.06375590e-01 1.12596206e-01 9.08833649e-03
      5.54365367e-02 1.77737236e-01 1.34718657e-01 2.64022559e-01
      2.64022559e-01 1.55116335e-01 2.03116715e-01 1.39088407e-01
      2.65207998e-02 1.96859222e-02 1.30550653e-01 1.13054223e-01
      9.20061246e-02 2.28245452e-01 7.29484707e-02 1.93925992e-01
      2.09571376e-01 1.19317658e-01 2.64022559e-01 2.64022559e-01
      9.69953462e-02 2.18012184e-01 2.64022559e-01 1.87861964e-01
      2.64022559e-01 2.64022559e-01 6.74011782e-02 8.40087757e-02
      1.58632189e-01 1.07095659e-01 1.60329968e-01 1.39569685e-01
      1.39288425e-01 1.35709301e-01 4.97075915e-02 1.36768103e-01
      7.19483048e-02 8.82838145e-02 2.64754683e-01 6.94846660e-02
      3.78315784e-02 5.05456850e-02 4.12989892e-02 1.66413635e-01
      2.54314661e-01 1.68593273e-01 2.09050000e-01 2.93063261e-02
      3.94474044e-02 1.26639679e-01 2.64754683e-01 2.64754683e-01
      1.79958090e-01 2.25854903e-01 1.36772379e-01 1.43845558e-01
      1.26809314e-01 2.69917231e-02 7.30487565e-03 1.47170097e-01
      2.64754683e-01 2.64754683e-01 2.64754683e-01 1.84592932e-01
      2.43530020e-01 1.02369696e-01 7.32850581e-02 1.97025821e-01
      1.34587973e-01 9.39902365e-02 9.19621661e-02 4.91110347e-02
      1.78506941e-01 1.59970760e-01 1.91323519e-01 7.48784989e-02
      1.00205190e-01 1.37764424e-01 2.54554093e-01 1.97788790e-01
      1.63062904e-02 1.20881915e-01 1.91667974e-01 3.25381421e-02
      4.15290631e-02 8.92382264e-02 2.31961936e-01 2.54554093e-01
      2.54554093e-01 7.76934326e-02 2.54554093e-01 1.40314460e-01
      1.81982920e-01 1.23637617e-01 2.54554093e-01 1.50066942e-01
      2.54554093e-01 2.54554093e-01 5.35464138e-02 1.29061505e-01
      2.26355672e-01 3.73587944e-02 2.07705628e-02 9.35937017e-02
      1.80917487e-01 1.51175559e-01 2.58368790e-01 1.87228888e-01
      1.11949474e-01 6.84038475e-02 2.95652337e-02 3.46619226e-02
      3.64948027e-02 1.56524181e-01 1.42468512e-01 2.34032080e-01
      2.33876958e-01 6.99497238e-02 4.60422076e-02 4.27227989e-02
      3.32753398e-02 2.58368790e-01 2.58368790e-01 2.58368790e-01
      2.58368790e-01 2.46193185e-01 2.20540240e-01 8.58301893e-02
      9.49236453e-02 5.30647822e-02 1.60532415e-01 2.34458685e-01
      1.30188793e-01 2.58368790e-01 2.13613167e-01 1.68644860e-01
      1.03097729e-01 5.15346117e-02 7.90075809e-02 1.77426990e-02
      1.76350307e-02 5.13118878e-02 1.37819409e-01 2.63739794e-01
      2.50752538e-01 4.09311466e-02 2.63739794e-01 2.02557653e-01
      6.71456382e-02 5.42078866e-03 4.00407799e-02 5.69648594e-02
      1.73362613e-01 2.63739794e-01 2.63739794e-01 6.72052726e-02
      6.53203130e-02 3.86505276e-02 1.00051619e-01 2.47791082e-01
      1.29424706e-01 1.49452418e-01 1.20118752e-01 3.36359181e-02
      2.63739794e-01 1.63704932e-01 1.79120436e-01 2.10756645e-01
      2.63739794e-01 1.59649953e-01 1.83485642e-01 2.63739794e-01
      1.88383907e-01 7.69409537e-02 6.37842193e-02 1.59877874e-02
      5.05037010e-02 2.36621350e-02 9.40703079e-02 1.13113284e-01
      2.04449728e-01 2.52142131e-01 9.71394703e-02 1.07643560e-01
      5.20797223e-02 1.17657684e-01 1.90281510e-01 2.12817341e-01
      1.59726471e-01 3.01307291e-01 2.11868674e-01 1.27344549e-01 0.
      1.60764698e-02 1.06280409e-02 4.32818383e-02 2.01841787e-01
      2.34961018e-01 3.01307291e-01 3.01307291e-01 1.71449512e-01
      7.96954427e-03 4.61563608e-03 1.61241237e-02 6.07362948e-02
      7.11314008e-02 2.45582461e-01 3.01307291e-01 3.01307291e-01
      8.24547783e-02 1.97088763e-01 1.62593171e-01 1.29419342e-01
      8.31573009e-02 1.03867732e-01 1.65709808e-01 1.10159092e-01
      1.01113774e-01 1.00731805e-01 2.44043499e-01 2.44043499e-01
      2.44043499e-01 7.74757266e-02 1.53221264e-01 1.16288856e-01
      4.28180210e-02 1.19235992e-01 2.44043499e-01 2.44043499e-01
      1.58287778e-01 6.56798780e-02 4.09021117e-02 9.10783857e-02
      1.54981390e-01 1.79592833e-01 2.33154446e-01 2.16961697e-01
      2.30667517e-01 1.66922629e-01 2.01283917e-01 9.08650011e-02
      2.38488808e-01 1.68614358e-01 4.97340076e-02 2.44043499e-01
      5.14209718e-02 2.17314184e-01 2.25145027e-01 1.77882969e-01
      2.58053750e-01 1.56788737e-01 2.58053750e-01 8.93507302e-02
      4.90225852e-02 9.13432166e-02 2.58053750e-01 2.58053750e-01
      2.58053750e-01 2.58053750e-01 1.40584633e-01 1.70343056e-01
      1.36011675e-01 2.39331927e-02 1.23873115e-01 1.88258410e-01
      1.45923853e-01 1.15374416e-01 5.45914099e-02 1.12549968e-01
      2.01681733e-01 9.71972495e-02 4.73132730e-02 1.94701254e-01
      2.58053750e-01 2.12406874e-01 1.72326073e-01 2.40255818e-02
      4.99639921e-02 7.12791532e-02 1.05989389e-01 4.90063280e-02
      2.07522035e-01 3.41596425e-01 1.10680714e-01 1.12306342e-01
      2.37669617e-01 2.05529973e-01 5.74842729e-02 1.09499335e-01
      3.28753032e-02 1.77236766e-01 3.41596425e-01 1.21105433e-01
      4.55524959e-02 3.41596425e-01 1.61840260e-01 4.86368723e-02
      2.40563620e-02 1.40897166e-02 1.59725472e-01 2.74925292e-01
      3.95556800e-02 9.91101265e-02 3.41596425e-01 8.41229931e-02
      1.57035477e-02 1.36921518e-02 9.34385955e-02 2.61087362e-02
      8.89220759e-02 1.09232366e-02 8.30910429e-02 3.41596425e-01
      8.80280286e-02 3.98005731e-03 3.24768363e-03 2.26095989e-02
      3.85631979e-01 2.45933309e-02 4.41438146e-02 7.86739811e-02
      1.13199703e-01 7.90647417e-02 2.64737457e-01 2.09680885e-01
      2.32237771e-01 4.28721249e-01 4.01657149e-02 6.75195232e-02
      1.10303670e-01 6.37834743e-02 3.42245400e-02 1.55087575e-01
      4.28721249e-01 4.28721249e-01 9.26327556e-02 2.02988517e-02
      1.61173940e-02 3.80071104e-02 7.82686174e-02 6.72668265e-03
      5.28201871e-02 2.38441322e-02 4.82831188e-02 1.01376362e-01
      4.81529422e-02 4.65052128e-02 6.94597214e-02 8.91550705e-02
      9.38826415e-04 1.08723715e-02 9.95546021e-03 4.31929268e-02
      3.21523994e-01 9.90246534e-02 3.18042003e-02 1.52825236e-01
      1.54193386e-01 4.38680574e-02 1.56524591e-02 1.81921825e-01
      3.68339360e-01 3.68339360e-01 1.31580189e-01 1.56809703e-01
      2.73122311e-01 2.75497496e-01 1.53559223e-01 1.68368027e-01
      2.91579753e-01 3.68339360e-01 2.62001976e-02 5.23963990e-03
      2.16955170e-02 7.59288296e-02 6.85079023e-02 5.38551807e-02
      1.02484403e-02 2.89267791e-03 4.36218493e-02 1.13265462e-01
      4.68173809e-02 7.21256211e-02 1.27025306e-01 4.43056040e-02
      2.68917028e-02 1.62556414e-02 7.98892346e-04 8.65663663e-02
      3.51496458e-01 8.73530358e-02 3.34546417e-02 3.50365671e-03
      9.88153741e-02 1.90577701e-01 6.05999269e-02 2.07386881e-01
      2.02319294e-01 3.91891927e-01 3.85124460e-02 1.19213713e-02
      6.65997108e-03 1.82774618e-01 2.73960084e-01 8.33194181e-02
      5.39528765e-02 3.91891927e-01 5.88604137e-02 1.03194170e-01
      2.43102945e-02 7.56671932e-03 8.87372866e-02 1.43907636e-01
      1.44187212e-01 5.52145168e-02 1.86061021e-02 6.74261153e-02
      3.39460373e-02 8.88650399e-03 1.78414863e-03 1.76747307e-01
      2.59496301e-01 3.09781998e-01 1.49705261e-01 1.12545446e-01
      1.24274381e-01 4.20892015e-02 6.42511994e-02 1.14450917e-01
      1.60061792e-01 2.64487892e-01 9.28673372e-02 4.73565049e-02
      2.88833648e-01 2.17889864e-02 1.91636290e-02 8.24904069e-02
      1.76301762e-01 3.19291741e-01 3.25254619e-01 6.54134527e-02
      4.88961637e-02 1.79747924e-01 5.13870195e-02 9.74340588e-02
      1.52468145e-01 2.98482716e-01 1.49839282e-01 1.43229082e-01
      6.32666647e-02 9.05283839e-02 1.27222553e-01 2.48431824e-02
      8.48668292e-02 2.95339912e-01 3.30608398e-01 2.67709523e-01
      1.12318687e-01 2.30327491e-02 2.06748825e-02 3.91271412e-02
      2.03205094e-01 1.19393945e-01 1.19663037e-01 1.80160567e-01
      2.25514561e-01 1.91142142e-01 7.06377476e-02 1.15535922e-01
      7.82100037e-02 1.10674538e-01 1.63284332e-01 1.56617418e-01
      2.59065449e-01 3.76400054e-01 8.11718032e-02 5.93545660e-02
      2.54246444e-02 8.16427916e-02 4.08789843e-01 1.89011961e-01
      7.86416009e-02 3.52877006e-02 2.67325100e-02 3.68287601e-02
      2.47506034e-02 1.13178626e-01 2.28512153e-01 2.66417742e-01
      2.92606622e-01 1.11567065e-01 1.24942407e-01 1.11834891e-01
      2.89935768e-02 1.99911669e-02 2.18285900e-02 1.19863525e-01 0. 0.
      5.01957629e-03 1.23881832e-01 3.94483745e-01 3.17082629e-02
      1.00688757e-02 2.58846767e-03 0. 3.62117332e-03 4.36889287e-03
      6.87966635e-03 1.79367781e-01 3.94483745e-01 4.01604995e-02 0.
      3.83778999e-04 4.22573695e-03 5.04148379e-03 2.96911807e-04
      5.84446825e-02 3.94483745e-01 3.94483745e-01 1.40115153e-02
      2.01334190e-02 1.13506019e-02 1.46912094e-02 7.42377294e-03
      3.35611310e-03 7.98048154e-02 3.94483745e-01 3.94483745e-01
      3.69018526e-03 0. 7.88692571e-03 3.29718702e-02</_>
    <_>
      3.30668699e-04 4.90216492e-03 5.93125680e-03 1.34381890e-01
      3.37343067e-01 2.82806791e-02 1.88002959e-02 6.26349449e-03
      3.30668699e-04 9.66547355e-02 3.65205668e-02 9.99563001e-03
      1.43024415e-01 4.05996889e-01 3.55157435e-01 8.26851279e-02
      1.32264122e-01 9.76681858e-02 5.54528572e-02 8.90836492e-02
      1.14738591e-01 1.57277197e-01 1.84686810e-01 1.90299414e-02
      7.59426281e-02 2.49879733e-02 4.90286537e-02 3.98098499e-01
      1.43727005e-01 2.12699816e-01 2.44509012e-01 2.45911554e-01
      5.36187813e-02 1.39548093e-01 1.15668297e-01 1.84934765e-01
      8.57350528e-02 7.09323734e-02 7.35390708e-02 2.31173053e-01
      6.91801757e-02 8.65740478e-02 2.82762870e-02 5.06242216e-02
      1.49199724e-01 1.25235662e-01 4.65561859e-02 9.48055014e-02
      1.87803134e-01 1.86773971e-01 1.50931418e-01 4.65741642e-02
      2.71573905e-02 1.57369614e-01 1.79535508e-01 1.75659806e-01
      1.86268762e-01 1.63074777e-01 2.20328212e-01 2.83104092e-01
      1.33689716e-01 5.26726507e-02 1.74798578e-01 1.88071221e-01
      7.04048276e-02 2.83104092e-01 2.38161311e-01 2.58958906e-01
      2.83104092e-01 2.10273817e-01 4.37219329e-02 2.56488502e-01
      1.51126638e-01 4.23836634e-02 1.36776388e-01 1.33571371e-01
      8.98361579e-02 1.00378342e-01 1.02677263e-01 1.72037482e-01
      1.33126169e-01 1.90475598e-01 1.24460205e-01 5.98369353e-02
      5.07130809e-02 1.69600606e-01 1.67935491e-01 5.65344393e-02
      2.19856307e-01 2.97055036e-01 2.60709703e-01 6.51754513e-02
      2.25272477e-01 1.08849205e-01 6.49657622e-02 7.55194947e-02
      1.11546084e-01 1.78026378e-01 3.03935617e-01 3.03935617e-01
      1.83067635e-01 5.15589193e-02 3.83411758e-02 9.37426239e-02
      1.09538257e-01 1.24707215e-01 2.55188406e-01 3.03935617e-01
      1.54520422e-01 8.44159201e-02 7.63083249e-03 4.77061570e-02
      1.60597265e-01 1.46776453e-01 2.45012298e-01 2.42103472e-01
      1.36638150e-01 1.93603098e-01 8.64836201e-02 0. 2.10467391e-02
      2.60628164e-01 1.25099972e-01 1.80800334e-01 2.60628164e-01
      2.38703191e-01 1.34578243e-01 9.07138884e-02 1.36306202e-02
      3.79805192e-02 8.35089758e-02 9.54288766e-02 2.60628164e-01
      2.16652691e-01 1.23989366e-01 2.34139636e-01 1.45774499e-01
      7.62496293e-02 3.87337767e-02 1.47554621e-01 1.59330681e-01
      2.28354290e-01 2.60628164e-01 2.60628164e-01 2.30044812e-01
      7.00478675e-03 1.02348812e-02 6.30855411e-02 2.78394222e-01
      1.98484600e-01 2.27608532e-01 9.17955786e-02 2.85931319e-01
      3.07523400e-01 8.97732526e-02 2.12228894e-02 2.74036471e-02
      4.01299372e-02 3.67151462e-02 5.04075438e-02 3.39761786e-02
      3.07523400e-01 2.46702716e-01 7.06572831e-03 1.04150968e-02
      2.70494595e-02 2.53184170e-01 9.64315012e-02 1.99411497e-01
      9.65244099e-02 3.07523400e-01 3.07523400e-01 3.76137458e-02
      4.35150415e-03 7.88726285e-03 4.33737226e-02 3.85675579e-02
      4.65674028e-02 3.07941679e-02 3.07523400e-01 1.88487619e-01
      1.54063210e-01 1.10467605e-01 1.24768518e-01 4.35329564e-02
      3.26796994e-02 2.86485404e-01 9.80438665e-02 1.77923113e-01
      2.13766187e-01 6.96526021e-02 4.75938618e-02 5.83672710e-02
      2.55746022e-02 2.99845319e-02 6.81192130e-02 5.82192354e-02
      1.37332633e-01 2.21134573e-01 3.13432291e-02 6.33351281e-02
      1.58062577e-01 7.78295174e-02 2.84943253e-01 3.24934661e-01
      2.22784847e-01 2.41724312e-01 8.12449604e-02 1.82631854e-02
      2.03017090e-02 1.10648006e-01 1.86725959e-01 3.24934661e-01
      3.24934661e-01 1.73151895e-01 1.52886659e-01 1.73216596e-01
      7.73409754e-02 5.71036749e-02 2.22974449e-01 1.29242137e-01
      2.59256270e-02 3.52857374e-02 3.21225151e-02 6.39416948e-02
      2.20970646e-01 2.14284912e-01 2.15481967e-01 2.69921482e-01
      1.92110240e-01 2.56752707e-02 6.51674569e-02 7.63733387e-02
      1.22314587e-01 2.00584382e-01 2.00065956e-01 2.69921482e-01
      2.69921482e-01 1.56744391e-01 1.77223478e-02 2.95205992e-02
      3.85831520e-02 9.11706164e-02 1.43956810e-01 2.69921482e-01
      2.69921482e-01 2.41009966e-01 9.89289582e-02 2.98346672e-02
      1.39242455e-01 2.08478704e-01 2.19934031e-01 1.50909021e-01
      2.14749366e-01 2.11552426e-01 1.83951437e-01 2.04408154e-01
      1.63211226e-01 1.65011972e-01 1.38403580e-01 1.51045784e-01
      1.63586676e-01 4.76085991e-02 8.11843127e-02 9.51518044e-02
      1.65819213e-01 1.73307374e-01 1.69505373e-01 1.57898739e-01
      2.32607052e-01 1.16569474e-01 1.19355865e-01 1.25715777e-01
      8.38291049e-02 3.33566487e-01 1.92788035e-01 1.81844950e-01
      1.92231253e-01 2.28678942e-01 4.30002101e-02 3.34920436e-02
      5.29198796e-02 1.10932194e-01 3.33566487e-01 8.19506720e-02
      1.01310179e-01 1.18872829e-01 1.40433639e-01 2.02699527e-01
      2.30968833e-01 1.82941720e-01 6.55795485e-02 9.98153389e-02
      5.88559620e-02 6.82492703e-02 5.62866218e-02 2.23091438e-01
      2.36418128e-01 3.89825970e-01 2.27350265e-01 1.33070931e-01
      1.80629566e-01 1.13081254e-01 2.46172827e-02 4.99152057e-02
      1.29161194e-01 6.37415573e-02 7.50168413e-02 5.89688942e-02
      3.76706421e-02 1.88405648e-01 1.85312271e-01 7.13285133e-02
      2.09120680e-02 3.43177579e-02 8.08909908e-02 9.92835611e-02
      8.18437487e-02 8.29932764e-02 4.01528329e-01 4.01528329e-01
      7.76385888e-02 5.12050698e-03 2.64059342e-02 1.56792343e-01
      1.56847432e-01 9.62652937e-02 7.00455382e-02 2.15849075e-02
      3.17491069e-02 8.52389336e-02 6.64913431e-02 1.46557987e-01
      2.32099771e-01 1.96567968e-01 1.50098026e-01 8.80828351e-02
      5.09308092e-02 4.42304537e-02 7.89928585e-02 6.98699653e-02
      9.08991247e-02 3.15842360e-01 2.00945899e-01 2.29195639e-01
      3.29866260e-01 3.29866260e-01 1.57870561e-01 1.60165846e-01
      9.49414447e-02 1.18832313e-01 9.22163948e-02 1.21208884e-01
      1.54267162e-01 1.51135027e-01 2.60990590e-01 2.67248660e-01
      2.05765262e-01 9.94371027e-02 7.98271969e-02 3.53922933e-01
      5.02206087e-02 3.76766995e-02 6.01549968e-02 5.98423630e-02
      1.19499743e-01 1.43374637e-01 1.20190568e-01 2.59946972e-01
      3.53922933e-01 7.33285621e-02 3.35103105e-04 9.31664463e-03
      3.96895371e-02 6.09924980e-02 3.53922933e-01 2.86346674e-01
      3.07476819e-01 1.31761298e-01 4.41325158e-02 3.67744081e-02
      1.42841697e-01 2.10672885e-01 8.97664428e-02 1.01653645e-02
      1.11602377e-02 7.88743198e-02 2.37173781e-01 6.49518818e-02
      5.73447114e-03 1.64570868e-01 1.84669256e-01 1.55354589e-01
      1.23682961e-01 1.25100628e-01 1.69294849e-01 6.42256588e-02
      3.11055835e-02 8.93356130e-02 2.83651143e-01 2.83651143e-01
      1.80372447e-01 1.19962908e-01 1.65468514e-01 2.64404528e-02
      3.44302170e-02 1.21139027e-02 6.86467588e-02 2.83651143e-01
      2.83651143e-01 1.73330352e-01 5.90399094e-02 1.18854582e-01
      3.45758796e-02 1.75804719e-01 1.25352204e-01 1.74598649e-01
      1.45685583e-01 2.54910380e-01 2.83651143e-01 1.51818201e-01
      1.95458516e-01 2.32218485e-02 8.96608084e-02 1.52622685e-01
      1.62829831e-01 2.07370982e-01 2.83651143e-01 1.80081278e-01
      6.27357513e-02 9.48320925e-02 1.16817914e-02 1.86524659e-01
      1.41967237e-01 1.17327906e-01 4.44649756e-02 1.10010870e-01
      2.41529062e-01 1.62118942e-01 5.09157218e-02 8.11280757e-02
      1.53222471e-01 2.67207950e-01 2.39111468e-01 1.07310109e-01
      1.38616428e-01 2.30082527e-01 1.85790792e-01 5.40975556e-02
      5.74370809e-02 1.90228641e-01 1.45978734e-01 2.43590295e-01
      8.45389366e-02 9.54765007e-02 1.58273369e-01 1.10138327e-01
      5.21936417e-02 9.17182937e-02 1.61121815e-01 2.57637352e-01
      2.67207950e-01 1.14861220e-01 1.63103148e-01 2.67207950e-01
      2.67038852e-01 1.24505669e-01 3.35328206e-02 5.48606515e-02
      8.47699195e-02 6.05433956e-02 5.22417016e-02 1.87525362e-01
      3.20896119e-01 3.20896119e-01 2.96214372e-02 1.12738155e-01
      1.86829094e-03 3.31776496e-03 3.57628725e-02 2.09537335e-02
      1.59178361e-01 2.34072059e-01 1.50519341e-01 7.75467698e-03
      4.19564843e-02 1.79495662e-02 5.46476133e-02 7.14364201e-02
      2.87870556e-01 3.20896119e-01 3.20896119e-01 2.81751841e-01
      3.53851803e-02 2.38479488e-02 3.53654288e-03 6.64217048e-04
      1.14860479e-02 1.43034264e-01 3.20896119e-01 3.20896119e-01
      1.18498467e-01 2.39881873e-03 1.14178639e-02 4.33057696e-02
      3.84030007e-02 6.70755506e-02 8.62909332e-02 5.87892197e-02
      8.64817724e-02 3.04293353e-02 2.85286214e-02 6.58677295e-02
      1.37210220e-01 2.79693753e-01 3.12256694e-01 2.93405622e-01
      1.58173367e-01 2.86756217e-01 5.44350520e-02 7.05923215e-02
      2.03501489e-02 5.23593575e-02 4.30399142e-02 2.61825137e-02
      4.82754484e-02 4.98201512e-02 5.33584356e-02 1.13319024e-01
      5.05861379e-02 2.95373239e-02 6.04491234e-02 1.16459206e-01
      2.34870777e-01 2.04786569e-01 2.47912139e-01 5.34301817e-01
      2.60264933e-01 8.82959813e-02 9.83785838e-03 5.06341644e-02
      2.37669703e-02 6.33587241e-02 2.92539328e-01 2.92539328e-01
      2.30689064e-01 3.52553502e-02 3.79713401e-02 5.21333255e-02
      5.03103063e-02 1.63813941e-02 7.61563927e-02 1.17776744e-01
      2.20436946e-01 2.92539328e-01 1.21253714e-01 7.18638375e-02
      8.50640908e-02 2.04250559e-01 5.74380979e-02 2.27909923e-01
      2.87211835e-01 2.92539328e-01 1.86656117e-01 8.10970291e-02
      4.76383455e-02 1.08458780e-01 8.53303298e-02 9.27708820e-02
      2.92539328e-01 2.92539328e-01 1.98336765e-01 1.55305669e-01
      4.45644632e-02 2.00871080e-02 5.51081337e-02 4.42839228e-02
      2.98957229e-01 3.00892919e-01 7.80600086e-02 5.77042960e-02
      5.78428358e-02 8.40310287e-03 4.26284177e-03 9.75062791e-03
      1.33333325e-01 1.05948299e-01 1.61002100e-01 6.17213547e-02
      2.37846076e-01 3.00892919e-01 8.40411112e-02 2.02799782e-01
      1.91976860e-01 4.30426672e-02 2.83918589e-01 2.74972826e-01
      1.15468696e-01 1.54751003e-01 1.25527978e-01 3.32247987e-02
      5.52523322e-02 2.26004757e-02 9.45324823e-02 7.14263991e-02
      9.02844816e-02 1.69957668e-01 3.00892919e-01 3.00892919e-01
      1.01571918e-01 1.88213870e-01 1.32713586e-01 1.83902122e-02
      2.91865715e-03 5.59473736e-03 2.61505432e-02 9.33237001e-02
      3.15940201e-01 2.99142957e-01 9.86369178e-02 1.09179728e-02
      5.64796031e-02 9.02034529e-03 6.76982431e-03 6.63390160e-02
      1.31437525e-01 3.15940201e-01 3.15940201e-01 2.13737562e-01
      1.59626137e-02 1.72067098e-02 6.17652852e-03 2.24902201e-02
      6.73731565e-02 1.72498181e-01 2.84382284e-01 1.97165936e-01
      7.98564106e-02 1.26003921e-02 3.16535942e-02 2.10640673e-03
      1.47845130e-02 1.28353328e-01 3.15940201e-01 3.15940201e-01
      2.86859334e-01 2.35953361e-01 2.51698550e-02 3.48276757e-02
      3.62886302e-02 5.40615581e-02 1.56734392e-01 1.73803270e-01
      1.07452996e-01 1.48979113e-01 3.01627740e-02 3.08808051e-02
      8.06445703e-02 1.28450170e-01 2.09603757e-01 2.98322052e-01
      3.20118874e-01 2.94631153e-01 1.81268439e-01 7.53868297e-02
      4.78873663e-02 2.28943918e-02 2.53857113e-02 7.75475726e-02
      8.64589289e-02 2.20461026e-01 1.83836639e-01 7.17146248e-02
      3.75629738e-02 3.73975821e-02 4.36584577e-02 7.46984929e-02
      1.32922739e-01 1.44182608e-01 3.20118874e-01 3.20118874e-01
      1.82365552e-01 3.20118874e-01 1.52587533e-01 4.48500626e-02
      5.86684272e-02 2.09665999e-01 3.62810642e-01 3.39918107e-01
      8.77067745e-02 1.61392484e-02 7.51743913e-02 4.06328924e-02
      1.20506575e-02 2.31803209e-03 4.66491170e-02 3.62810642e-01
      2.16184855e-01 2.15288009e-02 1.76276881e-02 2.05354337e-02
      1.21447006e-02 1.26444817e-01 7.37918168e-02 3.14244121e-01
      3.62810642e-01 2.65748471e-01 7.24902302e-02 6.18161038e-02
      1.03729941e-01 1.80078261e-02 9.14450083e-03 2.00215038e-02
      7.05939978e-02 3.62810642e-01 1.21731371e-01 7.52058104e-02
      4.31221426e-02 1.99007001e-02 8.17082450e-03 1.52340770e-01
      9.56769213e-02 5.25630526e-02 1.83574036e-02 6.13540225e-02
      1.43614020e-02 4.48479392e-02 6.53166100e-02 7.74859488e-02
      1.87650114e-01 1.69772923e-01 3.01041752e-01 1.25039935e-01
      7.26822689e-02 3.93116698e-02 6.64604232e-02 4.35175374e-02
      6.16111942e-02 1.60628065e-01 1.25275508e-01 8.05553049e-02
      3.16211879e-02 7.05180392e-02 6.02014456e-03 4.71727811e-02
      7.23197684e-02 5.64863198e-02 1.49418652e-01 1.27851710e-01
      4.33685690e-01 3.64931792e-01 4.68531191e-01 2.24017382e-01
      2.20521495e-01 1.01838693e-01 4.36198488e-02 1.85322493e-01
      3.63696925e-02 9.25679877e-02 5.79220466e-02 1.80934165e-02
      7.21473619e-02 8.20193365e-02 8.10298845e-02 1.71123460e-01
      7.59865418e-02 4.05037701e-02 3.92445959e-02 9.56334323e-02
      8.50424543e-02 1.18652128e-01 1.16664104e-01 1.03554681e-01
      8.89380351e-02 2.61541754e-01 1.70037095e-02 1.51953623e-01
      3.08682770e-01 3.08682770e-01 3.08682770e-01 1.48921460e-01
      1.09194100e-01 2.19115123e-01 8.26746598e-02 2.15181690e-02
      7.08168969e-02 2.14404315e-01 2.48999327e-01 3.08682770e-01
      3.08682770e-01 2.11195678e-01 1.19805261e-01 1.18426280e-02
      5.34555092e-02 7.20024928e-02 1.17232852e-01 1.64529428e-01
      1.24949642e-01 9.83052254e-02 6.55962378e-02 3.67767401e-02 0.
      6.57623559e-02 2.42211998e-01 2.74954468e-01 3.28433335e-01
      2.27889284e-01 3.17339674e-02 1.41226305e-02 1.43747497e-03
      9.77876596e-03 3.86686251e-02 9.10095647e-02 1.44465193e-01
      1.93396613e-01 1.36135325e-01 2.73720831e-01 1.76800609e-01
      9.51777548e-02 2.60200761e-02 8.32757503e-02 3.18830013e-01
      3.28433335e-01 3.28433335e-01 1.67786881e-01 1.29792273e-01
      2.04368711e-01 5.91919757e-02 1.50414591e-03 3.65635678e-02
      1.03942335e-01 2.38269836e-01 1.88056827e-01 8.26786384e-02
      4.67341254e-03 0. 0. 2.00497340e-02 2.65450142e-02 1.47625417e-01
      3.20818990e-01 3.37769836e-01 1.97521582e-01 1.22562852e-02 0.
      1.96736977e-02 9.65838414e-03 5.07595353e-02 3.37769836e-01
      3.37769836e-01 9.91706923e-02 4.06579413e-02 1.28659979e-02
      6.21960592e-03 5.23488922e-03 1.98663138e-02 1.07319348e-01
      3.37769836e-01 3.37769836e-01 3.37769836e-01 8.78922865e-02
      3.79387029e-02 0. 1.06331613e-02 4.79796678e-02 3.76451239e-02
      3.64865214e-02 8.59677494e-02 2.61031955e-01 1.99967667e-01
      5.04052378e-02 5.11116087e-02 5.15267216e-02 2.73438185e-01
      1.47736996e-01 1.28617793e-01 1.68048814e-01 2.61523575e-01
      1.33149043e-01 6.12920634e-02 1.20207533e-01 1.24293394e-01
      1.25547752e-01 8.34011286e-03 3.37343267e-03 7.55052269e-02
      2.87263036e-01 2.24269286e-01 7.62126073e-02 9.40451249e-02
      1.02389090e-01 2.87263036e-01 9.46208164e-02 7.07424134e-02
      1.31151348e-01 2.87263036e-01 1.80839106e-01 2.25822553e-01
      2.56290704e-01 2.87263036e-01 1.90828353e-01 1.94440305e-01
      1.52919471e-01 2.84079462e-01 2.30832636e-01 6.38974980e-02
      5.00409380e-02 1.20447703e-01 1.13440879e-01 2.08357275e-02
      3.16879638e-02 9.37765092e-02 1.38346508e-01 1.26651108e-01
      1.55058444e-01 2.59168595e-01 1.74894705e-01 1.96239855e-02
      1.97707206e-01 1.86031491e-01 3.25182319e-01 1.63426355e-01
      1.71329990e-01 8.32161009e-02 1.45705819e-01 6.16425909e-02
      1.40020445e-01 2.55900651e-01 2.08185673e-01 1.61980286e-01
      1.37259111e-01 5.29036261e-02 8.08337927e-02 1.99750915e-01
      1.41026691e-01 2.29885325e-01 2.91546639e-02 5.72252199e-02
      6.49874285e-02 7.89949447e-02 3.16347480e-02 2.20231973e-02
      1.01632491e-01 9.08880457e-02 1.06542977e-02 1.04403138e-01
      1.64156288e-01 1.82489917e-01 1.92798927e-01 4.19554487e-02
      4.06860784e-02 1.02360614e-01 1.12277828e-01 7.82491192e-02
      3.19264561e-01 2.04997614e-01 9.30314511e-02 9.57582071e-02
      4.38322313e-02 3.07472572e-02 1.43985644e-01 1.25202551e-01
      1.77427441e-01 3.84446770e-01 3.17411870e-01 2.59465009e-01
      1.56205416e-01 9.10553858e-02 4.52761427e-02 1.32037163e-01
      3.84446770e-01 2.68438280e-01 1.08023956e-01 5.09712920e-02
      8.48190114e-02 1.20639764e-01 2.88703889e-01 2.88703889e-01
      5.44027686e-02 1.03371039e-01 2.88703889e-01 8.65197033e-02
      1.01187833e-01 2.75000274e-01 1.87049061e-01 1.43241793e-01
      8.30590576e-02 4.45250468e-03 5.29661402e-02 1.87435433e-01
      2.81836331e-01 6.99702650e-02 6.80708066e-02 1.03576705e-01
      5.61814755e-02 2.04791427e-01 9.92661566e-02 1.30421177e-01
      2.88703889e-01 2.32005268e-01 1.39253333e-01 1.70207828e-01
      2.09190413e-01 5.23746535e-02 7.14539140e-02 1.80903748e-02
      1.44433111e-01 2.71492690e-01 3.87615338e-02 1.43215433e-02
      5.99177880e-03 6.27619680e-03 7.20563869e-04 2.10931636e-02
      2.03679010e-01 3.34260672e-01 1.30230382e-01 2.04073101e-01
      2.55403459e-01 1.14690579e-01 5.23702130e-02 9.74325091e-03
      1.74725521e-02 9.03934166e-02 2.17977852e-01 1.88503787e-01
      1.52258113e-01 1.38898656e-01 1.63213044e-01 2.98138745e-02
      1.48739656e-02 3.17502161e-03 1.42403707e-01 1.45683348e-01
      2.04603687e-01 3.34260672e-01 3.34260672e-01 3.34260672e-01
      3.02539840e-02 5.55655097e-05 4.57045535e-04 7.45143071e-02
      5.36302626e-02 3.34260672e-01 2.47281771e-02 1.93320423e-01
      1.17675714e-01 4.47602533e-02 2.02849969e-01 7.15114996e-02
      1.26756150e-02 7.02910032e-03 1.10533834e-01 4.64755669e-02
      9.89615470e-02 6.77359253e-02 2.02826172e-01 2.83297896e-01
      2.42162228e-01 1.17034242e-02 8.69918521e-03 1.86013371e-01
      2.83297896e-01 2.22276717e-01 1.57314792e-01 6.10591918e-02
      1.31413594e-01 8.82069841e-02 2.08476689e-02 2.74049747e-03
      2.83297896e-01 2.00351343e-01 1.33327827e-01 1.22484967e-01
      2.83297896e-01 2.83297896e-01 2.83297896e-01 9.48913321e-02
      1.61747728e-02 2.57683337e-01 5.79161756e-02 7.84971416e-02
      1.10313021e-01 1.95791557e-01 1.02217793e-01 5.95362447e-02
      1.14919707e-01 1.67836562e-01 8.47223550e-02 1.16296157e-01
      7.59330243e-02 5.03790006e-02 8.35966542e-02 8.32772404e-02
      2.06684515e-01 3.35744709e-01 3.33155930e-01 2.71530718e-01
      2.01360416e-02 7.81776384e-02 9.15893316e-02 3.35744709e-01
      2.10948750e-01 2.60867719e-02 8.24713558e-02 5.50375096e-02
      1.44961672e-02 2.28367835e-01 1.66732222e-01 3.94154787e-02
      7.86433145e-02 1.45533189e-01 1.22115389e-01 3.35744709e-01
      2.55404115e-01 1.16506331e-01 1.60370246e-01 2.69469529e-01
      4.37189601e-02 6.20939806e-02 3.46026383e-02 1.22771800e-01
      6.25063479e-02 1.57036737e-01 1.49364606e-01 2.85332918e-01
      2.85332918e-01 3.51515785e-02 7.36907572e-02 9.47550163e-02
      1.38023958e-01 1.45031959e-01 1.44329786e-01 2.85332918e-01
      1.72812626e-01 2.85332918e-01 7.18718488e-03 2.73254681e-02
      9.69763100e-02 1.39220059e-01 6.79509640e-02 6.54181838e-02
      2.14240626e-01 1.94703966e-01 1.08151786e-01 9.56316420e-04
      1.14210069e-01 2.69180834e-01 2.29466617e-01 1.28399655e-01
      1.54177293e-01 2.85332918e-01 2.99579114e-01 1.78551063e-01
      6.59144893e-02 5.09694107e-02 5.92562407e-02 3.35838646e-02
      1.00937478e-01 1.43084064e-01 2.99579114e-01 2.99579114e-01
      2.36837953e-01 1.74054265e-01 6.54520765e-02 1.81583583e-01
      1.32277310e-01 3.32663395e-02 9.01836976e-02 2.99579114e-01
      2.64057249e-01 6.49919882e-02 5.17356209e-02 9.34400484e-02
      2.20458075e-01 3.14363204e-02 5.00426479e-02 4.37162220e-02
      2.04854697e-01 2.99579114e-01 1.79549009e-01 9.36526209e-02
      2.24586390e-02 1.52455419e-01 1.08985223e-01 4.40108180e-02
      4.82435748e-02 2.48067006e-01 3.08665723e-01 1.66386530e-01
      2.60955960e-01 1.25262573e-01 1.43328592e-01 7.23559707e-02
      5.39438985e-02 8.74856636e-02 2.66841561e-01 3.08665723e-01
      2.17915505e-01 3.08665723e-01 1.44233733e-01 2.59322822e-01
      4.88054045e-02 3.18479203e-02 1.37021631e-01 3.08665723e-01
      1.99739426e-01 7.53136575e-02 8.60547945e-02 9.21760723e-02
      1.18991069e-01 1.72808971e-02 2.98284236e-02 5.26781231e-02
      1.71804279e-01 2.09423095e-01 3.29486281e-02 4.81630564e-02
      4.76754159e-02 1.62926957e-01 1.97192002e-02 1.54017741e-02
      2.74450704e-02 2.29168609e-01 6.01047985e-02 6.36645108e-02
      8.42428878e-02 1.69912308e-01 2.45706007e-01 2.30624557e-01
      1.26284838e-01 3.53731588e-03 2.82789487e-02 1.56194285e-01
      2.09744558e-01 1.27552092e-01 1.97971150e-01 2.09643766e-01
      3.24394882e-01 2.72018850e-01 4.36980650e-02 5.52183278e-02
      2.28553396e-02 1.77806076e-02 4.91089337e-02 4.46259081e-02
      1.90832660e-01 2.66036630e-01 2.38178656e-01 9.43645544e-04
      6.14685379e-03 5.98228760e-02 2.97582243e-03 1.54127879e-02
      3.92443873e-02 2.62958229e-01 3.24394882e-01 3.24394882e-01
      4.16813567e-02 1.22082330e-01 5.02355695e-02 2.51822118e-02
      8.96515027e-02 1.88724756e-01 7.44324103e-02 5.42443134e-02
      8.61666501e-02 1.16868757e-01 1.07277326e-01 1.16277814e-01
      3.41044813e-02 2.44802177e-01 3.04601759e-01 1.37788281e-01
      1.47481561e-01 1.65971190e-01 1.00853182e-01 2.34823525e-01
      2.02689730e-02 3.54601890e-02 1.53820679e-01 2.02161640e-01
      2.18349993e-01 8.11303183e-02 1.28047466e-01 1.82906985e-01
      1.29490852e-01 6.62766546e-02 5.17087057e-02 3.04601759e-01
      3.04601759e-01 3.04601759e-01 2.85944343e-01 2.09014818e-01
      7.80751184e-02 6.35874048e-02</_>
    <_>
      1.46920338e-01 2.87776053e-01 2.87776053e-01 5.36879003e-02
      4.53195274e-02 1.20019699e-02 7.45019584e-04 1.83436107e-02
      1.18449122e-01 2.87776053e-01 2.87776053e-01 2.18961537e-01
      5.46493866e-02 7.65095875e-02 3.13231349e-02 1.38564650e-02
      1.39646977e-02 2.10148871e-01 1.34684548e-01 2.23566860e-01
      2.87776053e-01 9.70195606e-02 9.98738706e-02 2.96336543e-02
      2.22968131e-01 4.52749468e-02 1.89129025e-01 2.14994147e-01
      2.87776053e-01 1.95225969e-01 1.52894661e-01 1.71197385e-01
      1.11688875e-01 1.14963502e-01 5.53449616e-02 1.23241499e-01
      4.15459633e-01 4.01806474e-01 3.00798360e-02 2.11276370e-03
      1.04023986e-01 1.29724098e-02 9.36326291e-03 1.47388168e-02
      4.15459633e-01 4.15459633e-01 4.15459633e-01 1.27410395e-02
      3.86323896e-03 7.29945973e-02 0. 1.94234622e-03 3.18682119e-02
      3.05677891e-01 7.11681992e-02 3.06379423e-02 2.73737349e-02
      1.16830524e-02 8.55791494e-02 3.17520462e-02 7.39410007e-03
      1.61332265e-02 7.99966455e-02 6.53390661e-02 3.67429964e-02
      1.25270328e-02 1.54529512e-02 4.25131470e-02 0. 4.85586497e-04
      4.54747910e-03 4.50350791e-02 3.95342529e-01 5.58428541e-02 0. 0.
      1.67488195e-02 0. 2.98045413e-03 1.27642453e-01 4.13384169e-01
      4.13384169e-01 2.25702479e-01 3.58477398e-03 5.53017808e-03
      3.89410928e-02 6.92058960e-03 4.04900638e-03 8.54673907e-02
      2.71148771e-01 2.62371659e-01 8.96806940e-02 3.68811935e-03 0. 0.
      0. 3.10157076e-03 3.67483720e-02 1.38425514e-01 4.13384169e-01
      5.71040213e-02 4.32079891e-03 3.68678453e-03 4.30012215e-03
      3.69413709e-03 2.06017457e-02 3.08249202e-02 2.67780155e-01
      4.65728939e-02 3.42778005e-02 2.36557201e-02 2.60768253e-02
      6.65654689e-02 6.45627752e-02 1.95935443e-01 1.31160334e-01
      1.31476954e-01 1.68864563e-01 1.35641783e-01 1.59059390e-01
      8.28563794e-02 1.59388900e-01 4.96074371e-02 3.14837664e-01
      1.93048462e-01 1.29727885e-01 1.67336956e-01 1.01393946e-02
      1.47239845e-02 6.80389116e-03 7.32391402e-02 4.45310809e-02
      4.35337275e-02 8.98853466e-02 3.14837664e-01 2.01626271e-01
      1.60317183e-01 2.35023156e-01 1.55789211e-01 3.14837664e-01
      1.38414040e-01 2.08392248e-01 3.14837664e-01 3.14837664e-01
      4.74159867e-02 8.77725333e-02 2.62069762e-01 1.79611400e-01
      1.71589002e-01 2.36904189e-01 1.62173793e-01 1.10781819e-01
      9.38527584e-02 5.08954339e-02 8.50060806e-02 1.38348475e-01
      1.08518139e-01 2.62069762e-01 2.62069762e-01 2.62069762e-01
      1.17909729e-01 1.14714354e-01 6.24464005e-02 1.01259008e-01
      1.88920185e-01 1.01538777e-01 7.79675990e-02 9.54388902e-02
      2.11998582e-01 1.94724560e-01 1.50775746e-01 7.89577812e-02
      8.65167081e-02 1.30080789e-01 8.20112154e-02 2.45206743e-01
      2.62069762e-01 2.55705804e-01 1.66176915e-01 1.98983520e-01
      2.75235088e-03 6.80627162e-03 6.17474690e-03 3.95846330e-02
      2.03122064e-01 2.97850430e-01 2.97850430e-01 5.88031374e-02
      3.22994980e-04 1.22424485e-02 2.90517155e-02 7.09802657e-02
      1.28419772e-01 4.60621491e-02 1.69307798e-01 2.97850430e-01
      9.73892808e-02 3.60915847e-02 1.69864431e-01 2.86308117e-02
      6.01369664e-02 1.44023985e-01 2.22442731e-01 2.17726767e-01
      2.97850430e-01 1.17209084e-01 1.16024897e-01 7.15675056e-02
      3.30011025e-02 1.84538200e-01 2.97850430e-01 2.97850430e-01
      1.32705271e-01 2.97850430e-01 1.62536010e-01 5.59803881e-02
      1.48799330e-01 3.39000337e-02 3.60966586e-02 1.73390120e-01
      1.23016790e-01 3.81635986e-02 1.64978504e-01 2.15838432e-01
      2.67343014e-01 8.50970298e-02 7.18781576e-02 1.77524850e-01
      2.59790778e-01 1.79635569e-01 1.04480840e-01 1.71655834e-01
      2.67343014e-01 1.81276783e-01 2.06702635e-01 7.12470189e-02
      9.29506421e-02 1.00244567e-01 1.07718386e-01 5.32318614e-02
      8.59063938e-02 2.46284872e-01 2.67343014e-01 8.89380798e-02
      9.42847058e-02 1.56658411e-01 1.61739349e-01 1.82448626e-01
      1.71319753e-01 1.45563126e-01 2.67343014e-01 2.21743390e-01
      1.40118012e-02 9.87167209e-02 9.13262889e-02 4.64557111e-02
      3.15968573e-01 6.61416873e-02 1.70224831e-02 6.15117475e-02
      2.07870957e-02 1.25973159e-02 3.46109122e-01 3.53242666e-01
      3.55983339e-03 4.10190411e-03 0. 0. 0. 3.53228650e-03
      5.22379577e-02 2.90244043e-01 3.53242666e-01 1.18126467e-01
      3.15500826e-01 1.87842444e-01 5.18764369e-02 5.73561043e-02
      9.22048837e-03 3.23864259e-02 3.53242666e-01 3.53242666e-01
      7.30463490e-02 4.71574516e-04 0. 0. 0. 3.47391120e-04
      3.55065882e-01 3.55065882e-01 7.10630119e-02 0. 4.33894922e-04
      5.84538886e-03 8.85636732e-03 7.46396696e-03 4.97498289e-02
      3.55065882e-01 1.31302714e-01 1.10668473e-01 1.25963494e-01
      2.10541710e-01 2.75630783e-02 6.30837381e-02 3.30015756e-02
      1.67341083e-01 2.59086668e-01 2.07722574e-01 3.43825966e-02
      6.76689146e-04 4.95812185e-02 4.76675592e-02 1.39996270e-02
      2.11878046e-02 8.58404115e-02 2.03602627e-01 9.22939703e-02
      7.31677562e-02 3.55065882e-01 3.55065882e-01 1.97327092e-01
      7.75107965e-02 3.46869193e-02 9.59699824e-02 1.46732092e-01
      1.60030648e-01 2.31714055e-01 7.69151449e-02 5.26547339e-03
      8.36711079e-02 6.57955706e-02 1.10882208e-01 2.51212686e-01
      1.21550895e-01 6.14340901e-02 3.99096645e-02 3.37732537e-03
      1.28159281e-02 1.47912368e-01 1.08689167e-01 2.91429698e-01
      2.91429698e-01 1.19183220e-01 2.51743197e-01 2.91429698e-01
      6.21737503e-02 1.92909241e-01 2.56617516e-01 2.26053819e-01
      1.86328292e-01 1.74596846e-01 5.20748794e-02 7.58362263e-02
      1.00421190e-01 8.78826529e-02 1.70009494e-01 2.82614708e-01
      1.84013128e-01 9.77405310e-02 1.24517702e-01 3.82673815e-02
      2.38346457e-02 1.14857899e-02 6.46468252e-03 7.13486150e-02
      1.60291225e-01 3.56596500e-01 3.02305043e-01 1.27889737e-01
      2.41763778e-02 2.29861345e-02 5.20326421e-02 5.34391254e-02
      9.07598138e-02 2.10558638e-01 3.56596500e-01 2.87574500e-01
      1.89927742e-01 1.45863909e-02 4.40244190e-03 1.40127148e-02
      1.20450482e-02 5.72976619e-02 6.90822676e-02 2.10652336e-01
      2.26536930e-01 7.46150687e-02 0. 2.55779526e-03 2.88417730e-02
      2.56326906e-02 1.21213958e-01 2.52153635e-01 3.56596500e-01
      3.25854301e-01 1.89552791e-02 8.85781795e-02 5.81717826e-02
      6.33878335e-02 5.97191453e-02 2.11146086e-01 2.67358661e-01
      1.35709167e-01 1.13976061e-01 4.60987166e-02 4.25074697e-02
      2.76835393e-02 9.99003276e-02 1.46039739e-01 2.96999574e-01
      2.96999574e-01 1.04413606e-01 1.73478108e-02 2.49861367e-02
      6.85580224e-02 7.26862475e-02 1.00706093e-01 6.00135326e-02
      2.89343864e-01 2.96999574e-01 2.96999574e-01 1.46438867e-01
      6.45571761e-03 3.24362852e-02 3.82887721e-02 5.31629063e-02
      1.76243782e-01 2.96999574e-01 2.96999574e-01 2.96999574e-01
      9.93808545e-03 3.78919090e-03 4.38998751e-02 7.37626180e-02
      1.40140101e-01 2.09660456e-01 2.39682138e-01 1.27839431e-01
      1.24068998e-01 5.51132411e-02 8.30001682e-02 7.60894790e-02
      1.24832563e-01 2.33455315e-01 1.22910216e-01 1.22742765e-01
      1.55521557e-01 9.60628688e-02 9.80015397e-02 1.05499439e-01
      2.63552278e-01 1.41590968e-01 1.37409061e-01 1.59378886e-01
      1.17535889e-01 1.15144148e-01 2.63552278e-01 1.38050780e-01
      2.63552278e-01 1.25088856e-01 2.36890405e-01 2.63552278e-01
      8.90714377e-02 1.93947777e-01 2.63552278e-01 2.63552278e-01
      1.15147188e-01 9.64444876e-02 2.40684170e-02 1.02030262e-01
      3.41750950e-01 3.41750950e-01 1.68088511e-01 9.01025832e-02
      2.71680579e-02 1.91620458e-02 1.15022492e-02 2.49132831e-02
      1.17654003e-01 3.41750950e-01 2.02060625e-01 1.48355328e-02
      9.17134434e-03 1.15780320e-04 5.22263697e-04 6.92580885e-04
      2.79581755e-01 3.41750950e-01 3.41750950e-01 2.74646759e-01
      7.16451705e-02 5.43668829e-02 9.82068926e-02 6.24665096e-02
      2.27597933e-02 1.32125840e-01 2.12172985e-01 2.00741321e-01
      1.18506737e-01 2.28250884e-02 4.96049747e-02 3.68182585e-02
      9.69290510e-02 4.60741371e-02 8.46634358e-02 7.98932388e-02
      1.39228432e-02 1.39453413e-03 1.71133757e-01 6.16564192e-02
      3.57087068e-02 3.45513746e-02 3.41193751e-02 4.53213304e-02
      7.83709139e-02 1.20624658e-02 1.21535435e-01 4.12424564e-01
      2.41402924e-01 3.08296561e-01 4.12424564e-01 6.01894297e-02
      1.15536749e-01 4.33343723e-02 1.86956413e-02 5.88284852e-03
      3.67710516e-02 3.54900248e-02 6.11477010e-02 6.16795197e-02
      7.63947964e-02 1.07471846e-01 3.14879641e-02 1.74013507e-02
      3.92189855e-03 1.24103218e-01 1.04600534e-01 4.12424564e-01
      4.12424564e-01 1.19054258e-01 2.46027574e-01 7.14935511e-02
      6.54147193e-02 1.55928791e-01 1.56423345e-01 1.12929806e-01
      9.31656361e-02 2.29298115e-01 1.43876821e-01 5.23372442e-02
      1.40850581e-02 4.47423644e-02 2.25652218e-01 2.80255795e-01
      1.04197018e-01 5.09269051e-02 8.00866708e-02 7.73043185e-02
      1.30746782e-01 4.82451841e-02 2.94139907e-02 2.90345103e-02
      7.22548887e-02 2.76197717e-02 1.63397759e-01 3.59070510e-01
      3.59070510e-01 1.74204901e-01 1.14344373e-01 3.30704711e-02
      9.61424857e-02 1.36762232e-01 3.96266244e-02 7.12017044e-02
      3.21008891e-01 3.59070510e-01 8.14731233e-03 1.57255251e-02
      9.31806117e-03 4.09770422e-02 5.66916279e-02 9.21019092e-02
      2.60149121e-01 1.01952225e-01 3.17128040e-02 4.63472074e-03
      3.92919928e-02 1.29502090e-02 1.65186375e-02 3.61326188e-02
      1.78858787e-01 4.17595685e-01 1.90711290e-01 1.64710451e-02
      7.28432015e-02 8.72411877e-02 3.11340149e-02 3.21356282e-02
      9.89325494e-02 7.41835311e-02 2.79608876e-01 4.17595685e-01
      2.42017433e-01 1.43272355e-01 4.09354866e-01 2.14897349e-01
      8.50140601e-02 8.02592933e-02 1.15238234e-01 1.11110240e-01
      1.20823056e-01 1.64690569e-01 1.36885494e-01 1.52663901e-01
      7.78280720e-02 7.30458647e-02 9.37638953e-02 1.77647918e-01
      1.30982205e-01 2.33843297e-01 6.17506951e-02 1.75215468e-01
      2.32808262e-01 4.41522412e-02 1.89548269e-01 3.37792337e-01
      2.84668207e-01 1.00767449e-01 8.91300291e-02 1.05752014e-01
      4.80721928e-02 3.06175556e-02 1.48191396e-02 3.34604904e-02
      8.05989206e-02 2.88273126e-01 2.32606843e-01 9.02104005e-02
      3.49274017e-02 1.02409653e-01 9.48146880e-02 7.94898123e-02
      9.89890322e-02 1.77302033e-01 3.37792337e-01 3.37792337e-01
      1.08532183e-01 1.23771407e-01 8.21874216e-02 6.67134672e-02
      1.07100770e-01 1.94410324e-01 2.18923330e-01 2.38707304e-01
      1.33179188e-01 3.80090810e-03 1.01094889e-02 4.56410311e-02
      2.79699355e-01 2.79699355e-01 2.72616178e-01 2.79699355e-01
      1.79130942e-01 1.07993245e-01 2.63194721e-02 2.42018383e-02
      1.18988030e-01 1.14070222e-01 1.08164564e-01 2.45056584e-01
      1.05307430e-01 1.00386322e-01 1.05088070e-01 2.43282672e-02
      5.45232855e-02 1.25950366e-01 2.66722918e-01 2.06121460e-01
      2.79699355e-01 2.79699355e-01 1.18571319e-01 8.13321173e-02
      5.47374301e-02 1.16287045e-01 9.66339484e-02 1.09096073e-01
      9.82291996e-02 2.01431423e-01 1.03826500e-01 1.46285266e-01
      2.98250020e-01 1.11318968e-01 2.15814654e-02 5.40938266e-02
      3.23020741e-02 4.49514948e-03 7.85427392e-02 1.33921102e-01
      2.51724303e-01 2.98250020e-01 1.43308595e-01 1.21836238e-01
      1.39015526e-01 9.68524888e-02 8.13079849e-02 1.77223518e-01
      2.00196311e-01 1.11199461e-01 2.23096117e-01 5.09106405e-02
      4.50078137e-02 1.46185011e-01 2.32038081e-01 8.99002925e-02
      2.41952717e-01 2.72864699e-01 2.86164552e-01 2.98250020e-01
      4.65235598e-02 1.13652468e-01 7.56421983e-02 1.90829739e-01
      2.43381962e-01 2.07714856e-01 7.74903744e-02 4.52687182e-02
      3.34012806e-02 4.92672957e-02 7.51062557e-02 1.55539304e-01
      1.48932934e-01 1.05206557e-01 6.04674593e-02 4.81624529e-02
      9.55502242e-02 2.00439572e-01 1.05631486e-01 1.53311163e-01
      1.59060895e-01 1.09843001e-01 2.58355975e-01 2.69485414e-01
      2.05414712e-01 2.69485414e-01 1.24896936e-01 5.23594283e-02
      1.62171274e-01 2.13792637e-01 2.44458362e-01 1.42435521e-01
      1.89332798e-01 1.72753200e-01 2.69485414e-01 2.69485414e-01
      3.01533714e-02 1.19881824e-01 3.58709320e-02 5.13236551e-03
      1.23584166e-03 3.02878190e-02 1.82559103e-01 3.39650124e-01
      1.50666997e-01 1.39684081e-01 9.06198397e-02 2.20217124e-01
      5.97616360e-02 2.41440218e-02 2.65553780e-02 2.45394170e-01
      1.70811430e-01 1.72811776e-01 3.39650124e-01 3.39650124e-01
      3.88067737e-02 4.19408232e-02 4.84993719e-02 1.33472398e-01
      2.22154245e-01 1.94936365e-01 7.94210657e-02 4.42367010e-02
      5.86330798e-03 1.93038955e-01 1.05767839e-01 3.40278260e-02
      4.22090068e-02 1.52395964e-01 1.19574614e-01 2.23327368e-01
      3.39650124e-01 1.36703297e-01 7.03137219e-02 2.47197561e-02
      4.96071465e-02 2.37728860e-02 1.36388227e-01 1.01649277e-01
      3.19242924e-01 1.62795216e-01 4.71559837e-02 8.91239420e-02
      9.53139439e-02 1.62095115e-01 1.22680038e-01 1.11723967e-01
      1.46162897e-01 3.19242924e-01 5.42373024e-02 1.03435718e-01
      3.99798267e-02 1.92522891e-02 9.56275761e-02 7.45356977e-02
      1.67652875e-01 1.66930482e-01 2.94549018e-01 8.20984095e-02
      1.99087821e-02 2.03928933e-01 3.19242924e-01 3.19242924e-01
