<?xml version="1.0"?>
<opencv_storage>
<opencv_ml_svm>
  <format>3</format>
  <svmType>C_SVC</svmType>
  <kernel>
    <type>LINEAR</type></kernel>
  <C>1.</C>
  <term_criteria><iterations>100000</iterations></term_criteria>
  <var_count>1764</var_count>
  <class_count>2</class_count>
  <class_labels type_id="opencv-matrix">
    <rows>2</rows>
    <cols>1</cols>
    <dt>i</dt>
    <data>
      0 1</data></class_labels>
  <sv_total>1</sv_total>
  <support_vectors>
    <_>
      -9.24037024e-03 -6.58714352e-03 -1.05417892e-02 -5.03908936e-03
      -3.89507739e-03 -8.77676124e-04 -1.69053220e-03 -2.62676901e-03
      -9.52249486e-03 -1.49316033e-02 -7.29738642e-03 -1.23292701e-02
      -6.22490933e-03 -6.27888506e-03 -1.03259843e-03 -2.67489487e-03
      -5.57708647e-03 -1.64321959e-02 -3.89187317e-03 -6.49697660e-03
      -1.06609706e-02 -7.23572075e-03 -1.02816503e-02 -1.71468395e-03
      -8.68492702e-04 -1.26703503e-03 -3.69722396e-03 -7.56258424e-03
      -1.05338581e-02 -1.40080759e-02 -8.43760930e-03 -1.31006967e-02
      -2.18485971e-03 -1.35678134e-03 -3.08652152e-03 -7.49971718e-03
      -1.19115133e-02 -7.24920630e-03 -9.25846770e-03 -3.86858638e-03
      -6.36257604e-03 -2.76392006e-04 -3.55529191e-04 -1.31919503e-03
      -1.17323464e-02 -1.25716627e-02 -7.37524964e-03 -8.95175245e-03
      -5.59008494e-03 -6.33665873e-03 -7.01809768e-04 -1.38021132e-04
      -5.21611248e-04 -1.20761078e-02 -8.27542786e-03 -7.48170167e-03
      -9.79710184e-03 -5.80464024e-03 -7.33626820e-03 -6.21163461e-04
      -5.01216215e-04 -1.96708669e-03 -7.70437159e-03 -8.60138703e-03
      -6.20769756e-03 -8.80791806e-03 -6.60134293e-03 -6.80878665e-03
      -1.43644819e-03 -4.87214827e-04 -1.69343187e-03 -8.54222383e-03
      -1.13991797e-02 -4.11318475e-03 -8.88817012e-03 -5.88504365e-03
      -6.09712303e-03 -1.87354046e-03 -2.22567149e-04 -3.90828412e-04
      -1.10489344e-02 -1.25821372e-02 -6.41756458e-03 -8.97308718e-03
      -4.59926995e-03 -6.26605982e-03 -2.34860973e-03 -5.87100571e-04
      -6.51741924e-04 -1.26249148e-02 -8.82089790e-03 -7.38078170e-03
      -8.89403559e-03 -4.47596097e-03 -6.96053961e-03 -4.26271977e-03
      -4.47251135e-04 -1.34226040e-03 -8.89554340e-03 -3.57684307e-02
      -9.53879114e-03 -9.88039933e-03 -3.91107285e-03 -7.86722917e-03
      -4.17859154e-03 -9.64795530e-04 -2.19729706e-03 -4.17327955e-02
      -1.27487946e-02 -7.88573362e-03 -1.08539872e-02 -3.47467209e-03
      -7.14048138e-03 -3.22023011e-03 -1.43157493e-03 -1.01332809e-03
      -1.29153384e-02 -1.12663982e-02 -6.44680625e-03 -1.11466572e-02
      -3.10824136e-03 -8.25779792e-03 -3.79034714e-03 -1.08586403e-03
      -1.02783600e-03 -1.18891587e-02 -3.08825281e-02 -6.63172686e-03
      -1.01709422e-02 -5.92460111e-03 -6.06214069e-03 -3.32537014e-03
      -1.54593238e-03 -2.55270186e-03 -3.09592690e-02 -3.07081528e-02
      -6.29251869e-03 -1.00893257e-02 -5.02932351e-03 -5.79572795e-03
      -3.77542712e-03 -1.38895179e-03 -3.15229013e-03 -3.08639444e-02
      -9.87076107e-03 -3.61865945e-03 -9.16201714e-03 -2.54746410e-03
      -1.01751657e-02 -4.53441730e-03 -6.98465796e-04 -7.31858599e-04
      -1.02171395e-02 -1.39056901e-02 -6.26822142e-03 -8.52775946e-03
      -1.85764150e-03 -8.93701985e-03 -6.35861419e-04 -4.45518323e-04
      -1.17517344e-03 -1.25581762e-02 -3.37469876e-02 -6.72636228e-03
      -9.42275207e-03 -4.19372041e-03 -1.22106373e-02 -4.61748848e-03
      -2.61024828e-03 -3.23625258e-03 -4.16981280e-02 -1.15143061e-02
      -8.39938503e-03 -8.66724644e-03 -3.32292356e-03 -1.29700927e-02
      -8.80781678e-04 -2.27239984e-03 -1.49621454e-03 -1.04921097e-02
      -5.00635756e-03 -7.09480746e-03 -8.89731944e-03 -2.75374926e-03
      -5.00910962e-03 -1.51388766e-03 -1.11216994e-03 -1.24279223e-03
      -3.12419445e-03 -2.31207116e-03 -5.83298132e-03 -1.09535540e-02
      -3.42522631e-03 -6.36219420e-03 -1.70890219e-03 -1.91877317e-03
      -1.05694856e-03 -1.61713024e-03 -5.89363370e-03 -6.44329702e-03
      -9.78567172e-03 -5.08370856e-03 -9.13999788e-03 -2.82973261e-03
      -5.62721537e-03 -2.80378689e-03 -5.16685145e-03 -7.40711717e-03
      -1.95184909e-02 -2.12743282e-02 -1.06678605e-02 -1.13355173e-02
      -4.36365744e-03 -4.00752621e-03 -3.81786586e-03 -3.90171562e-03
      -1.31361221e-03 -4.57009859e-03 -1.15153668e-02 -2.61423481e-03
      -8.96029919e-03 -1.49652804e-03 -2.15113605e-03 -9.97482566e-04
      -1.05131790e-03 -1.51905220e-03 -1.04919402e-02 -1.40955253e-02
      -4.87738103e-03 -6.97624218e-03 -2.73563433e-03 -5.41332294e-04
      -5.40887529e-04 -1.49216701e-03 -4.45644651e-03 -1.30852414e-02
      -1.52369291e-02 -6.16351096e-03 -1.65252574e-02 -4.60319920e-03
      -4.57219919e-03 -3.09241726e-03 -3.16300895e-03 -5.96599421e-03
      -1.46130137e-02 -1.57054458e-02 -6.33960636e-03 -1.02033783e-02
      -4.52113757e-03 -2.97380006e-03 -3.21723660e-03 -4.59687226e-03
      -1.51927862e-03 -6.28317706e-03 -9.10312962e-03 -6.70224521e-03
      -1.14576956e-02 -2.11160909e-03 -7.36839895e-04 -3.98796867e-04
      -9.39309655e-04 -6.06789952e-03 -8.24949332e-03 -1.10119786e-02
      -8.85809958e-03 -1.37146572e-02 -3.16112628e-03 -1.18893024e-03
      -2.17197509e-03 -5.38120791e-03 -2.51555513e-03 -8.50761402e-03
      -9.66417044e-03 -8.36064108e-03 -1.15523804e-02 -2.74058175e-03
      -7.11136323e-04 -5.52774407e-04 -1.74366450e-03 -8.15238338e-03
      -8.70649423e-03 -1.24268634e-02 -1.13148242e-02 -2.64789239e-02
      -3.40141193e-03 -7.22320459e-04 -1.88722438e-03 -5.82317635e-03
      -5.52416220e-03 -4.68859076e-03 -8.69610999e-03 -5.09456871e-03
      -8.86076875e-03 -1.01113098e-03 -5.60738670e-04 -2.31974944e-03
      -6.80441502e-03 -5.83513081e-03 -7.28355162e-03 -9.37402248e-03
      -7.19922548e-03 -7.11458642e-03 -1.34638394e-03 -5.79813437e-04
      -2.28108349e-03 -7.25855073e-03 -6.72911713e-03 -8.14267900e-03
      -8.55313800e-03 -6.38383022e-03 -1.19009810e-02 -1.75420672e-03
      -8.00370122e-04 -2.76224385e-03 -6.54279068e-03 -1.91570483e-02
      -2.14540698e-02 -3.37800160e-02 -2.99656279e-02 -3.17159891e-02
      -3.87397013e-03 -1.84576155e-03 -3.96713102e-03 -1.80202369e-02
      -8.03235359e-03 -9.96595994e-03 -1.19855125e-02 -4.19925991e-03
      -6.01913547e-03 -2.84463516e-03 -4.82030620e-04 -2.25372007e-03
      -8.12903233e-03 -1.94445457e-02 -1.37482006e-02 -2.10664794e-02
      -5.02684433e-03 -8.76535475e-03 -2.89538130e-03 -6.40957558e-04
      -2.58730957e-03 -1.57390963e-02 -1.79466642e-02 -1.88499521e-02
      -2.35877521e-02 -1.36416834e-02 -1.39598344e-02 -3.50180245e-03
      -2.02791020e-03 -3.56000825e-03 -1.39719928e-02 -2.75587197e-02
      -2.75328718e-02 -3.39709409e-02 -1.83353387e-02 -2.10266151e-02
      -4.37956443e-03 -3.29571054e-03 -4.29506879e-03 -2.22029723e-02
      -1.90759897e-02 -6.56266231e-03 -1.32391015e-02 -5.15870377e-03
      -7.73503678e-03 -2.07024743e-03 -1.47199200e-03 -4.38199937e-03
      -2.02098023e-02 -1.77205112e-02 -7.65954144e-03 -9.73000005e-03
      -3.60365235e-03 -6.30892720e-03 -1.92269904e-03 -5.25221089e-03
      -1.25648296e-02 -2.03133672e-02 -2.55552381e-02 -1.82824321e-02
      -2.93301754e-02 -1.24989497e-02 -1.34884380e-02 -4.24959743e-03
      -7.84769654e-03 -8.56617093e-03 -2.54613291e-02 -4.23196703e-02
      -2.20919698e-02 -2.40671802e-02 -9.90083814e-03 -1.12381391e-02
      -4.37747501e-03 -1.97737236e-02 -2.22084299e-02 -3.74606028e-02
      -1.04534607e-02 -8.49909615e-03 -9.12602432e-03 -3.58444732e-03
      -1.33780465e-02 -2.20769062e-03 -1.07478546e-02 -1.62745211e-02
      -1.74544100e-02 -5.79045108e-03 -6.31770724e-03 -8.69245362e-03
      -3.74655798e-03 -1.04309423e-02 -1.38319435e-03 -5.23154065e-03
      -4.09199949e-03 -6.18120469e-03 -2.43750717e-02 -1.97789427e-02
      -1.91729944e-02 -7.55706849e-03 -2.40363125e-02 -9.93510429e-03
      -2.08953340e-02 -2.44420264e-02 -3.00451759e-02 -2.17135176e-02
      -2.51012146e-02 -2.18715928e-02 -8.26772954e-03 -3.08258403e-02
      -1.00612724e-02 -1.99434310e-02 -1.54927960e-02 -1.72284078e-02
      -3.69918509e-03 -6.53625559e-03 -9.32232849e-03 -5.49271237e-03
      -1.04275215e-02 -2.39829160e-03 -1.61579181e-03 -9.30486713e-04
      -2.93312757e-03 -3.83996847e-03 -1.32133542e-02 -1.34800319e-02
      -6.15692465e-03 -9.88460984e-03 -2.46718596e-03 -1.29425433e-03
      -1.47564372e-03 -2.78418022e-03 -1.42390803e-02 -1.94959696e-02
      -1.65447872e-02 -1.10945655e-02 -5.16274981e-02 -1.65125839e-02
      -2.64331978e-02 -1.03850616e-02 -1.18330885e-02 -1.65128503e-02
      -1.54308239e-02 -1.76189020e-02 -1.08574629e-02 -1.77250057e-02
      -8.52924865e-03 -4.26762411e-03 -5.09302085e-03 -1.65857300e-02
      -4.46042372e-03 -1.30044101e-02 -1.35447597e-02 -5.41985361e-03
      -9.43331234e-03 -1.96410669e-03 -1.74937537e-03 -2.17202259e-03
      -2.72278953e-03 -5.26446849e-03 -1.04515851e-02 -1.38856536e-02
      -6.10814663e-03 -9.40685067e-03 -3.21940891e-03 -3.25237145e-03
      -3.06740706e-03 -3.77799617e-03 -1.88620221e-02 -1.30622648e-02
      -1.46734696e-02 -8.95508938e-03 -2.33715288e-02 -7.41061941e-03
      -5.58573287e-03 -5.30387321e-03 -1.51559338e-02 -7.17941904e-03
      -6.46937266e-03 -1.14128515e-02 -5.63696912e-03 -1.05057769e-02
      -4.69990168e-03 -6.45856839e-03 -3.67318303e-03 -5.39406668e-03
      -1.77751807e-03 -5.51497703e-03 -9.11015552e-03 -6.30044891e-03
      -1.10947797e-02 -2.44660908e-03 -5.62732399e-04 -8.67734896e-04
      -1.56247057e-03 -4.11998015e-03 -9.83896200e-03 -1.26475571e-02
      -9.20782331e-03 -1.43890912e-02 -2.67972285e-03 -1.18190702e-03
      -2.70493771e-03 -2.92562484e-03 -7.87243620e-03 -1.28716705e-02
      -1.44997099e-02 -7.62125803e-03 -1.42414384e-02 -5.76208252e-03
      -2.15740921e-03 -3.66531033e-03 -6.98229996e-03 -1.08921528e-02
      -2.18302403e-02 -2.33666729e-02 -1.66806690e-02 -2.27439627e-02
      -1.01945503e-02 -5.32972673e-03 -9.13549028e-03 -9.41456761e-03
      -5.26981894e-03 -1.09017827e-02 -9.77827795e-03 -4.97390563e-03
      -1.24900816e-02 -1.83009414e-03 -1.68851693e-03 -3.88145866e-03
      -4.61781025e-03 -9.01337806e-03 -1.73205212e-02 -2.81814560e-02
      -1.68152805e-02 -2.34708693e-02 -1.16813555e-02 -8.79661925e-03
      -6.54064212e-03 -1.03835855e-02 -1.49024660e-02 -1.66796986e-02
      -1.41889956e-02 -7.97670428e-03 -1.65402591e-02 -4.56531812e-03
      -4.53600939e-03 -8.32907576e-03 -1.29881110e-02 -1.91724766e-02
      -1.76430754e-02 -1.81014463e-02 -1.30026797e-02 -2.72128452e-02
      -2.03537717e-02 -2.51502376e-02 -1.59869920e-02 -1.84975304e-02
      -1.00975456e-02 -1.27663817e-02 -2.14747917e-02 -1.12706618e-02
      -1.54529428e-02 -7.94263370e-03 -6.85209222e-03 -5.62997349e-03
      -1.02365920e-02 -1.45868538e-02 -1.95197724e-02 -2.57427450e-02
      -1.35733122e-02 -1.45698190e-02 -7.93101173e-03 -5.46800438e-03
      -6.18391205e-03 -1.10784508e-02 -1.76977199e-02 -1.66866183e-02
      -1.52340364e-02 -1.02129886e-02 -1.85304303e-02 -1.38616338e-02
      -1.73892155e-02 -1.63393226e-02 -1.89018212e-02 -2.17643399e-02
      -2.69775577e-02 -2.42200140e-02 -1.64832063e-02 -1.66429356e-02
      -1.30359419e-02 -1.59938261e-02 -2.23529972e-02 -2.40546949e-02
      -1.57500263e-02 -1.77822895e-02 -2.43722480e-02 -1.36504201e-02
      -9.42878518e-03 -5.61584532e-03 -6.06923178e-03 -7.05227209e-03
      -1.27622830e-02 -1.81349777e-02 -2.18710080e-02 -2.75807846e-02
      -1.37361223e-02 -2.07072273e-02 -6.76498003e-03 -1.17658926e-02
      -1.33341942e-02 -1.85643081e-02 -2.06339341e-02 -2.27759443e-02
      -2.50046644e-02 -1.72629151e-02 -1.29825296e-02 -9.91423335e-03
      -1.20021040e-02 -1.64790489e-02 -2.11268160e-02 -2.28601042e-02
      -3.11518051e-02 -3.25017273e-02 -1.76308397e-02 -2.55204756e-02
      -1.25817601e-02 -1.33794211e-02 -1.58842187e-02 -2.49991100e-02
      -1.61769781e-02 -1.50258364e-02 -2.23632436e-02 -1.14567094e-02
      -2.75468174e-02 -7.87991285e-03 -1.60459708e-02 -1.33312903e-02
      -1.67012736e-02 -1.48199592e-02 -1.75699499e-02 -1.78629588e-02
      -1.07805887e-02 -2.39595510e-02 -7.13426713e-03 -1.34421065e-02
      -9.41818021e-03 -1.18487030e-02 -1.85401533e-02 -2.63088513e-02
      -3.16580720e-02 -1.99904349e-02 -3.04263085e-02 -7.50449626e-03
      -1.09068025e-02 -1.49503862e-02 -2.06051972e-02 -1.35303009e-02
      -1.80642549e-02 -2.67443173e-02 -2.04911456e-02 -2.90134680e-02
      -6.32774923e-03 -7.41047971e-03 -1.11653879e-02 -1.43418871e-02
      -1.11539876e-02 -1.58972163e-02 -1.74021162e-02 -1.70834586e-02
      -4.24734280e-02 -1.08983908e-02 -1.58585645e-02 -8.45832191e-03
      -8.78816005e-03 -1.01705780e-02 -1.27237095e-02 -1.57453958e-02
      -1.11742802e-02 -1.63591243e-02 -7.59140961e-03 -3.76241864e-03
      -4.36446723e-03 -9.37269628e-03 -1.02196187e-02 -1.35068316e-02
      -2.55129281e-02 -2.16540582e-02 -4.33854721e-02 -1.01848096e-02
      -9.08503216e-03 -8.12317990e-03 -9.05932672e-03 -7.52148684e-03
      -7.99921155e-03 -1.57012399e-02 -1.25607122e-02 -1.78679042e-02
      -9.32007283e-03 -5.04396297e-03 -4.52168053e-03 -5.73502760e-03
      -1.56649519e-02 -1.25639401e-02 -1.79161225e-02 -1.14147104e-02
      -2.10134555e-02 -8.50939006e-03 -4.91403835e-03 -4.10440890e-03
      -1.19677065e-02 -3.91520513e-03 -7.22817751e-03 -1.13455951e-02
      -4.56790300e-03 -1.30387153e-02 -3.76700936e-03 -4.35999641e-03
      -2.31237547e-03 -2.46458082e-03 -9.34981834e-03 -8.86337459e-03
      -1.84676014e-02 -1.11535760e-02 -2.11782213e-02 -5.94715355e-03
      -2.00576894e-03 -2.25640344e-03 -6.00888627e-03 -2.52496824e-03
      -8.19310360e-03 -1.21263275e-02 -4.85562626e-03 -1.39674582e-02
      -2.20236043e-03 -1.98154827e-03 -1.13708503e-03 -1.72014814e-03
      -5.77391405e-03 -1.27527583e-02 -1.27967596e-02 -5.29106334e-03
      -1.33369369e-02 -5.30043850e-03 -1.94051885e-03 -3.89459310e-03
      -4.37356625e-03 -7.08059268e-03 -1.38508175e-02 -1.55563774e-02
      -1.29681407e-02 -2.38574818e-02 -1.12798773e-02 -3.71467625e-03
      -7.34383287e-03 -7.14627327e-03 -4.26035002e-03 -9.47262812e-03
      -1.34211574e-02 -5.81408804e-03 -1.45558352e-02 -5.01119252e-03
      -3.10493633e-03 -5.60592255e-03 -6.05602702e-03 -9.70421731e-03
      -1.28908483e-02 -1.65625177e-02 -7.71114370e-03 -2.47500390e-02
      -1.47431782e-02 -5.00259688e-03 -9.05567780e-03 -1.10552274e-02
      -9.43524763e-03 -1.02446899e-02 -1.27676185e-02 -8.37865192e-03
      -1.77107677e-02 -5.80414105e-03 -3.99688398e-03 -7.73116760e-03
      -8.83057620e-03 -1.25277806e-02 -1.49154225e-02 -1.29583254e-02
      -8.63499008e-03 -3.48048024e-02 -2.01840121e-02 -3.72276418e-02
      -1.82260834e-02 -1.16293207e-02 -1.06619447e-02 -1.20457560e-02
      -1.15768258e-02 -4.83933277e-03 -1.78648997e-02 -8.37581232e-03
      -5.42511558e-03 -8.77275504e-03 -1.19421510e-02 -1.49797536e-02
      -1.62869263e-02 -1.35436896e-02 -7.18999887e-03 -1.12646678e-02
      -6.23425050e-03 -7.97135755e-03 -1.31102344e-02 -1.54794883e-02
      -1.27708046e-02 -1.38025535e-02 -1.31121622e-02 -7.12361233e-03
      -1.11656645e-02 -8.75192974e-03 -2.12694518e-02 -1.84821375e-02
      -1.57978646e-02 -1.86926741e-02 -1.63101926e-02 -1.70667209e-02
      -1.38025088e-02 -1.96068455e-02 -1.09281512e-02 -2.11790819e-02
      -2.55422182e-02 -2.85999607e-02 -1.33987628e-02 -1.22800274e-02
      -1.37246996e-02 -6.68107066e-03 -9.46348906e-03 -4.01314814e-03
      -8.47720634e-03 -1.24703618e-02 -1.53819630e-02 -1.60574466e-02
      -1.73086505e-02 -1.97213423e-02 -2.06504818e-02 -2.22519487e-02
      -9.72900074e-03 -2.09101345e-02 -1.92771014e-02 -2.06258465e-02
      -1.58148911e-02 -1.69748235e-02 -1.69523191e-02 -1.12798689e-02
      -1.82851050e-02 -9.75328777e-03 -1.56066362e-02 -1.79764628e-02
      -2.06413437e-02 -1.72663983e-02 -2.99733747e-02 -2.94178631e-02
      -1.02536045e-02 -2.72541288e-02 -1.15786176e-02 -1.17702223e-02
      -1.28566874e-02 -2.28315964e-02 -1.44767957e-02 -1.71182100e-02
      -1.76850799e-02 -1.72246918e-02 -1.95331164e-02 -1.44106308e-02
      -1.99915394e-02 -1.54512562e-02 -1.72879323e-02 -1.64413974e-02
      -2.52192412e-02 -2.36091670e-02 -1.08201439e-02 -2.87162773e-02
      -1.76925268e-02 -1.82322394e-02 -1.49348276e-02 -1.97140127e-02
      -2.11101118e-02 -3.01661175e-02 -3.44493538e-02 -1.96637996e-02
      -3.05570420e-02 -8.72115046e-03 -1.10112969e-02 -1.20240953e-02
      -2.08225977e-02 -1.16477367e-02 -1.71116777e-02 -2.77938228e-02
      -1.75939798e-02 -2.17964202e-02 -4.89067007e-03 -5.88876568e-03
      -8.26657657e-03 -1.06846876e-02 -1.48111731e-02 -2.70514805e-02
      -2.82468274e-02 -1.00861387e-02 -3.36293876e-02 -1.47603005e-02
      -1.09782303e-02 -1.15444986e-02 -1.59440599e-02 -1.27653051e-02
      -1.26956981e-02 -1.66342314e-02 -1.05637247e-02 -1.71830375e-02
      -6.12214766e-03 -5.90331294e-03 -9.07896087e-03 -1.25768548e-02
      -8.82446207e-03 -1.16090951e-02 -3.44577767e-02 -2.43849307e-02
      -5.02423979e-02 -9.37162433e-03 -6.57991366e-03 -5.02571790e-03
      -7.68386107e-03 -5.53394202e-03 -8.62702914e-03 -1.40760727e-02
      -1.18738133e-02 -1.76479500e-02 -1.11252358e-02 -4.91825351e-03
      -4.61712806e-03 -6.17028866e-03 -1.16356378e-02 -1.11805955e-02
      -1.56108737e-02 -1.48271071e-02 -1.84079856e-02 -8.80030356e-03
      -5.29620145e-03 -6.41207956e-03 -9.35512502e-03 -7.05771474e-03
      -1.12986658e-02 -1.48329549e-02 -1.51018910e-02 -1.84097067e-02
      -1.46595882e-02 -6.92946138e-03 -6.37716055e-03 -9.28360503e-03
      -5.03349723e-03 -7.42478436e-03 -1.39568336e-02 -1.04433782e-02
      -2.26502214e-02 -9.98372212e-03 -2.53775413e-03 -2.98058405e-03
      -5.21668419e-03 -2.04386562e-03 -7.66338408e-03 -1.03067337e-02
      -4.43745870e-03 -1.37057826e-02 -2.48282100e-03 -9.93994647e-04
      -9.52374539e-04 -2.19634199e-03 -7.33514363e-03 -1.16834594e-02
      -1.56190069e-02 -1.52778048e-02 -2.44794507e-02 -1.69741772e-02
      -8.53515975e-03 -6.05448894e-03 -1.04844272e-02 -2.49533285e-03
      -7.21751014e-03 -9.53462627e-03 -4.10279306e-03 -1.37638366e-02
      -6.29647402e-03 -2.53958954e-03 -2.33746879e-03 -2.94649741e-03
      -6.33539632e-03 -7.11760903e-03 -1.28246779e-02 -4.93085524e-03
      -1.58051513e-02 -5.45899337e-03 -4.53066453e-03 -8.13833810e-03
      -8.12439434e-03 -1.03572691e-02 -1.35571733e-02 -1.41691985e-02
      -9.98166483e-03 -2.58990098e-02 -1.44158518e-02 -1.09082842e-02
      -1.07907811e-02 -1.11816823e-02 -1.11215666e-03 -7.74446037e-03
      -1.06857596e-02 -4.38159052e-03 -1.52953714e-02 -4.78222873e-03
      -1.89740513e-03 -1.33942254e-03 -1.23880908e-03 -3.85619421e-03
      -1.02310153e-02 -1.07523212e-02 -8.73117428e-03 -1.95450783e-02
      -8.44361633e-03 -6.16995152e-03 -3.61020584e-03 -4.54106182e-03
      -1.39921727e-02 -1.06119467e-02 -1.04173822e-02 -6.19582552e-03
      -1.82671417e-02 -7.14942627e-03 -6.28803624e-03 -8.10455997e-03
      -1.58232022e-02 -1.92852337e-02 -1.13104209e-02 -1.14319222e-02
      -6.74633449e-03 -1.04736248e-02 -6.41797436e-03 -8.13702215e-03
      -1.53488005e-02 -2.07768288e-02 -6.16660062e-03 -7.73731852e-03
      -1.03636216e-02 -6.34239614e-03 -1.40346931e-02 -3.16991331e-03
      -3.95044684e-03 -3.61258304e-03 -8.18182155e-03 -9.10861045e-03
      -9.69916582e-03 -1.00052468e-02 -6.07045321e-03 -6.48811739e-03
      -4.25247569e-03 -6.28151465e-03 -7.21575832e-03 -1.10670840e-02
      -1.78930778e-02 -9.53982305e-03 -1.27295200e-02 -6.15797332e-03
      -8.61564092e-03 -3.07996175e-03 -5.17120631e-03 -1.24703757e-02
      -1.90955121e-02 -1.81213673e-02 -1.58774313e-02 -2.10179500e-02
      -2.39349939e-02 -2.47822665e-02 -8.38634837e-03 -1.21855438e-02
      -1.41619276e-02 -1.88781060e-02 -1.30213648e-02 -8.43924470e-03
      -1.04251746e-02 -5.62561397e-03 -8.50150734e-03 -4.51130699e-03
      -4.26687347e-03 -8.10301397e-03 -1.51510965e-02 -1.41729359e-02
      -1.29352454e-02 -1.29992813e-02 -2.36341096e-02 -2.38369070e-02
      -2.16539428e-02 -6.67266315e-03 -9.09492187e-03 -1.82226617e-02
      -1.51614901e-02 -1.60370748e-02 -1.74735133e-02 -1.73162874e-02
      -2.11089682e-02 -1.16859609e-02 -1.72069892e-02 -1.24146286e-02
      -1.60028897e-02 -1.56410020e-02 -1.72696579e-02 -1.80884786e-02
      -1.18774287e-02 -2.92077214e-02 -1.96247362e-02 -2.06420347e-02
      -1.81156639e-02 -1.66146290e-02 -1.41834803e-02 -1.24060269e-02
      -1.38237318e-02 -1.64755117e-02 -2.04014722e-02 -1.44758457e-02
      -8.19917675e-03 -9.83836502e-03 -1.83466990e-02 -1.39385862e-02
      -1.07189035e-02 -1.46652246e-02 -1.49925556e-02 -2.55433954e-02
      -1.19581763e-02 -9.64570791e-03 -1.07461875e-02 -1.83540415e-02
      -1.10522928e-02 -1.65706445e-02 -1.80399604e-02 -1.41764879e-02
      -4.25016619e-02 -2.61547677e-02 -1.68809257e-02 -1.35807302e-02
      -1.19800763e-02 -1.23035135e-02 -1.49088632e-02 -1.70998499e-02
      -1.21352738e-02 -1.64717957e-02 -9.31685232e-03 -7.84809049e-03
      -8.67144577e-03 -1.18791955e-02 -7.39250286e-03 -1.30478367e-02
      -1.38903400e-02 -2.30093803e-02 -4.01794948e-02 -1.73621159e-02
      -8.97611119e-03 -7.17876060e-03 -1.08649777e-02 -8.08376167e-03
      -1.29469680e-02 -1.29181556e-02 -8.98818579e-03 -1.49708139e-02
      -8.65377486e-03 -8.41451995e-03 -7.44340476e-03 -1.19437128e-02
      -1.00400075e-02 -1.28311645e-02 -1.51715213e-02 -1.47417570e-02
      -1.62078328e-02 -7.02346116e-03 -6.34829979e-03 -4.71557910e-03
      -9.28701274e-03 -6.60794834e-03 -1.18340887e-02 -1.58917885e-02
      -1.47231212e-02 -1.76585820e-02 -1.05879726e-02 -6.90935552e-03
      -4.71729739e-03 -7.33650569e-03 -8.68078601e-03 -1.28346300e-02
      -1.32708643e-02 -1.43403877e-02 -1.37028862e-02 -6.88704709e-03
      -6.16851402e-03 -4.97799041e-03 -1.00781731e-02 -1.03106229e-02
      -1.27337156e-02 -1.47723369e-02 -1.32151479e-02 -1.52939763e-02
      -9.96060297e-03 -6.90431288e-03 -5.62841399e-03 -9.85174254e-03
      -7.84647465e-03 -9.50310845e-03 -2.04636473e-02 -1.41924862e-02
      -2.21133288e-02 -1.08501604e-02 -8.73583741e-03 -5.89147024e-03
      -9.79903433e-03 -2.26083281e-03 -5.95229026e-03 -1.21059706e-02
      -3.35577084e-03 -9.95555334e-03 -4.87605529e-03 -3.58694466e-03
      -2.78340979e-03 -2.99061835e-03 -9.21881571e-03 -9.76949185e-03
      -1.66144837e-02 -7.19565898e-03 -1.43323932e-02 -9.12855938e-03
      -7.96837173e-03 -6.45309594e-03 -1.07523585e-02 -5.70948422e-03
      -1.15034161e-02 -1.40135251e-02 -4.52150498e-03 -8.58172588e-03
      -4.54576174e-03 -6.61226455e-03 -4.88936203e-03 -7.52047449e-03
      -1.32713164e-03 -7.10381614e-03 -1.01599470e-02 -4.17982787e-03
      -1.19341807e-02 -5.08067198e-03 -2.59141740e-03 -1.08466891e-03
      -1.61488482e-03 -1.39813460e-02 -8.04190338e-03 -1.04754511e-02
      -5.81460493e-03 -1.56493168e-02 -8.41098186e-03 -3.85558791e-03
      -2.45825527e-03 -1.70333758e-02 -2.16044183e-03 -6.86092675e-03
      -9.57189780e-03 -4.00866196e-03 -1.19179003e-02 -5.88765228e-03
      -2.33836425e-03 -1.42579724e-03 -2.39328295e-03 -5.60580846e-03
      -9.59111936e-03 -9.76492744e-03 -9.11242887e-03 -1.46709392e-02
      -6.17902214e-03 -3.63657577e-03 -2.13533710e-03 -5.83324116e-03
      -9.10589937e-03 -6.10846141e-03 -1.00600244e-02 -4.74087289e-03
      -9.62091051e-03 -2.67389906e-03 -2.49938993e-03 -3.38295917e-03
      -1.18129654e-02 -1.48923518e-02 -8.29365663e-03 -9.42730159e-03
      -5.78418467e-03 -6.81965845e-03 -6.21931115e-03 -8.30641948e-03
      -1.14022037e-02 -1.74719337e-02 -5.14991023e-03 -7.74813490e-03
      -9.52714961e-03 -6.35424396e-03 -7.39960978e-03 -2.74998113e-03
      -2.75818654e-03 -3.43398959e-03 -6.64190482e-03 -5.86433709e-03
      -7.14690471e-03 -8.75734817e-03 -5.78498049e-03 -6.05301093e-03
      -2.58913729e-03 -2.07250309e-03 -3.71869165e-03 -7.74954213e-03
      -1.46734128e-02 -8.70713778e-03 -1.03262179e-02 -5.59031311e-03
      -9.02810786e-03 -4.03299648e-03 -4.59226035e-03 -8.81605037e-03
      -1.66449379e-02 -1.64361298e-02 -1.11500500e-02 -1.20511875e-02
      -1.32225007e-02 -2.99752858e-02 -2.22156867e-02 -4.42472007e-03
      -8.77137948e-03 -2.11005453e-02 -6.88750204e-03 -6.15203846e-03
      -9.60423518e-03 -5.08864690e-03 -9.12061427e-03 -1.25206332e-03
      -1.23346411e-03 -3.51884612e-03 -8.59766547e-03 -1.02145942e-02
      -6.92883739e-03 -1.13752652e-02 -1.14901019e-02 -2.95174681e-02
      -4.11509303e-03 -9.52405948e-03 -8.53539258e-03 -1.17100328e-02
      -1.67542547e-02 -1.07749496e-02 -1.35605643e-02 -1.10796047e-02
      -2.12810729e-02 -1.35420300e-02 -5.12597850e-03 -9.69992299e-03
      -2.27791313e-02 -2.32013874e-02 -1.24756582e-02 -1.47009538e-02
      -1.42120840e-02 -2.67394185e-02 -8.86579324e-03 -5.60353836e-03
      -9.95103363e-03 -2.84612775e-02 -1.16463387e-02 -1.23417685e-02
      -1.61590856e-02 -8.79855920e-03 -2.01759059e-02 -6.10822905e-03
      -9.47866682e-03 -8.90026055e-03 -1.27431303e-02 -9.82702896e-03
      -1.43620558e-02 -1.88197736e-02 -9.66926105e-03 -2.25298014e-02
      -8.70101061e-03 -5.84056042e-03 -6.34448556e-03 -1.07818041e-02
      -1.37688564e-02 -1.39610209e-02 -1.50997452e-02 -2.26347763e-02
      -4.15644832e-02 -1.08097699e-02 -6.15123427e-03 -6.07599551e-03
      -1.38773862e-02 -1.34640466e-02 -1.34216379e-02 -1.13887051e-02
      -9.65828914e-03 -2.12732367e-02 -1.22561771e-02 -1.46711599e-02
      -1.18286433e-02 -1.86567586e-02 -7.86102191e-03 -1.37640862e-02
      -1.73751060e-02 -1.43748345e-02 -3.86323072e-02 -1.00646615e-02
      -3.05971829e-03 -3.98796098e-03 -7.91588519e-03 -8.11057165e-03
      -7.52135227e-03 -8.63483362e-03 -4.57299128e-03 -1.25930039e-02
      -4.13655303e-03 -9.83875361e-04 -1.40463107e-03 -5.71194058e-03
      -1.27142183e-02 -1.23101147e-02 -1.30501268e-02 -1.05826361e-02
      -1.33293783e-02 -5.90205612e-03 -7.15451036e-03 -8.06869008e-03
      -1.55783063e-02 -1.00491345e-02 -1.16123082e-02 -1.53488992e-02
      -1.06505211e-02 -1.42908040e-02 -7.49368407e-03 -7.40304822e-03
      -7.95175508e-03 -1.15844561e-02 -7.10779708e-03 -8.24172050e-03
      -1.07748909e-02 -5.01529314e-03 -9.90281813e-03 -3.68340639e-03
      -2.22293078e-03 -1.87441602e-03 -5.66236442e-03 -4.38043848e-03
      -1.08467117e-02 -1.06156990e-02 -6.40099263e-03 -1.05706342e-02
      -2.92938994e-03 -7.00853718e-03 -6.00895938e-03 -4.05813567e-03
      -1.04803545e-02 -1.41369021e-02 -1.54626584e-02 -5.77298366e-03
      -1.16338674e-02 -5.08590415e-03 -6.22617546e-03 -5.98725304e-03
      -9.87951364e-03 -6.24000048e-03 -9.27486643e-03 -1.32422103e-02
      -4.11141710e-03 -8.16885103e-03 -3.48693365e-03 -5.63398097e-03
      -4.59523639e-03 -7.77414674e-03 -3.02017108e-03 -9.17056575e-03
      -9.53875948e-03 -4.53272462e-03 -1.11902570e-02 -3.10106715e-03
      -4.91622277e-03 -5.05703548e-03 -3.53274355e-03 -2.92232214e-03
      -8.89398623e-03 -9.35736578e-03 -3.94758210e-03 -7.67104002e-03
      -4.99648228e-03 -4.88387607e-03 -4.95623890e-03 -4.76539321e-03
      -5.16324909e-03 -6.39542658e-03 -1.01451101e-02 -3.75214568e-03
      -1.26628475e-02 -4.76318784e-03 -2.78928713e-03 -3.17815505e-03
      -6.17637765e-03 -8.37012194e-03 -1.03448760e-02 -9.55630839e-03
      -7.08244741e-03 -1.18404403e-02 -5.99554460e-03 -3.72508867e-03
      -3.47831054e-03 -8.20716750e-03 -1.29002724e-02 -7.47778313e-03
      -9.29264165e-03 -2.74756015e-03 -1.01715354e-02 -2.15254258e-03
      -1.28700433e-03 -1.02078251e-03 -1.31189181e-02 -1.14999348e-02
      -7.73778884e-03 -8.65333434e-03 -3.52167990e-03 -1.14152553e-02
      -6.74470607e-03 -2.18999153e-03 -1.27637445e-03 -1.20397964e-02
      -9.54176486e-03 -1.15632564e-02 -9.72757023e-03 -6.60527218e-03
      -1.06995236e-02 -3.08369054e-03 -1.36249245e-03 -1.72709837e-03
      -8.30943044e-03 -9.22327954e-03 -6.64453628e-03 -8.52830708e-03
      -5.60454931e-03 -6.27795374e-03 -1.87822233e-03 -1.11534679e-03
      -2.16610986e-03 -9.22712311e-03 -1.09025612e-02 -6.74464321e-03
      -8.62259511e-03 -2.41758930e-03 -1.50804352e-02 -4.41286247e-03
      -3.84026044e-03 -1.71766768e-03 -1.11496821e-02 -4.11390280e-03
      -5.06504858e-03 -8.54472350e-03 -2.79154838e-03 -6.59544021e-03
      -4.05123085e-03 -6.92505855e-04 -8.72129109e-04 -4.51013260e-03
      -9.52124782e-03 -5.73876686e-03 -8.40502419e-03 -5.74982399e-03
      -9.95233096e-03 -2.17495812e-03 -7.88791920e-04 -1.80055667e-03
      -9.64969955e-03 -1.98853854e-02 -1.44280810e-02 -1.30671458e-02
      -9.52432770e-03 -2.65055243e-02 -2.48467107e-03 -2.40972154e-02
      -2.05846243e-02 -1.78937465e-02 -4.22755769e-03 -6.13572635e-03
      -8.59015621e-03 -4.74090595e-03 -6.53738109e-03 -5.72868623e-03
      -7.80706585e-04 -8.59611202e-04 -4.30659950e-03 -1.04231276e-02
      -1.13214971e-02 -1.15496488e-02 -3.56256450e-03 -1.07609043e-02
      -3.31331347e-03 -1.17929680e-02 -8.02119542e-03 -1.01846354e-02
      -2.44308747e-02 -2.15964783e-02 -2.30835658e-02 -6.56041224e-03
      -1.52023230e-02 -3.83297447e-03 -1.71575844e-02 -1.31076146e-02
      -1.82245187e-02 -2.15856731e-02 -2.41739023e-02 -2.31496189e-02
      -7.75291305e-03 -1.83654893e-02 -6.40388904e-03 -6.40163152e-03
      -6.41907705e-03 -1.52423754e-02 -1.19405957e-02 -1.30111678e-02
      -1.34240696e-02 -2.82809301e-03 -5.30649442e-03 -1.80959865e-03
      -6.28461689e-03 -4.62999335e-03 -9.48404893e-03 -1.01279104e-02
      -1.24685215e-02 -1.28642926e-02 -2.52828747e-03 -6.59348490e-03
      -1.70485175e-03 -1.38824212e-03 -1.73284695e-03 -7.63726700e-03
      -1.76361743e-02 -2.71036327e-02 -3.28803435e-02 -1.67818554e-02
      -3.58593352e-02 -8.00081529e-03 -1.94027228e-03 -3.87537712e-03
      -1.28090736e-02 -8.81147757e-03 -6.83590863e-03 -1.03145419e-02
      -3.12544894e-03 -9.69807710e-03 -2.60704057e-03 -5.92803524e-04
      -5.69308351e-04 -7.84252211e-03 -8.38929228e-03 -1.28068887e-02
      -1.29629998e-02 -3.46446945e-03 -1.21522369e-02 -1.57137553e-03
      -3.83135048e-04 -1.11141428e-03 -6.66241208e-03 -4.39320551e-03
      -9.51324683e-03 -9.50444955e-03 -3.99249047e-03 -7.65175233e-03
      -2.30087759e-03 -2.07548190e-04 -2.31076498e-04 -4.30940837e-03
      -7.08192261e-03 -8.14944413e-03 -1.04002655e-02 -4.14780993e-03
      -8.87107011e-03 -3.14990943e-03 -1.39723043e-03 -9.90736065e-04
      -6.54076738e-03 -6.80586556e-03 -1.12438900e-02 -1.12509727e-02
      -4.90904972e-03 -1.04011856e-02 -3.12468177e-03 -1.44286333e-02
      -1.10354582e-02 -5.88329136e-03 -3.88658675e-03 -8.26863199e-03
      -9.12689790e-03 -2.76963715e-03 -5.75008709e-03 -1.95623678e-03
      -1.86898207e-04 -1.86639736e-04 -3.09622777e-03 -2.08629505e-03
      -8.06171447e-03 -8.82645231e-03 -2.57744058e-03 -5.16863866e-03
      -1.69808033e-03 -1.40519274e-04 -2.08629033e-04 -1.49451301e-03
      -5.46322996e-03 -1.09152906e-02 -1.24619566e-02 -6.39117835e-03
      -1.65844448e-02 -3.94295994e-03 -6.22591423e-03 -4.78048855e-03
      -4.02267929e-03 -3.85826943e-03 -8.23135488e-03 -1.04638562e-02
      -4.33867332e-03 -9.58436448e-03 -7.62912724e-03 -6.65122084e-03
      -6.87890965e-03 -4.95381653e-03 -2.37127068e-03 -6.95296004e-03
      -8.74361396e-03 -1.94156205e-03 -6.73358236e-03 -1.19081454e-03
      -7.86871533e-04 -5.02647948e-04 -1.51837617e-03 -3.16412887e-03
      -5.92422532e-03 -7.95822218e-03 -1.16610155e-03 -5.33596240e-03
      -4.69163945e-03 -5.02287736e-03 -4.58979094e-03 -2.76766811e-03</_></support_vectors>
  <uncompressed_sv_total>14</uncompressed_sv_total>
  <uncompressed_support_vectors>
    <_>
      0. 0. 0. 0. 0. 0. 0. 0. 0. 9.00433370e-05 0. 0. 0. 0. 0. 0. 0.
      9.00433370e-05 3.33007365e-01 1.08277909e-02 8.64651892e-03
      7.22784735e-03 8.28637928e-03 0. 0. 4.99527715e-03 2.32762560e-01
      6.12898469e-01 3.20128739e-01 3.21362331e-03 2.75878981e-02
      9.55988187e-03 2.90705985e-03 0. 7.94055220e-03 5.91108322e-01
      1.16923744e-04 0. 0. 0. 0. 0. 0. 0. 1.16923744e-04 5.38928376e-04
      8.08506593e-06 2.41935086e-05 0. 4.18775817e-05 0. 0. 0.
      5.38928376e-04 5.46299815e-01 1.46797970e-01 3.35305056e-04
      1.85538530e-02 7.83575233e-03 4.68092505e-03 0. 1.03428895e-02
      2.69783199e-01 5.46299815e-01 1.35600924e-01 4.30955645e-03
      7.83680752e-03 4.32681432e-03 4.60420968e-03 2.07459601e-03
      1.49332536e-02 5.32967925e-01 5.88597904e-04 2.26831289e-05
      6.78763172e-05 0. 7.12613109e-05 0. 2.06007080e-05 7.27413571e-05
      6.02351269e-04 5.43710310e-04 1.76424346e-05 5.27926932e-05 0.
      3.23915046e-05 0. 8.92697208e-05 1.74717687e-04 5.73967758e-04
      4.98306364e-01 3.89473736e-02 2.51665409e-03 6.95940980e-04
      1.06891978e-03 9.94425616e-04 2.45021679e-03 6.04257733e-03
      4.98306364e-01 4.98306364e-01 1.13789551e-02 9.44557600e-04 0.
      4.85872617e-04 2.29482830e-04 3.99165647e-03 8.36698245e-03
      4.98306364e-01 2.87218427e-04 0. 0. 0. 0. 0. 2.62600406e-05
      3.46261077e-05 2.92616955e-04 3.88578454e-04 0. 0. 0. 0. 0. 0. 0.
      3.88578454e-04 4.98706967e-01 7.60211702e-03 1.22721877e-03
      8.66771559e-04 9.42873012e-04 0. 4.39528748e-03 6.44955970e-03
      4.98706967e-01 4.98706967e-01 6.93229726e-03 2.04881188e-03
      1.11442059e-03 1.21226523e-03 0. 1.58069190e-03 2.16114754e-03
      4.98706967e-01 3.61241226e-04 0. 0. 0. 0. 0. 0. 0. 3.61241226e-04
      3.68547800e-04 0. 0. 0. 0. 0. 0. 0. 3.68547800e-04 4.98732954e-01
      8.18866957e-03 5.16870990e-04 1.43481157e-04 1.56078604e-04 0. 0.
      7.81023875e-04 4.98732954e-01 4.98732954e-01 3.19057191e-03
      4.59831135e-05 0. 0. 0. 0. 1.37259974e-03 4.98732954e-01
      3.31905234e-04 0. 0. 0. 0. 0. 0. 0. 3.31905234e-04 3.91083100e-04
      0. 0. 0. 0. 0. 0. 0. 3.91083100e-04 4.98747975e-01 1.66917249e-04
      0. 0. 0. 0. 0. 5.42949711e-04 4.98747975e-01 4.98747975e-01 0. 0.
      0. 0. 0. 0. 4.43643751e-03 4.98747975e-01 3.92732356e-04 0. 0. 0.
      0. 0. 0. 0. 3.92732356e-04 3.93242954e-04 0. 0. 0. 0. 0. 0. 0.
      3.93242954e-04 5.02944708e-01 2.27426458e-03 0. 0. 2.01335177e-03
      5.98966749e-03 2.02319957e-02 1.06266387e-01 5.02944708e-01
      3.68441314e-01 5.00338105e-03 0. 0. 3.64136770e-02 9.23961103e-02
      9.86202583e-02 2.62690127e-01 5.02944708e-01 2.72334158e-01
      2.06780389e-01 5.16255312e-02 3.29800062e-02 5.77324890e-02
      2.61547556e-03 0. 1.01335277e-03 7.90916309e-02 3.17583889e-01
      2.52154946e-01 1.14630787e-02 7.09808152e-03 7.61681376e-03
      9.43387393e-04 0. 3.04175681e-03 1.98973477e-01 3.17583889e-01
      3.02373558e-01 2.08614543e-01 2.21734270e-01 3.17583889e-01
      6.14361912e-02 4.64467378e-03 8.99093039e-03 1.18981548e-01
      3.17583889e-01 2.98115164e-01 3.07648052e-02 2.20218021e-02
      3.53290662e-02 1.47664119e-02 1.28680107e-03 1.62090901e-02
      2.55946875e-01 4.07561600e-01 1.43368557e-01 1.39609573e-03
      6.07227068e-03 2.39206757e-03 2.15434935e-03 9.25931890e-05
      5.60300006e-03 2.15483382e-01 4.07561600e-01 9.29010287e-02
      1.34174749e-02 2.33483501e-03 1.24813640e-03 2.74686725e-03
      6.16591016e-04 6.26960583e-03 3.07732671e-01 4.07561600e-01
      1.31261572e-01 1.91140897e-03 1.39730249e-03 5.06718643e-04
      2.15526321e-03 9.68717679e-04 1.76050849e-02 2.40972131e-01
      4.07561600e-01 6.50662109e-02 1.63098052e-02 4.78945673e-04
      2.60079833e-04 2.10471544e-03 1.02578930e-03 1.27070043e-02
      2.83874631e-01 3.64889562e-01 3.23699340e-02 7.05554057e-03
      2.02335432e-04 1.88493912e-04 5.66725212e-04 7.18584051e-04
      3.91973136e-03 3.64889562e-01 3.64889562e-01 1.48591092e-02
      3.38566315e-04 0. 8.56790575e-05 6.67190325e-05 3.20054474e-03
      1.32282749e-02 3.64889562e-01 3.64889562e-01 1.79769415e-02
      8.30946770e-03 1.34890279e-05 0. 3.76200769e-04 2.36156673e-04
      8.56731459e-03 2.82610267e-01 3.64889562e-01 1.23319663e-02
      1.54718611e-04 0. 0. 4.44793613e-06 4.07392019e-03 3.44489440e-02
      3.38050663e-01 3.65266204e-01 1.56516731e-02 2.11454369e-03
      1.49347936e-03 1.62460480e-03 3.96927953e-06 7.10065197e-03
      1.78390648e-02 3.65266204e-01 3.65266204e-01 1.29434876e-02
      3.53017868e-03 1.92018785e-03 2.08877772e-03 1.72002128e-05
      3.26087605e-03 9.22901835e-03 3.65266204e-01 3.65266204e-01
      1.46301650e-02 1.68608548e-03 1.16159511e-03 1.26358157e-03
      1.72446668e-03 1.12005696e-02 4.51325737e-02 2.99527138e-01
      3.17315847e-01 1.35980295e-02 3.36730154e-03 1.49347936e-03
      1.62460480e-03 4.46498021e-03 1.87502243e-02 3.95450108e-02
      3.65266204e-01 3.80715758e-01 1.51775461e-02 9.58010671e-04
      2.65939598e-04 2.89288728e-04 6.47541492e-06 2.95815553e-04
      6.77738106e-03 3.80715758e-01 3.80715758e-01 5.91366412e-03
      8.52288285e-05 0. 0. 0. 9.00088111e-04 1.54072503e-02
      3.80715758e-01 2.46567950e-01 1.36097101e-02 1.13095029e-03
      2.06841913e-04 2.25002354e-04 1.22148753e-03 8.95783491e-03
      3.66846435e-02 3.74983042e-01 2.51722634e-01 7.88640510e-03
      6.62890889e-05 0. 0. 0. 4.80276113e-03 6.67218640e-02
      3.80715758e-01 3.63702357e-01 1.34807255e-03 0. 0. 0. 0.
      1.74992380e-03 1.47201186e-02 3.63702357e-01 3.63702357e-01
      4.57837945e-03 1.54146436e-03 1.71018055e-05 9.38260229e-04
      2.30692606e-03 2.75462540e-03 1.85307451e-02 3.63702357e-01
      2.56575137e-01 1.37324939e-02 1.04095649e-04 0. 0. 5.16379587e-05
      4.04151063e-03 4.08338718e-02 3.63702357e-01 3.63702357e-01
      2.67015062e-02 5.63175417e-03 2.62629823e-03 3.87275871e-03
      1.34419464e-02 7.55284354e-03 3.31827626e-02 3.63702357e-01
      3.13451380e-01 6.22694287e-03 7.52558513e-03 7.71579193e-03
      2.93059070e-02 2.41588559e-02 2.84840595e-02 7.90721849e-02
      3.13451380e-01 1.46993071e-01 3.96704115e-03 5.85323246e-03
      9.87789501e-03 9.95902047e-02 1.55956045e-01 2.58783966e-01
      1.91536859e-01 3.13451380e-01 2.32444957e-01 3.09196115e-02
      2.14750245e-02 2.59136539e-02 6.00347333e-02 5.33098541e-02
      4.25913744e-02 6.85330778e-02 3.13451380e-01 5.72681129e-02
      1.94394942e-02 1.58642493e-02 3.65404487e-02 3.13451380e-01
      2.66690642e-01 3.13451380e-01 1.65125728e-01 2.57554740e-01
      1.19155258e-01 9.12514776e-02 1.56757459e-01 2.21678302e-01
      3.51695031e-01 1.16010725e-01 2.51759570e-02 4.24735807e-02
      9.28931013e-02 2.57767767e-01 1.00045770e-01 3.33412550e-02
      3.38848941e-02 6.97487146e-02 5.22441752e-02 6.73536882e-02
      9.09728035e-02 2.00360700e-01 6.99926391e-02 4.92138751e-02
      1.07480653e-01 2.02534586e-01 3.51695031e-01 2.41310030e-01
      4.63758223e-02 8.67700949e-02 5.66763170e-02 1.07877731e-01
      9.64035392e-02 5.27648814e-02 9.22735855e-02 2.58487374e-01
      2.66442567e-01 2.90283114e-01 2.62467951e-01 1.86739683e-01
      3.02763164e-01 7.14925900e-02 1.12545732e-02 7.34986877e-03
      1.29819401e-02 5.41180149e-02 1.43425152e-01 1.66060284e-01
      3.02763164e-01 3.02763164e-01 2.78336965e-02 8.10608361e-03 0.
      5.25843003e-04 7.44151697e-03 2.33209562e-02 8.31747875e-02
      3.02763164e-01 1.67024091e-01 7.06985891e-02 3.48664373e-02
      6.72761798e-02 2.05349684e-01 3.02763164e-01 3.02763164e-01
      3.02763164e-01 2.57705241e-01 2.63638437e-01 4.23795842e-02
      4.51349234e-03 9.26970877e-03 2.07683593e-02 6.06702715e-02
      7.57105649e-02 1.39280170e-01 2.06285089e-01 3.55780184e-01
      1.93971880e-02 6.36224821e-03 0. 0. 4.42476070e-04 3.75524652e-03
      9.89720970e-02 3.55780184e-01 2.74086535e-01 8.32153298e-03 0. 0.
      0. 0. 1.55808087e-02 1.96817502e-01 3.55780184e-01 3.11804146e-01
      6.58271313e-02 4.92899679e-03 0. 5.03253104e-05 7.83693045e-03
      2.20355801e-02 1.67864323e-01 3.38287205e-01 2.30605409e-01
      2.64057983e-02 3.83366458e-03 0. 9.40514146e-04 2.11119279e-02
      7.21295178e-02 2.47881129e-01 3.55780184e-01 1.89318687e-01
      9.49264783e-03 3.71505303e-04 0. 0. 9.96503793e-03 4.60766181e-02
      2.21205682e-01 3.46165508e-01 2.09874257e-01 2.86679994e-02
      5.57257934e-03 0. 0. 2.68276464e-02 1.19341820e-01 2.95331717e-01
      3.46165508e-01 1.70407742e-01 2.66874093e-03 8.57319901e-05 0.
      1.13274041e-03 2.89814938e-02 1.15869492e-01 2.75326669e-01
      3.46165508e-01 1.45951912e-01 9.91136674e-03 1.28597987e-03 0.
      8.21537245e-03 3.33103947e-02 1.47809610e-01 3.45695972e-01
      3.46165508e-01 1.66129217e-01 1.69858877e-02 3.55285825e-03 0.
      2.15554581e-04 8.04244820e-03 6.64180294e-02 2.67062426e-01
      3.56407315e-01 2.50886410e-01 2.95489952e-02 8.48566240e-04 0.
      3.30566545e-04 1.38546526e-03 2.15985682e-02 3.00321668e-01
      3.56407315e-01 1.13196485e-01 1.38038704e-02 3.74096422e-03
      1.22753787e-03 2.08932124e-02 3.71651687e-02 8.90387073e-02
      2.83209383e-01 3.56407315e-01 2.29599476e-01 4.14304696e-02
      1.43820578e-02 5.31933131e-03 1.72448996e-02 4.58638780e-02
      5.82629591e-02 2.58303612e-01 3.56407315e-01 3.32806677e-01
      9.43402052e-02 2.31516361e-03 0. 3.44170228e-04 2.12483318e-03
      1.37638645e-02 1.53073385e-01 3.32806677e-01 3.32806677e-01
      1.54006243e-01 2.83386800e-02 7.14580044e-02 8.98537710e-02
      1.22921757e-01 7.29896352e-02 1.08264767e-01 2.94488341e-01
      2.90015101e-01 6.45322651e-02 1.01832235e-02 4.32875752e-03
      4.58827522e-03 2.26410571e-02 3.09016295e-02 1.13573708e-01
      2.72593081e-01 2.79419363e-01 1.27115056e-01 4.86684591e-02
      1.98513255e-01 2.98926651e-01 1.17656484e-01 1.47873357e-01
      4.46986519e-02 1.87391937e-01 1.00017369e-01 4.75789197e-02
      2.13354025e-02 8.52817893e-02 1.17356516e-01 9.28093046e-02
      4.56301235e-02 3.78364250e-02 6.17840588e-02 1.69142466e-02
      2.52743214e-02 7.44212568e-02 1.78793833e-01 4.01027679e-01
      2.26069927e-01 3.00109982e-01 6.14251755e-02 2.73529161e-02
      4.19834256e-02 5.90390824e-02 8.58598724e-02 1.75722942e-01
      2.26704568e-01 6.46585524e-02 6.26525283e-02 1.55237569e-02
      3.40182595e-02 1.09062521e-02 9.56523269e-02 4.01027679e-01
      4.01027679e-01 4.01027679e-01 6.05420731e-02 2.93800291e-02
      1.57191586e-02 2.05215830e-02 2.20709182e-02 2.17452198e-02
      1.32415876e-01 2.05831334e-01 2.79614955e-01 1.88450769e-01
      3.84178646e-02 3.79971825e-02 1.73105001e-02 2.59933230e-02
      4.13583405e-02 5.82045540e-02 1.24734461e-01 2.59263366e-01
      2.79614955e-01 2.25498423e-01 1.35491401e-01 5.88446744e-02
      2.54222061e-02 5.08752204e-02 1.30582094e-01 1.72823071e-01
      2.79614955e-01 2.79614955e-01 2.10262641e-01 1.19312994e-01
      3.12315002e-02 2.81242747e-02 1.19400769e-01 2.08899796e-01
      2.03073665e-01 2.79614955e-01 2.79614955e-01 2.24683806e-01
      8.31502676e-02 1.96750164e-02 4.89665009e-02 5.10121100e-02
      7.03848526e-02 1.58688366e-01 3.10707420e-01 3.10707420e-01
      3.10707420e-01 2.10029840e-01 1.07861154e-01 1.00738682e-01
      1.74478795e-02 9.25783627e-03 2.23216414e-02 3.14610153e-02
      3.55391838e-02 3.54773849e-02 1.01543143e-01 1.15873076e-01
      4.96763848e-02 1.86430797e-01 3.10707420e-01 3.10707420e-01
      3.10707420e-01 3.10707420e-01 2.90136665e-01 1.27049401e-01
      6.46476895e-02 7.21903443e-02 2.00723242e-02 1.59911308e-02
      5.64923212e-02 5.51055297e-02 1.41309034e-02 3.08052022e-02
      1.30887821e-01 1.40892878e-01 2.69227117e-01 5.03276400e-02
      9.02381074e-03 3.59177851e-04 8.24792427e-04 1.86097454e-02
      6.38251007e-02 1.95776477e-01 3.26092005e-01 2.56476223e-01
      4.51782793e-02 5.67326276e-03 2.79360567e-04 1.27780484e-03
      4.41123992e-02 1.27168462e-01 2.36112222e-01 3.37311327e-01
      2.17550710e-01 4.03857268e-02 1.38680376e-02 5.67676127e-03
      3.16991052e-03 2.16659773e-02 1.15770087e-01 2.68527359e-01
      3.37311327e-01 2.21305102e-01 5.38878962e-02 1.66734327e-02
      8.52680206e-03 1.82910438e-03 5.75361326e-02 1.60052583e-01
      2.70285547e-01 3.37311327e-01 1.48393184e-01 1.63243189e-02
      2.76100793e-04 0. 2.21141521e-03 5.78444749e-02 2.08911583e-01
      2.94514209e-01 2.43080586e-01 1.17006503e-01 3.72279156e-03
      1.23464281e-03 0. 1.75939742e-02 6.59554228e-02 2.55924523e-01
      2.93504894e-01 2.80991018e-01 8.41372088e-02 2.75322068e-02
      8.75028130e-03 2.57605081e-03 5.45219239e-03 9.74218249e-02
      3.15040439e-01 3.31238687e-01 1.72850266e-01 5.60923629e-02
      4.90972307e-03 5.35011897e-03 0. 2.09966116e-02 7.36502632e-02
      3.31238687e-01 3.31238687e-01 2.18694419e-01 1.30075827e-01
      1.61670577e-02 4.71414067e-03 1.75925740e-03 3.97614166e-02
      7.00321048e-02 1.50380835e-01 2.68300831e-01 3.19368541e-01
      2.44243160e-01 4.93370928e-02 2.11255047e-02 7.62344897e-03
      2.69903876e-02 6.28357083e-02 8.33249837e-02 3.32004130e-01
      3.10187668e-01 7.88870230e-02 1.95537023e-02 1.90896727e-02
      1.17283824e-04 4.71620113e-02 2.78767291e-02 1.69438824e-01
      2.88239181e-01 3.34733069e-01 2.04763934e-01 4.16494086e-02
      3.36270891e-02 5.08229947e-04 2.44432651e-02 3.37101705e-02
      9.75068957e-02 2.96935260e-01 3.42949629e-01 1.70838341e-01
      3.88837047e-02 1.07123014e-02 4.32458334e-03 7.89711531e-03
      2.08148826e-02 3.38999480e-02 1.26205429e-01 1.92829266e-01
      1.90209448e-01 1.00712352e-01 5.74106798e-02 3.01005155e-01
      3.41410398e-01 1.63756728e-01 6.87587559e-02 5.24753332e-02
      1.61238298e-01 1.86119840e-01 1.56676974e-02 7.50949280e-03
      9.88815352e-03 3.11006978e-02 2.87231468e-02 3.70675996e-02
      1.10289901e-01 2.54849076e-01 2.32341424e-01 7.28191882e-02
      2.99387835e-02 3.41410398e-01 3.41410398e-01 3.41410398e-01
      5.20100929e-02 1.56244412e-01 2.04014853e-01 3.66009921e-02
      4.40078825e-02 7.17904642e-02 1.76705569e-01 2.57878989e-01
      6.80118427e-02 2.51614004e-02 9.77994874e-03 2.68620029e-02
      1.56246182e-02 7.84037709e-02 3.35886121e-01 3.35886121e-01
      3.35886121e-01 4.16333377e-02 1.61925312e-02 7.22853467e-03
      1.95725914e-02 6.88726604e-02 5.72930127e-02 8.03185552e-02
      3.35886121e-01 3.35886121e-01 1.43743500e-01 2.33228561e-02
      5.71542047e-02 3.71566229e-02 3.13513726e-02 4.89313304e-02
      1.89865991e-01 3.35886121e-01 3.35886121e-01 6.98341951e-02
      1.59123652e-02 2.34439429e-02 2.04102453e-02 4.98921126e-02
      6.43164515e-02 6.94680214e-02 4.33563329e-02 2.65737027e-01
      2.65737027e-01 2.65737027e-01 2.27806449e-01 7.00099766e-02
      6.30213097e-02 1.39804676e-01 2.24707246e-01 1.10436179e-01
      2.65737027e-01 2.65737027e-01 2.65737027e-01 1.43129721e-01
      4.46377955e-02 1.84357669e-02 6.49002753e-03 8.59632157e-03
      1.75157981e-03 1.95570976e-01 2.63327688e-01 2.65737027e-01
      1.18654147e-01 4.32413071e-02 6.69839382e-02 3.82970013e-02
      8.60367268e-02 2.38810703e-02 1.49653986e-01 2.32047379e-01
      2.65737027e-01 1.66232839e-01 1.08639412e-01 1.19169191e-01
      2.55219638e-01 3.05875778e-01 3.05875778e-01 3.05875778e-01
      1.99336007e-01 1.31058410e-01 1.62152156e-01 1.21137895e-01
      9.27310959e-02 5.14608063e-02 4.25558202e-02 9.78932306e-02
      7.03699663e-02 2.34479532e-02 5.92204742e-02 1.61010414e-01
      1.62949100e-01 1.67826518e-01 1.19675137e-01 3.05875778e-01
      1.48818791e-01 1.22039668e-01 1.30243167e-01 2.95083493e-01
      2.14775920e-01 2.37175927e-01 7.01027513e-02 6.00398555e-02
      3.98720242e-02 4.20399420e-02 3.97103354e-02 2.67870892e-02
      8.66151676e-02 1.57396764e-01 1.70192808e-01 1.51442215e-01
      7.88562000e-02 9.05376952e-03 3.73341795e-03 9.44713037e-03
      1.86228473e-02 1.10773928e-01 2.76866496e-01 3.24048400e-01
      1.18876688e-01 2.95744576e-02 1.47296963e-02 7.21938163e-03
      6.52253255e-03 4.79494706e-02 1.58153042e-01 3.44860256e-01
      3.44860256e-01 1.26359642e-01 1.18239231e-01 2.03004796e-02
      6.52260659e-03 2.95973569e-02 8.76490027e-03 8.47639665e-02
      2.55449861e-01 3.14075172e-01 1.17615961e-01 3.03583778e-02
      9.92068462e-03 7.69854756e-03 3.22026350e-02 4.45971936e-02
      1.84975550e-01 3.44860256e-01 3.44860256e-01 4.51110676e-02
      1.01385517e-02 7.13142846e-03 2.48892908e-03 8.72657821e-03
      8.23706761e-02 2.51363844e-01 3.40201229e-01 1.38599277e-01
      5.30335084e-02 1.67804805e-03 1.90163439e-03 0. 9.76898894e-03
      5.26229031e-02 2.92560399e-01 3.40201229e-01 2.49130115e-01
      6.24509677e-02 5.95723651e-03 3.01075424e-03 4.54397500e-03
      2.15856861e-02 6.78716972e-02 2.04081282e-01 3.40201229e-01
      2.26987079e-01 8.79716501e-02 7.98255787e-04 1.19506882e-03
      7.14839064e-03 2.17130762e-02 5.98758347e-02 2.43037313e-01
      3.40201229e-01 3.40201229e-01 8.66914019e-02 1.87866576e-02
      1.40213724e-02 0. 1.94561686e-02 1.16140628e-02 1.78797007e-01
      2.86138445e-01 3.12128842e-01 1.97461322e-01 6.40946105e-02
      3.25766429e-02 1.08545995e-03 1.63116250e-02 2.85677891e-02
      1.20278686e-01 1.67466432e-01 3.36688161e-01 1.15423620e-01
      7.74321100e-03 1.48778502e-03 5.06481435e-03 1.83836520e-02
      3.36529240e-02 2.72968858e-01 3.30404371e-01 3.36688161e-01
      1.99075520e-01 4.57447320e-02 1.66802183e-02 7.12876394e-03
      3.27129401e-02 2.12571919e-02 2.00446814e-01 2.58154243e-01
      3.36688161e-01 1.06321149e-01 1.39605999e-02 8.65113828e-03
      2.06800327e-02 6.15447126e-02 3.12105976e-02 3.72913890e-02
      4.32320796e-02 1.57660589e-01 1.01156197e-01 5.92579246e-02
      1.01872936e-01 3.84460956e-01 3.84460956e-01 1.99013352e-01
      1.05515189e-01 1.08887576e-01 1.13035269e-01 9.12426263e-02
      1.60990190e-02 1.24427546e-02 6.70374110e-02 1.83114320e-01
      4.96798456e-02 4.25327197e-02 6.15097433e-02 1.28980562e-01
      9.42471027e-02 1.67027950e-01 2.29071081e-01 3.84460956e-01
      3.84460956e-01 2.53317207e-01 1.66854322e-01 6.24167472e-02
      6.26269653e-02 3.85249481e-02 4.81390394e-02 1.53564662e-01
      3.17025274e-01 3.17025274e-01 7.85741135e-02 2.85223778e-02
      4.83171083e-02 2.54881363e-02 1.49507001e-02 2.85834838e-02
      1.92085937e-01 3.17025274e-01 3.17025274e-01 3.67606096e-02
      5.22814086e-03 1.65737923e-02 1.07622072e-02 2.81289183e-02
      6.69496283e-02 2.49895573e-01 3.17025274e-01 3.17025274e-01
      5.53887673e-02 5.18731140e-02 1.68670788e-02 9.26830526e-03
      6.22524694e-03 1.17657976e-02 2.03490347e-01 3.17025274e-01
      3.17025274e-01 1.43081006e-02 7.92764872e-03 3.29183345e-03
      3.98659986e-03 8.45800340e-03 8.26151052e-04 3.02887941e-03
      3.90837109e-03 1.33076668e-01 2.59307504e-01 3.72859061e-01
      1.14158437e-01 3.58972922e-02 7.76190013e-02 2.43587140e-02
      4.12303731e-02 8.70483182e-03 1.42076924e-01 2.82388687e-01
      3.72859061e-01 3.72859061e-01 2.07900643e-01 1.22117938e-03
      2.33828920e-04 1.26710540e-04 8.13455670e-04 1.84835177e-02
      2.58959681e-02 1.08037457e-01 3.67274098e-02 9.16974619e-03
      2.51291133e-02 4.62254137e-03 2.60523753e-03 6.32687705e-04
      2.35074181e-02 4.55966331e-02 3.72859061e-01 3.72859061e-01
      1.81194246e-01 6.84939846e-02 2.00425610e-02 2.99000908e-02
      8.00801627e-03 2.55888999e-02 3.61034982e-02 3.41336191e-01
      3.12618077e-01 2.27462679e-01 7.14448988e-02 1.88554469e-02
      1.29850367e-02 5.15760016e-03 1.43182073e-02 1.20936865e-02
      5.73324151e-02 1.62096784e-01 2.53462642e-01 6.06128909e-02
      7.17814220e-03 4.63904021e-03 6.42134110e-04 5.18455030e-03
      1.15023730e-02 3.41336191e-01 3.41336191e-01 3.41336191e-01
      1.73013985e-01 1.28267417e-02 7.71373883e-03 2.71629868e-03
      6.40715519e-03 7.45634828e-03 7.78964013e-02 3.41336191e-01
      3.41336191e-01 8.03329274e-02 3.02678999e-02 1.72756445e-02
      6.68770587e-03 2.20201891e-02 4.91025671e-03 1.68423317e-02
      1.01101220e-01 2.12077931e-01 1.23065278e-01 2.81392951e-02
      2.76312996e-02 6.69484818e-03 1.89083088e-02 1.37077169e-02
      4.54021730e-02 6.60184547e-02 2.04233423e-01 3.88643801e-01
      1.99661124e-02 1.59096252e-02 3.68145597e-03 1.31425299e-02
      4.38887253e-03 5.37191145e-03 2.95351177e-01 4.55304831e-01
      4.55304831e-01 3.04197948e-02 4.20512185e-02 3.65479407e-03
      1.03234211e-02 2.60806922e-03 1.51379751e-02 4.69799861e-02
      4.55304831e-01 1.11138634e-01 1.55908223e-02 1.90553498e-02
      1.21257436e-02 1.83860082e-02 2.78539471e-02 4.54792194e-02
      7.74889365e-02 1.69247612e-01 1.21703364e-01 6.08917093e-03
      7.72467395e-03 2.08053682e-02 3.06941625e-02 4.46471386e-02
      5.40008470e-02 7.92349875e-02 1.82130799e-01 4.68775243e-01
      2.00194959e-02 3.12698819e-02 1.27580920e-02 1.14171430e-02
      9.78268869e-03 1.42099941e-02 1.90108474e-02 4.68775243e-01
      4.68775243e-01 9.36613232e-03 1.21895233e-02 2.45085061e-02
      2.37785764e-02 2.83377636e-02 1.02705956e-02 9.79858823e-03
      4.68775243e-01 8.72098505e-02 5.37844561e-03 3.45618348e-03
      1.08388094e-02 2.44507622e-02 3.07109617e-02 5.78047186e-02
      4.89886589e-02 1.67689860e-01 1.24566421e-01 2.05905028e-02
      7.70434085e-03 5.22791874e-03 2.94547360e-02 1.37282861e-02
      4.23651412e-02 5.27193323e-02 1.95304945e-01 4.71472323e-01
      8.49138480e-03 4.85943723e-03 1.23739056e-02 2.37300247e-02
      2.48997584e-02 1.24238618e-02 5.17084356e-03 4.71472323e-01
      4.71472323e-01 2.76931040e-02 7.99903832e-03 4.47207596e-03
      2.37137023e-02 7.99764507e-03 6.82160631e-03 6.46320032e-03
      4.71472323e-01 6.84956759e-02 1.01905540e-02 1.17341829e-02
      6.03307709e-02 9.06437710e-02 1.53917996e-02 1.63660850e-02
      1.94790922e-02 9.08524767e-02 5.17150424e-02 1.03325456e-01
      1.65279433e-01 3.21837306e-01 3.21837306e-01 6.47828355e-02
      4.40689400e-02 1.57478936e-02 6.21839128e-02 3.21837306e-01
      2.18640584e-02 1.30889555e-02 4.94000837e-02 5.72453290e-02
      3.03163356e-03 3.36869881e-02 2.14615501e-02 3.21837306e-01
      3.21837306e-01 3.21837306e-01 2.04784542e-01 3.05183679e-01
      2.11664081e-01 9.14687850e-03 7.38549083e-02 3.86676751e-02
      3.21837306e-01 2.10482609e-02 9.21235532e-02 2.89236933e-01
      2.93786168e-01 2.93786168e-01 3.74458954e-02 2.49131992e-02
      5.91621920e-03 1.24142831e-02 2.00608326e-03 1.30698578e-02
      1.52779698e-01 2.93786168e-01 2.93786168e-01 9.44574084e-03
      3.22651840e-03 6.57217694e-04 1.42853637e-03 2.66218543e-01
      2.73583502e-01 2.93786168e-01 2.93786168e-01 2.34495834e-01
      1.08640194e-02 1.50146168e-02 9.84645449e-03 1.39278129e-01
      4.07503806e-02 5.79333268e-02 1.63545877e-01 2.93786168e-01
      1.48390904e-01 8.70813895e-03 1.03034523e-04 1.15803664e-03
      8.07686523e-03 4.50368179e-03 0. 0. 0. 1.20758209e-02
      9.15082451e-03 1.78172234e-02 2.11035293e-02 1.63347255e-02
      3.50697488e-02 0. 0. 0. 2.52393130e-02 4.37473021e-02
      5.68208814e-01 6.99137568e-01 4.19287086e-01 1.83378041e-04 0. 0.
      0. 1.37930852e-04 0. 3.91595531e-05 1.30864673e-05 1.83378041e-04
      3.13886837e-03 0. 0. 0. 3.48248403e-03 1.64537085e-03
      1.26778372e-02 1.33039821e-02 1.19157052e-02 3.69452313e-02
      1.48730027e-03 4.51823405e-04 0. 2.79102498e-03 6.34367811e-03
      1.93744630e-01 4.74114627e-01 4.53031808e-01 1.87153623e-01
      5.21745114e-03 3.26067931e-03 4.31439810e-04 1.51655125e-03
      1.71967281e-03 7.10675195e-02 4.74114627e-01 4.74114627e-01
      4.77948599e-03 1.94131644e-04 5.80915774e-04 0. 1.68343692e-03
      6.01692533e-04 7.70966010e-03 2.64767073e-02 2.57309061e-02
      2.38165688e-02 1.30064995e-03 3.89204058e-03 0. 1.09285652e-03
      1.38852120e-04 5.05764550e-03 5.80866709e-02 1.76539302e-01
      3.41019452e-01 3.84990685e-03 4.03786357e-03 2.86301685e-04
      1.21997634e-03 4.26250801e-04 2.25414149e-03 2.27668658e-01
      4.84180540e-01 4.84180540e-01 5.98148117e-03 1.07968263e-02
      4.19547112e-04 8.18490400e-04 0. 2.81479908e-03 3.60375047e-02
      4.84180540e-01 4.81615663e-02 4.19832475e-04 1.25629874e-03 0. 0.
      0. 2.77918909e-04 2.57865954e-02 1.87993929e-01 1.34062603e-01 0.
      0. 0. 0. 0. 0. 9.35237948e-03 2.56628633e-01 4.57882136e-01
      3.52876796e-03 6.84957486e-03 1.79346290e-03 2.73378217e-04
      6.16660458e-04 2.13551754e-03 8.30124877e-03 4.57882136e-01
      4.57882136e-01 1.89913169e-03 2.53700442e-03 4.11666138e-03
      2.01344513e-03 3.20070679e-03 7.07524654e-04 3.41372564e-03
      4.57882136e-01 1.20981239e-01 0. 0. 0. 0. 0. 0. 2.63162795e-03
      2.07738280e-01 1.60297722e-01 0. 0. 0. 0. 0. 0. 2.35222280e-03
      2.70393848e-01 4.54533100e-01 1.77105959e-03 8.76534847e-04
      2.12290161e-03 3.71640781e-03 3.26770614e-03 1.11488835e-03
      6.94521819e-04 4.54533100e-01 4.54533100e-01 5.53378696e-03
      1.28647231e-03 6.41048944e-04 2.09090253e-03 8.83380242e-04
      4.81612951e-04 0. 4.54533100e-01 1.64058179e-01 0. 0. 0. 0. 0. 0.
      5.86553069e-04 2.07002565e-01 2.05639392e-01 0. 0. 0. 0. 0. 0. 0.
      2.38605544e-01 4.28429604e-01 1.31814983e-02 3.22498870e-03
      1.11288782e-02 1.12123238e-02 0. 2.08994336e-02 1.63845364e-02
      4.28429604e-01 4.28429604e-01 2.65204817e-01 7.56920949e-02
      6.59435019e-02 4.79982831e-02 0. 4.59787585e-02 3.12481541e-02
      4.28429604e-01 1.60557687e-01 0. 0. 0. 0. 0. 0. 0. 2.20234975e-01
      2.23186687e-01 5.05124545e-03 0. 0. 0. 0. 0. 0. 2.24606007e-01
      3.56786728e-01 3.56786728e-01 2.88504243e-01 1.92187399e-01
      9.79755819e-02 0. 1.58717465e-02 1.30967153e-02 3.56786728e-01
      2.31465816e-01 2.32988313e-01 3.37036788e-01 3.39267790e-01
      6.98722005e-02 3.74003849e-03 8.66356713e-04 1.68082817e-03
      2.96599641e-02 3.10797304e-01 6.05602637e-02 1.94671359e-02
      8.37992760e-04 2.68484855e-05 0. 0. 0. 1.35621637e-01
      1.18273742e-01 7.50612766e-02 5.51583245e-02 7.40156602e-03
      2.62796762e-03 8.09589750e-04 3.93798487e-04 0. 1.58948228e-02</_>
    <_>
      8.76116976e-02 4.70162705e-02 8.41159075e-02 2.02202842e-01
      2.92626381e-01 4.22463603e-02 2.14964915e-02 1.93400960e-02
      5.32768406e-02 2.92626381e-01 1.12521656e-01 1.71517983e-01
      1.84036389e-01 2.92626381e-01 8.70602727e-02 3.32427509e-02
      5.36522940e-02 2.92626381e-01 1.87844876e-02 2.45928075e-02
      7.88534731e-02 2.65472233e-01 2.92626381e-01 1.28219232e-01
      7.07067773e-02 3.48745212e-02 9.74528026e-03 1.40640527e-01
      6.57127425e-02 1.78126097e-01 2.14630410e-01 2.92626381e-01
      2.38887131e-01 1.32746324e-01 1.73565075e-01 1.59270212e-01
      3.76209736e-01 6.21569641e-02 5.08395992e-02 2.05836147e-02
      3.08891404e-02 3.00042015e-02 1.07604628e-02 6.52275085e-02
      3.76209736e-01 3.76209736e-01 6.72623143e-02 2.14832588e-04
      4.92791478e-05 1.00951199e-03 2.40714755e-03 9.38869640e-03
      7.49194175e-02 3.76209736e-01 2.27576792e-01 2.65191961e-02
      5.05024642e-02 3.10617760e-02 4.68167365e-02 6.07843101e-02
      4.17897776e-02 2.34930575e-01 2.65411675e-01 2.58062989e-01
      1.55220730e-02 1.43221723e-05 3.28527676e-06 3.04625049e-04
      9.96171264e-04 1.58711039e-02 2.44708925e-01 3.00875574e-01
      4.05607074e-01 5.11586070e-02 0. 0. 1.91908819e-03 4.56422986e-03
      1.60185415e-02 5.73084541e-02 4.05607074e-01 4.05607074e-01
      1.43152643e-02 0. 0. 1.19018287e-03 2.07465002e-03 1.87211912e-02
      7.96389505e-02 4.05607074e-01 1.72199264e-01 1.18002612e-02 0. 0.
      7.79722643e-04 2.51462357e-03 1.66249368e-02 1.88640088e-01
      2.66578078e-01 1.64182082e-01 3.93852312e-03 0. 0. 3.54419375e-04
      1.14301092e-03 2.42713485e-02 2.24341273e-01 3.31931859e-01
      4.22292292e-01 1.02873836e-02 1.52893120e-03 0. 1.97075889e-03
      2.29204321e-04 1.81203112e-02 6.92730248e-02 4.22292292e-01
      4.22292292e-01 6.87653124e-02 7.73577811e-03 0. 9.70894471e-03
      4.56115743e-03 2.08269767e-02 5.71807101e-02 4.22292292e-01
      1.43202841e-01 1.55949988e-03 2.70336721e-04 0. 6.80953381e-04
      2.94691272e-04 2.94659436e-02 1.97410583e-01 2.84966618e-01
      1.46332622e-01 6.31425902e-03 2.03511165e-03 0. 4.86612646e-03
      4.39154822e-03 4.45906185e-02 2.16299355e-01 2.38291845e-01
      4.12636846e-01 8.18738490e-02 5.34751080e-03 2.73533934e-03
      3.88815291e-02 6.17695507e-03 1.37997586e-02 3.19764242e-02
      3.18757892e-01 4.12636846e-01 5.59836365e-02 8.04904848e-03
      1.23477027e-01 4.12636846e-01 7.41325319e-02 1.64661519e-02
      1.34680852e-01 2.44535327e-01 9.36284438e-02 6.54319720e-03
      2.05432554e-03 5.43251820e-03 5.11679500e-02 6.09074673e-03
      3.16803344e-02 1.28249824e-01 1.29722282e-01 5.35971336e-02
      7.17802299e-03 5.38659981e-03 2.04680637e-01 4.12636846e-01
      2.07473449e-02 2.97729410e-02 7.89531097e-02 5.80350123e-02
      1.81480572e-01 9.28942394e-03 8.18043016e-03 1.67124584e-01
      4.42900002e-01 1.04480512e-01 5.91770560e-02 8.91053304e-02
      6.26621023e-02 9.79440939e-03 9.48117173e-04 2.99350335e-03
      7.43357837e-02 4.42900002e-01 4.38198745e-02 6.47722930e-02
      1.75780691e-02 6.26677007e-04 1.29288267e-02 9.52468067e-03
      6.50513964e-03 2.89277762e-01 4.42900002e-01 3.61017585e-02
      1.17707960e-02 2.46998761e-02 8.94267671e-03 3.86863900e-03
      5.54190110e-03 2.31325813e-03 1.58417299e-01 4.42900002e-01
      1.57253873e-02 3.75920744e-03 7.06788059e-03 1.46759360e-03
      2.33283601e-04 9.31567774e-05 2.78760563e-04 5.31297289e-02
      5.09369969e-01 2.81053148e-02 5.73299713e-02 6.96203532e-03
      2.33283601e-04 6.54427633e-02 5.30805998e-03 1.32799800e-02
      7.46261654e-03 2.74109952e-02 6.55453914e-05 1.13892509e-02
      4.33882326e-03 4.53160405e-02 0. 0. 0. 1.40089720e-01
      5.09369969e-01 3.36426240e-03 0. 0. 0. 2.69923300e-01
      7.96208978e-02 1.81541771e-01 2.28870772e-02 5.09369969e-01
      7.34797791e-02 9.65681598e-02 1.92750692e-02 2.33844295e-01
      2.19668318e-02 3.31277661e-02 4.17794324e-02 2.50140250e-01
      3.28570694e-01 1.56256571e-01 6.02385476e-02 2.75534131e-02
      7.76079250e-03 3.81098464e-02 4.92739864e-02 6.88617304e-02
      1.52693644e-01 3.28570694e-01 2.69754857e-01 1.24524772e-01
      2.72281915e-01 1.47986770e-01 5.55593334e-02 6.83627278e-02
      3.55609246e-02 2.98851520e-01 3.28570694e-01 1.07688896e-01
      2.25843005e-02 5.48754111e-02 3.56204025e-02 8.47356468e-02
      9.41058770e-02 3.51992249e-02 1.21060289e-01 3.28570694e-01
      1.34810865e-01 4.74073142e-02 2.40751117e-01 1.69810846e-01
      1.62309594e-02 1.26101337e-02 2.14618351e-02 2.50615627e-02
      4.65154946e-02 7.94262663e-02 5.64970113e-02 3.48895311e-01
      3.48895311e-01 9.68330447e-03 0. 0. 0. 0. 0. 1.76550243e-02
      3.48895311e-01 3.48895311e-01 3.54885869e-02 2.51482278e-02
      1.11991195e-02 1.48266703e-02 6.92175701e-02 3.66215967e-02
      2.54225545e-02 3.48895311e-01 3.48895311e-01 7.15179415e-03
      1.95512432e-03 6.24576525e-04 1.02955019e-04 4.18199372e-04
      1.85952021e-03 5.92675526e-03 3.48895311e-01 3.48895311e-01
      6.84529543e-03 0. 0. 0. 0. 0. 1.12319645e-02 3.52779955e-01
      3.52779955e-01 1.53161241e-02 0. 0. 0. 0. 0. 1.85426921e-02
      3.52779955e-01 3.52779955e-01 1.03007897e-03 3.59565718e-04 0. 0.
      0. 0. 1.98474131e-03 3.52779955e-01 3.52779955e-01 5.17803710e-03
      0. 0. 0. 0. 0. 7.90281873e-03 3.52779955e-01 3.52779955e-01
      1.95641052e-02 3.89842317e-05 0. 0. 0. 8.70760705e-05
      2.90014464e-02 3.54903996e-01 3.54903996e-01 7.20521715e-03
      5.84763475e-04 0. 0. 3.60867271e-04 1.38506759e-03 4.89477739e-02
      3.54903996e-01 3.31730604e-01 7.61546148e-03 0. 0. 0. 0. 0.
      1.69631019e-02 3.54903996e-01 3.54903996e-01 3.78663815e-03 0. 0.
      0. 0. 0. 2.60195471e-02 3.54903996e-01 3.54903996e-01
      3.48396460e-03 1.94328008e-04 0. 1.14400787e-02 4.80828770e-02
      1.56748598e-03 2.56045088e-02 2.76431471e-01 1.42458096e-01
      5.31276641e-03 6.43706089e-03 5.06640784e-03 2.93166220e-01
      4.47746038e-01 1.87024623e-02 3.38045508e-02 1.58584356e-01
      9.53109711e-02 6.12215314e-04 0. 0. 1.66130178e-02 4.61129025e-02
      2.77297258e-05 1.45514701e-02 3.57062846e-01 1.96177095e-01
      9.99772805e-04 3.20122438e-03 6.29065372e-03 3.57371092e-01
      4.47746038e-01 1.29848430e-02 2.61611529e-02 2.33149409e-01
      1.46338433e-01 8.67859460e-03 1.90813672e-02 1.51627213e-02
      3.45828146e-01 3.96515310e-01 3.05811837e-02 1.30723417e-02
      2.52655987e-02 1.78243630e-02 5.63634373e-03 1.32180043e-02
      1.05405934e-02 2.04788923e-01 3.96515310e-01 1.29685896e-02
      2.73153023e-03 4.72605228e-03 2.56227585e-03 2.43175030e-03
      9.28152725e-03 1.97736677e-02 3.96515310e-01 3.96515310e-01
      1.78376269e-02 1.97567958e-02 3.52850519e-02 2.45472211e-02
      1.33020792e-03 6.00690441e-03 1.37624303e-02 2.38522261e-01
      3.77028435e-01 4.90493188e-03 3.87398037e-03 1.38112367e-03
      1.14416925e-03 1.05747931e-04 4.09281638e-05 1.22472207e-04
      9.33735818e-02 4.10509735e-01 2.12405343e-03 0. 0. 1.05747931e-04
      6.63189813e-02 3.05693280e-02 6.96611851e-02 2.90775467e-02
      5.91365635e-01 6.15164563e-02 3.51081342e-02 7.49061257e-03
      7.03660697e-02 3.10571893e-04 1.77355367e-04 5.30712889e-04
      8.90026912e-02 2.89633840e-01 6.61877217e-04 2.75330240e-04
      9.20107632e-05 3.10571893e-04 3.56231304e-03 9.06877802e-04
      3.94908618e-03 4.68228385e-02 5.91365635e-01 4.77768518e-02
      3.79943918e-03 4.30837274e-03 4.93779732e-03 2.22553667e-02
      3.73700224e-02 6.18881620e-02 3.03190082e-01 3.30529183e-01
      7.31333047e-02 1.61345601e-02 7.62291476e-02 3.79410274e-02
      3.90914977e-02 4.55230251e-02 5.09924293e-02 1.45000115e-01
      3.30529183e-01 6.27704039e-02 8.29900429e-02 2.05905870e-01
      9.02126804e-02 3.67924431e-03 6.68372512e-02 1.96799979e-01
      3.30529183e-01 3.30529183e-01 1.68970406e-01 1.88700091e-02
      5.98034300e-02 1.28214872e-02 5.82086574e-03 5.55548705e-02
      1.47586748e-01 1.72473878e-01 2.95065671e-01 1.35597333e-01
      1.18425697e-01 3.30529183e-01 3.70445512e-02 3.65927778e-02
      2.29271296e-02 1.14848772e-02 2.70784050e-02 7.38712624e-02
      4.35425788e-02 1.44309193e-01 3.67384434e-01 2.25247115e-01
      2.41795294e-02 1.52344424e-02 1.51027739e-03 2.51264049e-04
      6.49078609e-03 1.85513236e-02 6.15456887e-02 3.67384434e-01
      3.67384434e-01 7.59615144e-03 8.24402459e-03 2.40867282e-03
      2.25143954e-02 1.81413162e-02 4.44446988e-02 3.40904474e-01
      3.67384434e-01 4.98382412e-02 1.63428485e-02 1.33601278e-02
      6.76655502e-04 5.79840125e-05 8.74400791e-03 2.32635215e-02
      3.12350571e-01 3.67384434e-01 1.20692059e-01 6.32916810e-03
      3.55321891e-03 8.67272975e-05 0. 1.33719924e-03 2.25747307e-03
      1.76151786e-02 4.02338415e-01 3.41442436e-01 5.65944123e-04
      2.13386866e-05 6.74545736e-05 0. 0. 1.53944755e-04 2.39728633e-02
      4.02338415e-01 3.50962579e-01 9.22398549e-03 3.96776572e-03
      2.54032621e-03 2.47215875e-03 4.80671134e-03 9.65204090e-03
      1.29419446e-01 4.02338415e-01 1.53853804e-01 4.53336444e-03
      3.20080289e-04 4.60677175e-03 7.17130676e-03 5.93429385e-03
      6.39319280e-03 8.23169425e-02 4.02338415e-01 2.45311856e-01
      4.30490996e-04 0. 0. 0. 0. 2.05684114e-06 1.11282729e-02
      4.07404095e-01 2.87507594e-01 1.64802640e-03 0. 0. 0. 0. 0.
      1.60150956e-02 4.07404095e-01 3.45410556e-01 8.24112969e-04 0.
      1.03651767e-03 2.06777290e-03 1.52518507e-03 3.26900627e-03
      5.60828559e-02 4.07404095e-01 2.21180588e-01 3.24795365e-05 0. 0.
      0. 8.80606240e-05 6.16946025e-04 6.95352703e-02 4.07404095e-01
      2.69712418e-01 3.72086914e-04 0. 0. 1.53164743e-02 3.42954136e-02
      0. 1.33036021e-02 3.39988559e-01 1.87560022e-01 1.03066974e-04
      3.91415058e-04 2.71877833e-03 2.85872161e-01 3.70273411e-01
      1.71800852e-02 2.43014153e-02 2.26913452e-01 1.23447731e-01
      5.88818395e-04 0. 0. 2.12660693e-02 2.41472237e-02 0.
      2.03055609e-02 3.70273411e-01 2.03937203e-01 2.55154632e-03
      1.21621659e-03 6.88498234e-03 3.70273411e-01 3.70273411e-01
      1.75049510e-02 1.56968329e-02 2.80096084e-01 1.55198887e-01
      2.98990723e-04 1.13547000e-03 8.95672198e-03 3.68840486e-01
      4.08387810e-01 3.25420350e-02 2.57868320e-02 4.89935242e-02
      1.92316584e-02 1.35904862e-04 5.16122731e-04 4.95000323e-03
      1.86175928e-01 4.08359945e-01 1.11853043e-02 6.82047475e-03
      2.04688590e-03 1.35904862e-04 4.55876905e-03 3.79601377e-03
      1.99112985e-02 3.39864790e-01 4.08387810e-01 6.41366392e-02
      7.27405772e-02 9.01934505e-02 5.22956513e-02 2.47050170e-02
      2.12354516e-03 9.49230790e-03 8.38187337e-02 3.95057708e-01
      4.93789986e-02 8.78838077e-02 5.98981008e-02 7.97188580e-02
      2.85504124e-04 7.06305073e-05 2.11352613e-04 5.59454337e-02
      1.84104756e-01 2.61330581e-03 1.39720866e-03 6.27594476e-04
      2.85504124e-04 2.02643359e-03 7.13143556e-04 3.47297220e-03
      5.89066632e-02 6.54468715e-01 5.91387898e-02 2.75126775e-03
      1.87515409e-03 2.21183593e-03 1.03143126e-01 3.12329270e-04
      6.08752074e-04 2.28252038e-02 1.80482790e-01 1.59520805e-02
      4.20437045e-02 4.95510213e-02 1.54296771e-01 6.38400242e-02
      2.13770801e-03 1.22841820e-02 8.53412300e-02 6.54468715e-01
      7.67514855e-02 4.91409504e-04 1.64220852e-04 5.78753054e-02
      1.01633777e-03 2.05501355e-02 9.19310302e-02 2.52594441e-01
      3.33590239e-01 2.01529413e-01 1.49869099e-02 4.06677015e-02
      1.37294773e-02 2.18726182e-03 1.69831887e-02 5.79002649e-02
      9.13729966e-02 3.15269709e-01 1.55075744e-01 5.77091388e-02
      2.58022010e-01 4.92495187e-02 5.17600449e-03 1.58664417e-02
      2.92472422e-01 3.33590239e-01 3.33590239e-01 1.71034321e-01
      1.00675514e-02 5.88541217e-02 2.54909918e-02 5.99221140e-03
      8.67199153e-03 1.18594229e-01 1.39725611e-01 3.23053688e-01
      8.72821510e-02 4.10968065e-02 2.53328472e-01 9.41226110e-02
      1.48819329e-03 7.96629174e-04 0. 2.45333696e-03 4.88225836e-03
      1.96816027e-02 2.21779063e-01 4.21609610e-01 6.50008023e-02
      1.25625159e-03 5.62581408e-04 1.92169842e-04 0. 1.35107362e-03
      3.54853109e-03 3.04561019e-01 4.21609610e-01 5.75874746e-02
      2.72242469e-03 0. 0. 0. 1.70059182e-04 3.56747746e-03
      1.51271373e-01 4.21609610e-01 1.60673484e-01 0. 0. 0. 0. 0. 0.
      2.46993974e-01 4.21609610e-01 1.58503741e-01 2.48960871e-03
      5.81322529e-04 2.23144377e-03 2.71954481e-03 3.59455892e-03
      5.91883622e-03 2.23264471e-01 4.30271208e-01 6.74118325e-02
      2.94267409e-03 2.13565698e-04 4.62980755e-03 7.88893085e-03
      7.68671790e-03 9.35348775e-03 1.67397216e-01 4.30271208e-01
      1.16172947e-01 0. 0. 9.08962538e-05 1.81302996e-04 3.37454432e-04
      4.64917975e-04 2.36144215e-01 4.30271208e-01 1.25483945e-01
      3.68521782e-04 0. 2.63646391e-04 5.25928685e-04 1.09091622e-03
      1.89401361e-03 2.30137527e-01 4.30271208e-01 1.85672641e-01
      1.72330439e-03 0. 1.46926625e-03 2.93107331e-03 3.66556016e-03
      7.66177196e-03 1.46391526e-01 4.30293798e-01 1.30852535e-01
      1.24371634e-03 3.96373129e-04 0. 0. 2.13947310e-03 2.55657895e-03
      1.82342350e-01 4.30293798e-01 1.81182131e-01 1.99572719e-03 0.
      9.79510805e-05 1.95404908e-04 1.73939846e-03 1.78867974e-03
      1.77169532e-01 4.30293798e-01 2.02335387e-01 8.81495606e-03
      6.67264266e-03 8.79332423e-04 0. 5.01080276e-03 5.16325189e-03
      1.86939985e-01 4.30293798e-01 2.07130700e-01 6.82013063e-03
      3.47899576e-03 6.36770128e-05 3.06884237e-02 1.70368198e-02
      7.99743109e-04 6.02877066e-02 3.48073035e-01 1.80658311e-01
      2.80206781e-02 1.76549181e-02 9.52483434e-03 3.48073035e-01
      3.48073035e-01 2.19275132e-02 2.59880517e-02 3.38576168e-01
      1.63968161e-01 1.84362028e-02 1.54076032e-02 4.37585590e-03
      3.91007476e-02 1.87846795e-02 9.98769887e-03 9.23722535e-02
      3.48073035e-01 1.19172439e-01 4.08088900e-02 4.31826524e-02
      1.82019882e-02 3.48073035e-01 3.48073035e-01 4.73536961e-02
      6.15909658e-02 2.19066978e-01 7.04740733e-02 2.73715779e-02
      2.48645023e-02 3.35131176e-02 2.58086294e-01 2.99182296e-01
      5.36511503e-02 6.05387874e-02 8.06966722e-02 1.04763813e-01
      1.56449974e-01 3.79598327e-02 3.31256203e-02 8.71798918e-02
      2.30055928e-01 4.78953496e-02 1.02443621e-01 2.56815881e-01
      2.99182296e-01 2.94730347e-02 3.12551670e-02 3.39736231e-02
      2.99182296e-01 2.99182296e-01 5.91839179e-02 2.68626567e-02
      4.93011884e-02 7.33550042e-02 1.65311500e-01 4.58166264e-02
      3.69123779e-02 2.73125917e-01 2.99182296e-01 6.29673675e-02
      5.52202910e-02 2.70368338e-01 2.99182296e-01 2.33701810e-01
      1.08191157e-02 5.41479606e-03 1.45480121e-02 8.55087638e-02
      1.54231135e-02 6.52665496e-02 2.15285361e-01 3.28938156e-01
      1.07335620e-01 1.72194410e-02 1.42168272e-02 3.54968272e-02
      3.28938156e-01 4.12664041e-02 4.92086597e-02 8.75752792e-02
      2.23891661e-01 2.33765200e-01 1.36910249e-02 7.06488639e-03
      5.46128750e-02 3.28938156e-01 5.95684201e-02 1.04592830e-01
      2.83684820e-01 3.28938156e-01 9.37874243e-02 2.08099782e-02
      1.06862215e-02 4.31354865e-02 3.28938156e-01 1.01671286e-01
      1.08738519e-01 1.32748604e-01 2.52112389e-01 1.05744628e-02
      1.88561305e-02 1.90405399e-01 2.71902770e-01 3.87395203e-01
      1.68934256e-01 1.42404707e-02 5.86976707e-02 2.68133413e-02
      7.07169762e-03 1.01996930e-02 7.93230981e-02 9.52124223e-02
      2.73004711e-01 7.44276643e-02 2.68223062e-02 2.37003058e-01
      8.67517889e-02 9.23663285e-03 5.11111692e-03 1.05768993e-01
      3.87395203e-01 3.87395203e-01 1.10196866e-01 2.74054296e-02
      6.30155578e-02 4.23313081e-02 9.27146617e-03 2.50181276e-03
      2.23710425e-02 1.56319410e-01 3.22111100e-01 3.96954305e-02
      4.23884802e-02 2.58421034e-01 1.15990773e-01 5.26811462e-03 0. 0.
      0. 0. 0. 9.28862467e-02 3.86026025e-01 1.98685899e-01
      3.57524049e-03 0. 0. 0. 0. 0. 1.51417986e-01 3.86026025e-01
      2.44775191e-01 2.95521151e-02 0. 0. 0. 0. 0. 1.24410599e-01
      3.86026025e-01 2.89858967e-01 1.99253783e-02 0. 0. 0. 0. 0.
      1.38959512e-01 3.86026025e-01 3.86026025e-01 2.96315382e-04 0. 0.
      0. 0. 0. 1.32761389e-01 3.80728692e-01 1.96079075e-01
      2.18755216e-03 0. 0. 0. 0. 0. 1.41835332e-01 3.80728692e-01
      3.09076369e-01 3.78122437e-03 0. 0. 0. 0. 0. 8.25905055e-02
      3.80728692e-01 2.90368676e-01 1.08820731e-02 0. 0. 0. 0. 0.
      9.18372944e-02 3.80728692e-01 3.80728692e-01 1.22138171e-03 0. 0.
      0. 1.34120986e-04 0. 9.41656753e-02 3.81389737e-01 2.46311411e-01
      3.96832917e-03 2.96529359e-03 6.01739972e-04 0. 1.01710728e-03
      1.21606002e-03 6.60517067e-02 3.81389737e-01 2.78384209e-01
      4.52398602e-03 0. 0. 0. 0. 0. 4.83582877e-02 3.81389737e-01
      3.38609546e-01 1.40645099e-03 3.31685151e-05 4.01159959e-05 0. 0.
      0. 2.13462356e-02 3.81389737e-01 3.81389737e-01 1.12194354e-02
      6.28535729e-03 4.23194561e-03 1.99623704e-02 3.10350806e-02
      2.83636376e-02 3.38631868e-02 3.21864367e-01 1.80575132e-01
      1.39988232e-02 1.12184063e-02 1.44529333e-02 3.26664060e-01
      3.33460778e-01 1.33411467e-01 3.12421396e-02 1.13607220e-01
      8.42106715e-02 3.31577845e-03 3.30034905e-04 9.02191969e-04
      7.45351193e-03 8.32305178e-02 8.63254368e-02 1.12779625e-02
      3.33460778e-01 3.33460778e-01 4.95970715e-03 4.42633027e-04
      6.60208985e-03 1.84860513e-01 3.33460778e-01 3.33460778e-01
      1.00984406e-02 2.51886934e-01 2.06421643e-01 5.00268117e-03
      5.39633119e-03 1.78647134e-02 3.12945217e-01 3.12945217e-01
      7.92734474e-02 9.89260059e-03 1.15923369e-02 8.72971863e-03
      3.37334499e-02 6.62645232e-03 1.78585965e-02 2.18798131e-01
      3.12945217e-01 8.30776244e-02 4.19461578e-02 4.40583639e-02
      5.20744883e-02 6.33945391e-02 6.70210719e-02 5.22746108e-02
      2.52699941e-01 3.12945217e-01 1.77529410e-01 5.46457525e-03
      4.11876440e-02 1.02743201e-01 3.12945217e-01 1.65230319e-01
      2.05395475e-01 1.82087407e-01 3.12945217e-01 9.57891569e-02
      7.50068650e-02 7.30119050e-02 3.12945217e-01 4.26915474e-02
      5.87824220e-03 5.02106175e-03 3.14114988e-02 3.16497058e-01
      9.22754034e-02 1.00997865e-01 5.94206527e-02 7.16503188e-02
      2.01893188e-02 2.01644469e-02 1.15200551e-02 3.11278999e-02
      3.16497058e-01 1.11161768e-01 9.04709548e-02 3.15359905e-02
      3.21601555e-02 3.16497058e-01 1.28413826e-01 1.34985104e-01
      1.50096491e-02 2.18766302e-01 9.76420268e-02 2.30344251e-01
      8.10598359e-02 3.16497058e-01 3.16497058e-01 1.44377708e-01
      1.10180169e-01 4.43223193e-02 3.16497058e-01 1.83637872e-01
      2.43777633e-01 7.14547336e-02 2.36466199e-01 1.28308404e-02
      2.53080786e-03 1.17798351e-01 4.44912642e-01 4.44912642e-01
      5.49963936e-02 2.97131389e-02 4.00000885e-02 5.69282733e-02
      1.05965463e-02 3.78707959e-03 2.58498341e-02 1.48207039e-01
      2.00028569e-01 1.71405766e-02 5.04770130e-02 1.51146486e-01
      1.08512029e-01 2.99174357e-02 4.14114445e-03 1.19378053e-01
      4.26316917e-01 4.44912642e-01 6.89269230e-02 3.05851959e-02
      3.69711556e-02 6.32846430e-02 2.13150047e-02 8.81889556e-03
      1.24912411e-02 5.71124181e-02 2.28751764e-01 1.90029852e-02
      4.63268869e-02 7.37029612e-02 8.06262344e-02 3.96982133e-02
      2.82556610e-03 2.91572185e-04 0. 0. 4.12931154e-03 1.43289745e-01
      3.65841478e-01 3.09641391e-01 2.14537643e-02 0. 0. 0. 0. 0.
      1.21299982e-01 3.65841478e-01 3.65841478e-01 5.16862944e-02
      9.52787884e-03 5.01568953e-04 0. 1.68032013e-03 1.84835568e-02
      1.45768970e-01 3.65841478e-01 2.23899156e-01 6.38013259e-02
      1.60610559e-03 0. 0. 2.45932257e-03 7.76328519e-03 1.56187013e-01
      3.65841478e-01 3.01562667e-01 8.34736601e-03 0. 0. 0. 0. 0.
      4.80361953e-02 3.66783768e-01 3.00251961e-01 1.01970034e-02 0. 0.
      0. 0. 0. 5.09288162e-02 3.66783768e-01 3.66783768e-01
      3.19368355e-02 6.64216583e-04 9.68904700e-04 1.85736208e-05
      4.36526770e-03 3.98160750e-03 8.92911777e-02 3.66783768e-01
      2.84246176e-01 1.42074926e-02 7.85419834e-04 7.68293068e-03
      2.78604304e-04 4.08654707e-03 1.61703106e-03 6.18177727e-02
      3.66783768e-01 3.66783768e-01 6.96474407e-03 0. 0. 0. 0. 0.
      2.44394112e-02 3.52081597e-01 3.52081597e-01 8.14419147e-03 0. 0.
      0. 0. 0. 1.02024097e-02 3.52081597e-01 3.52081597e-01
      9.02618188e-03 6.23364351e-04 3.51226260e-03 1.47388084e-04
      4.70925501e-04 0. 4.46239635e-02 3.52081597e-01 3.52081597e-01
      1.58069301e-02 6.01177430e-03 4.06868290e-04 0. 4.11454850e-04
      1.75564527e-03 3.99927460e-02 3.52081597e-01 3.52081597e-01
      8.95357458e-04 0. 0. 1.72569859e-03 1.14471324e-01 6.13348782e-02
      7.61652458e-03 3.00547391e-01 2.18210712e-01 1.26075565e-05
      7.83859923e-06 2.22310494e-03 7.90235028e-02 4.50309604e-01
      2.98638821e-01 1.46536110e-02 1.68883592e-01 1.21424906e-01
      8.37509520e-03 2.20370665e-03 1.18770913e-04 4.38163849e-03
      1.99022084e-01 6.59717321e-02 2.23113932e-02 2.40444854e-01
      2.02931255e-01 1.02872886e-02 2.62580783e-04 3.20553454e-03
      9.35558528e-02 4.50309604e-01 3.40661764e-01 2.98488662e-02
      1.25059858e-01 1.05632000e-01 6.84449077e-02 8.86839628e-02
      3.49710099e-02 1.50490984e-01 3.63271892e-01 1.40469402e-01
      1.07295057e-02 3.40588950e-02 9.79397073e-02 3.63271892e-01
      1.88721508e-01 1.76473647e-01 9.63077992e-02 3.62382948e-01
      4.79682535e-02 2.41494067e-02 3.61107998e-02 3.25945944e-01
      1.16162943e-02 1.76181234e-02 8.87919869e-03 1.53953478e-01
      3.63271892e-01 2.04225138e-01 1.43405823e-02 1.11870021e-02
      1.75616499e-02 3.48985046e-02 2.81953085e-02 1.55675327e-02
      8.18294957e-02 3.63271892e-01 8.30149353e-02 8.17751233e-03
      1.58884632e-03 3.48762609e-02 3.63020718e-01 1.75732806e-01
      1.90455168e-01 6.45243796e-03 7.25694224e-02 2.93513890e-02
      1.07739717e-01 4.32488695e-02 3.63020718e-01 3.63020718e-01
      1.28503576e-01 9.90315154e-02 2.90124267e-02 3.63020718e-01
      2.12780714e-01 1.41775042e-01 6.73712194e-02 3.21169168e-01
      4.68614213e-02 1.31515777e-02 1.11824544e-02 3.05285887e-03
      1.09987050e-01 1.31725648e-03 1.20811455e-04 6.41805294e-04
      4.44191843e-02 3.61431316e-02 5.58650307e-03 1.47068035e-02
      2.45180950e-02 3.63020718e-01 1.72063395e-01 1.52802812e-02
      2.12666988e-02 3.74341160e-02 1.62924528e-01 3.19883064e-03
      1.23524658e-01 2.44737700e-01 3.41906786e-01 5.96039109e-02
      6.14735782e-02 3.37205753e-02 1.90665558e-01 3.19313854e-01
      2.68687736e-02 1.04682716e-02 1.87117569e-02 6.67592734e-02
      4.45943745e-03 1.72678865e-02 1.44328941e-02 2.49309495e-01
      3.41906786e-01 1.25463922e-02 5.50560616e-02 1.06154919e-01
      2.42335826e-01 4.32404056e-02 1.07589766e-01 4.88469079e-02
      3.41906786e-01 3.41906786e-01 6.97571784e-02 7.79430894e-03
      8.58335290e-03 1.41321160e-02 1.96403451e-03 1.70357283e-02
      2.75644939e-02 3.41906786e-01 3.75288665e-01 5.17324805e-02
      9.18978883e-04 1.22075769e-04 1.30002585e-03 3.48429964e-03
      1.77287310e-02 2.64047161e-02 1.74008459e-01 3.82136554e-01
      4.39503118e-02 3.28282273e-04 1.41392447e-04 2.35004118e-03
      3.26354452e-03 2.73112245e-02 4.60051708e-02 2.38090798e-01
      3.82136554e-01 1.24921747e-01 1.28191523e-02 1.83113629e-03
      3.33343050e-03 8.33636150e-04 5.72544616e-03 2.98157856e-02
      3.82136554e-01 3.82136554e-01 1.07835896e-01 2.13429797e-02
      2.12088693e-03 3.99163552e-03 2.22847075e-03 9.39207617e-03
      2.85615511e-02 3.82136554e-01 3.57332557e-01 7.16670649e-03
      1.27163646e-03 1.57285089e-04 4.88939695e-03 2.62542791e-03
      2.51226816e-02 5.16064577e-02 2.94936985e-01 3.57332557e-01
      1.75083312e-03 9.05132480e-03 4.38997988e-04 4.13980754e-03
      1.29776215e-03 1.88745093e-02 9.20746699e-02 3.57332557e-01
      3.57332557e-01 3.42045650e-02 1.04488283e-02 1.08125748e-03
      5.17163379e-03 3.22234258e-03 1.13606434e-02 2.40809247e-02
      3.57332557e-01 3.57332557e-01 2.07564924e-02 9.18144826e-03
      7.76783971e-04 5.34145301e-03 1.91612169e-03 9.83934756e-03
      2.54715439e-02 3.57332557e-01 3.48285556e-01 1.61046314e-03
      4.83553857e-03 2.21637878e-04 6.09586597e-04 8.90782303e-06
      1.35163311e-02 1.01511970e-01 3.48285556e-01 3.48285556e-01
      8.06956831e-03 7.00260571e-04 1.49876156e-04 7.67344958e-04
      2.33041681e-03 1.21094733e-02 1.09659962e-01 3.48285556e-01
      3.48285556e-01 1.53580988e-02 4.46169823e-03 2.64819391e-04
      5.11990255e-03 2.28260120e-04 7.02721998e-03 2.91137844e-02
      3.48285556e-01 3.48285556e-01 2.83532217e-02 1.29932107e-03
      6.49463269e-04 7.33147888e-03 3.05112195e-03 1.69076212e-02
      3.17211412e-02 3.48285556e-01 3.31945062e-01 1.71612408e-02
      7.43667269e-03 1.10982144e-02 9.34404358e-02 2.79416833e-02
      1.12358937e-02 7.80392438e-02 2.92339504e-01 2.37176389e-01
      5.13598286e-02 3.31947841e-02 8.19469988e-02 3.31945062e-01
      1.58701047e-01 6.84130518e-03 3.46496105e-02 1.52683273e-01
      3.31945062e-01 4.02788445e-02 1.03982408e-02 8.95209704e-03
      3.03963553e-02 9.01537482e-03 2.07267664e-02 2.71145552e-02
      3.31945062e-01 3.31945062e-01 1.17368259e-01 6.97963461e-02
      6.84038773e-02 3.04117918e-01 6.67335838e-02 1.99158639e-02
      2.85315625e-02 3.19641054e-01 4.48056832e-02 2.99004652e-02
      2.97527499e-02 1.64112628e-01 4.00695473e-01 2.89220423e-01
      3.19152256e-03 4.94351611e-03 3.23643535e-02 8.94410943e-04
      1.47641334e-03 7.74102984e-03 7.42336139e-02 4.00695473e-01
      1.35544494e-01 1.38209970e-03 9.33088813e-05 9.07242182e-04
      2.19961256e-01 1.51525289e-01 1.40781611e-01 1.60733864e-01
      4.00695473e-01 2.19353378e-01 1.26260715e-02 1.70988832e-02
      1.37805670e-01 2.22459193e-02 6.11895025e-02 6.53116778e-02
      8.56418535e-02 4.00695473e-01 1.17608324e-01 0. 1.39963324e-03
      1.19186202e-02 3.05367215e-03 5.86145143e-05 1.75396970e-04
      5.45866368e-03 4.94045228e-01 6.76899171e-03 0. 0. 3.05367215e-03
      1.62815884e-01 4.13627848e-02 1.12589926e-01 7.46400878e-02
      5.37661076e-01 2.87879974e-01 1.03106946e-01 1.45933807e-01
      2.10080460e-01 3.96308396e-03 0. 0. 5.44080650e-03 4.76328373e-01
      1.60684343e-02 0. 0. 3.96308396e-03 7.60096610e-02 9.54525825e-03
      2.59822942e-02 4.59060166e-03 1.01530723e-01 1.92759428e-02
      2.37939116e-02 3.80581357e-02 9.74935815e-02</_>
    <_>
      7.86708593e-02 1.78721678e-02 2.37462041e-03 1.56323612e-02
      1.76292248e-02 1.53313886e-04 3.54391086e-04 8.58075824e-03
      6.23338036e-02 1.88715994e-01 1.20702777e-02 6.13107462e-04
      3.76818446e-03 3.38663976e-03 1.97117814e-04 9.79758799e-04
      1.33077297e-02 9.97249037e-02 2.32675716e-01 9.32080597e-02
      5.01216315e-02 1.46693811e-01 4.33545500e-01 6.18451741e-03
      1.00621693e-02 6.36335090e-02 2.25604877e-01 4.33545500e-01
      1.18239962e-01 1.68298259e-01 4.97321934e-02 4.08966631e-01
      7.54745770e-03 1.83879528e-02 1.43096924e-01 4.33545500e-01
      1.01583429e-01 1.12464437e-02 1.19063836e-04 4.03979720e-05
      8.40000212e-05 1.51094891e-05 1.74740126e-04 2.06664926e-03
      5.45317568e-02 1.09686553e-01 2.78702229e-02 1.02609090e-04
      3.14206445e-05 0. 2.25060085e-05 1.09354842e-05 9.83240665e-04
      9.84109193e-02 4.87048298e-01 4.22169752e-02 3.55673917e-02
      1.82980928e-03 4.81872223e-02 5.32254227e-04 2.62110191e-03
      2.53898408e-02 4.87048298e-01 4.87048298e-01 6.54812679e-02
      1.53913652e-03 4.71309701e-04 0. 3.37590143e-04 1.64032273e-04
      6.24991348e-03 4.87048298e-01 9.32463855e-02 7.55369617e-03
      2.83951995e-05 3.11881172e-06 7.06760984e-05 5.31743717e-05
      4.47976381e-05 6.71928166e-04 9.26584750e-02 1.05022036e-01
      3.98147415e-04 1.27190637e-04 4.67821701e-05 2.27004100e-04
      2.41701691e-05 5.34575229e-05 1.55384210e-03 1.15219459e-01
      4.88116354e-01 1.88809540e-02 4.25927981e-04 4.67821701e-05
      1.06014160e-03 7.97615561e-04 6.71964604e-04 3.82716116e-03
      4.88116354e-01 4.88116354e-01 4.03566007e-03 1.90785970e-03
      7.01732642e-04 2.58563692e-03 3.62552528e-04 8.01862800e-04
      6.87601604e-03 4.88116354e-01 8.65773112e-02 1.01127743e-03
      8.28077973e-05 2.76476185e-05 1.62324082e-04 0. 9.06898822e-06
      4.68813028e-04 9.68194231e-02 1.13680542e-01 2.68103718e-03
      1.43788566e-06 0. 2.84793514e-05 0. 0. 0. 1.02869630e-01
      4.88305479e-01 1.19561553e-02 1.24211702e-03 4.14714275e-04
      1.31955359e-03 0. 1.36034840e-04 2.65853968e-03 4.88305479e-01
      4.88305479e-01 2.18403041e-02 2.15682830e-05 0. 7.61987781e-03 0.
      4.45535453e-03 1.61900930e-02 4.88305479e-01 1.28444955e-01
      2.33734678e-03 0. 1.05172083e-04 1.64649304e-04 2.02129013e-05
      1.54859605e-04 2.48121039e-04 1.21652395e-01 1.65525332e-01
      6.11128192e-03 0. 2.53726402e-03 3.69652407e-03 5.04319265e-04
      3.40691127e-04 5.45866322e-04 1.27106503e-01 4.10946280e-01
      1.59530435e-02 6.15946919e-05 1.77754071e-02 1.96853161e-01
      5.91529952e-03 1.08634382e-01 5.04328422e-02 4.10946280e-01
      4.10946280e-01 1.74995195e-02 2.66910327e-04 5.32744043e-02
      4.10946280e-01 1.65506247e-02 1.31484464e-01 4.67620492e-02
      4.10946280e-01 3.28544348e-01 3.48660611e-02 7.67321180e-05
      1.14369765e-02 3.16350125e-02 2.11450923e-02 3.64239328e-02
      4.08661030e-02 2.10661754e-01 1.47367463e-01 1.73999649e-02
      1.15098176e-03 6.63354527e-03 6.78474382e-02 4.37293649e-02
      7.52518103e-02 5.37655465e-02 1.03506275e-01 3.89856160e-01
      7.72385523e-02 5.53714402e-04 1.08397923e-01 3.89856160e-01
      1.23273082e-01 1.21862769e-01 1.04054965e-01 3.31036717e-01
      2.32608795e-01 3.91374752e-02 4.98758769e-03 6.92822561e-02
      3.89856160e-01 2.09101424e-01 1.71178326e-01 1.18284181e-01
      1.36114165e-01 6.96433410e-02 1.63552898e-03 4.68301028e-03
      1.45017926e-03 1.57353148e-01 6.91738799e-02 1.14154026e-01
      5.10448590e-02 6.96433410e-02 0. 0. 0. 0. 1.95019296e-03 0. 0. 0.
      0. 8.95414427e-02 7.08729215e-03 2.02930439e-02 3.63204330e-02
      8.59315395e-01 3.12835604e-01 2.63993651e-01 1.12298675e-01
      8.95414427e-02 0. 0. 0. 0. 1.01711890e-02 0. 0. 0. 0.
      3.45742926e-02 1.88237522e-02 2.80118454e-02 5.47085144e-02
      3.73201132e-01 7.01120077e-03 2.30754190e-03 9.56990942e-03
      3.60468030e-02 4.12443638e-01 4.98564057e-02 1.12237997e-01
      2.54543237e-02 4.12443638e-01 6.45036902e-03 3.41324741e-03
      2.50972528e-02 3.42668861e-01 8.20553862e-03 7.29032839e-03
      1.53043326e-02 4.88495678e-02 4.12443638e-01 2.85722800e-02
      2.79800792e-04 3.64137959e-04 7.75762834e-03 1.30720705e-01
      2.07646694e-02 5.22789173e-02 3.06043141e-02 4.12443638e-01
      2.06781160e-02 2.17622830e-04 1.05994230e-03 1.01574689e-01
      3.84633124e-01 2.22294480e-02 4.68580648e-02 2.84785847e-03
      1.98931545e-01 8.70360527e-04 8.09201505e-04 9.23935510e-03
      3.84633124e-01 3.84633124e-01 8.34612362e-03 4.75170993e-04
      1.45505415e-04 0. 1.04222760e-04 5.06409779e-05 1.51010801e-03
      3.84633124e-01 2.45965406e-01 7.99009204e-03 2.08988804e-02
      4.98003978e-03 3.84633124e-01 2.69135344e-03 0. 3.77201446e-04
      1.78079769e-01 2.94217259e-01 0. 0. 0. 0. 0. 0. 0. 1.86294213e-01
      4.44447994e-01 3.60491243e-03 1.82376054e-04 2.00314316e-05
      4.53936897e-04 3.41527164e-04 2.87725299e-04 1.21083751e-03
      4.44447994e-01 4.44447994e-01 1.59546430e-03 8.16917163e-04
      3.00471467e-04 1.05104665e-03 1.55239613e-04 3.43345775e-04
      1.81956135e-03 4.44447994e-01 2.75922298e-01 0. 0. 0. 0. 0. 0. 0.
      1.68159485e-01 2.59709388e-01 0. 0. 0. 0. 0. 0. 0. 1.83144420e-01
      4.51119572e-01 5.44503843e-03 5.91071439e-04 1.97345158e-04
      2.37497245e-03 0. 6.47332781e-05 1.87450717e-03 4.51119572e-01
      4.51119572e-01 9.88755561e-03 1.02634422e-05 0. 6.20657466e-02 0.
      1.00133158e-02 3.57011929e-02 4.51119572e-01 2.15645626e-01 0. 0.
      0. 5.65788802e-03 0. 0. 5.77745726e-04 1.66443586e-01
      1.98464796e-01 3.03467875e-03 0. 0. 1.70239359e-01 0.
      4.97179339e-03 1.89947151e-02 1.81910157e-01 3.86346787e-01
      5.67964278e-03 6.66301203e-05 1.85621250e-02 3.86346787e-01
      1.28768981e-02 7.69521073e-02 4.32320833e-02 3.86346787e-01
      1.71905875e-01 4.26913332e-03 2.88730545e-04 3.91182080e-02
      3.86346787e-01 2.60560289e-02 8.75530913e-02 3.14625576e-02
      1.64615795e-01 7.60836601e-02 8.68370384e-03 3.02864191e-05
      3.47834304e-02 3.86346787e-01 3.21600214e-02 2.21613646e-02
      2.31779329e-02 8.06424841e-02 2.12171562e-02 6.78782584e-03
      1.31241162e-04 5.37444912e-02 3.86346787e-01 6.39914721e-02
      2.35774647e-02 1.46116810e-02 2.83223707e-02 5.56623191e-02
      7.55453948e-03 3.37422010e-04 4.60105836e-02 3.97990912e-01
      6.18205406e-02 3.52391005e-02 1.79542918e-02 3.50126959e-02
      3.11529804e-02 3.86893912e-03 1.43809046e-03 3.11270487e-02
      3.97990912e-01 6.77702725e-02 1.98925473e-02 1.48051344e-02
      3.29418816e-02 1.29817864e-02 9.12254862e-03 2.85949055e-02
      4.29116264e-02 3.97990912e-01 1.25021458e-01 8.74825381e-03
      1.32663818e-02 3.54749300e-02 3.10622185e-01 5.01734018e-02
      1.42243251e-01 9.45751518e-02 3.97990912e-01 1.23126149e-01
      5.95022254e-02 1.30279511e-01 3.97990912e-01 3.65988873e-02
      3.32655967e-04 2.27363058e-03 1.09958034e-02 3.42201561e-01
      3.18487808e-02 1.24228010e-02 8.44397023e-03 4.87529859e-02
      9.13931429e-03 0. 1.97114234e-04 1.69287887e-04 3.01767816e-03
      2.88753305e-04 6.02533575e-04 2.78626056e-03 1.04279742e-02
      3.56554449e-01 6.67221397e-02 1.63320050e-01 1.61291733e-01
      3.56554449e-01 1.06640406e-01 3.56554449e-01 3.11415911e-01
      3.56554449e-01 1.18586347e-01 1.48498192e-02 3.06703001e-02
      2.24310514e-02 1.20074339e-01 6.39184564e-02 3.56554449e-01
      1.26362890e-01 1.50658071e-01 2.33584689e-03 2.13013263e-03
      3.01520200e-03 1.61226001e-02 4.97659922e-01 2.75883228e-02
      8.52246594e-05 1.17479598e-04 2.25555385e-03 1.07480038e-03
      1.16747082e-03 1.77970319e-03 1.64098740e-02 4.97659922e-01
      2.05682497e-02 3.87384789e-05 5.33998100e-05 1.00440311e-03
      1.51090056e-03 6.10326708e-04 7.06867198e-04 6.65000966e-03
      4.97659922e-01 2.78298352e-02 3.68114095e-04 5.68648800e-04
      1.16296241e-03 8.36308813e-04 4.15898889e-04 4.12306719e-04
      9.81130823e-03 4.97659922e-01 4.12584282e-02 2.25706754e-04
      2.77731859e-04 5.31254045e-04 0. 0. 0. 1.48395523e-02
      7.03800201e-01 1.42882848e-02 0. 0. 0. 0. 0. 0. 0. 0. 0. 0. 0. 0.
      0. 0. 0. 8.41578934e-03 7.03800201e-01 4.25398834e-02 0. 0. 0. 0.
      0. 0. 0. 0. 0. 0. 0. 0. 0. 0. 0. 0. 0. 0. 0. 0. 0. 0. 0. 0. 0. 0.
      0. 0. 0. 0. 0. 0. 0. 0. 0. 0. 0. 0. 0. 0. 0. 0. 0. 0. 0. 0. 0. 0.
      0. 0. 0. 0. 5.54536507e-02 0. 0. 0. 0. 2.17505987e-03
      5.39108142e-02 1.03393234e-02 2.42598448e-03 6.98455691e-01
      6.69091614e-03 0. 2.58581489e-02 1.20443627e-02 0. 0. 0. 0.
      6.35458902e-02 0. 0. 0. 0. 4.02771693e-04 2.53132172e-02
      2.27465127e-02 5.33716613e-03 6.98455691e-01 6.31376803e-02
      8.38022400e-03 3.31147984e-02 3.38189886e-03 6.90183078e-04
      1.71784330e-02 3.29648983e-03 3.89040262e-02 4.94425356e-01
      2.96595413e-02 1.51528235e-04 8.24555475e-03 3.82187869e-03
      5.81979402e-04 1.43796708e-02 2.78648827e-03 5.73720112e-02
      4.94425356e-01 5.51140495e-02 3.74949258e-03 7.54258782e-03
      3.01774265e-03 1.27806226e-04 8.15119036e-03 7.24382279e-03
      2.92235482e-02 4.94425356e-01 4.06471975e-02 2.73398915e-03
      1.05323419e-02 1.07313332e-03 7.26146682e-04 8.22952576e-03
      6.14718720e-03 4.75289784e-02 4.94425356e-01 5.10440841e-02
      4.46817838e-03 9.62114707e-03 1.45854207e-03 9.73656774e-03
      1.01011228e-02 2.46942546e-02 3.41438241e-02 3.82677287e-01
      1.00329556e-01 6.04453124e-03 7.50669371e-03 1.79036129e-02
      2.05937698e-01 7.06069693e-02 2.00723857e-01 1.72020957e-01
      3.82677287e-01 1.45384818e-01 4.97736558e-02 8.99077877e-02
      2.70636708e-01 2.79612863e-03 4.93526878e-03 8.56185053e-03
      4.44632880e-02 3.82677287e-01 8.85933787e-02 3.93905630e-03
      2.81496672e-03 1.71109289e-03 1.98563561e-02 3.72193865e-02
      2.01464444e-01 2.80033618e-01 3.82677287e-01 2.11863235e-01
      5.25349006e-03 5.30393142e-03 7.27372849e-03 2.35968694e-01
      7.38723502e-02 2.61824042e-01 2.39878625e-01 2.66883641e-01
      8.88376385e-02 2.66883641e-01 1.62403330e-01 2.66883641e-01
      5.54136671e-02 3.03136203e-02 1.05049677e-01 6.38489649e-02
      1.89825475e-01 7.11164698e-02 2.66883641e-01 1.14033788e-01
      5.21773510e-02 4.40405719e-02 4.67567779e-02 2.66883641e-01
      2.66883641e-01 2.66883641e-01 1.07704051e-01 6.63249940e-02
      3.21786664e-02 1.55041981e-02 4.38809134e-02 3.10516655e-02
      1.92810327e-01 1.86315179e-01 2.66883641e-01 9.12635997e-02
      1.39767855e-01 7.65045881e-02 1.42503399e-02 1.34781550e-03
      1.21596750e-04 1.30098837e-04 7.41963834e-03 4.96932715e-01
      2.71260645e-02 5.93481818e-04 3.42660816e-04 1.21915352e-03
      7.82695948e-04 9.45752472e-05 1.01187987e-04 6.57414319e-03
      4.96932715e-01 5.18055968e-02 4.20193683e-04 2.01474279e-04
      6.69891480e-04 1.08436542e-03 0. 0. 2.77902614e-02 4.96932715e-01
      1.82016175e-02 1.94908597e-03 2.97725841e-04 1.08436542e-03
      6.02790853e-04 0. 0. 4.08048518e-02 4.96932715e-01 3.11194509e-02
      1.15620962e-03 1.57829927e-04 6.02790853e-04 0. 0. 0.
      4.70921863e-03 7.02619970e-01 5.48506416e-02 0. 0. 0. 0. 0. 0. 0.
      0. 0. 0. 0. 0. 0. 0. 0. 4.13088277e-02 7.02619970e-01
      2.99886912e-02 0. 0. 0. 0. 0. 0. 0. 0. 0. 0. 0. 0. 0. 0. 0. 0. 0.
      0. 0. 0. 0. 0. 0. 0. 0. 0. 0. 0. 0. 0. 0. 0. 0. 0. 0. 0. 0. 0. 0.
      0. 0. 0. 0. 0. 0. 0. 0. 0. 0. 0. 0. 0. 5.71936741e-02 0. 0. 0. 0.
      1.52158951e-02 2.36505307e-02 5.23468899e-03 1.22825010e-03
      6.61463022e-01 4.13736440e-02 2.18614340e-02 4.83222529e-02
      1.18337525e-02 0. 0. 0. 0. 4.80545089e-02 0. 0. 0. 0.
      1.64169818e-01 5.83855845e-02 1.03438208e-02 3.21561657e-03
      6.61463022e-01 2.66761668e-02 2.10641697e-01 1.22686081e-01
      1.29047751e-01 4.03516740e-03 7.02956505e-03 1.55582849e-03
      1.56907290e-02 4.94954824e-01 3.74136157e-02 4.45498526e-03
      1.33863566e-02 3.03290109e-03 4.16936865e-03 7.24880863e-03
      1.96164683e-03 3.15783434e-02 4.94954824e-01 4.70638983e-02
      3.20460112e-03 1.06100645e-02 2.88941548e-03 2.50983071e-02
      1.73182078e-02 3.11875320e-03 1.28475828e-02 4.94954824e-01
      4.10863422e-02 2.75621433e-02 2.08472740e-02 1.46902064e-02
      1.39275491e-02 1.50484536e-02 3.33357416e-03 3.10857613e-02
      4.94954824e-01 6.23280294e-02 1.24376621e-02 1.13082090e-02
      5.28233452e-03 3.42412386e-03 5.01324935e-03 8.32791161e-03
      7.20908865e-02 4.07226771e-01 6.74850717e-02 3.11985891e-03
      1.39685767e-03 2.03021104e-03 5.67547919e-04 5.13605727e-03
      1.22015059e-01 2.73188144e-01 4.07226771e-01 2.02422723e-01
      5.19631803e-02 4.53320751e-03 3.54314601e-04 2.39627599e-03
      4.70373034e-03 4.49587964e-03 1.01095930e-01 4.07226771e-01
      6.91818073e-02 4.90491977e-03 1.38216163e-03 1.17857428e-03
      7.20143272e-03 5.56559255e-03 3.09304912e-02 1.95833266e-01
      4.07226771e-01 3.28476280e-01 1.62600562e-01 2.27810387e-02
      1.24643734e-02 2.96798609e-02 1.05428174e-02 1.84762225e-01
      3.20928514e-01 3.20928514e-01 1.82911798e-01 5.89058809e-02
      9.95299965e-03 8.76770820e-03 4.91025858e-02 1.79351456e-02
      1.22623116e-01 1.99223027e-01 3.17183971e-01 1.21705204e-01
      4.19829488e-02 2.04679873e-02 1.55343115e-02 1.62566975e-02
      2.13243999e-02 4.45016660e-02 1.76985219e-01 3.20928514e-01
      3.20928514e-01 2.52953351e-01 4.65478748e-02 2.00506784e-02
      1.79155748e-02 7.16805086e-02 8.81369039e-02 8.52519944e-02
      3.20928514e-01 3.14502776e-01 9.44693610e-02 7.21809715e-02
      1.29430545e-02 2.46016745e-04 0. 0. 3.02576497e-02 4.96661514e-01
      9.15650930e-03 2.14649644e-03 4.26967803e-04 2.71661789e-04
      7.70150218e-05 0. 0. 5.02402782e-02 4.96661514e-01 1.04461107e-02
      1.12622988e-03 1.77483555e-04 7.70150218e-05 8.07144213e-04
      1.92726802e-05 5.76709863e-05 2.37563252e-02 4.96661514e-01
      2.26961374e-02 2.94514466e-03 1.39544241e-03 1.19182013e-03
      1.30118420e-02 0. 0. 2.67776959e-02 4.96661514e-01 5.05902916e-02
      1.66314654e-03 4.24745143e-04 1.30118420e-02 0. 0. 0.
      5.11358455e-02 6.79369628e-01 6.26529939e-03 0. 0. 0. 0. 0. 0. 0.
      0. 0. 0. 0. 0. 1.13779657e-01 0. 0. 2.31143553e-02 6.79369628e-01
      6.93009347e-02 4.65541892e-03 1.55576319e-03 1.13779657e-01
      1.34537682e-01 0. 0. 0. 0. 0. 4.67363838e-03 1.56185182e-03
      1.34537682e-01 0. 0. 0. 0. 0. 0. 0. 0. 0. 0. 0. 0. 0. 0. 0. 0. 0.
      0. 4.98752445e-01 0. 0. 0. 0. 0. 1.55739498e-03 5.20455476e-04
      4.98752445e-01 4.98752445e-01 0. 0. 0. 0. 0. 0. 0. 4.98752445e-01
      0. 0. 0. 0. 1.20723583e-02 0. 0. 0. 0. 1.25302777e-01
      4.40190397e-02 2.71894746e-02 8.45247973e-03 4.08166945e-01
      4.82925773e-02 1.91783592e-01 7.04520643e-02 1.02724239e-01
      4.06045377e-01 0. 0. 0. 0. 0. 3.11194197e-03 1.03995902e-03
      4.06045377e-01 3.78448606e-01 4.04224955e-02 4.14318554e-02
      2.47257017e-02 3.25204462e-01 3.09025962e-02 1.89715996e-01
      3.14328969e-02 3.68053913e-01 1.83062069e-02 1.40411109e-02
      8.79678037e-03 1.17290821e-02 4.92430061e-01 4.37883921e-02
      3.72573398e-02 1.20399827e-02 1.11275492e-02 8.68995581e-03
      1.12262322e-02 7.50019681e-03 2.72462498e-02 4.92430061e-01
      6.86133802e-02 2.26620901e-02 6.01322111e-03 3.07021919e-03
      1.28937541e-02 1.20628467e-02 1.05876634e-02 3.36697288e-02
      4.92430061e-01 4.65105958e-02 3.79760228e-02 2.52010603e-03
      9.58883762e-03 3.88751505e-03 9.05242097e-03 7.23689562e-03
      5.36358915e-02 4.92430061e-01 7.43592456e-02 2.69110296e-02
      9.52538976e-04 1.31702400e-03 1.20636460e-03 2.43701204e-03
      4.42776363e-03 6.38368130e-02 3.67473036e-01 5.98283038e-02
      5.12740901e-03 2.21254118e-03 2.30527972e-03 4.01901565e-02
      4.24276255e-02 7.72720277e-02 1.24564059e-01 3.67473036e-01
      3.09813917e-01 1.45263970e-01 3.89644876e-02 4.08822261e-02
